%YAML:1.0
---
myHogDector_4: !!opencv-object-detector-hog
   winSize: [ 64, 128 ]
   blockSize: [ 16, 16 ]
   blockStride: [ 8, 8 ]
   cellSize: [ 8, 8 ]
   nbins: 9
   derivAperture: 1
   winSigma: 4.
   histogramNormType: 0
   L2HysThreshold: 2.0000000000000001e-01
   gammaCorrection: 1
   nlevels: 64
   signedGradient: 0
   SVMDetector: [ 2.83689201e-02, -5.63221164e-02, -1.45850740e-02,
       2.28883903e-02, 1.13781998e-02, -1.63029470e-02, -4.44654375e-03,
       -2.02254485e-02, 2.36163475e-02, 2.93171052e-02, -1.32073788e-02,
       1.23786610e-02, -2.77693034e-03, 1.08620981e-02, 1.51497712e-02,
       3.06434669e-02, 2.11240817e-02, 5.67187928e-03, 6.23945903e-04,
       -2.80268006e-02, 1.01181341e-03, 1.28339594e-02, 1.55572528e-02,
       -5.98605070e-03, -5.33283921e-03, -2.32103001e-02,
       -8.50973558e-03, -1.37865846e-03, -3.47302388e-03, 2.13044882e-02,
       3.93750854e-02, -1.84042566e-02, 2.67105158e-02, 1.43508110e-02,
       1.19856754e-02, -3.11207715e-02, -4.47983388e-03, 2.31481437e-03,
       1.85469771e-03, -3.38167837e-03, 2.14364957e-02, 8.12175684e-03,
       7.51647959e-03, 2.52211969e-02, 2.12840103e-02, 6.50493486e-04,
       -2.53874087e-03, 1.39641380e-02, 3.10545904e-03, -1.26859555e-02,
       1.37143098e-02, 1.11074336e-02, 2.23406646e-02, 2.13940553e-02,
       -1.72970649e-02, 6.99617201e-03, 4.41811373e-03, 1.29565243e-02,
       -5.75170088e-05, 3.06310249e-04, -1.90237090e-02, 5.00447163e-03,
       -2.66122650e-02, 4.09632958e-02, 4.58705192e-03, -7.17938785e-03,
       4.55630198e-03, -2.96030287e-03, 1.87783483e-02, 2.21009809e-03,
       -2.40541846e-02, 1.66425277e-02, 6.90849219e-03, 3.56194796e-04,
       1.78487971e-02, 1.63874682e-02, 2.09683832e-02, 1.40466122e-03,
       8.13052524e-03, -7.40206218e-04, -1.30082173e-02, 2.06236131e-02,
       -1.78218596e-02, -5.17640961e-03, 1.18426923e-02, 2.78190747e-02,
       -7.36793643e-03, 3.33155021e-02, 8.17912351e-03, 3.20978761e-02,
       1.18125677e-02, 1.43233044e-02, 7.50870444e-03, -4.89588128e-04,
       -1.96954869e-02, 1.14087835e-02, 5.50919119e-03, 1.50166824e-02,
       -4.09359159e-03, 1.17113860e-02, -2.66317576e-02, -3.32761486e-03,
       6.93648914e-03, -3.28539014e-02, -1.11306331e-03, 1.55353965e-02,
       5.53946709e-03, -1.02204839e-02, -6.31285785e-03, -2.11185776e-02,
       -3.07951700e-02, -1.32969962e-02, -2.91476166e-03,
       -7.90870748e-03, 1.05393808e-02, -6.12363452e-03, -5.48725249e-03,
       3.15032154e-03, 2.43969471e-03, -3.03118434e-02, -1.76531114e-02,
       -2.03173608e-02, 8.12819228e-03, -6.83306390e-03, -4.02286090e-03,
       7.84146320e-03, 9.06207319e-03, -1.08152954e-02, 1.61328737e-03,
       1.80397145e-02, -2.14697421e-03, 1.54667199e-02, -1.41923467e-03,
       -1.26709454e-02, -3.25466059e-02, 6.11763156e-04, -1.27259400e-02,
       -3.15218093e-03, -1.49445208e-02, -2.30976939e-02, 2.30561872e-03,
       -2.10082084e-02, -1.59313716e-02, 2.12186985e-02, -8.88171978e-03,
       2.41176244e-02, -2.13288032e-02, -7.68525898e-03, 2.22603679e-02,
       -2.32935441e-03, -6.87001692e-03, -6.05032081e-04,
       -8.75021704e-03, -1.76584721e-02, -2.72653306e-05,
       -2.14955006e-02, -2.48946790e-02, 4.29778546e-03, -1.69609711e-02,
       -2.05688085e-02, 2.29666978e-02, 3.75529341e-02, 1.27651996e-03,
       3.19506526e-02, -5.13392128e-03, -1.98501418e-03, 9.04292520e-03,
       1.30720651e-02, 1.49344895e-02, 2.52027772e-02, 4.22781426e-03,
       -1.77115146e-02, 1.18745258e-02, -2.91414522e-02, -2.08823979e-02,
       3.70522984e-03, -5.25408052e-03, -7.05065730e-04, -6.42341655e-03,
       -6.35372149e-03, -2.71336362e-02, -1.19462907e-02,
       -3.69007178e-02, -5.73448930e-03, 1.86353549e-02, -1.30746036e-03,
       -1.52145699e-02, 2.88250465e-02, 2.48302836e-02, -9.46092326e-03,
       -8.94587301e-03, -2.11049728e-02, -6.91794045e-03,
       -1.52903274e-02, -1.67619754e-02, -1.48916356e-02, 1.99455582e-02,
       7.04924227e-04, -9.34216753e-03, -2.00438723e-02, -1.42953256e-02,
       2.53225435e-02, 1.64768323e-02, 4.20891680e-02, 3.26317572e-03,
       8.69690441e-03, -1.67804640e-02, -1.65919866e-02, 1.53650635e-05,
       -6.57729572e-03, -6.67733885e-03, 5.68308029e-03, 5.89656202e-06,
       -5.42156957e-03, 1.17248744e-02, -2.85231741e-03, 8.18964560e-03,
       1.49204135e-02, -8.53668433e-03, 4.68130643e-03, 1.53590105e-02,
       -1.43598933e-02, -1.60923246e-02, 2.70900819e-02, 3.03936545e-02,
       -2.17490587e-02, -2.20083818e-02, -4.46243063e-02, 1.06460153e-04,
       2.28925534e-02, -1.92625336e-02, -2.62841880e-02, 2.36644763e-02,
       1.91705755e-03, 6.42862357e-03, 3.37948179e-04, 3.23422020e-03,
       1.69940647e-02, 2.52171382e-02, 6.68551680e-03, 3.88760073e-03,
       3.17777544e-02, 6.39825221e-03, -2.09773574e-02, -9.41059086e-03,
       5.51353348e-03, -2.75626639e-03, 1.24966595e-02, 1.44401891e-02,
       -2.89233271e-02, -8.72809440e-04, -9.59856808e-03,
       -1.40756480e-02, 4.61162534e-03, -1.51665108e-02, 1.99874565e-02,
       1.26835285e-02, 1.96301211e-02, -7.53238425e-03, 1.76185146e-02,
       -1.64519604e-02, 1.72174466e-03, -1.63946599e-02, -1.70480721e-02,
       -1.92762557e-02, -6.93702779e-04, 5.32892533e-03, -3.40326093e-02,
       1.15181794e-02, -3.35965008e-02, 7.73624750e-03, 1.09617598e-02,
       2.15148758e-02, 3.24424878e-02, -7.66002713e-03, 3.12515050e-02,
       7.16325780e-03, 4.90228198e-02, 1.67564414e-02, 1.32191542e-03,
       1.86162721e-02, -1.52651099e-02, -4.15167771e-03, -4.65118326e-02,
       -6.29054476e-03, -8.10999610e-03, 2.49713548e-02, -4.94495779e-03,
       -4.57096519e-03, -3.07085994e-03, -5.69704687e-03,
       -4.28555999e-04, 2.00159792e-02, 4.77395114e-03, -9.41564888e-03,
       1.43177351e-02, 5.45123871e-03, -8.27816129e-03, -3.68553912e-04,
       -7.33715598e-04, 1.76371774e-03, 1.01983054e-02, 3.99752799e-03,
       -1.39162960e-02, 9.18488763e-03, 5.73317427e-03, 9.86473518e-04,
       1.62677793e-03, -9.66666266e-04, 8.81823059e-03, -6.17497228e-03,
       -1.07041409e-03, 1.63817313e-02, 3.22941020e-02, 1.71153748e-04,
       -3.24729420e-02, -1.03933772e-03, 1.15316259e-02, -2.96355598e-03,
       1.37432860e-02, -1.04343109e-02, -8.09420459e-03, -6.68795407e-03,
       -1.59250591e-02, -2.41586640e-02, -9.84317530e-03,
       -2.19708253e-02, -1.29676340e-02, -2.34340299e-02,
       -4.73505165e-03, -2.82196682e-02, 1.95093208e-03, 4.09963122e-03,
       -9.58222809e-05, 1.50706957e-03, -4.46692146e-02, -3.09035573e-02,
       1.21373385e-02, 8.04400630e-03, -1.19537441e-02, -2.18714494e-02,
       1.15861725e-02, -2.00297427e-03, 1.30474046e-02, 9.98686627e-03,
       1.40643632e-02, -3.60712619e-03, 6.16648979e-03, 4.08865325e-03,
       -2.13503418e-03, -1.47987688e-02, -4.54183901e-03, 1.36299599e-02,
       -1.43648423e-02, 5.97245945e-03, 3.81251401e-03, -2.80726771e-03,
       -8.03490449e-03, 1.37364892e-02, 1.30961847e-03, 7.97438901e-03,
       1.65395681e-02, -2.97323931e-02, 1.08789206e-02, 2.77576130e-02,
       2.94632465e-02, 2.24351231e-03, -3.50894383e-03, 1.13080442e-03,
       -3.53214145e-02, -2.13162904e-03, -2.54076198e-02,
       -1.68455187e-02, 5.16053196e-03, -1.34342210e-02, -2.39465907e-02,
       1.00407340e-02, -1.80064440e-02, 6.72574912e-04, 4.56622522e-03,
       -4.60751448e-03, 1.93933919e-02, 9.13073961e-03, 1.90897621e-02,
       -9.82856285e-03, 3.01237833e-02, -2.79213511e-03, -1.74777992e-02,
       -1.37115794e-03, 2.67338450e-03, -5.64351394e-05, 3.09064751e-03,
       -1.74232647e-02, -2.69037932e-02, 4.02005902e-03, -6.15297491e-03,
       -3.49825695e-02, 1.33569655e-03, -7.63106765e-03, -5.03066881e-03,
       4.51510336e-04, -5.68905147e-03, -2.29662079e-02, 2.15584487e-02,
       -1.78844035e-02, -7.32370466e-03, -1.58274639e-02,
       -4.46920805e-02, -1.79902017e-02, -1.69959534e-02,
       -2.24699243e-03, -3.04656606e-02, -1.15235085e-02,
       -1.76034756e-02, 2.15648189e-02, 3.65984961e-02, 1.37922186e-02,
       1.20632099e-02, 1.61502007e-02, 2.02389993e-02, 1.77823678e-02,
       2.41492931e-02, -1.06314402e-02, -4.95574763e-03, 1.09659787e-03,
       4.84390242e-04, -3.36861378e-03, 9.43962391e-03, 1.71234086e-02,
       -1.49583034e-02, -2.17626020e-02, -8.57431628e-03, 1.02625843e-02,
       -1.11613628e-02, -8.76099151e-03, 1.33023849e-02, 3.69804882e-04,
       1.04884943e-02, -1.47319976e-02, -2.64852662e-02, -5.11171483e-03,
       -1.28824711e-02, -8.84093903e-03, -2.17649303e-02, 5.78276906e-03,
       -3.63717694e-03, -2.75098011e-02, -1.47363236e-02, 8.66811350e-03,
       -3.24632563e-02, 1.41906766e-02, 4.11518989e-03, 1.67197958e-02,
       2.81858128e-02, 2.21804325e-02, 1.69890728e-02, 2.19307584e-03,
       1.13194473e-02, -1.68256799e-03, 9.20229871e-03, -2.48585325e-02,
       1.45659992e-03, 3.87700717e-03, 2.00985819e-02, 1.54776527e-02,
       -8.11606087e-03, 1.55008705e-02, -1.33759426e-02, -2.32759565e-02,
       2.63353325e-02, 2.13224143e-02, 3.32142226e-02, 1.24406302e-02,
       -3.42072360e-02, -1.27136251e-02, 2.58418769e-02, -8.61369912e-03,
       -1.04173075e-03, -1.42048299e-03, 1.58801191e-02, 6.97359536e-03,
       5.81496116e-03, 8.49932339e-03, -1.84643138e-02, -1.44001488e-02,
       1.35770319e-02, 2.93940958e-03, -1.84959872e-03, 8.15983489e-03,
       2.48013326e-04, 7.94751849e-03, -2.18584412e-03, -6.89294469e-03,
       1.67912971e-02, 5.60677052e-03, -8.43030028e-03, -1.10463826e-02,
       1.63082853e-02, -3.58513607e-05, 2.92653451e-03, 5.09239081e-03,
       -2.62827966e-02, -3.07659898e-03, 1.27624366e-02, 1.08066769e-02,
       -2.56927982e-02, -2.49733794e-02, 1.48803424e-02, 2.06809188e-03,
       2.82601621e-02, -4.31376603e-03, -3.94585775e-03, 3.53873000e-02,
       3.12011428e-02, -1.83741134e-02, -2.34809294e-02, 1.84716415e-02,
       -5.03078662e-02, -1.47129232e-02, -3.95834818e-03,
       -3.57106817e-03, 1.76285636e-02, -7.35765463e-03, -1.90860257e-02,
       8.42547417e-03, 2.41643991e-02, 2.18976922e-02, 2.72812564e-02,
       -6.07951498e-03, 1.07178115e-03, 1.85318049e-02, 1.29583282e-02,
       -2.69889999e-02, -5.85850049e-03, -9.34296846e-03,
       -2.90816277e-02, 2.04289425e-02, 1.57855004e-02, -5.96035738e-03,
       -2.01974573e-04, 1.76097061e-02, -3.32670310e-03, -3.53299384e-03,
       1.55709591e-02, 5.12611531e-02, 1.15946191e-03, -1.68782417e-02,
       -1.67446081e-02, 2.55047753e-02, 2.84116063e-02, -1.06721080e-03,
       5.80702536e-03, 9.72920563e-03, -1.40343281e-02, 1.93297751e-02,
       8.05634260e-03, 1.79722887e-02, 3.05874944e-02, 2.32931133e-03,
       -2.87219603e-02, -1.18732394e-03, 8.84310529e-03, 6.84309937e-03,
       -6.86639175e-03, -5.38650165e-05, -1.45097729e-02, 2.26825103e-02,
       4.38066199e-03, -2.59943847e-02, 2.23552920e-02, 1.01631973e-02,
       -6.60381047e-03, -3.29236919e-03, 6.16378058e-03, 9.11677722e-03,
       3.33832428e-02, 2.58940551e-03, -1.82444472e-02, -1.95600316e-02,
       -2.59643830e-02, 2.77128946e-02, -1.64215558e-03, -2.24118941e-02,
       6.89191185e-03, 1.97182391e-02, 3.43073122e-02, -6.79678936e-03,
       -1.03929807e-02, -2.08155569e-02, 1.78847890e-02, 1.60533702e-03,
       -1.97330378e-02, -1.59617495e-02, 1.54186757e-02, -2.55542770e-02,
       -3.30612399e-02, 1.27954758e-03, -2.58093774e-02, 1.85250584e-02,
       1.21072037e-02, -2.62766308e-03, 3.57448909e-04, 2.17704326e-02,
       2.05143467e-02, -1.05694020e-02, -1.36531563e-02, -1.99037492e-02,
       -1.64019540e-02, 2.10891641e-03, -2.13670474e-03, -8.30519851e-03,
       -1.88152873e-04, 2.25648866e-03, 2.07521510e-03, 1.50639354e-03,
       2.02329154e-03, 8.22810363e-03, 1.30055973e-03, -1.15430608e-04,
       -9.94082261e-03, 7.71081261e-03, 2.68350113e-02, 1.70637574e-02,
       1.49380611e-02, -3.63239180e-03, -1.54270057e-03, 1.66377984e-02,
       2.54960377e-02, 2.55807415e-02, 2.48089265e-02, 1.08406665e-02,
       -6.98053511e-03, 1.04457382e-02, 1.13187879e-02, 2.47423723e-02,
       1.88094378e-02, -1.75016914e-02, -1.41148397e-03, 2.12043785e-02,
       -5.19058201e-03, -5.10985963e-03, 3.68234073e-03, 1.33778220e-02,
       -1.52876964e-02, 2.56307553e-02, 5.77215943e-03, 2.87267044e-02,
       -8.52000434e-03, 4.58289497e-03, 9.12078936e-03, -1.18630342e-02,
       -3.29952724e-02, 9.89296474e-03, -8.17304011e-04, 3.26118502e-03,
       -9.38132778e-03, -2.25109886e-02, 2.61405092e-02, 2.35688556e-02,
       -1.88544579e-02, -4.72660782e-03, 6.35490473e-03, 4.31152713e-03,
       -1.12573439e-02, -6.17425283e-03, -2.68770568e-03,
       -1.86981785e-03, 2.23224610e-02, 2.58130003e-02, -1.10838527e-03,
       -1.96011132e-03, 9.39522404e-04, 2.36070137e-02, 1.53821781e-02,
       -7.53681269e-03, 2.94583384e-03, 2.70600896e-02, 5.86109003e-03,
       5.44364331e-03, 1.47835603e-02, 2.04445776e-02, 1.00351525e-02,
       -1.58078391e-02, -6.02978095e-03, 2.33207587e-02, 5.35923243e-02,
       -5.43768192e-03, 2.42844224e-03, 2.42996123e-02, -7.08875433e-03,
       -1.08893076e-02, -3.81393731e-03, -3.11356317e-02, 2.55647339e-02,
       1.64114796e-02, -3.98323350e-02, -3.33859026e-02, 1.47237517e-02,
       -2.47880463e-02, -1.02808475e-02, -1.20742908e-02,
       -2.06487793e-02, 3.81145999e-02, 5.48082590e-02, -3.58643681e-02,
       -1.20520508e-02, 4.26288368e-03, 1.44817242e-02, 8.94964766e-03,
       -3.10171396e-03, -2.11392017e-03, 2.20398456e-02, 1.22245075e-02,
       -4.75111529e-02, -1.04069514e-02, -8.39280710e-03,
       -1.44964587e-02, -1.07193869e-02, 4.29139053e-03, -1.68350060e-02,
       2.48246808e-02, 3.52669917e-02, -7.21832551e-03, 9.65282321e-03,
       2.68594772e-02, 6.51815208e-03, 7.67837977e-03, -3.58145195e-03,
       9.56499018e-03, -8.08511674e-03, 2.26967763e-02, 5.57793770e-03,
       3.16129960e-02, 2.05268916e-02, -2.83444277e-03, -9.88661405e-03,
       3.61206792e-02, -7.29332038e-04, 3.89028108e-03, 2.59034242e-02,
       -4.66379011e-03, 1.03082014e-02, 3.04913241e-03, 3.08223953e-03,
       1.38376448e-02, 1.15272542e-02, -1.27575668e-02, -5.58900228e-03,
       1.64913051e-02, -6.96180621e-03, 9.42871347e-03, -8.87592975e-03,
       -2.25351006e-02, 1.83650944e-03, -3.40906612e-04, -1.39056677e-02,
       -2.68265279e-03, 9.54355462e-04, 5.46394568e-03, 1.29800057e-02,
       9.27083939e-03, -1.41148064e-02, -9.50421579e-03, 4.15395498e-02,
       1.89422108e-02, 2.27903947e-03, 2.00935192e-02, 7.73043931e-03,
       -6.33147173e-03, 2.00759321e-02, -2.44229622e-02, -4.68016230e-03,
       2.42005754e-02, 4.15270636e-03, 3.01767588e-02, 3.66170146e-02,
       -1.40521275e-02, 6.85281539e-03, 3.98637931e-04, -1.12067936e-02,
       4.56933957e-03, 1.22074820e-02, -3.09490919e-04, 3.39505216e-03,
       2.55577788e-02, -2.08063815e-02, -8.66414420e-03, 1.87118631e-02,
       -4.29808162e-02, 4.60760295e-03, -8.92447028e-03, -3.36460732e-02,
       1.52864810e-02, 1.17296204e-02, 1.10637043e-02, 2.03001723e-02,
       9.19860229e-03, -2.52981158e-03, -8.65971018e-03, 2.81483606e-02,
       2.78559811e-02, -3.46102868e-03, 1.22532679e-03, -2.49347240e-02,
       2.78387009e-03, -1.29604759e-02, -3.01551470e-03, -1.48672378e-02,
       2.18074303e-02, 2.24035718e-02, 4.68384065e-02, 3.89786065e-02,
       2.04553502e-03, 3.69421057e-02, 3.40007804e-02, -1.02640139e-02,
       5.77899534e-03, -2.40889704e-03, -2.43831202e-02, 2.99919713e-02,
       7.44423131e-03, -1.66703127e-02, 9.62057430e-03, 9.50544083e-04,
       1.78856961e-02, -2.64397059e-02, -4.22395300e-03, 2.90271975e-02,
       1.72493663e-02, 1.66598111e-02, -1.91920903e-02, 1.51363583e-02,
       3.24094668e-02, 1.77435875e-02, -1.83660649e-02, 1.40816569e-02,
       2.57260948e-02, 5.60758449e-03, 7.56877055e-03, -1.41784213e-02,
       7.06529524e-03, 1.67708509e-02, -1.77091360e-02, -3.01077869e-02,
       -2.51536276e-02, -3.59586999e-03, -3.03413998e-03,
       -8.55904818e-03, -1.02758538e-02, 3.72823849e-02, 5.77483289e-02,
       6.34608418e-02, 1.55390827e-02, 2.45269705e-02, 2.82204114e-02,
       -3.10556428e-03, -1.86868049e-02, 7.82819372e-03, 2.15272624e-02,
       1.85955595e-02, 1.46558182e-02, -2.05111015e-03, -1.12345107e-02,
       1.43153574e-02, -2.40108874e-02, -2.56433710e-02, -1.88908931e-02,
       -8.15239400e-05, -1.33183608e-02, -2.46063881e-02,
       -1.96366198e-02, -4.21761395e-03, -2.85478886e-02,
       -4.15055733e-03, 7.79219065e-03, -8.21828283e-03, -1.96449161e-02,
       -2.14921739e-02, 1.85810891e-03, -1.03189154e-02, 4.91093211e-02,
       4.54536872e-04, -7.54756620e-03, 1.87193099e-02, -8.14581104e-03,
       6.47726422e-03, 3.49692930e-03, 4.08773124e-03, -1.35562075e-02,
       1.87537761e-03, -1.71006545e-02, -1.71873327e-02, 3.30674760e-02,
       -9.28648934e-03, 3.66071216e-03, -8.03609937e-03, 6.15930883e-03,
       -2.90235076e-02, 1.89442164e-03, 1.17086014e-02, -1.96898393e-02,
       1.86772551e-02, -1.16702029e-02, -2.50342358e-02, -6.54613017e-04,
       1.04536293e-02, -3.09152137e-02, 2.00859513e-02, -1.47041082e-02,
       -3.74291278e-02, -1.11734783e-02, -2.37835143e-02,
       -1.13607123e-02, -5.94023429e-03, -2.18809620e-02,
       -3.42274494e-02, -2.48973742e-02, -2.21112128e-02, 7.99958780e-03,
       2.49612723e-02, -1.09054483e-02, -8.29374138e-03, 2.42467374e-02,
       3.58912386e-02, -1.41690560e-02, -4.75116307e-03, 3.13191116e-02,
       -4.34971554e-03, 1.15434071e-02, -3.41012143e-02, 1.80751609e-03,
       3.46817374e-02, 2.53464915e-02, -1.84976477e-02, -1.84813198e-02,
       2.07794625e-02, 6.29665377e-03, 2.45325752e-02, 6.24470273e-03,
       9.20963474e-03, -7.64207495e-03, -2.41570035e-03, 5.01150778e-03,
       5.16536040e-03, -3.81098100e-04, 5.66096837e-03, 1.01359107e-03,
       -1.25284921e-02, -5.94602665e-03, -1.96879730e-02,
       -1.54426973e-02, -1.27068562e-02, -1.92012135e-02,
       -2.54433546e-02, 7.33230868e-03, 1.43437600e-02, -2.94644292e-02,
       1.85426846e-02, 2.57766191e-02, 2.51102652e-02, -8.88589211e-03,
       -1.43319108e-02, -4.36184369e-03, -3.32146359e-04, 1.22607071e-02,
       -1.82651747e-02, 1.41032571e-02, 1.74645986e-02, 1.50423478e-02,
       3.21315741e-03, -4.77750989e-04, -1.36558013e-02, 3.48717580e-03,
       -1.49514442e-02, 2.16778251e-03, 6.08636206e-03, -2.37636957e-02,
       -1.06757497e-02, -2.03962959e-02, -3.54317459e-03,
       -1.56180253e-02, -1.31051568e-02, -4.18252982e-02,
       -2.01844387e-02, -1.55517263e-02, -1.78917367e-02,
       -2.78864335e-02, -2.93368325e-02, -8.19682889e-03,
       -1.25428140e-02, -8.66308343e-03, 5.75717026e-03, -7.31408410e-03,
       3.58100943e-02, 3.06689702e-02, 6.39493465e-02, 1.04177613e-02,
       2.49109622e-02, -1.14969350e-02, -3.46462801e-03, 2.09106039e-02,
       -9.52365343e-03, -1.65371771e-03, 1.79079734e-02, 4.55853753e-02,
       9.34489258e-03, 2.74549481e-02, -2.22087577e-02, 6.15371065e-03,
       -1.53454607e-02, -4.68652725e-04, -1.17577864e-02,
       -2.18355609e-03, -1.46826264e-02, -6.20476110e-03, 2.81125453e-04,
       -9.20749828e-03, 8.55793431e-03, -7.73431733e-03, 1.58614386e-02,
       -6.00108085e-03, -1.91628002e-02, -5.19836359e-02,
       -2.67466865e-02, -1.07295411e-02, 2.65702289e-02, 2.11772826e-02,
       4.03166190e-03, 1.70165002e-02, 1.40526639e-02, 1.81725360e-02,
       4.85742986e-02, 4.47506011e-02, 4.94459867e-02, -1.27998646e-03,
       -1.46344621e-02, -3.09322700e-02, 4.64685773e-03, 3.06874607e-03,
       -5.74802933e-03, 8.76265112e-03, -1.94214191e-02, -1.11008191e-03,
       -8.88118800e-03, -4.99162078e-03, -6.57180208e-05, 1.31226685e-02,
       1.55443186e-02, 3.99097800e-03, -2.65514851e-03, -1.13279223e-02,
       3.23183322e-03, 1.94761865e-02, 2.21853219e-02, -1.78610850e-02,
       -7.16975098e-03, 1.86741184e-02, -6.66356273e-03, -2.89761694e-03,
       -6.07697433e-03, -2.21920386e-02, 8.42333212e-03, 2.81459163e-03,
       -8.51344876e-03, 3.04254849e-04, 7.75273982e-03, -3.27875018e-02,
       1.46631598e-02, -1.20408889e-02, 2.21068226e-02, 7.95769040e-03,
       -8.15946981e-03, -3.86663675e-02, -1.19300438e-02, 2.59077661e-02,
       -7.70659745e-03, 6.65079802e-03, -1.96954142e-02, -1.74743962e-02,
       -2.08971705e-02, -1.83828734e-02, -1.08268000e-02, 2.23906580e-02,
       4.40441445e-02, 3.10622491e-02, 1.33953560e-02, -8.94231023e-04,
       -8.34242813e-03, 1.31184570e-02, 7.60130445e-03, 5.53691527e-03,
       2.05077026e-02, 3.59414853e-02, -1.37690862e-03, 7.37463264e-03,
       -1.20151304e-02, -7.80339120e-03, 1.33855818e-02, -6.94917841e-03,
       -1.15230428e-02, 1.71252135e-02, 2.71551851e-02, 1.10726664e-02,
       2.25059800e-02, -5.79804974e-03, -9.99325514e-03, 9.89559386e-03,
       -3.04120369e-02, -2.70624422e-02, -2.59739510e-03, 2.77284104e-02,
       -2.10570097e-02, 1.43123493e-02, -3.03045083e-02, -1.76832937e-02,
       3.22833913e-03, -2.93991994e-02, -2.65589897e-02, 1.20073473e-02,
       -8.35099909e-03, 4.46697557e-03, -3.37514319e-02, -2.62769014e-02,
       -2.22420376e-02, 6.19981904e-04, 1.98299680e-02, 2.29816865e-02,
       2.96420045e-02, 3.26144435e-02, -9.46514599e-04, -3.30987647e-02,
       -8.75204988e-03, -1.20847877e-02, 6.49467111e-03, -1.14516970e-02,
       1.11773182e-02, 6.73563555e-02, 5.57596944e-02, 3.02282888e-02,
       -1.00381533e-02, -4.63998392e-02, -5.09982593e-02,
       -2.87707299e-02, 5.40421307e-02, 5.46191558e-02, 6.78246617e-02,
       5.75913228e-02, 2.01083664e-02, 4.16505849e-03, -5.88474050e-03,
       -1.91018656e-02, 2.20409082e-03, 2.15426032e-02, -2.69578816e-03,
       -2.08889544e-02, -8.78796447e-03, -5.72399748e-03,
       -2.24551000e-02, 6.63156388e-03, 2.78865956e-02, 3.70499715e-02,
       -2.69485582e-02, -4.70388159e-02, -1.27103943e-02, 3.83692160e-02,
       -7.09909806e-03, -2.65413802e-02, 1.61049496e-02, 4.18608077e-02,
       2.69156485e-03, 5.12418002e-02, 1.25829717e-02, -7.55886873e-03,
       3.52039863e-03, 3.27819330e-03, 5.47071861e-04, 9.07172542e-03,
       4.04160582e-02, 6.15729243e-02, 5.12401341e-03, -1.70231182e-02,
       3.53364041e-03, 3.38621140e-02, -4.85032750e-03, -2.72017717e-02,
       4.22509946e-02, 3.14116068e-02, 3.53012271e-02, -3.31486546e-04,
       4.88470867e-02, 9.88105685e-02, 9.17417109e-02, -6.99192472e-03,
       -2.33867317e-02, 5.07019600e-03, 2.10797396e-02, -8.77215620e-03,
       6.53099176e-03, 5.10823652e-02, 1.78258456e-02, 1.36409430e-02,
       -2.75269039e-02, -1.87179092e-02, -3.07967886e-02,
       -1.50590502e-02, -3.13051976e-02, -1.66108028e-03, 5.39118387e-02,
       7.79824108e-02, 5.88970743e-02, 8.58566666e-04, -2.22532805e-02,
       1.14115393e-02, 4.29216065e-02, -1.57835763e-02, -1.51027208e-02,
       -7.76169356e-03, 2.59328336e-02, 1.38668688e-02, -1.96354873e-02,
       -6.94504986e-03, -8.91845208e-03, -8.41575954e-03,
       -4.84062359e-02, 1.98058076e-02, 1.03374563e-01, 1.79752838e-02,
       1.83688886e-02, -1.18856980e-02, 2.85553411e-02, 1.20137110e-02,
       4.83292248e-03, -6.90058339e-03, 7.65354838e-03, 2.09152717e-02,
       -2.30092704e-02, -8.12423299e-04, -1.30767645e-02, 2.49841902e-02,
       2.57817134e-02, 2.47750524e-02, 3.33538186e-03, -2.62424778e-02,
       6.18383347e-04, 4.51679388e-03, -2.65159085e-02, -3.24135497e-02,
       2.86884625e-02, 1.38336662e-02, 4.59544128e-03, -3.74246463e-02,
       -2.31530070e-02, -7.66494835e-04, -1.94081161e-02,
       -2.70608980e-02, -3.27648409e-02, 1.70679472e-04, 8.00997484e-03,
       -1.03454543e-02, 4.62220237e-03, 1.50474980e-02, 1.35340281e-02,
       -4.21667332e-03, 8.71392339e-03, -8.46997183e-03, 1.47493454e-02,
       -5.06172146e-05, 2.48834882e-02, 1.22738900e-02, 3.00872754e-02,
       4.68577147e-02, 1.38445208e-02, 1.74525403e-03, -1.71626713e-02,
       1.39864953e-02, 2.19970290e-03, 4.05532531e-02, 1.61352996e-02,
       4.60232468e-03, 3.40844840e-02, -1.41207967e-02, -5.07198693e-03,
       1.95199769e-04, -6.11894578e-03, -6.44593500e-03, -5.46252495e-03,
       9.59302019e-03, 2.78224684e-02, 4.09524655e-03, -2.87274364e-02,
       -2.81928908e-02, 1.02090854e-02, -1.45538365e-02, 2.54874513e-03,
       2.23621912e-02, 4.40841587e-03, 2.80280467e-02, 6.33078218e-02,
       2.07490064e-02, 5.12852380e-03, -1.62611976e-02, -9.26031324e-04,
       2.28571915e-03, 4.45480645e-02, 2.93672029e-02, 1.78370420e-02,
       4.43816371e-02, -1.80336200e-02, -2.42265090e-02, -8.60565342e-04,
       -2.57207882e-02, 9.57792718e-03, 2.31532473e-02, -3.04697827e-03,
       6.11464586e-03, 1.40212988e-02, 1.55065348e-03, -1.28114354e-02,
       7.13009201e-03, 3.93489562e-03, 1.19109461e-02, 1.46781392e-02,
       -9.81960166e-03, -5.20127686e-03, -8.93892627e-03,
       -1.56174190e-02, -3.76084261e-02, -2.40968205e-02, 1.30328827e-03,
       -1.81377139e-02, -6.86807465e-03, -6.19645650e-03, 3.77556384e-02,
       4.43013497e-02, 3.77584319e-03, 5.33611048e-03, 1.11640291e-03,
       1.47856520e-02, 1.20998155e-02, 2.17865501e-02, 3.62310791e-03,
       4.32384312e-02, 2.08328199e-02, -1.27545111e-02, -6.69455109e-03,
       -2.08819583e-02, 1.03932861e-02, 5.83633501e-03, 3.22626755e-02,
       4.31090891e-02, 1.60296203e-03, 5.01379976e-03, -1.52808474e-02,
       -3.06755234e-03, -1.15721310e-02, 3.80540304e-02, -9.24686156e-03,
       1.22057227e-03, -3.15752365e-02, -1.00422716e-02, -1.39656868e-02,
       -1.08318832e-02, -3.28258388e-02, 3.84033704e-03, -1.47292288e-02,
       -7.64464680e-03, -1.31624388e-02, 1.55030855e-03, 3.26293375e-04,
       -6.64104568e-03, -1.39828790e-02, -8.24664719e-03,
       -2.08086707e-02, 3.42250206e-02, -1.00656552e-03, 5.45478836e-02,
       5.67226931e-02, 1.99460648e-02, 1.24760240e-03, -1.86894294e-02,
       -1.62867345e-02, -1.33849606e-02, 1.60974786e-02, 1.78492256e-02,
       3.71271260e-02, 2.58945618e-02, -3.65174599e-02, 1.09481737e-02,
       -1.66360755e-02, -6.47799205e-03, -3.28305699e-02,
       -4.69208644e-05, 4.84837778e-03, 1.42639494e-02, 1.27414288e-02,
       5.32082340e-04, 3.20166871e-02, -3.60431969e-02, -6.53357897e-03,
       -4.44579916e-03, -3.71028110e-03, -4.30858657e-02,
       -6.31300732e-03, -2.03961506e-03, -9.46662563e-04, 2.08549146e-02,
       -1.58012081e-02, -1.43108349e-02, -2.62070838e-02, 6.69961516e-03,
       2.40833010e-03, 2.33434513e-02, 4.56558540e-02, 6.87500928e-03,
       1.11538731e-02, -1.46720372e-02, -1.72259938e-02, 5.68334013e-04,
       4.07382427e-03, -3.32768150e-02, 1.21748894e-02, 1.45682283e-02,
       2.22391281e-02, 2.62954608e-02, -1.14862686e-02, -1.97945666e-02,
       -1.21421171e-02, -1.00629358e-03, -2.73199081e-02, 2.37332713e-02,
       -1.44073535e-02, 1.03927357e-02, 8.90658516e-03, -1.31462775e-02,
       -4.32003066e-02, -2.29334505e-03, -6.50267722e-03,
       -1.60687827e-02, -1.38104276e-03, -3.23352613e-03,
       -2.48688739e-02, 2.76237205e-02, -2.63931062e-02, -3.36861797e-02,
       6.23746635e-03, 1.56052038e-02, -3.46897282e-02, 1.22061428e-02,
       -1.76941734e-02, 1.73038617e-02, 1.85870659e-02, -2.57681366e-02,
       -1.07289953e-02, -2.96687451e-03, -1.07671646e-02,
       -4.16180678e-02, 2.29350887e-02, 2.77925027e-03, -1.53231453e-02,
       4.16192450e-02, -1.06185861e-02, -1.14804599e-02, -2.61831703e-03,
       1.85809343e-03, -1.17438904e-03, -5.64806105e-04, -4.53319438e-02,
       1.68042611e-02, 3.54414657e-02, -2.11899336e-02, 3.31396586e-03,
       -1.02419909e-02, -1.26754167e-02, -5.29590202e-03, 1.15905097e-02,
       2.65565645e-02, -1.69234369e-02, 5.51975612e-03, -4.73423814e-03,
       -4.63159150e-03, -1.48433670e-02, -2.28487179e-02,
       -4.99981456e-02, 5.72868856e-03, -1.13330293e-03, -1.01882434e-02,
       1.33080902e-02, -1.37296012e-02, 1.66485424e-03, -2.96845175e-02,
       -2.13053636e-02, -8.45017377e-03, -2.60930462e-03,
       -7.95278605e-03, -1.20992875e-02, 2.89234362e-04, -2.76115146e-02,
       -8.84790532e-03, -2.59681419e-02, -2.59933434e-02,
       -2.50084698e-02, 4.60182130e-02, 2.62313206e-02, 5.13299229e-03,
       2.70300452e-02, -9.82876029e-03, 2.44298968e-02, 6.98715681e-03,
       -2.30278727e-03, 1.72151916e-03, 2.02142447e-02, 3.80492248e-02,
       -1.85801333e-03, 2.62040943e-02, -2.26216242e-02, -1.38231199e-02,
       -5.02260551e-02, -6.17513666e-04, 2.11384078e-03, -1.51538849e-03,
       -1.35566909e-02, -1.82756726e-02, -2.36923900e-03,
       -3.44240591e-02, -2.57381108e-02, -3.09577715e-02,
       -4.23275828e-02, -2.35142782e-02, -1.03534767e-02,
       -3.74755599e-02, 2.20500622e-02, 4.34727632e-02, 4.41013426e-02,
       3.18675600e-02, 5.78904664e-03, 1.50257116e-03, 1.17994696e-02,
       -4.83748456e-03, 3.16523644e-03, 7.27666589e-03, 3.91870849e-02,
       3.78325917e-02, 1.82015616e-02, 1.74409673e-02, 5.73246973e-03,
       3.05141066e-03, 2.10913830e-02, -4.87344107e-03, 1.14413919e-02,
       -1.45073337e-02, -1.50769940e-02, 1.44945718e-02, 2.30486430e-02,
       3.07750553e-02, 1.86575521e-02, 2.31887791e-02, 1.59751736e-02,
       -1.96526516e-02, -5.36966249e-02, -2.07431633e-02,
       -4.29733917e-02, -4.64593433e-02, -8.67553055e-03,
       -3.29347812e-02, -2.10310780e-02, -1.22009479e-02, 2.94375326e-02,
       5.68807162e-02, 6.61006570e-03, 3.86994369e-02, 6.68502375e-02,
       7.74795786e-02, 3.23921442e-02, 4.43629362e-02, 2.76267622e-02,
       3.75821895e-04, -2.29148455e-02, -3.34705710e-02, -2.20971815e-02,
       1.68937221e-02, 1.98010430e-02, -2.32969113e-02, -2.90080998e-02,
       -1.52766202e-02, 5.58027392e-03, -1.21784285e-02, 6.48092618e-03,
       -1.10861531e-03, -1.43816918e-02, 2.06701197e-02, -2.61000823e-03,
       1.14240479e-02, 4.26932750e-03, -3.93705145e-02, -3.80299650e-02,
       5.86818671e-04, 1.85554251e-02, -2.83369720e-02, 2.14597918e-02,
       7.86885805e-03, -2.83000600e-02, -3.84858064e-02, 2.97934338e-02,
       5.26270051e-05, -7.59520940e-03, -8.43830220e-03, -1.01087010e-02,
       2.80862544e-02, 1.13024516e-02, -4.06975998e-03, 2.20396668e-02,
       2.00086813e-02, -3.94315831e-02, 1.48998934e-03, 7.38453178e-04,
       -2.63680443e-02, 4.96081412e-02, 1.29074221e-02, -1.69789977e-02,
       -1.26169790e-02, 2.53167469e-02, -3.92348990e-02, -1.15556521e-02,
       -1.03066051e-02, -3.22762528e-04, 9.48183518e-03, -1.99611560e-02,
       -2.16573216e-02, 4.15805206e-02, 1.77485328e-02, -3.36495638e-02,
       -2.02867910e-02, 1.30352443e-02, 2.42978092e-02, 1.10871568e-02,
       -1.72011796e-02, -5.02073206e-03, 3.39409970e-02, 4.10109162e-02,
       -1.90338269e-02, -4.18014601e-02, -1.91477574e-02,
       -3.50681297e-03, -1.40762818e-03, -2.04976294e-02,
       -3.16813886e-02, 4.74150702e-02, 3.24014649e-02, -7.43150711e-03,
       2.37685558e-03, 1.76310819e-02, -9.97107662e-03, 1.70251038e-02,
       -1.98262259e-02, -2.11098287e-02, 1.73998121e-02, -3.58349122e-02,
       -2.30049733e-02, 2.30736583e-02, 2.61739660e-02, 2.46754196e-02,
       3.01430728e-02, -9.39958612e-04, -2.63548978e-02, -2.56539509e-02,
       -3.38734314e-02, 4.03733775e-02, 5.63206337e-02, 3.83423902e-02,
       7.76914833e-03, 6.12839498e-02, 3.07839401e-02, 1.83652434e-03,
       -3.76083478e-02, -2.05718931e-02, -1.20466193e-02, 1.54723655e-02,
       3.04976106e-02, 1.46484403e-02, 7.22682104e-02, 6.81655481e-02,
       -1.14780162e-02, -4.36815880e-02, -4.00435925e-02, 7.87697267e-03,
       1.43069634e-02, 2.21808758e-02, -1.65424161e-02, 5.53625226e-02,
       7.81188607e-02, 4.97728139e-02, -1.75658949e-02, 3.78475152e-02,
       3.37441415e-02, 1.56104397e-02, 2.52752993e-02, 1.28253736e-02,
       3.67186107e-02, 1.74999889e-02, 3.08628064e-02, 2.87451297e-02,
       1.36494553e-02, -3.78872035e-03, 8.29328131e-03, 1.11451643e-02,
       -7.44134048e-03, -1.26626194e-02, 1.19954990e-02, 1.72823761e-02,
       2.35235244e-02, 4.26653251e-02, 3.88995744e-02, 2.74131838e-02,
       -1.69832986e-02, -1.23285810e-02, 2.72152200e-02, 3.79074691e-03,
       4.80866469e-02, 4.00061943e-02, 1.99640319e-02, 3.47156785e-02,
       2.75232960e-02, -2.13022791e-02, -2.26935726e-02, -2.46676337e-03,
       5.06068720e-03, -2.79988570e-04, 8.21661728e-04, 1.85594819e-02,
       2.93337647e-02, 5.43665998e-02, 4.29442525e-02, -2.23231292e-03,
       3.35050039e-02, 4.80351560e-02, 4.93488424e-02, 1.39352167e-02,
       -1.65848490e-02, 6.84294151e-03, 1.69493202e-02, -5.58400108e-03,
       6.92710280e-03, 1.35316569e-02, 9.14367288e-03, 5.37846610e-03,
       -4.04270627e-02, 2.18284689e-02, 3.61041762e-02, 4.81002964e-02,
       1.71517823e-02, -7.84816407e-03, 3.83105949e-02, 3.79091091e-02,
       1.68322325e-02, -2.53913645e-02, -1.22258253e-02, -1.86407287e-02,
       3.29541340e-02, -2.69567389e-02, 1.08330026e-02, 7.49180734e-04,
       -1.56382043e-02, -1.03923688e-02, -4.60630767e-02,
       -1.04255686e-02, 1.47607215e-02, 1.96514688e-02, -8.88056494e-03,
       -2.08839644e-02, 2.10133120e-02, 1.94460433e-02, 2.54927222e-02,
       -3.00955083e-02, -1.73220187e-02, -9.86516103e-03,
       -8.73062946e-03, -3.43690738e-02, -3.02088186e-02,
       -2.55398881e-02, -2.20479793e-03, -1.47470590e-02,
       -7.32669281e-03, -6.01067999e-03, 1.36261554e-02, 4.68906835e-02,
       -3.09463125e-03, -7.34790182e-03, 1.26219634e-02, 6.52327528e-03,
       3.70037220e-02, -2.62801368e-02, -3.74661613e-05, 8.35806318e-03,
       -4.07083705e-03, -2.77618524e-02, -1.63474809e-02,
       -2.90480405e-02, -1.19942948e-02, 1.51350163e-02, -2.05767397e-02,
       4.25169989e-03, 6.72215736e-03, 4.12120298e-03, -1.27753231e-03,
       -8.86501838e-03, -7.93534238e-03, 6.78196829e-03, 5.78312762e-03,
       1.64004266e-02, -2.27014329e-02, -1.72188822e-02, -5.83264139e-03,
       -3.28030176e-02, -4.83215880e-03, -2.25239936e-02, 1.60117615e-02,
       3.77377905e-02, -2.97100302e-02, 1.94960348e-02, 2.34611761e-02,
       -2.03591678e-02, -9.06408206e-03, 6.62363879e-03, -1.48461433e-02,
       -6.86147541e-04, 4.73938463e-03, -1.68493446e-02, -3.17218788e-02,
       -6.50752196e-03, -4.48710425e-03, -3.23521309e-02,
       -1.98743325e-02, -2.62258798e-02, -9.60176869e-04, 5.31625003e-03,
       -2.60557495e-02, -3.42432335e-02, -1.80040114e-03,
       -3.26488196e-04, -1.14954757e-02, 2.58393679e-02, -2.79755797e-04,
       2.02196911e-02, 5.33622364e-03, -3.80634144e-02, -7.79080763e-03,
       -7.49123842e-03, -2.56945449e-03, -7.06256193e-04, 1.16814272e-02,
       3.12316194e-02, 2.36954298e-02, -2.18948745e-03, -2.15020720e-02,
       -2.71095801e-02, -1.86016019e-02, 3.34321824e-03, 8.63756891e-03,
       1.60699114e-02, -7.76322745e-03, -1.80273205e-02, 7.84884579e-03,
       -4.47898135e-02, -2.24325750e-02, -1.75878108e-02,
       -5.14722848e-03, 3.05280066e-03, 2.29692422e-02, 5.95147070e-03,
       7.91413430e-03, -1.19577618e-02, -1.59009416e-02, 1.05029382e-02,
       1.52878268e-02, 9.58423130e-03, 2.33838204e-02, 1.87666547e-02,
       3.74961942e-02, 5.32232132e-03, 1.84092356e-03, -1.10077728e-02,
       -7.86057767e-03, -1.11051779e-02, 5.30947978e-03, 6.72568334e-03,
       3.11495997e-02, -1.16499523e-02, 3.31294117e-03, 1.11289299e-03,
       -1.33048510e-02, -3.44557017e-02, 1.91976465e-02, 1.48326140e-02,
       2.85334568e-02, 1.89077239e-02, 7.82549102e-03, 5.82427671e-03,
       1.43931276e-04, -2.14151256e-02, -5.04258573e-02, 1.34384669e-02,
       6.04903791e-03, -1.10999336e-02, 2.24576481e-02, -2.36694254e-02,
       -9.32682771e-03, -1.56847369e-02, 6.40103535e-04, -2.61054058e-02,
       1.43992882e-02, 1.75582729e-02, -4.68153856e-04, -1.73212159e-02,
       -2.40391586e-02, -1.70998257e-02, 9.43529606e-03, -1.96939288e-03,
       2.43174061e-02, 5.61673976e-02, -1.48275658e-03, 1.75462216e-02,
       7.98697304e-03, -7.74369063e-03, -3.67323197e-02, 2.46651787e-02,
       -1.18945939e-02, -2.24294215e-02, 1.19656259e-02, -1.63798518e-02,
       -2.18741596e-03, -1.97926480e-02, -2.65258811e-02,
       -1.89362955e-03, 8.45300127e-03, -4.92877923e-02, 2.99372990e-02,
       1.52672166e-02, -3.15931216e-02, -2.81518063e-04, -1.34657118e-02,
       -2.67974613e-03, -1.13395471e-02, 2.41775159e-02, 6.93820463e-03,
       1.24106435e-02, 4.83373478e-02, -1.25305159e-02, 1.46084744e-03,
       6.00823620e-03, 2.62417621e-03, -3.77563313e-02, 9.84423235e-03,
       -3.63817550e-02, 1.76378991e-02, 5.08978590e-02, 7.37949973e-03,
       -3.05613242e-02, -1.77852791e-02, -2.18327865e-02, 8.23110621e-03,
       2.06919517e-02, 3.21682952e-02, 3.90148605e-03, 1.66472606e-02,
       -2.11473815e-02, 4.10151668e-03, 7.10499519e-03, 4.51133074e-03,
       -1.74586009e-02, 2.06239577e-02, -1.59446467e-02, 1.40919602e-02,
       1.39155565e-02, 1.11310405e-03, -2.10383181e-02, -2.50518005e-02,
       -5.13088144e-02, 1.49690919e-02, 4.08446044e-02, -4.27373964e-03,
       1.05329882e-02, 4.48399559e-02, 3.93867120e-03, 7.08412379e-03,
       5.80173545e-03, -5.30476449e-03, -6.54399686e-04, 1.51615655e-02,
       -1.28398230e-02, 2.66190600e-02, 2.11726483e-02, -2.23999396e-02,
       -1.09552620e-02, -4.01013233e-02, -2.43632831e-02,
       -1.19182114e-02, 1.64230783e-02, 6.82976143e-03, -1.97088383e-02,
       5.58035681e-03, 2.06698501e-03, -1.40958969e-02, 6.93185395e-03,
       -2.24764924e-02, 1.46701082e-03, 6.11131974e-02, -8.75912048e-03,
       -4.64630499e-03, -1.44744234e-03, -1.74909277e-04,
       -9.09071136e-03, -1.46751776e-02, -3.34687717e-02,
       -3.03853061e-02, 1.78856235e-02, 1.30214281e-02, -5.07353991e-03,
       1.47284893e-02, -2.00862158e-02, -1.84536614e-02, -1.95041839e-02,
       -3.56967337e-02, -3.13990079e-02, -8.17781873e-03, 2.25074068e-02,
       -6.45363890e-03, 7.10727274e-03, -1.52970031e-02, -1.33236721e-02,
       -2.71643754e-02, -2.20155157e-02, -1.43003780e-02,
       -8.49556085e-03, 2.54539195e-02, 2.00734865e-02, 8.31587426e-03,
       -1.45245297e-02, -1.76483598e-02, -4.68108756e-03,
       -3.39208916e-02, -2.43588835e-02, 2.58979667e-02, -1.40420701e-02,
       2.66641118e-02, 1.38436230e-02, -6.20619580e-03, -2.87879836e-02,
       -1.31123839e-02, -2.38666348e-02, -1.35186594e-02, 2.38507017e-02,
       8.62948596e-03, -2.27947459e-02, 5.85438218e-03, 2.74744071e-02,
       2.59587020e-02, -1.03067933e-02, 2.24345494e-02, -1.88914482e-02,
       -1.13818962e-02, 2.85316678e-03, -1.55986007e-02, 2.85669994e-02,
       2.36327164e-02, 7.44700944e-03, 1.28199551e-02, 5.68136014e-03,
       6.67632790e-03, 3.66974436e-02, 5.02760801e-03, 1.80838946e-02,
       -7.98099302e-03, -3.85610107e-03, 1.90996714e-02, 3.73797189e-03,
       1.88708361e-02, 9.74342786e-03, 2.28987113e-02, -1.02955783e-02,
       -8.04242771e-03, -1.47463332e-04, 2.11397442e-03, 1.55765889e-02,
       -1.02167844e-03, -1.72872618e-02, -2.30289600e-03, 2.06384752e-02,
       -1.43699832e-02, 2.39501148e-02, 4.98690940e-02, -7.90279731e-03,
       3.68593745e-02, 3.80872600e-02, 6.48406968e-02, -5.19991666e-03,
       2.83791348e-02, 3.66804423e-03, -6.51871646e-03, -1.74503140e-02,
       -4.09530625e-02, -2.12136656e-02, -5.18165389e-03,
       -8.00869055e-03, -1.73951071e-02, -2.51365043e-02,
       -2.91270409e-02, 1.77442972e-02, 8.88025202e-03, -5.89964970e-04,
       7.01061115e-02, 5.03980070e-02, 3.19585614e-02, -2.60317922e-02,
       4.09767926e-02, 5.41182794e-03, -3.28196809e-02, -4.57081199e-02,
       -3.97075489e-02, -1.73646957e-02, 1.20284120e-02, -9.34206136e-03,
       -3.74767222e-02, -2.63551101e-02, -3.57257947e-02, 2.44025979e-02,
       -1.24898534e-02, -3.03356955e-03, 3.01037319e-02, -1.02627873e-02,
       1.58616267e-02, 1.58979781e-02, -9.92616080e-03, 1.02909636e-02,
       2.21921485e-02, -3.98719981e-02, -6.05596520e-04, -3.38566839e-03,
       -4.37241234e-02, 3.36381570e-02, -3.04502435e-03, -2.24480331e-02,
       1.11939432e-02, 5.19293407e-03, -2.05818564e-02, -2.59548717e-04,
       3.83238494e-02, 1.72708947e-02, 2.09695380e-02, -3.74178914e-03,
       -9.11392178e-03, 3.50220571e-03, -6.66801538e-03, -2.74854638e-02,
       -2.39387155e-02, -4.83765686e-03, -1.79763231e-02, 8.79437942e-03,
       -5.16033312e-03, -6.34839339e-03, 5.62452152e-03, 8.06209445e-03,
       -1.63852666e-02, -2.24716887e-02, -1.01996521e-02, 3.60068749e-03,
       3.28250937e-02, 1.52033754e-02, -5.83301578e-03, -3.32592637e-03,
       1.35012846e-02, -1.69489477e-02, -1.11965938e-02, 8.32675118e-03,
       -4.01175506e-02, 5.96219301e-03, -6.62458828e-03, -2.19566487e-02,
       -2.59029679e-03, 1.79798168e-03, -9.75566264e-03, -4.19048965e-03,
       4.74471552e-03, -4.22770763e-03, 2.88756732e-02, 2.10512318e-02,
       4.16573283e-04, 2.00486532e-03, 1.28916502e-02, 2.24058982e-02,
       3.55631113e-03, 1.99909061e-02, -4.63929912e-03, -2.70433188e-03,
       9.44194291e-03, -9.63410735e-03, 1.79330204e-02, -1.06179845e-02,
       -3.53271514e-02, -1.56218512e-02, 1.37770986e-02, 4.15791944e-02,
       7.23623335e-02, 7.87686408e-02, 2.98428982e-02, -7.52369035e-03,
       -2.05611512e-02, -1.48509406e-02, 4.59755259e-03, 2.56666006e-03,
       -6.71430863e-03, 4.17704843e-02, 6.87518120e-02, 6.19583167e-02,
       3.67223583e-02, -2.22031549e-02, -3.88222933e-02, -3.23839337e-02,
       -1.83589514e-02, 2.46889908e-02, -1.64827090e-02, 4.12329473e-03,
       -2.72436310e-02, -1.28275445e-02, -6.11538813e-03,
       -1.47038633e-02, -1.74382199e-02, -5.35561517e-03, 1.10494811e-02,
       7.30989967e-03, 1.12106847e-02, 2.25324044e-03, 1.69420429e-02,
       4.77791168e-02, 3.52225043e-02, 9.75957140e-03, -1.96382925e-02,
       -7.92469457e-03, -5.16301813e-03, -1.98627152e-02, 4.46912050e-02,
       3.99381220e-02, 3.90364900e-02, 5.37612811e-02, 2.21451223e-02,
       -3.28120543e-03, 5.60941990e-04, 5.60972951e-02, 5.41494116e-02,
       1.80694740e-02, 1.61236443e-03, 5.10979183e-02, -3.38215288e-03,
       -2.26574540e-02, -5.09912008e-03, 1.74864486e-03, -2.13692915e-02,
       -3.40951160e-02, -2.49876305e-02, 2.41892785e-02, 1.35734957e-02,
       8.34395550e-03, 1.39011443e-02, -1.35918781e-02, -4.09296062e-03,
       1.78404301e-02, 6.33723987e-03, -4.12623473e-02, -1.92929432e-02,
       5.53095131e-04, 3.36084291e-02, -1.46560501e-02, 3.07475403e-03,
       -8.67692288e-03, 7.86278397e-02, 7.12154359e-02, 4.31111455e-02,
       -4.25493382e-02, -1.72165707e-02, -3.27878376e-03,
       -1.72295123e-02, -3.35387737e-02, -3.84145565e-02, 1.67145599e-02,
       1.76816471e-02, 2.49534356e-03, 1.75640034e-03, -1.01009607e-02,
       2.16703489e-02, 2.81056506e-03, -1.44936414e-02, 2.07921527e-02,
       1.03352360e-01, 9.16257575e-02, 4.75720465e-02, -2.45173974e-03,
       -2.52321921e-02, -4.13396489e-03, -2.33649779e-02,
       -3.02723572e-02, -1.26607753e-02, 6.38923282e-03, 2.52808128e-02,
       4.13167886e-02, 1.00782625e-02, -3.04651074e-02, 1.73353367e-02,
       2.26747710e-02, -3.73146287e-03, -2.30509248e-02, -8.57790653e-03,
       -3.70029127e-03, 1.22078117e-02, -7.89562240e-03, 1.15608540e-03,
       2.04158854e-02, -2.46714032e-03, -8.11253767e-03, -2.01719068e-02,
       -1.58808883e-02, -1.60732791e-02, -5.07012941e-03,
       -3.21998708e-02, -2.54429113e-02, 1.88852213e-02, 1.11909220e-02,
       6.62896410e-03, 2.03675474e-04, 2.93585646e-04, 1.09893735e-02,
       6.50239140e-02, 2.18763947e-02, 1.47132212e-02, 1.40037667e-02,
       2.18676534e-02, 6.38487516e-03, -4.14422655e-04, -7.38483854e-03,
       -8.58777575e-03, 2.04493068e-02, 1.10493908e-02, 1.06333941e-02,
       3.54802944e-02, -1.82763133e-02, -2.33026706e-02, -1.33254100e-02,
       -1.86872184e-02, -2.55219117e-02, 1.88150140e-03, -2.55108858e-03,
       -4.02852893e-03, -1.79471727e-03, -7.06883660e-03,
       -1.31332669e-02, -1.66001990e-02, -2.70510633e-02,
       -1.59679856e-02, -1.51012000e-03, 1.87152158e-02, 3.41975912e-02,
       2.80553922e-02, 3.58753285e-04, 9.65000037e-03, -1.38038080e-02,
       -1.30295698e-02, -7.40810763e-03, 2.96582505e-02, 2.44732071e-02,
       7.73223955e-03, 3.93935964e-02, -5.92800556e-03, 9.13349539e-03,
       -8.29854421e-03, -2.12073978e-03, 1.54478978e-02, 4.77307290e-02,
       2.26153191e-02, -7.31229666e-04, 2.12963223e-02, 1.24721881e-02,
       2.39424431e-03, -3.09773702e-02, -1.00684306e-02, -1.81581620e-02,
       5.61383134e-03, -4.23245691e-03, -7.59597588e-03, 1.35999722e-02,
       -1.62269343e-02, -4.78394749e-03, -2.70192623e-02,
       -2.28821356e-02, -2.44045407e-02, -1.94972701e-04, 4.83141327e-03,
       2.02748757e-02, 1.86228808e-02, 3.93982464e-03, 4.68816562e-03,
       -1.25207063e-02, 1.02924099e-02, 2.88617294e-02, 6.03045672e-02,
       2.61311587e-02, -8.61932244e-03, 6.76420145e-03, 1.82599183e-02,
       5.84569934e-04, -1.60290562e-02, -5.61435660e-03, -2.71455813e-02,
       4.46063802e-02, 5.14491536e-02, -3.46308872e-02, 2.77115498e-02,
       -1.97207350e-02, 6.82647154e-03, -4.49060686e-02, -1.63573248e-03,
       -2.11491659e-02, 2.06780359e-02, 2.11286303e-02, -3.12439781e-02,
       2.56994665e-02, -3.19666155e-02, -6.05273806e-03, -1.49571998e-02,
       -2.05275193e-02, -1.82284098e-02, -7.67728721e-04,
       -2.30589658e-02, 2.63361316e-02, 2.26912852e-02, -1.28607117e-02,
       -2.43573304e-05, -2.94433907e-02, 3.20461323e-03, -1.72723935e-03,
       2.86219642e-02, 5.08202799e-02, 4.95994650e-02, 2.67056879e-02,
       -1.34661444e-03, 1.96569618e-02, 1.30046522e-02, -5.56398323e-03,
       -1.51685644e-02, -1.07599422e-02, 6.23161942e-02, 1.22085549e-02,
       3.05569097e-02, -4.37159976e-03, 1.97048504e-02, -3.67028527e-02,
       -7.72940693e-03, -1.26647232e-02, 1.42395841e-02, -2.88845170e-02,
       1.94895151e-03, 9.63105541e-03, -3.71954367e-02, 1.71698928e-02,
       4.24436788e-04, -8.10849201e-03, -2.02797726e-02, 1.22958038e-03,
       -6.18581800e-03, 5.97926825e-02, 4.99934778e-02, -2.85416259e-03,
       2.26330012e-02, -1.33792474e-03, -6.62932172e-03, -1.78209264e-02,
       3.04467813e-03, 2.46505383e-02, 2.56984588e-02, 4.03671851e-03,
       -1.23411408e-02, 8.22667591e-03, 5.38820261e-03, -1.72661003e-02,
       -1.05816675e-02, -9.60709760e-04, 2.38053706e-02, 2.34257153e-04,
       2.33926065e-02, -2.43786573e-02, -4.53455490e-04, -1.00753279e-02,
       4.26181639e-03, -5.74804563e-03, 9.95855685e-03, -7.59133894e-04,
       1.29761994e-02, 1.16209518e-02, -2.78660133e-02, -1.99013352e-02,
       -2.98756175e-02, -1.94811504e-02, -1.34028280e-02, 3.94086428e-02,
       -8.38220119e-03, 2.41197888e-02, -2.06593256e-02, -1.71351247e-02,
       1.75230717e-03, -6.96363021e-03, -7.04017142e-03, -9.73037211e-04,
       1.49516314e-02, 1.10240402e-02, 3.18753673e-03, -1.39028467e-02,
       -2.45188363e-02, -6.56075217e-03, -1.98114198e-03,
       -2.19575260e-02, -2.65364442e-02, 1.18243434e-02, 3.21069062e-02,
       -2.10262220e-02, 5.71188750e-03, -5.33222640e-03, -1.00356145e-02,
       -3.72856832e-03, -7.29653426e-03, -9.12118237e-03, 6.87143505e-02,
       3.45277018e-03, 1.48389591e-02, 1.96792884e-03, -2.03376003e-02,
       6.06441346e-04, 5.59352804e-04, 2.52269767e-03, -6.19877735e-03,
       4.32046205e-02, 3.52416299e-02, -1.77758206e-02, -1.35138752e-02,
       -2.74161883e-02, 5.60366502e-03, 9.10123065e-03, -2.88596619e-02,
       -3.15771513e-02, 1.76511183e-02, -1.24011589e-02, -1.00051630e-02,
       -1.66035742e-02, -3.28351073e-02, -8.35108571e-03, 2.13150540e-03,
       3.05762677e-03, -1.89038422e-02, 2.34429836e-02, -6.55108783e-03,
       1.30500533e-02, 5.95683157e-02, -1.35302795e-02, -3.87289422e-03,
       3.93850962e-03, -4.87647858e-03, -1.25270672e-02, 1.97698455e-02,
       3.73817491e-03, 3.10573876e-02, 4.39639948e-02, -7.91192055e-04,
       -2.07329914e-02, 3.66582448e-04, -3.51828942e-03, -5.64074982e-03,
       4.50013578e-02, 9.49089043e-03, -9.60853975e-03, -5.00921253e-03,
       -4.46683764e-02, -2.20901053e-02, -6.38000900e-03,
       -1.45127624e-02, -1.61132291e-02, 1.44001190e-02, -3.17302532e-02,
       -1.64914429e-02, -2.20084805e-02, -2.53990237e-02,
       -5.54980710e-03, -5.50860260e-03, -3.94382626e-02,
       -2.35885549e-02, -3.19418381e-03, -2.57737953e-02, 5.37153287e-03,
       2.62275729e-02, 2.42367405e-02, 3.26575413e-02, 2.25562491e-02,
       2.69301925e-02, 5.25779277e-02, 6.63292408e-02, 1.68322958e-02,
       -1.04009628e-03, 2.45216805e-02, 1.25053292e-02, 1.89525653e-02,
       1.25325397e-02, 3.00368131e-03, 2.90191900e-02, 4.19688262e-02,
       2.36940142e-02, -8.31152592e-03, -9.24500055e-04, -4.42397548e-03,
       1.26756793e-02, -9.66750737e-03, -1.82585511e-02, 8.80912971e-03,
       4.54877838e-02, -1.84851252e-02, -2.98450701e-02, 1.13371876e-03,
       -2.28085574e-02, -3.34954634e-02, 1.54633923e-02, -2.70665996e-02,
       -2.30631023e-03, 9.57105216e-03, -3.11604459e-02, 1.39830820e-02,
       3.91306020e-02, 1.59367416e-02, 6.27036616e-02, 5.80169782e-02,
       4.42624874e-02, 1.26205273e-02, 6.65663555e-02, 3.45993303e-02,
       -1.91071909e-02, -3.15386690e-02, -1.15955304e-02, 2.85876226e-02,
       2.40353271e-02, -1.65441167e-02, -3.03184167e-02, -1.13118617e-02,
       -1.56622659e-02, -1.21175044e-03, 3.69240381e-02, 1.93017069e-02,
       3.22974958e-02, 4.58020344e-02, 2.16687787e-02, 9.61381593e-04,
       -2.13218457e-03, 1.17381848e-02, -1.94212683e-02, -1.74834728e-02,
       -4.43779724e-03, 2.41288487e-02, 1.21028926e-02, -4.36313264e-02,
       -4.08511572e-02, -4.12407778e-02, -5.35070896e-03, 8.72509461e-03,
       -8.56724102e-03, -2.32517743e-03, 1.54642109e-02, -1.38238724e-02,
       7.32396264e-04, -1.38095031e-02, 1.17383599e-02, 1.17689499e-03,
       -1.43120745e-02, -1.18034314e-02, 2.96862540e-03, 1.11988010e-02,
       -3.96042094e-02, 1.37872249e-03, -7.52646057e-03, -1.72345899e-02,
       -1.72114726e-02, 1.30474968e-02, 1.74991135e-03, 1.26368972e-02,
       3.11986133e-02, 1.69358663e-02, 1.21887503e-02, 6.04500156e-03,
       2.67396681e-02, 3.20050530e-02, -2.54944190e-02, -2.15622541e-02,
       2.60540862e-02, 2.92071030e-02, -1.06699187e-02, 2.12185830e-02,
       -7.88655784e-03, -5.74401207e-03, -1.71156805e-02, 1.74220465e-02,
       -4.52213548e-03, -2.31960751e-02, -5.25987428e-03,
       -1.76526289e-02, -3.69561231e-03, -1.59856270e-03,
       -5.47034666e-04, 4.67010867e-03, 1.97253916e-02, 1.64272133e-02,
       1.06103066e-02, -9.64393280e-03, -1.16014406e-02, -1.35556199e-02,
       9.81818978e-03, -3.38471349e-04, 2.68982928e-02, 1.68947559e-02,
       -2.85133589e-02, -3.53431143e-02, 1.12593807e-02, 8.34714435e-03,
       2.83423550e-02, -8.37808533e-04, 4.51952778e-03, 2.09026076e-02,
       1.90939847e-02, 1.18687218e-02, 9.40289907e-03, 1.41019765e-02,
       -8.48393328e-03, 1.76312160e-02, 7.35890074e-03, 2.60471478e-02,
       2.76639909e-02, 1.66279450e-02, -1.58673059e-02, -1.03169754e-02,
       -1.48058450e-03, 3.45267951e-02, 5.43010933e-03, 1.32838171e-02,
       8.87248479e-03, 3.15844715e-02, 1.47903133e-02, -2.49941945e-02,
       -1.90543719e-02, 3.93763650e-03, -7.66544230e-03, 1.51693439e-02,
       1.85916461e-02, -3.76732834e-03, 2.88745463e-02, 2.26591341e-02,
       9.70030483e-03, -1.13493251e-02, 5.86091867e-03, -9.88801941e-03,
       -6.50710752e-03, -2.53777690e-02, -4.70912131e-03, 2.24084090e-02,
       5.97706996e-03, 7.91562721e-03, 7.04573654e-03, 2.46141125e-02,
       1.10358205e-02, -7.31712347e-03, -2.93309297e-02, -1.63122788e-02,
       1.44001134e-02, 1.66665856e-02, -2.74210759e-02, -2.85920408e-02,
       1.06557254e-02, 3.01033109e-02, 1.75772514e-02, -1.21780038e-02,
       -3.34478393e-02, 8.17564409e-03, 6.81103999e-03, 8.06233753e-03,
       7.89005402e-03, 9.90163171e-05, 1.92956312e-03, 5.77510381e-03,
       4.36830707e-03, -1.42371859e-02, -8.16142187e-03, 1.94268636e-02,
       -8.87945015e-03, 1.43340102e-03, 8.08620080e-03, 2.95631904e-02,
       4.24315018e-04, -1.46560092e-02, -1.27114514e-02, 1.44685246e-03,
       3.23801488e-02, 8.16601701e-03, 1.61657427e-02, -1.74998865e-03,
       -5.73799806e-03, 2.43833382e-03, 2.06239684e-03, -2.39343364e-02,
       3.38321216e-02, 1.73489843e-02, 2.58007701e-02, 2.10935734e-02,
       -1.56942084e-02, 1.15749938e-02, 1.32562714e-02, 1.99548248e-02,
       2.04688050e-02, -9.57162119e-03, -2.46789772e-02, -2.33195629e-02,
       -1.64990947e-02, -1.06727555e-02, -8.95289984e-03, 3.57533293e-03,
       -7.80486269e-03, 9.56875086e-03, 4.67659626e-03, 1.23280669e-02,
       3.85020953e-03, 5.19796740e-04, -1.50053937e-03, -6.21912768e-03,
       -1.55989071e-02, -1.26889143e-02, -1.49678178e-02, 5.93936245e-04,
       -6.38314709e-03, 3.73910018e-03, -1.95425209e-02, 1.04113966e-02,
       1.38361137e-02, 1.16813555e-02, -1.04820207e-02, 1.46486918e-02,
       2.45853849e-02, -1.45307677e-02, 7.73963111e-04, -3.25532840e-03,
       1.78856980e-02, 8.49769264e-03, -6.02516439e-03, -3.10567264e-02,
       6.01633862e-02, 5.02419733e-02, -9.83772613e-03, -6.76152762e-03,
       5.66322356e-03, -7.07059074e-03, 5.38322795e-03, -4.20187972e-03,
       -4.52669971e-02, 2.45238040e-02, 3.64925750e-02, -1.34620443e-03,
       -2.35977164e-03, -9.75503866e-03, 4.90989862e-03, 1.36915399e-02,
       -1.99063309e-02, -3.12559120e-02, 4.21760939e-02, 4.90833670e-02,
       -1.40147405e-02, -1.38234964e-03, -1.15278875e-02,
       -2.87789013e-02, 4.60351491e-03, -1.82991177e-02, -3.05337794e-02,
       2.18139738e-02, 1.49458777e-02, -2.31591556e-02, 1.82277095e-02,
       1.22668976e-02, 2.81302165e-02, 8.40980280e-03, -1.13418838e-02,
       -2.36909444e-04, 1.70288626e-02, 1.75842457e-02, -5.90629019e-02,
       1.10921944e-02, -6.98711351e-03, 3.18524241e-03, 4.07160679e-03,
       1.45547725e-02, -6.91709667e-03, -4.41433117e-03, -2.00072266e-02,
       7.35989120e-03, 7.82726705e-03, -2.50661355e-02, 4.55737393e-03,
       1.34974560e-02, -7.75253167e-03, -8.21658596e-03, 2.10609492e-02,
       4.07122960e-03, 7.96822645e-03, 3.12115438e-02, -2.23090015e-02,
       -3.68717220e-03, -1.30389910e-03, -1.05189357e-03,
       -4.49546473e-03, -1.58899522e-03, -8.12887959e-03,
       -2.53462009e-02, 1.24961007e-02, 1.64785162e-02, 9.49042756e-03,
       8.47006124e-03, 1.55490320e-02, -4.08632495e-03, 3.48964222e-02,
       2.03509778e-02, -2.21482627e-02, -4.54608118e-03, -4.57001524e-03,
       -2.50125751e-02, 4.06621490e-03, 1.16313174e-02, -1.25620663e-02,
       2.57827602e-02, 9.63283796e-03, 6.14995742e-03, 2.19296459e-02,
       -2.48870049e-02, 8.65691621e-03, 3.56777594e-03, 2.16770113e-05,
       6.48859015e-04, 9.13031772e-03, 1.00240884e-02, 2.90005258e-03,
       1.29907411e-02, -1.69987697e-02, -2.14743484e-02, 4.93233977e-03,
       -2.53704796e-03, 2.36317553e-02, 1.03570027e-02, 1.27593835e-03,
       -1.12952972e-02, 1.85305253e-02, -1.97224334e-04, 7.88161065e-03,
       -1.10091353e-02, 3.29508670e-02, 9.28685348e-03, 1.33756455e-02,
       2.33468730e-02, -9.36186686e-03, -1.58617087e-02, -8.71471036e-03,
       2.99146120e-02, 6.21464476e-03, -7.13859859e-04, -1.64704956e-02,
       -4.39716130e-03, 1.75572354e-02, 3.84252295e-02, 1.40130678e-02,
       -1.07244477e-02, -2.42111590e-02, -4.69462713e-03, 2.23443266e-02,
       2.42858622e-02, -9.64945834e-03, -3.65101732e-03, 3.74228647e-03,
       -5.58609050e-03, -8.47513089e-04, -1.34005938e-02, 3.54911690e-03,
       -8.56972113e-03, 2.37245462e-03, -1.63783028e-03, -4.93114302e-03,
       1.18933273e-02, 1.78430118e-02, 1.10351096e-03, 4.27740850e-02,
       3.79974060e-02, 1.06419856e-02, -2.07201969e-02, 7.49313831e-03,
       1.01098446e-02, 1.09996889e-02, 4.38299123e-03, -1.09069534e-02,
       1.31720491e-02, 1.12322411e-02, 1.27634285e-02, -3.17858858e-03,
       -4.30136546e-03, 2.28948076e-03, 1.28178038e-02, -2.67813588e-03,
       -1.40332393e-02, 1.17118265e-02, 1.36855207e-02, 1.18177701e-02,
       -1.99427754e-02, 5.81684988e-04, -7.01287156e-03, -8.80954508e-03,
       -6.40303781e-03, -1.96261201e-02, -8.86281300e-03, 1.88550889e-03,
       -6.57051860e-04, -2.83051301e-02, -9.42805782e-04, 2.21087858e-02,
       -2.95707001e-03, -2.83851684e-03, -5.94431674e-03, 3.48514244e-02,
       2.19257977e-02, 1.92035325e-02, -4.35995543e-03, 2.05844864e-02,
       9.81697533e-03, -2.26867869e-02, -1.98560869e-04, -2.58579627e-02,
       2.40170136e-02, 1.07400641e-02, -7.35069439e-03, -2.10256819e-02,
       1.19793126e-02, 2.29812600e-03, -1.72287063e-03, 1.26162255e-02,
       -9.06744227e-03, 5.34224976e-03, -1.30847534e-02, 1.12891616e-02,
       -1.93066373e-02, -1.13767153e-02, 3.10678268e-03, -1.57466643e-02,
       -4.38393885e-03, -2.04573795e-02, -5.08628873e-05,
       -1.24632437e-02, -7.79847894e-03, -1.77598167e-02,
       -5.40697714e-03, -3.31049822e-02, -1.18855741e-02, 1.28882630e-02,
       -5.68988593e-03, 2.11397205e-02, 2.11638566e-02, -1.72296744e-02,
       -6.49706507e-03, 9.29959770e-03, -5.20968763e-03, 1.19473627e-02,
       1.75670777e-02, 1.76472925e-02, 1.61665045e-02, 3.34690302e-03,
       2.45584883e-02, 4.74565750e-04, 9.64213628e-03, -1.61953550e-03,
       -3.56827676e-02, 2.07157545e-02, -3.34005430e-03, 6.03236957e-04,
       1.66398939e-02, -2.61778645e-02, -7.57900393e-03, 2.06284430e-02,
       -3.51435281e-02, -6.90615457e-03, 3.49364057e-02, -1.25211505e-02,
       -2.01478340e-02, -2.60924511e-02, 1.00247366e-02, -2.07063835e-02,
       1.49550114e-03, -2.91702878e-02, 6.48570713e-03, -1.31969794e-03,
       -5.22798253e-03, 9.94913373e-03, -3.36203957e-03, 1.66029278e-02,
       -3.40455142e-03, 1.11335050e-02, 2.28424780e-02, 4.87930980e-03,
       1.21140135e-02, 1.56858191e-02, 4.42709364e-02, -3.80609115e-03,
       -1.55511610e-02, -1.32842250e-02, -1.67781254e-03, 1.91389711e-03,
       2.63248738e-02, 7.03170337e-03, -3.54794040e-02, -1.13550490e-02,
       -1.31635824e-02, 1.50307650e-02, 1.01434877e-02, -1.14873061e-02,
       -1.48285285e-03, -3.99518125e-02, -1.35629987e-02,
       -3.98791470e-02, -2.47564632e-02, -5.87498769e-04,
       -1.62586104e-02, 3.96842806e-04, 4.10426920e-03, -2.56427955e-02,
       -6.46529486e-03, 1.56574827e-02, -8.59342050e-03, 5.90020455e-02,
       4.57918085e-02, 3.63178039e-03, -1.59183368e-02, 1.88685339e-02,
       -7.93269370e-03, -2.48627295e-03, 1.98960602e-02, -2.04202044e-03,
       1.21359006e-02, -6.65390166e-03, -1.76184382e-02, 3.69118789e-04,
       2.44379919e-02, 1.79906450e-02, -1.05901835e-02, 2.91015003e-02,
       -2.19055321e-02, -7.15824310e-03, 8.73917993e-03, -7.16571556e-03,
       -1.74811063e-03, 2.17238092e-03, -1.55357430e-02, -2.05333922e-02,
       1.38012525e-02, -9.83514264e-03, -9.76619869e-03, 5.74152404e-03,
       -3.19462605e-02, -3.13464142e-02, -1.85323767e-02, 1.00171159e-03,
       -9.23499931e-03, 2.23984811e-02, 1.83865335e-02, 4.42926362e-02,
       -1.02799572e-02, 1.30328126e-02, 7.76963262e-03, 8.16048682e-03,
       1.14591960e-02, 2.93336948e-03, 1.89852566e-02, 8.90021026e-03,
       1.89196002e-02, -2.19740043e-03, -7.88762700e-03, -1.06781349e-02,
       -2.62891054e-02, -1.79346539e-02, 1.78936720e-02, 1.36224804e-02,
       2.65993290e-02, 2.08802205e-02, -1.48018105e-02, -3.04577383e-03,
       -7.04210158e-03, -4.80978750e-03, 1.77883543e-02, 2.31596902e-02,
       1.33934096e-02, -1.01699801e-02, -2.21928582e-02, -1.75587591e-02,
       -1.02760391e-02, -6.61698123e-03, -1.21373427e-03, 2.06630174e-02,
       2.52212174e-02, 7.56493816e-03, -6.97971927e-03, -1.16675925e-02,
       -3.39312330e-02, 6.61493232e-03, 2.40771864e-02, 1.65866632e-02,
       1.35932444e-02, -8.39947537e-03, -3.15176658e-02, -2.78833066e-03,
       -3.45504358e-02, -2.51903310e-02, 4.31952029e-02, 7.81076821e-03,
       -2.87426673e-02, -7.23117497e-03, 1.56274177e-02, -8.11861828e-03,
       1.08079556e-02, 1.34501774e-02, 2.79705338e-02, 2.81450674e-02,
       2.83377208e-02, 6.86726486e-03, 3.92468181e-03, 1.51341865e-02,
       -3.86788882e-02, -1.19913425e-02, -3.72130051e-03, 1.89638650e-03,
       4.47478555e-02, -1.54254923e-03, -2.52205078e-02, 1.77839771e-02,
       7.76805263e-03, -2.74875518e-02, -3.58971357e-02, 1.46970395e-02,
       3.37500200e-02, 4.43174094e-02, -2.52018515e-02, -2.80567631e-02,
       2.22564992e-02, -3.93851008e-03, 2.71724816e-03, 4.28242609e-04,
       2.54107136e-02, 1.99746639e-02, 6.20094649e-02, 1.21790543e-03,
       3.64079745e-03, 1.90410316e-02, 3.51794325e-02, -5.12277475e-03,
       -6.40463224e-03, -4.41251136e-03, 5.75696956e-03, 3.37198600e-02,
       -3.39570083e-02, -5.33135012e-02, 4.08013910e-03, 2.51492783e-02,
       3.68394214e-03, -8.28563608e-03, 5.59084900e-02, -6.07818272e-03,
       2.23291758e-02, 7.85995740e-03, -2.92144287e-02, 7.99020659e-03,
       -1.16208484e-02, -3.58725362e-03, 1.91786364e-02, 9.47743002e-03,
       6.00071298e-03, 1.32758543e-02, -7.14132795e-03, 3.15526407e-03,
       -2.43098312e-03, -2.17091106e-03, -1.09451972e-02, 1.19874133e-02,
       1.53643135e-02, -2.16580741e-03, -4.33169305e-03, 3.29056010e-03,
       1.68676358e-02, 7.71731604e-03, 3.41599733e-02, -1.66846346e-03,
       8.40860419e-03, 1.76029857e-02, 3.34019400e-02, -2.03010673e-03,
       1.00438576e-02, -1.41412504e-02, -4.68188897e-03, 1.05590362e-03,
       2.28842068e-02, 2.48887623e-03, -5.65347122e-03, 3.52743617e-03,
       -9.25126113e-03, 1.21016959e-02, -1.10515384e-02, -1.36085395e-02,
       -1.90059736e-03, -4.17470094e-03, 3.00461124e-03, -1.00085679e-02,
       -1.53031182e-02, -1.58358794e-02, 1.28636239e-02, 1.35977957e-02,
       -1.83919985e-02, 1.89047065e-02, -1.14165572e-02, 1.13575086e-02,
       -9.76775493e-03, -5.41647151e-03, 1.31551642e-02, 4.03999444e-03,
       -8.90977774e-03, 1.46567989e-02, 1.13411271e-03, 2.15262379e-02,
       6.42896490e-03, 2.88788546e-02, 1.73353851e-02, -2.73016468e-02,
       1.67004112e-02, 2.14518681e-02, 1.47373434e-02, 3.84910218e-02,
       4.60266543e-04, 2.06517112e-02, 2.61201728e-02, -8.29400402e-03,
       1.37697044e-03, 2.40424909e-02, 2.55319085e-02, 2.31814105e-02,
       -1.22955702e-02, -4.70295921e-03, -3.20011255e-04,
       -3.13058030e-03, 1.70286372e-02, 7.15363398e-03, 6.32461114e-03,
       -1.66225005e-02, -5.10698417e-03, -6.70772651e-03, 6.79614162e-03,
       -6.28823740e-03, 1.70296710e-02, 1.20020173e-02, -1.47087304e-02,
       -1.58360079e-02, -7.48412730e-03, 1.74964312e-02, 3.45624518e-03,
       -1.01038637e-02, 9.63125098e-03, 8.57517123e-03, 7.54532311e-03,
       -7.79979164e-03, -1.72269754e-02, 3.28325946e-03, 9.16143227e-03,
       4.88706864e-03, 2.75461953e-02, -1.09836748e-02, 8.66252463e-04,
       -4.54843743e-03, -2.19870023e-02, -2.91277319e-02,
       -8.16135202e-03, -1.23992264e-02, -1.24760605e-02, 1.24320863e-02,
       8.65286030e-03, 3.05076540e-02, 2.09687185e-02, 8.80565844e-04,
       -1.79113057e-02, 3.41736674e-02, 3.81311937e-03, -2.41092164e-02,
       -2.19573150e-03, -3.64428409e-03, -8.37437250e-03,
       -9.45802405e-03, 8.17477331e-03, -1.43310996e-02, 5.04615709e-05,
       -2.04427466e-02, 6.73862780e-03, 2.50681043e-02, -5.27789863e-03,
       1.90946590e-02, 3.00148297e-02, 3.85924662e-03, -1.99544672e-02,
       3.42000574e-02, -1.46112563e-02, -2.84898980e-03, -7.69566046e-04,
       -7.63276033e-03, -1.06285317e-02, 2.20473483e-03, 1.56014729e-02,
       -1.60748549e-02, 1.95085574e-02, -1.26312673e-02, -7.84379896e-03,
       2.55262647e-02, -1.56325866e-02, 1.02416184e-02, 1.55566838e-02,
       2.15663910e-02, -8.76026321e-03, -2.00189557e-03, 1.77644026e-02,
       -1.01413662e-02, 1.63533427e-02, -1.69831645e-02, -1.54464729e-02,
       8.06084741e-03, 9.11151525e-03, -5.09686349e-03, 2.52898782e-02,
       -4.08208231e-03, -7.26514822e-03, 1.25633674e-02, -3.31501447e-04,
       -1.55247853e-03, 1.01619232e-02, 2.51338296e-02, -2.65854746e-02,
       -2.56517678e-02, -1.87559873e-02, -1.81219187e-02, 2.19736677e-02,
       -1.45715121e-02, -3.68057452e-02, -7.36641092e-03, 1.04179513e-02,
       -2.28751842e-02, -3.35370898e-02, -2.37754043e-02, 1.54786780e-02,
       2.21772287e-02, 9.25795175e-03, 1.87211428e-02, 1.64561551e-02,
       3.20645086e-02, -4.08420386e-03, 1.69855487e-02, 8.99552274e-03,
       -2.86701694e-03, -4.61080344e-03, -2.32853349e-02,
       -1.23427557e-02, -6.77534332e-03, -6.57427125e-03,
       -2.00618822e-02, 1.94240306e-02, -1.86459702e-02, 6.77759154e-03,
       2.42138803e-02, 3.06967436e-03, -1.53348772e-02, 2.72177655e-04,
       2.19847765e-02, -3.69450264e-03, -1.02775730e-03, -2.26025507e-02,
       4.08640318e-03, 2.74244156e-02, -3.87791283e-02, -2.71202587e-02,
       -4.63536102e-03, 4.67524957e-03, -9.94935259e-03, 1.25060044e-02,
       -1.63133051e-02, 2.31318660e-02, 1.47293704e-02, -1.74960457e-02,
       2.87554227e-03, 6.13230653e-03, 2.69340705e-02, 2.10749879e-02,
       2.08239891e-02, 1.46928076e-02, 6.92541071e-04, -4.32823203e-04,
       -1.06138084e-02, -5.89319970e-03, -1.10116471e-02, 2.01794482e-03,
       -1.62279643e-02, -1.04089556e-02, -2.32225955e-02,
       -5.84643858e-04, 2.28205230e-02, -2.52398867e-02, 1.00622289e-02,
       -1.29730450e-02, 1.85815133e-02, 8.88399035e-03, 1.30294217e-02,
       5.84640540e-03, -8.92208051e-03, 3.07278819e-02, -1.64497364e-02,
       1.52441096e-02, -1.01668597e-03, -2.56344564e-02, -2.54300367e-02,
       6.12767763e-04, 6.35958975e-03, 3.44197662e-03, -3.28721898e-03,
       -4.29636799e-03, 2.97797937e-02, -1.84548367e-02, -7.08078220e-03,
       1.12767844e-02, -6.84837252e-03, -5.22408960e-03, -1.42635927e-02,
       -4.37206728e-03, -8.90668668e-03, -1.48280542e-02,
       -1.74119826e-02, -6.89396868e-03, 1.07759954e-02, 8.00967403e-03,
       -3.29368305e-03, 6.60364702e-03, 3.77700217e-02, 1.46940770e-02,
       3.18530612e-02, -1.55163521e-03, 1.94138754e-02, 7.34249642e-03,
       6.49038190e-03, -3.28101567e-03, -1.80467479e-02, -2.89203785e-03,
       -3.63012310e-03, 1.04647009e-02, 1.46282697e-03, 1.35255884e-02,
       -1.24581605e-02, -1.66271615e-03, -1.45656699e-02, 2.82916590e-03,
       2.32043471e-02, -3.21205496e-03, 1.83642488e-02, -2.19824514e-03,
       1.94481686e-02, 1.12900473e-02, 6.29836041e-03, 2.09599081e-02,
       1.77159142e-02, 1.66157093e-02, -1.20803276e-02, 4.31390945e-03,
       1.46233768e-03, 2.65829880e-02, -8.70020408e-03, 1.00865308e-02,
       2.47380696e-03, 8.31073616e-04, -7.30085000e-03, -1.79224815e-02,
       -1.00039467e-02, -1.08319782e-02, -1.43668726e-02,
       -3.09742894e-02, 3.43709649e-03, -1.17391758e-02, 1.78587474e-02,
       -8.94346181e-03, -3.35247926e-02, 6.99178840e-04, -3.69235000e-04,
       -2.03187540e-02, -3.72318886e-02, 5.98943559e-03, 1.83784906e-02,
       -2.63253669e-03, 4.26324718e-02, 3.45622422e-03, 1.09499050e-02,
       9.15445096e-04, 1.55726932e-02, 6.10245764e-03, 2.33731456e-02,
       1.01200333e-02, -1.42694414e-02, 2.52742823e-02, -2.05350737e-03,
       -7.17274053e-03, 2.40351656e-03, 2.15578023e-02, -8.70475022e-04,
       9.88175627e-03, -6.69684261e-04, 1.11187343e-03, 1.78447273e-02,
       -1.88853163e-02, 8.88364017e-03, 2.33722813e-02, 3.89222568e-03,
       -3.35740522e-02, 2.99818395e-03, 8.34527053e-03, -2.45441943e-02,
       3.41447419e-03, -9.82540101e-03, -2.05039941e-02, 4.84544830e-03,
       4.37752623e-03, -5.20136068e-03, -7.72937993e-03, 9.89853032e-03,
       -4.95603634e-03, -4.69581643e-03, -2.19164547e-02, 4.27313382e-03,
       4.37837653e-03, 3.48721333e-02, 5.65339811e-03, -2.02132855e-03,
       2.27231085e-02, -2.63525434e-02, -3.76493633e-02, -3.37080806e-02,
       -1.24811027e-02, -9.83846001e-03, -1.49683896e-02, 1.01124318e-02,
       -4.10861941e-03, -6.64665038e-03, -2.73278076e-02, 6.37266785e-03,
       -7.34962756e-03, -1.95576139e-02, 1.50767351e-02, 1.59193818e-02,
       9.01717786e-03, -1.23357335e-02, -1.75914224e-02, -1.19663207e-02,
       3.21585350e-02, -1.87844280e-02, -2.37861499e-02, -1.24649610e-02,
       -3.36324833e-02, -2.09573582e-02, 1.19137922e-02, -1.31637063e-02,
       -8.01863428e-03, 2.17290018e-02, -5.47591317e-03, 2.62950435e-02,
       3.76658328e-02, 1.89762376e-02, 1.26934499e-02, 1.08833741e-02,
       -2.54972861e-03, -1.39537947e-02, 1.90624055e-02, 1.31054269e-02,
       9.35235992e-03, 7.09430175e-03, 1.30651472e-03, -6.04637386e-03,
       5.78128826e-03, -2.84979935e-04, -6.22743275e-03, 9.48041957e-03,
       -1.88466776e-02, 6.81460090e-03, 4.91748331e-03, 2.70699076e-02,
       3.39082835e-05, 2.51898132e-02, -1.52106918e-02, -8.22876580e-03,
       -2.53456924e-03, -2.36324631e-02, -3.30012366e-02, 9.38825961e-03,
       -2.53730714e-02, -2.32304949e-02, -8.46038666e-03,
       -1.71327483e-04, 2.00867280e-03, 2.84931506e-03, 1.48641504e-02,
       1.88278053e-02, 1.11015402e-02, 1.18512325e-02, 1.91291340e-03,
       2.02574600e-02, 3.83651978e-03, -4.19624709e-03, -1.45609388e-02,
       5.23020281e-04, -4.79745591e-04, 1.65829621e-02, 8.04546929e-04,
       1.31868357e-02, -2.27743294e-02, -1.73437421e-03, 6.56580413e-03,
       2.31551118e-02, -6.15104428e-03, -9.74802580e-03, -5.05322358e-04,
       1.26875639e-02, 1.27237840e-02, 1.60808265e-02, 1.17865251e-03,
       8.14535748e-03, 5.90552995e-03, -1.46965031e-02, 1.41425300e-02,
       4.37920429e-02, 1.49817737e-02, 1.63596682e-02, -2.49904580e-03,
       -1.40356673e-02, 1.74369453e-03, -2.46852171e-02, 1.00644045e-02,
       1.28515614e-02, -7.13113043e-03, -2.56924867e-03, 9.92974825e-03,
       -2.32598539e-02, 7.15496426e-04, -3.00948904e-03, -3.12436558e-02,
       2.95161013e-03, 1.94493681e-02, -2.12601218e-02, -1.07989898e-02,
       -3.09788641e-02, -3.02688703e-02, 2.18959395e-02, 1.59024037e-02,
       9.30638146e-03, -2.35984102e-03, 9.36163403e-03, -3.02047655e-03,
       1.88645851e-02, -2.55149999e-03, -1.43351383e-03, 1.16481818e-02,
       1.52537599e-02, 5.32126287e-03, -3.31478426e-03, -2.05183029e-02,
       -1.82274003e-02, 3.28371860e-02, -1.08736781e-02, -1.85393076e-02,
       3.95618491e-02, -1.58170450e+00 ]
