%YAML:1.0
---
myHogDector: !!opencv-object-detector-hog
   winSize: [ 64, 128 ]
   blockSize: [ 16, 16 ]
   blockStride: [ 8, 8 ]
   cellSize: [ 8, 8 ]
   nbins: 9
   derivAperture: 1
   winSigma: 4.
   histogramNormType: 0
   L2HysThreshold: 2.0000000000000001e-01
   gammaCorrection: 1
   nlevels: 64
   signedGradient: 0
   SVMDetector: [ 8.29737820e-03, -3.44212912e-02, -9.14372411e-03,
       3.07646040e-02, 4.83410880e-02, -1.67637840e-02, -3.12201921e-02,
       -9.73394699e-03, 1.45855332e-02, 4.59196307e-02, -1.83344875e-02,
       5.27714286e-03, 2.24780664e-02, 1.84364468e-02, 2.26291474e-02,
       -1.64951440e-02, -2.26304494e-03, 2.45280657e-02, 1.96977295e-02,
       -1.33265574e-02, 2.83174217e-02, 3.82056981e-02, 7.35713262e-03,
       -1.01631740e-02, -2.46710293e-02, -3.59630026e-02,
       -1.03373593e-02, 3.50816436e-02, -1.03333648e-02, 1.87282283e-02,
       3.91832441e-02, -2.46748962e-02, 3.24703529e-02, -1.36153791e-02,
       -2.11031805e-03, 1.32613014e-02, -9.63627733e-03, -3.35329622e-02,
       1.49113294e-02, 1.78121887e-02, 3.01067233e-02, -6.02271641e-03,
       -2.31154766e-02, -1.02548506e-02, 7.57163623e-03, -6.12987066e-03,
       -5.16034383e-03, 2.66930405e-02, 1.78854559e-02, 2.14451794e-02,
       -6.44556805e-03, -1.35634514e-02, 2.92312093e-02, 1.73058193e-02,
       -1.01559246e-02, -3.64723317e-02, -7.73220463e-03, 1.81097295e-02,
       -2.02470529e-03, 3.28771286e-02, -1.99076217e-02, -5.75295556e-03,
       1.60757098e-02, 1.00323446e-02, 3.95066250e-04, -8.34507216e-03,
       2.24178257e-05, -8.17834027e-03, 1.89236738e-02, -9.51529574e-03,
       -6.74309116e-03, 3.05378214e-02, 2.17355113e-03, -2.94241705e-03,
       7.47040287e-03, 1.05351629e-02, 1.64645389e-02, 9.64654516e-03,
       -8.75067059e-03, 3.83331999e-02, 1.52814072e-02, 1.06794517e-02,
       -1.99028067e-02, 2.21021120e-02, 2.36151740e-03, 3.33417132e-02,
       4.47731325e-03, 1.10397404e-02, 1.50535312e-02, 1.59429628e-02,
       -4.83377511e-03, -8.05465132e-03, -1.16767380e-02,
       -8.32704303e-04, -1.63068753e-02, -4.07449622e-03,
       -1.96510889e-02, 1.22436192e-02, -5.40537573e-03, -1.90201346e-02,
       -2.65564304e-02, -1.97210461e-02, -2.86062192e-02,
       -1.32552220e-03, -2.79348455e-02, 6.33170642e-03, -1.45895150e-03,
       -2.75955163e-02, 1.97054558e-02, 1.69885904e-02, 1.35605102e-02,
       5.13710780e-03, 1.40508814e-02, 5.05976751e-03, 8.71570606e-04,
       -1.17526418e-02, 2.51953695e-02, -2.83699445e-02, -4.02869977e-04,
       -2.10159104e-02, -1.48299085e-02, -9.79351066e-03,
       -8.76109675e-03, 1.48971174e-02, 2.95622908e-02, -1.61693916e-02,
       -2.99987458e-02, -2.78503797e-03, -5.39141567e-03, 7.30724866e-03,
       -1.59249268e-03, 9.45432018e-03, 1.24398191e-02, 1.65789165e-02,
       -1.56813841e-02, -3.44313793e-02, -4.14730906e-02,
       -4.13071625e-02, -2.37059966e-02, -2.14403365e-02,
       -1.39601119e-02, 1.41295852e-04, 1.51346829e-02, -2.01554541e-02,
       -3.71464193e-02, 4.02659811e-02, -1.40518956e-02, -1.41612021e-03,
       1.62636787e-02, 4.61889082e-04, 6.86626043e-03, 3.58168222e-02,
       -2.93300450e-02, -1.43705141e-02, -9.66577884e-03,
       -4.03840430e-02, -1.34155964e-02, 1.91572327e-02, -9.56889987e-03,
       -2.67783329e-02, -1.30907702e-03, -6.91136345e-03,
       -3.30105913e-03, 4.76008728e-02, -1.29813887e-02, -3.06444685e-03,
       -1.03908740e-02, 3.55288875e-03, 3.63494866e-02, 4.15818393e-02,
       -6.15574652e-03, -2.81125046e-02, 4.77128522e-03, -1.71497688e-02,
       -2.30976772e-02, -6.19257241e-03, -1.46925179e-02, 1.90528799e-02,
       -4.27026395e-03, -1.07347323e-02, -8.18914152e-04,
       -3.78582217e-02, -3.68209966e-02, 5.87661006e-03, 1.71875302e-02,
       1.74449366e-02, -4.41666367e-03, 1.64933652e-02, 1.22196488e-02,
       -6.52152346e-03, -5.49727082e-02, -3.31624486e-02, 2.96233483e-02,
       8.76801554e-03, -4.58446704e-02, -6.69694971e-03, -1.25582679e-03,
       6.14190847e-03, 3.04235164e-02, 5.61228115e-03, -1.99143048e-02,
       1.35394717e-02, -1.84774287e-02, 1.25623308e-02, 1.23060504e-02,
       2.92058997e-02, -1.92836449e-02, 9.88855399e-03, -1.74067058e-02,
       -1.29270982e-02, 8.52452870e-03, -1.08526340e-02, -2.61948835e-02,
       5.46042062e-03, 1.66434720e-02, -8.88153259e-03, 1.46308001e-02,
       -1.41227646e-02, -1.82861593e-02, 5.49370609e-02, 1.75191797e-02,
       -2.71258280e-02, -4.17268323e-03, 2.76122754e-03, 1.84722636e-02,
       -1.56789888e-02, -1.78071074e-02, -2.58890428e-02, 2.91638803e-02,
       1.95476469e-02, -1.33235073e-02, -4.39647287e-02, -3.93382134e-03,
       -2.72911484e-03, 6.38977916e-04, -2.51201708e-02, -1.75938066e-02,
       3.48557010e-02, -7.31528550e-03, -1.37210055e-03, 1.61306243e-02,
       2.03350522e-02, 1.47956274e-02, -1.63722113e-02, -4.38990258e-02,
       -1.34711945e-02, 1.57539092e-03, 1.50982407e-04, -1.30802132e-02,
       -2.72127781e-02, -7.70754181e-03, 1.18443361e-02, -7.65780034e-03,
       3.53329978e-03, -1.52029442e-02, 1.35123134e-02, 1.88423265e-02,
       1.09619051e-02, -3.77106816e-02, 1.27672367e-02, -5.79741690e-03,
       -1.28282458e-02, -2.73226737e-03, -1.61960050e-02,
       -4.31142673e-02, -1.44188218e-02, 3.39767127e-03, -7.57304532e-03,
       1.32230986e-02, -1.66702624e-02, 8.31704680e-03, 3.13778012e-03,
       -3.35922278e-03, 1.02534071e-02, 1.80531815e-02, 1.58508532e-02,
       -1.33177806e-02, 3.76479663e-02, 3.04219387e-02, 1.49277691e-02,
       7.08976667e-03, 1.93665235e-03, -1.89961605e-02, -5.34595270e-03,
       4.86768922e-03, 1.14836749e-02, 2.56527048e-02, 5.94576122e-03,
       -4.23701964e-02, -7.02175405e-03, 7.14165950e-03, -8.32831860e-03,
       -1.43715348e-02, 9.16292798e-03, -1.80546893e-03, 1.00760311e-02,
       -4.50246222e-03, -2.31397264e-02, -1.54419504e-02,
       -1.59425046e-02, 1.44904796e-02, -1.41904652e-02, -9.47308447e-03,
       -1.95201635e-02, 1.88392354e-03, -2.41033453e-02, -8.69247969e-03,
       1.06716640e-02, 2.32790061e-03, -2.25351122e-03, -2.65689902e-02,
       1.52627137e-02, 2.55041346e-02, 1.14192050e-02, 8.84694420e-03,
       -2.68324595e-02, 1.24741085e-02, -4.70211077e-03, 8.65654461e-03,
       -1.98000274e-03, 1.99433472e-02, -7.63964700e-03, -2.05393564e-02,
       -1.38371615e-02, -1.11349160e-02, 3.89497681e-03, -5.41262003e-03,
       -3.71142803e-03, -4.08443948e-03, -2.48318687e-02,
       -3.52128260e-02, 6.91060862e-03, 2.15001274e-02, -1.24139115e-02,
       -3.72263268e-02, -4.36716788e-02, -3.44663784e-02, 5.00910776e-03,
       -1.80683974e-02, -3.13238278e-02, -2.29720902e-02,
       -2.04896107e-02, -1.17219631e-02, 1.49727613e-02, 4.29428555e-03,
       2.01699436e-02, 2.13593505e-02, 2.84303594e-02, 2.96045328e-04,
       1.06969215e-02, 1.24337887e-02, -6.57050312e-02, -1.92369428e-02,
       -2.66986545e-02, -2.50771921e-03, -2.32758708e-02, 1.10003687e-02,
       8.09444487e-03, -1.38963358e-02, -2.30557062e-02, -3.33494437e-03,
       -2.59261169e-02, -2.07525361e-02, -4.12882678e-03, 9.68740601e-03,
       -1.61345825e-02, -2.36603972e-02, -2.45683417e-02,
       -2.41563879e-02, -6.50644768e-04, -2.40188539e-02, 1.01819765e-02,
       1.56738795e-02, -4.12840582e-02, -1.68313738e-02, -3.32034007e-02,
       -1.34963049e-02, -6.02514669e-03, -2.51352116e-02, 2.82427631e-02,
       1.00015700e-02, -1.93794735e-03, 1.02417888e-02, 2.35062465e-02,
       1.30296145e-02, 1.30565073e-02, -1.28154838e-02, 1.07161887e-02,
       3.55913341e-02, 1.65191032e-02, 3.82559970e-02, -1.73787568e-02,
       -1.15952799e-02, -2.18261536e-02, 3.18025984e-03, -1.04563758e-02,
       -3.08324341e-02, -5.82171464e-03, 1.38121042e-02, 2.37614512e-02,
       -3.54129560e-02, 1.60861462e-02, 1.29154446e-02, 4.49331030e-02,
       1.21300323e-02, -3.80920805e-02, -9.50933900e-03, -2.01676767e-02,
       -1.81279276e-02, -3.15105505e-02, -9.16300807e-03,
       -2.86623128e-02, 1.97996330e-02, -7.08469376e-03, -2.46304553e-03,
       1.19405976e-02, 2.18574870e-02, 4.78390455e-02, 2.87896357e-02,
       4.80844174e-03, 2.56556296e-03, 2.88829394e-02, 2.68367566e-02,
       -6.06444851e-02, -2.91500892e-03, 1.84839293e-02, 2.47634569e-04,
       1.70567073e-02, 2.41443440e-02, -9.52026621e-03, -9.06748418e-03,
       -1.38588166e-02, -2.24202592e-02, 1.73835095e-03, -2.50589731e-03,
       9.84179787e-03, -2.39512492e-02, -1.01613812e-02, -2.86833029e-02,
       -1.28499847e-02, 5.25381649e-03, -1.51316701e-02, -2.71860864e-02,
       4.27465001e-03, -2.40506511e-02, 1.58035522e-03, 3.13005410e-03,
       -1.14419935e-02, 1.45906163e-02, -1.07175484e-03, -2.60931980e-02,
       -6.18514372e-04, 1.69772170e-02, 2.37963758e-02, 1.05117746e-02,
       2.63869688e-02, 3.15221660e-02, 2.00215168e-02, -4.05469490e-03,
       -7.42227631e-03, 8.05621315e-03, 3.43142189e-02, -3.29312682e-03,
       1.15013570e-02, -6.49411837e-03, 3.19402702e-02, 1.80669948e-02,
       1.59550039e-03, -2.02071890e-02, 4.85315640e-03, 4.74210009e-02,
       1.69397481e-02, 1.21446578e-02, -1.77384354e-02, -2.82668751e-02,
       1.31321587e-02, 5.37872361e-03, -1.09799830e-02, -3.50460671e-02,
       4.82799159e-03, 2.59872079e-02, 9.23515204e-03, 2.65465025e-03,
       -4.05164249e-02, -3.69346254e-02, 1.45173836e-02, -2.81499885e-02,
       1.01408511e-02, 3.29393446e-02, -1.70062725e-02, -3.87270772e-03,
       1.72181276e-03, -1.25037730e-02, 2.30446248e-03, 3.93547826e-02,
       -1.26294717e-02, -2.45424788e-02, 1.46361664e-02, 1.03655597e-03,
       1.49868177e-02, 2.54277997e-02, -2.47317180e-02, -3.92936505e-02,
       1.53758507e-02, 5.59312990e-03, -2.65935399e-02, -1.97737142e-02,
       5.10396948e-03, -2.48583350e-02, 2.42966264e-02, -2.27465630e-02,
       -9.49746091e-03, 3.49595621e-02, 4.23224531e-02, -1.26618380e-02,
       -1.74908852e-03, 7.73975346e-03, -1.54371066e-02, -1.36793284e-02,
       4.86367429e-03, -7.45563069e-03, 5.18200211e-02, 2.78874906e-03,
       -3.59214172e-02, -1.78217026e-03, 1.32737346e-02, -9.90380812e-03,
       5.02186231e-02, -9.63136926e-03, -1.57558974e-02, 1.69208162e-02,
       4.56917435e-02, -2.39412431e-02, 1.67762153e-02, -1.24488573e-03,
       -1.94517300e-02, 4.79857624e-03, 1.97993610e-02, -2.69788783e-02,
       3.18973660e-02, 5.15611656e-03, -3.35448273e-02, -4.04590042e-03,
       2.01708786e-02, 2.81436536e-02, 1.15011288e-02, -3.50889042e-02,
       -2.83751320e-02, -1.05406735e-02, 1.68517455e-02, -1.53583977e-02,
       9.68071911e-03, 2.21526753e-02, -8.35422799e-03, 4.92178313e-02,
       -1.87532324e-02, 8.62585939e-03, 1.43024419e-02, -1.04267839e-02,
       -6.63015321e-02, -3.46951447e-02, -7.93775078e-03,
       -1.65377017e-02, -2.45163240e-03, -5.74218333e-02,
       -3.15893032e-02, 1.09949484e-02, 3.55778262e-02, -4.10362333e-02,
       -4.52139787e-03, -9.84692946e-03, -4.80910577e-02, 3.99142206e-02,
       6.88760960e-03, 1.83909871e-02, 3.70279029e-02, -1.39982821e-02,
       -4.45355885e-02, -1.42108332e-02, -8.98036081e-03, 2.37167217e-02,
       2.95771845e-02, -2.80160885e-02, 8.33114237e-03, 2.19390579e-02,
       4.03507054e-03, -2.80569810e-02, -4.32244129e-02, -4.05935720e-02,
       -1.96161144e-03, 1.86145250e-02, -1.55707996e-04, 4.03777417e-03,
       2.19557621e-02, 6.34958455e-03, -1.77807380e-02, 2.69141160e-02,
       7.66371028e-04, -6.25551259e-03, 1.89497806e-02, -1.91666223e-02,
       -3.50838378e-02, 4.13094787e-03, 6.49098353e-03, -1.55540807e-02,
       1.75724588e-02, -1.72399520e-03, -3.24077457e-02, -1.32493125e-02,
       -2.32641660e-02, -3.75623219e-02, 9.14432295e-03, 2.24239305e-02,
       -1.27125103e-02, -3.38204168e-02, -2.46668141e-02, 2.52583437e-02,
       1.62222944e-02, 2.51894095e-03, -5.01582073e-03, 2.55279057e-02,
       1.44507401e-02, 1.33462306e-02, -8.38462915e-03, -2.51579862e-02,
       -3.75844166e-03, -4.09717159e-03, 3.91482413e-02, 1.06937420e-02,
       1.37042077e-02, 3.87919106e-04, -2.11853161e-02, -2.57846322e-02,
       -2.90803611e-02, 2.41685323e-02, 1.00026373e-03, -4.18093568e-03,
       7.53859151e-03, 3.80896404e-02, -4.81496826e-02, 5.73259406e-03,
       -1.19418241e-02, -3.18755023e-02, 3.56950122e-03, -2.64452621e-02,
       8.84245150e-04, 2.79480685e-02, -3.58525440e-02, 5.80599997e-03,
       2.18102466e-02, 1.30495476e-02, -2.56165396e-02, -9.61258821e-03,
       1.66730478e-03, 1.99835226e-02, -2.82615423e-03, -8.09959229e-03,
       -3.38754413e-04, 1.44234123e-02, 1.17725972e-02, -3.03014629e-02,
       1.33414846e-03, -4.98066470e-03, -2.01107413e-02, -2.02778745e-02,
       -1.15301348e-02, -7.29331095e-03, 6.74083531e-02, 4.86778021e-02,
       5.72318304e-03, -2.45695859e-02, -9.77325439e-03, 3.64362798e-03,
       2.65133213e-02, -2.36632358e-02, -1.90608352e-02, 6.02025613e-02,
       4.00041193e-02, -3.35759670e-02, 1.22846551e-02, -2.79642008e-02,
       -3.73127274e-02, -2.52578557e-02, -1.68288033e-02, 2.21167505e-02,
       5.25235422e-02, -8.59045051e-03, -3.49251851e-02, -4.16506128e-03,
       -7.13197980e-03, -3.15020955e-03, -5.87813498e-04,
       -3.37062450e-03, -7.01092975e-03, 3.42538133e-02, -1.68163739e-02,
       -3.98334935e-02, -6.15025638e-03, -1.31454300e-02,
       -1.49303870e-02, 3.48611153e-03, -7.52577849e-04, 3.19072418e-02,
       8.16398188e-02, 1.78159066e-02, -3.84487510e-02, -1.04518014e-03,
       6.87584607e-03, -1.54349273e-02, -7.26309186e-03, -8.43429565e-03,
       3.16382833e-02, 4.09252122e-02, -4.86465450e-03, -9.45032388e-03,
       4.57793772e-02, 3.60576063e-03, -1.57246254e-02, -1.26778288e-03,
       -1.66460443e-02, 2.02483796e-02, 2.67850794e-02, -1.08861113e-02,
       -1.95907746e-02, 1.31889712e-02, 1.61484778e-02, -7.64444610e-03,
       1.42528955e-02, 1.15164882e-02, 1.52394343e-02, -1.44351763e-03,
       -1.02963662e-02, -1.72180682e-02, 1.34596962e-03, -6.11803122e-03,
       6.81919465e-03, 1.73625238e-02, 2.05736281e-03, 1.83927733e-02,
       6.14279769e-02, 2.81653721e-02, 1.70916342e-03, 1.44079411e-02,
       6.06058072e-03, -1.44953718e-02, 1.04451776e-02, -1.42553682e-02,
       -1.24416985e-02, 1.73712298e-02, 1.70037095e-02, -2.04933528e-02,
       -6.87173149e-03, -2.42831539e-02, -1.14496192e-02,
       -1.15226479e-02, -5.61160743e-02, -2.03107353e-02,
       -1.98052153e-02, -1.67701226e-02, 1.98774952e-02, 1.68775208e-02,
       7.67993927e-03, 6.76968880e-03, 3.97080556e-03, -1.04831373e-02,
       -2.43271957e-03, 1.20027724e-03, 7.86622707e-03, -5.64424228e-03,
       1.70818344e-02, -4.13948856e-02, -1.33121926e-02, 9.45516396e-03,
       1.34285465e-02, 9.61155258e-03, 4.43657339e-02, 8.48410418e-04,
       2.85300817e-02, 1.57230459e-02, 1.11133019e-02, 1.35753499e-02,
       -6.45728689e-03, -3.15535292e-02, 3.36496979e-02, 5.51100709e-02,
       9.48702358e-03, -4.24906192e-03, 1.41981104e-02, -1.51406201e-02,
       6.87818462e-03, 1.68716069e-02, -1.53346546e-02, 1.39997955e-02,
       -3.62178427e-03, 2.99825007e-03, 1.97454356e-03, 1.49670581e-03,
       -2.75748670e-02, -6.88864104e-03, 2.80175395e-02, 9.93379299e-03,
       -3.98377051e-05, -1.47498054e-02, -1.92661248e-02, 1.43103246e-02,
       1.21037615e-02, 4.12573991e-03, -1.77771859e-02, 1.47315394e-03,
       7.77260819e-03, 4.80143540e-02, 4.47827764e-02, -2.81033106e-02,
       7.03615416e-03, 1.66755170e-02, 2.66348217e-02, 8.68320651e-03,
       2.89970841e-02, 1.23065747e-02, -1.07863303e-02, 2.12459769e-02,
       -4.68879081e-02, 2.79885400e-02, 6.56867400e-02, 3.45726199e-02,
       -1.92641336e-02, -1.35764182e-02, 2.29070950e-02, 5.71025116e-03,
       8.23191926e-03, -2.67690998e-02, 2.73854565e-03, 1.06132561e-02,
       2.03343201e-02, -6.08609011e-03, 5.48440684e-03, 1.54455500e-02,
       1.10624107e-02, -2.47527519e-03, -2.37502996e-02, -4.84666508e-03,
       3.20374570e-03, 1.78484265e-02, -3.82828317e-03, -3.74075063e-02,
       -2.69166939e-02, -1.21741053e-02, 2.40709372e-02, -2.42034178e-02,
       1.37366373e-02, 4.41514961e-02, 6.00500666e-02, 1.95743260e-03,
       3.36460490e-03, 2.58106110e-03, 7.53985485e-03, -7.15260766e-03,
       -1.39651517e-03, 1.47874793e-02, 4.37757524e-04, 1.79297533e-02,
       -7.82205351e-03, -1.75585784e-02, -2.78616082e-02,
       -3.66753346e-04, -1.49825551e-02, -2.97390260e-02, 4.96802013e-03,
       -1.01536168e-02, 8.26954283e-03, -1.33745568e-02, -2.87345592e-02,
       -2.89983451e-02, -1.91379897e-02, -1.11337919e-02,
       -2.73913499e-02, -8.98749940e-03, -4.26817834e-02, 8.59314483e-03,
       -2.65001785e-04, -1.72525048e-02, -2.35174559e-02, 3.84688750e-02,
       4.34648544e-02, -5.20645129e-03, 2.44029947e-02, 1.35982558e-02,
       3.29802483e-02, -1.93582810e-02, -1.14364142e-03, -1.99168846e-02,
       1.70711707e-02, 2.04144698e-02, -2.24706978e-02, -3.47806141e-03,
       5.44771086e-03, 1.12943118e-02, -3.19615901e-02, -6.36640610e-03,
       1.31314863e-02, -2.03868505e-02, 3.30933332e-02, -6.32041367e-03,
       -1.69010982e-02, 5.97148864e-05, 3.36758047e-02, 1.76086940e-03,
       3.26127699e-03, -3.11718322e-02, -1.31493164e-02, -1.25432620e-02,
       -2.17798091e-02, 1.08502340e-02, -3.44958305e-02, 1.52808512e-02,
       -1.31247900e-02, -3.11749824e-03, -1.14483936e-02, 1.78339165e-02,
       1.86570194e-02, -1.89246517e-02, -1.36011867e-02, 3.01416777e-02,
       2.63770875e-02, -4.33752453e-03, 1.14448648e-02, -3.70848179e-03,
       7.49138370e-03, 5.15330536e-03, -2.60636001e-03, 1.17619550e-02,
       4.41083536e-02, 5.21468818e-02, -6.68506417e-03, -6.46158401e-03,
       4.17246483e-03, -1.12802023e-02, -9.00271256e-03, -1.72141939e-03,
       2.37310603e-02, 5.86446654e-03, -1.42170144e-02, -2.51656603e-02,
       -1.53403683e-03, -1.17342768e-03, -8.58566537e-03, 8.72698426e-03,
       2.80847633e-03, -1.46235095e-03, -4.49639820e-02, -2.46106312e-02,
       -1.96547471e-02, -6.93007838e-03, -2.58983038e-02, 1.40825585e-02,
       2.68758610e-02, 1.99766420e-02, 2.27509364e-02, 2.97704432e-02,
       2.67276783e-02, 1.94167742e-03, 1.82659563e-03, -8.84803105e-03,
       2.76450049e-02, 3.90372276e-02, 1.60488822e-02, 1.10173663e-02,
       2.17938703e-02, 1.00979842e-02, -9.80690867e-03, 2.07006698e-03,
       -2.24198564e-03, -2.33593807e-02, 6.81420090e-03, -2.41987756e-03,
       -2.50279512e-02, -3.99469063e-02, -7.91642163e-03,
       -4.57431423e-03, 1.75468959e-02, -2.11388804e-02, -2.55840272e-02,
       -2.62370594e-02, -1.15981484e-02, -3.17410491e-02,
       -5.41713051e-02, -4.39480133e-02, -9.47102997e-03,
       -3.18192528e-04, -2.42463276e-02, 3.12230103e-02, 4.55569588e-02,
       1.70471184e-02, 1.76151041e-02, 5.74443601e-02, 8.25707465e-02,
       1.88449211e-02, 4.27528396e-02, 1.41798109e-02, -2.52128243e-02,
       1.67982951e-02, -1.52161196e-02, 5.88618545e-03, 1.43293722e-03,
       3.31459306e-02, 1.32367760e-02, 4.64477651e-02, -4.12449837e-02,
       -7.77026452e-03, -9.91383335e-04, -1.04486393e-02,
       -3.94253768e-02, -3.29499282e-02, 6.65987795e-03, 6.38233265e-03,
       1.88558362e-02, 2.45935433e-02, 5.67957060e-03, -9.13537107e-03,
       -4.74739075e-03, -3.70834805e-02, -2.73520816e-02,
       -2.75609232e-02, -5.11193508e-03, -1.34922797e-02, 3.41079831e-02,
       -2.20357087e-02, -1.48577988e-03, -9.61045083e-03, 3.67391035e-02,
       1.22916941e-02, 3.51255089e-02, 3.27222422e-02, 4.66623418e-02,
       -2.65505128e-02, -3.09160855e-02, -3.63791585e-02,
       -2.28104158e-03, 5.69893047e-03, 7.54940615e-04, -1.12030469e-02,
       5.90345450e-03, -4.60053235e-03, -7.49156997e-03, -1.69829354e-02,
       -1.64939859e-03, 2.68031303e-02, -2.17588921e-03, -1.83051843e-02,
       8.05974100e-03, -6.34347927e-03, -5.12969820e-03, 3.33636813e-02,
       -9.37948993e-04, -2.53661852e-02, 3.48232910e-02, 1.12471189e-02,
       -3.81375030e-02, -2.60613542e-02, -1.18065793e-02,
       -1.65547859e-02, 2.87294388e-02, 4.65017837e-03, -1.83779630e-03,
       3.26733775e-02, 2.88377609e-03, -1.26731656e-02, 1.71713363e-02,
       2.76970100e-02, 1.58102643e-02, 5.15390486e-02, -1.49949398e-02,
       -3.96519676e-02, 2.49857716e-02, 2.31278669e-02, -3.38301132e-03,
       -1.71817690e-02, -1.04495930e-03, -2.24471707e-02,
       -2.27386542e-02, 9.52484459e-03, -1.84440967e-02, -1.54266902e-03,
       2.63604745e-02, 2.19058730e-02, -1.65575743e-02, -2.97517534e-02,
       -2.81153489e-02, -1.87616609e-03, 4.38318737e-02, -2.01852787e-02,
       -1.57048739e-02, 3.20516117e-02, -8.05407856e-03, -5.98562229e-03,
       -1.22765377e-02, -2.10309424e-03, 2.34230515e-02, 2.81200968e-02,
       -2.45156512e-02, -6.62177429e-03, 2.01153327e-02, 3.04075237e-02,
       1.24126924e-02, -1.50052346e-02, -5.79651166e-03, 1.72480680e-02,
       2.21479051e-02, -3.16777118e-02, -5.92255220e-03, 5.03213778e-02,
       -4.31403220e-02, 2.79742777e-02, -2.75844932e-02, -2.37803105e-02,
       -4.66036843e-03, -3.05058751e-02, -2.81927008e-02, 2.17522904e-02,
       1.27651999e-02, -3.27306101e-03, -1.91095937e-02, -2.44293585e-02,
       -4.86738086e-02, -3.40190381e-02, 2.68117301e-02, 5.97579591e-02,
       7.02978969e-02, 2.77361926e-02, 9.15940199e-03, -3.69003639e-02,
       -2.45924518e-02, -3.86830866e-02, -1.82935577e-02, 5.11797098e-03,
       -1.88536954e-03, 7.93576762e-02, 8.97521749e-02, 3.05414479e-02,
       -5.99147845e-03, -4.13581766e-02, -8.69963914e-02,
       -4.14059162e-02, 4.37042005e-02, 8.18530470e-02, 1.02769360e-01,
       7.91808963e-02, 1.75232943e-02, -2.05640160e-02, 1.55391674e-02,
       -1.12254089e-02, -6.76336605e-03, 1.74664445e-02, 1.22442292e-02,
       -2.43245233e-02, -3.97206917e-02, 1.17706768e-02, -2.51312479e-02,
       -1.99093521e-02, 1.31468810e-02, 1.92251187e-02, -4.28936481e-02,
       -1.65492035e-02, 1.31784193e-02, -1.88023050e-03, 2.43777223e-02,
       -5.00711948e-02, -2.53966339e-02, 5.07654659e-02, -9.10089631e-03,
       4.49650288e-02, 3.74997258e-02, 2.27679238e-02, -1.65689606e-02,
       -1.71334937e-03, -3.01257148e-02, 5.64504275e-03, 6.42220378e-02,
       7.15027153e-02, -1.27658164e-02, -1.15217166e-02, 3.81175503e-02,
       2.21177153e-02, 2.60553807e-02, -3.59711610e-02, 6.36314182e-03,
       7.05227852e-02, 3.48788686e-02, -2.24458370e-02, 1.13760419e-01,
       1.38518497e-01, 8.64553750e-02, -2.00250354e-02, -2.80131847e-02,
       -2.00018790e-02, 3.62575129e-02, -3.26978937e-02, -2.13827528e-02,
       1.00186229e-01, 5.87419532e-02, -2.10966617e-02, -1.20872017e-02,
       -5.87185808e-02, -5.51036857e-02, -3.59635130e-02,
       -6.14409447e-02, -5.83098903e-02, 7.88948089e-02, 1.30794287e-01,
       6.97656274e-02, 3.79310711e-03, -2.05000639e-02, 5.31201251e-03,
       3.21808308e-02, -3.14120874e-02, -3.39951105e-02, 1.76956356e-02,
       3.82481664e-02, -3.97333391e-02, 8.22674949e-03, -5.31386808e-02,
       -3.66061442e-02, -5.58806509e-02, -8.18233863e-02, 2.72584464e-02,
       1.23179652e-01, 5.47876507e-02, -3.18289921e-03, -2.87519321e-02,
       -1.59918086e-03, -1.54841074e-03, 2.34059687e-03, -2.01464873e-02,
       1.97120626e-02, 7.78821856e-02, -8.05905089e-03, -2.20911615e-02,
       -1.16796521e-02, 7.11381948e-03, 2.30959170e-02, 7.70316273e-03,
       8.92508309e-03, -5.35024563e-03, 5.31578436e-02, 8.44936469e-04,
       -5.13508320e-02, -2.73600928e-02, -6.72549661e-03,
       -4.52482753e-04, 2.43687740e-04, -6.11577630e-02, 1.81715433e-02,
       3.83545645e-02, -8.12394638e-03, -4.85627018e-02, -7.27207912e-03,
       -4.38170806e-02, -2.61403918e-02, -7.92416837e-03, 5.76286484e-03,
       2.21503619e-02, 5.79974465e-02, -8.71289708e-03, -2.63613462e-02,
       -4.45507281e-02, 5.63930720e-03, 1.78836137e-02, 1.86803490e-02,
       2.97720190e-02, -4.02872567e-04, 6.68093041e-02, -1.25525706e-02,
       -2.29319129e-02, -3.55069302e-02, -4.19151923e-03, 2.18010228e-02,
       2.01474614e-02, -1.45059871e-02, 5.62873483e-03, 4.11228202e-02,
       -3.13424580e-02, -2.29203030e-02, -3.96657661e-02,
       -2.83240117e-02, -9.14787780e-03, -1.42761006e-03,
       -4.48781019e-03, 3.54099087e-02, -1.03338240e-02, -3.08604464e-02,
       -4.37132679e-02, -3.58615369e-02, -2.20664386e-02, 2.84651713e-03,
       1.08160137e-03, -4.42794431e-03, 3.43577377e-03, 7.47361332e-02,
       4.29136539e-03, 4.37505962e-03, -1.40196923e-02, -4.20785137e-03,
       9.56661068e-03, 1.00991614e-02, 4.03694697e-02, 3.16042826e-02,
       5.14420345e-02, -1.79425776e-02, -2.62216441e-02, -9.71960463e-03,
       -2.60539446e-02, 7.32206274e-03, 2.88608647e-03, 1.04500409e-02,
       1.95402536e-03, 9.84233152e-03, -7.00015062e-03, 7.12686172e-03,
       -1.09704426e-02, 7.93478638e-03, -1.87537202e-03, -1.64528769e-02,
       -2.93643791e-02, -5.07202838e-03, 1.13387778e-03, -1.85329616e-02,
       7.30754167e-04, 8.55140481e-03, -2.41809175e-03, -5.14758285e-03,
       -2.36035511e-02, -1.67372320e-02, 5.51413372e-02, 6.93703145e-02,
       -8.26155301e-03, -2.36793738e-02, -1.76743232e-02, 4.68273833e-03,
       1.05822161e-02, 2.55364589e-02, 4.37074266e-02, 2.61555780e-02,
       4.69279736e-02, -3.77354100e-02, -3.59106623e-02, 6.57537021e-03,
       4.94714780e-03, 6.26905542e-03, 2.37225946e-02, 5.95353246e-02,
       3.53136333e-03, 7.55854882e-03, -2.57081967e-02, 9.75453947e-03,
       -1.73301380e-02, 9.87988804e-03, 3.77997034e-03, 1.10571794e-02,
       -4.45668660e-02, -2.19291840e-02, -2.65128929e-02,
       -3.79152633e-02, -5.13916686e-02, -5.70846815e-03, 1.10565657e-02,
       1.07196523e-02, -8.61876411e-04, -4.46556509e-02, 1.86480209e-02,
       3.10055632e-02, -2.69534811e-02, -3.10287736e-02, 3.10214213e-03,
       6.82807388e-03, 4.18220507e-03, 2.94015706e-02, 5.22000417e-02,
       3.77922580e-02, 2.62133162e-02, -3.90871707e-03, -1.72812697e-02,
       3.45583801e-04, 2.18436611e-03, -1.76495146e-02, 7.76942493e-03,
       2.38935333e-02, -3.09140161e-02, -1.71729960e-02, -5.24163544e-02,
       -5.11878021e-02, -4.22470979e-02, -9.80896596e-03, 2.03042906e-02,
       2.62793116e-02, -4.02899506e-03, -1.22620910e-03, -1.59517527e-02,
       -4.88866493e-02, -3.59043255e-02, -2.33855639e-02,
       -2.34017931e-02, -5.00332192e-02, -6.82800589e-03, 1.01057515e-02,
       1.48910079e-02, 1.81899425e-02, -3.93180270e-03, -9.21949930e-03,
       -3.91895622e-02, -8.07975419e-03, -3.26306224e-02,
       -2.12090486e-03, 1.35782119e-02, -2.42538052e-04, 1.54056530e-02,
       -3.12983766e-02, -1.63196474e-02, -1.37575353e-02,
       -3.25041525e-02, -4.55694199e-02, -1.93717051e-02, 3.36522795e-03,
       1.15229320e-02, -4.97563183e-03, -2.96432413e-02, -1.53047284e-02,
       -4.12754975e-02, -4.03708182e-02, -3.54410894e-02, 2.01914571e-02,
       3.54015524e-03, -3.75883258e-03, -4.56782844e-04, -2.39832290e-02,
       -3.70404869e-02, -5.65592162e-02, -5.12227826e-02,
       -4.98664267e-02, -7.10575143e-03, 3.27785895e-03, 6.90866401e-03,
       2.44614892e-02, -3.65649536e-02, -3.50507200e-02, 6.54448802e-03,
       -1.24976663e-02, -3.90874706e-02, -1.35569116e-02,
       -2.94067301e-02, 1.56278182e-02, 1.47724003e-02, -2.17033830e-02,
       -3.28419246e-02, -6.14555692e-03, -4.28984268e-03,
       -4.49182466e-02, -6.10996690e-03, -5.88063477e-03, 1.51551645e-02,
       6.10193461e-02, -1.94118768e-02, -2.05853991e-02, -1.84616391e-02,
       -2.14650873e-02, -3.63422036e-02, 1.21960917e-03, 6.41769078e-03,
       3.37915048e-02, 5.48680685e-02, -3.38576809e-02, -5.45938425e-02,
       -4.68344539e-02, -1.55017525e-02, -2.89461613e-02,
       -3.46638495e-03, 1.80413164e-02, -2.32225135e-02, 1.99431647e-03,
       -7.62318866e-03, -5.08103743e-02, -2.07768027e-02,
       -3.06171533e-02, -5.20878360e-02, -1.71261784e-02,
       -2.63014995e-02, 1.13638807e-02, -5.66870440e-03, -2.83663883e-03,
       -3.31276394e-02, -6.92098867e-03, -4.14441004e-02,
       -2.59926133e-02, -1.91188604e-02, 1.03310868e-02, 3.23253311e-02,
       3.05076055e-02, -3.52063403e-02, -7.65498504e-02, -5.05079366e-02,
       -4.25769575e-02, -4.65758294e-02, 1.04077067e-03, 4.38637882e-02,
       1.76919401e-02, 1.92107540e-02, 6.09819870e-03, -4.75159846e-02,
       -2.65828706e-02, -4.83222082e-02, -1.72563978e-02, 1.65081508e-02,
       4.96266447e-02, 5.79080684e-03, 2.24600062e-02, 1.37679279e-02,
       -1.49886962e-02, -6.57127332e-03, -1.00865019e-02,
       -1.03519680e-02, 1.16470724e-03, 1.89147610e-02, -3.33096720e-02,
       -7.05424836e-03, 4.44337633e-03, -3.13187316e-02, -1.91655513e-02,
       -3.54017988e-02, -1.56240491e-02, 1.04571376e-02, -3.86648588e-02,
       4.64034900e-02, 4.29848433e-02, 5.35740219e-02, 2.24583820e-02,
       2.88876556e-02, -2.22428795e-02, 2.36355476e-02, 5.01420945e-02,
       3.20671014e-02, 1.43888863e-02, 2.87280306e-02, 4.75556329e-02,
       7.97318947e-03, 1.54483551e-02, -2.46062339e-03, 1.39207244e-02,
       4.67468686e-02, -8.25269334e-03, -1.67197045e-02, 1.13812508e-02,
       1.48808872e-02, 3.30159552e-02, 3.75502855e-02, 2.16304697e-02,
       2.54129115e-02, 2.51476038e-02, -1.88702196e-02, -2.29360145e-02,
       -3.84779945e-02, -1.45356655e-02, -4.70272936e-02,
       -1.75653528e-02, -1.40354261e-02, -1.95057746e-02,
       -4.15089391e-02, -3.77633572e-02, 3.23911868e-02, 6.78819790e-02,
       4.90683578e-02, 4.25197408e-02, 5.71320616e-02, 9.95522663e-02,
       5.51467054e-02, 4.23572175e-02, 2.04785485e-02, -3.70969251e-02,
       -5.76532558e-02, -3.75029035e-02, -3.13583612e-02,
       -5.67834405e-03, 3.04435045e-02, -2.28996929e-02, -6.17704913e-02,
       -3.19931917e-02, 1.55784432e-02, 1.94510743e-02, 2.53276899e-02,
       3.50683066e-03, -8.32875352e-03, 2.66376249e-02, 2.45474279e-02,
       1.39637925e-02, 2.37667486e-02, -3.70073766e-02, -3.25804427e-02,
       -1.49904459e-03, 1.97992716e-02, -1.08459536e-02, -1.35791609e-02,
       2.11680811e-02, -1.86981745e-02, -3.20249498e-02, -3.35343778e-02,
       -3.63311023e-02, -1.92461647e-02, 1.38447713e-02, -1.60837825e-02,
       3.16384509e-02, 5.79294143e-03, -1.37161110e-02, -1.20559679e-02,
       -2.18347348e-02, -4.00917791e-02, -3.68963443e-02, 1.00798234e-02,
       -8.39063432e-03, 5.23939379e-04, 1.91020109e-02, -1.54923303e-02,
       -9.04032309e-03, 4.73698713e-02, -5.46779670e-02, -3.81539389e-02,
       -2.42050756e-02, 4.04604711e-02, -4.15367074e-03, -4.22654711e-02,
       -1.23422733e-02, 6.26312941e-02, 3.83571759e-02, -4.98362221e-02,
       -8.89449567e-03, 4.30518761e-02, 1.33225974e-02, 1.59590915e-02,
       -2.57822592e-02, -3.23968828e-02, 2.24548057e-02, 4.64422852e-02,
       -4.40748073e-02, -3.90764885e-02, -4.90106409e-03, 1.75776985e-02,
       -1.71967763e-02, -4.12023962e-02, -4.08352315e-02, 5.46115749e-02,
       4.60444801e-02, -2.82228813e-02, -1.16003910e-02, 2.97016408e-02,
       3.18388864e-02, 1.70722194e-02, -2.73758322e-02, -2.84371637e-02,
       2.51856372e-02, -2.50272267e-02, -5.17778173e-02, 3.61257605e-02,
       5.65417707e-02, 5.55552728e-02, 2.88589634e-02, -9.79597773e-03,
       -5.41254990e-02, -4.39721458e-02, -3.08435988e-02, 7.15430602e-02,
       7.75385275e-02, 5.28303683e-02, 3.36474031e-02, 2.81601660e-02,
       4.41850163e-02, -5.42073604e-03, -3.73052843e-02, -2.58032717e-02,
       -6.28608242e-02, -9.76483803e-03, 1.26790078e-02, 4.32760380e-02,
       8.53442997e-02, 5.43162562e-02, -3.95849980e-02, -3.43533680e-02,
       -4.51128930e-02, -1.01678064e-02, 2.81853694e-02, 1.76536571e-02,
       1.19698215e-02, 7.60302842e-02, 8.99010822e-02, 4.86115254e-02,
       7.24335853e-03, 2.28015520e-02, 4.83542867e-02, 3.05373501e-02,
       3.58013815e-04, -1.54557591e-03, -2.90500261e-02, 6.60763076e-03,
       4.60329019e-02, 3.42551693e-02, 4.20370745e-03, -9.95154213e-03,
       1.51150972e-02, -5.52824745e-03, 2.52757035e-02, -3.62522528e-02,
       3.15212901e-03, 3.11760567e-02, 1.50770694e-02, 2.93981396e-02,
       4.00104634e-02, 2.38917433e-02, -4.62938100e-04, -4.27780440e-03,
       -5.47409663e-03, 8.45290534e-03, 4.45593037e-02, 6.54210895e-02,
       2.43816129e-03, 1.16141951e-02, 4.89634164e-02, -2.05608737e-02,
       3.22879739e-02, -1.13537330e-02, 1.33002978e-02, -1.69938337e-02,
       -9.72189067e-04, -6.82376549e-02, 3.85304876e-02, 8.09559822e-02,
       6.11852370e-02, 5.37797157e-03, 4.69740629e-02, 7.20941424e-02,
       3.35536338e-02, -5.18368520e-02, -8.61303732e-02, -2.86799669e-03,
       -3.49482778e-03, -1.89771634e-02, 2.95391586e-02, 7.05800066e-03,
       1.67476498e-02, -2.46748310e-02, -8.73813108e-02, -3.55636626e-02,
       3.09827197e-02, 8.08799937e-02, 5.97366057e-02, -2.29344587e-03,
       7.60260448e-02, 1.15165189e-01, 3.40694040e-02, -6.76116720e-02,
       -6.85475990e-02, -3.43975462e-02, 9.70797054e-03, -6.73186174e-03,
       2.55778283e-02, -1.90759320e-02, -7.31804408e-04, -3.94789428e-02,
       -7.47706220e-02, -3.98751572e-02, 3.95672284e-02, -9.20880120e-03,
       5.37691778e-03, -4.09943014e-02, 2.12780014e-02, 1.64225120e-02,
       4.07305993e-02, -6.36429489e-02, -1.43258488e-02, 2.68172864e-02,
       -4.04293537e-02, -2.34691929e-02, -5.70907928e-02,
       -4.75935377e-02, -2.77497414e-02, 3.28024700e-02, -1.70902573e-02,
       -5.62170371e-02, 1.82623286e-02, -2.61859386e-03, 1.24978079e-02,
       -5.45192063e-02, -1.64111108e-02, -8.86093359e-03, 3.59150916e-02,
       -3.43412273e-02, -6.80222502e-03, 5.60637447e-04, -3.33061963e-02,
       -1.83050428e-02, -4.64433506e-02, -5.47021963e-02,
       -2.27322616e-02, 6.10323681e-04, -1.21914493e-02, -2.17523985e-02,
       2.98021380e-02, -2.97745899e-03, 1.85377914e-02, 3.29359528e-03,
       -1.58957802e-02, -2.46823356e-02, 2.03014836e-02, -1.90577414e-02,
       -2.37678289e-02, 3.56393890e-03, -1.48587776e-02, -2.34405193e-02,
       -3.48963328e-02, -1.69979278e-02, 3.38950451e-03, 3.22643742e-02,
       -3.40597034e-02, -9.82894283e-03, 2.02317853e-02, -1.45699251e-02,
       -1.01728430e-02, -1.15570826e-02, -2.31313184e-02,
       -1.82067621e-02, 7.76446750e-03, -1.98787041e-02, -4.01274152e-02,
       8.58618878e-03, 1.36047173e-02, -2.74126120e-02, -2.77421642e-02,
       -4.19814922e-02, -8.77972040e-03, 2.90135085e-03, -4.29550223e-02,
       -2.16827244e-02, 8.31286365e-04, 2.75464496e-03, 3.28926034e-02,
       -2.92890123e-03, 4.27568629e-02, 2.22046003e-02, 7.07588566e-04,
       -4.65566814e-02, -5.63691258e-02, -1.98547747e-02,
       -1.69119972e-03, 4.21530940e-02, 1.69666875e-02, 4.77172732e-02,
       3.44512053e-02, -3.27931941e-02, -7.53330961e-02, -3.78918536e-02,
       -5.66598587e-03, 1.57045033e-02, 5.39542991e-04, 4.28127311e-03,
       6.61946309e-04, -4.09207772e-03, -9.52840690e-03, -5.78100570e-02,
       -3.67471427e-02, -1.91250853e-02, 1.54049695e-02, 2.42555700e-02,
       3.09618842e-02, 1.29883112e-02, -1.25420038e-02, -4.29551713e-02,
       -6.06098101e-02, -4.23736982e-02, -7.96756241e-03, 4.37976531e-04,
       2.64786929e-02, 3.34335119e-02, 5.38059175e-02, 4.37716581e-02,
       1.58382840e-02, -3.49954851e-02, -3.13528478e-02, -1.35794887e-02,
       4.44733538e-03, 1.70598738e-02, 3.69367711e-02, 3.00220046e-02,
       2.52989270e-02, 1.13978405e-02, -3.71234268e-02, -4.16565016e-02,
       3.13743725e-02, 2.96170022e-02, 4.21828479e-02, 6.60671433e-03,
       1.96869094e-02, 3.86801548e-02, -6.60647172e-03, -5.75461164e-02,
       -3.47943231e-02, 2.07510442e-02, 2.78903712e-02, 1.61209181e-02,
       3.49708125e-02, -5.85356820e-03, 1.32953105e-02, -1.15982903e-05,
       -1.30163413e-02, -3.68855149e-02, 5.43620018e-03, 2.22779531e-03,
       -1.79753243e-03, 1.88546684e-02, -3.51900375e-03, -3.45863577e-04,
       2.58558635e-02, -1.41600072e-02, -1.20859900e-02, 3.02700121e-02,
       -2.04148460e-02, -1.93945915e-02, -4.47024964e-03,
       -4.30361666e-02, -2.22986918e-02, 2.28504818e-02, -1.54196634e-03,
       1.55910132e-02, 3.56320441e-02, -1.23355109e-02, -4.47517028e-03,
       1.98161453e-02, -8.68021045e-03, 3.06905573e-03, 9.51884594e-03,
       -3.74117196e-02, -2.48274710e-02, 6.52792631e-03, -2.90734209e-02,
       -3.17598768e-02, 9.11277998e-03, -3.39453202e-03, -5.49770426e-03,
       3.90904509e-02, 1.50821432e-02, 1.89921400e-03, 3.49818356e-02,
       -1.38387354e-02, -1.44803543e-02, 4.56100656e-03, -3.95699069e-02,
       -2.55432185e-02, 3.37567590e-02, -1.05366008e-02, 4.36936179e-03,
       4.84718047e-02, 4.13130783e-03, -4.11766134e-02, -1.38346599e-02,
       -5.27054928e-02, -1.76258534e-02, 4.53005545e-02, 2.22203154e-02,
       -1.65347736e-02, 3.00082713e-02, -1.85201988e-02, -1.82829536e-02,
       1.46556529e-03, -1.00997193e-02, -2.79897382e-03, 4.71933559e-02,
       -2.99422740e-04, -2.16377452e-02, 3.44177410e-02, -1.81343090e-02,
       -2.85516288e-02, -2.73974966e-02, -5.93597032e-02, 1.34624178e-02,
       4.03356403e-02, -6.70784805e-03, -1.68624392e-04, 5.80051988e-02,
       -5.74659090e-03, -2.77156290e-02, -5.21618314e-03,
       -1.67382769e-02, -1.87157076e-02, 2.26493590e-02, 2.42723245e-03,
       5.32377139e-03, 3.99939306e-02, -3.44348103e-02, -4.40063514e-02,
       -2.24371776e-02, -9.97779425e-03, -3.30207101e-03,
       -1.05536915e-02, -7.47129507e-03, -5.17821265e-03, 2.17656549e-02,
       -1.79272741e-02, -1.70392357e-02, -7.59953167e-03,
       -4.48338017e-02, -3.10301874e-02, 5.78951091e-02, -5.06893033e-04,
       1.35185439e-02, -1.61806606e-02, -4.24137637e-02, -1.63190830e-02,
       -2.72139702e-02, -2.72830594e-02, -4.05973047e-02, 9.83091071e-03,
       1.17860558e-02, 2.64836885e-02, 3.31757851e-02, -2.47572064e-02,
       -3.76874618e-02, -8.82511120e-03, -2.81371977e-02,
       -3.11494991e-02, -4.23549004e-02, 3.36620323e-02, 2.01042295e-02,
       3.83759737e-02, -1.51517978e-02, -3.15359049e-02, -2.99340561e-02,
       -3.94463800e-02, -1.14730820e-02, 1.04361661e-02, 3.32022011e-02,
       -3.83922854e-03, -2.13290825e-02, -6.11228868e-02,
       -3.28617692e-02, 4.12200391e-03, -6.58612326e-02, -3.90287153e-02,
       1.34475809e-02, -1.15675535e-02, 1.73860323e-02, 2.35178880e-02,
       -2.03713458e-02, -2.17348430e-02, -3.28996368e-02,
       -4.63986993e-02, -3.41181383e-02, 3.55666317e-02, -7.47536449e-03,
       -4.56853490e-03, 1.39023382e-02, -4.33680089e-03, -2.70583713e-03,
       3.52331996e-02, -9.77004413e-03, 5.18489489e-03, 2.69391816e-02,
       1.72967762e-02, -2.11208053e-02, 1.89122614e-02, 1.78710872e-03,
       -3.71113839e-03, 3.07268053e-02, 3.80150438e-03, 1.93076022e-02,
       2.18385402e-02, 4.24442533e-03, 1.93115585e-02, 1.00577315e-02,
       -1.19281029e-02, 1.82768386e-02, 3.88722345e-02, 1.79263819e-02,
       2.71090921e-02, 2.75285020e-02, -8.66959151e-03, 2.59389300e-02,
       1.81291569e-02, -3.10419849e-03, -2.29290500e-03, 3.63928676e-02,
       7.84715358e-03, 1.08781680e-02, 2.10362934e-02, 5.73966047e-03,
       -4.71608837e-05, 4.22823206e-02, 2.21421365e-02, 5.58470674e-02,
       7.26873577e-02, 9.42164063e-02, 2.36308686e-02, 1.56767499e-02,
       -1.33982263e-04, -7.10710362e-02, -5.11615239e-02,
       -4.30066809e-02, -2.37610806e-02, -9.43755172e-03,
       -1.53360153e-02, -4.04826440e-02, -6.03774674e-02,
       -6.52002394e-02, 2.48011500e-02, 2.81537361e-02, 3.43409181e-02,
       8.60543624e-02, 8.02213475e-02, 6.85391873e-02, 9.34668723e-03,
       3.09982337e-02, 2.23661046e-02, -4.54535373e-02, -5.94727583e-02,
       -3.16689685e-02, -1.19130602e-02, 2.00438667e-02, -1.63913406e-02,
       -6.98286965e-02, -6.52955472e-02, -5.48982732e-02,
       -1.68339442e-02, -2.62125134e-02, -1.90592427e-02, 4.17212993e-02,
       2.39181030e-03, 3.60194147e-02, 8.05846602e-03, -7.24173943e-03,
       -1.09380241e-02, 3.06928810e-02, -1.40212127e-03, -2.29590312e-02,
       -8.46586190e-03, -2.38325670e-02, 5.63214719e-03, -1.27150025e-03,
       -9.17928945e-03, 3.54684447e-03, 1.41406711e-02, 3.47186439e-03,
       2.18673609e-02, 7.15200827e-02, 3.32553219e-03, 4.24936078e-02,
       -1.67310257e-02, -3.88570614e-02, -1.47004053e-02, 3.76203805e-02,
       3.83677520e-02, 1.51163805e-02, 1.42528638e-02, -7.08574057e-03,
       -1.40551981e-02, -2.38759965e-02, -1.83118694e-02, 9.25820880e-03,
       3.02143600e-02, -1.67276897e-02, -1.68628059e-02, -7.31288688e-03,
       2.01697089e-02, 8.30542017e-03, -6.27175672e-03, -3.73188667e-02,
       8.84180237e-03, 1.99502595e-02, -9.84214898e-03, -1.76841877e-02,
       1.28687937e-02, 3.43410065e-03, 2.04724930e-02, -8.85136705e-03,
       -1.32998656e-02, -2.33785901e-03, -1.65281557e-02,
       -2.04879120e-02, -7.68347597e-03, 9.46652889e-03, -1.03234500e-02,
       3.19228694e-02, -6.53230771e-03, -1.44762313e-02, -2.52862517e-02,
       2.28351783e-02, 5.21193782e-04, -2.19999831e-02, -2.75362912e-03,
       -3.84766306e-03, 1.50921382e-02, 9.14114714e-03, 1.21151954e-02,
       1.97774414e-02, -3.42677534e-02, -6.89716265e-02, -3.94013971e-02,
       -1.62493326e-02, 2.83683930e-02, 7.91657567e-02, 7.89205134e-02,
       -7.28954037e-05, -1.50824832e-02, -1.26898764e-02,
       -1.45898033e-02, 1.21504646e-02, 1.02372104e-02, -1.30496062e-02,
       7.93432221e-02, 7.64636025e-02, 6.10407181e-02, 6.35787696e-02,
       -3.90642099e-02, -4.75574955e-02, -3.22209559e-02,
       -2.23418549e-02, 1.69395115e-02, 6.57753041e-03, 2.11237762e-02,
       -2.34475415e-02, -2.42260061e-02, -9.27328970e-03,
       -1.87420268e-02, -2.11213436e-02, -1.95822921e-02, 8.46442021e-03,
       5.45848683e-02, 7.09094331e-02, 2.95732897e-02, 2.20409799e-02,
       6.29596189e-02, 5.15269972e-02, 1.18859578e-02, -2.37114690e-02,
       -1.51940007e-02, -2.75131501e-02, -1.70511510e-02, 5.32097816e-02,
       6.09600320e-02, 4.69862260e-02, 6.91190436e-02, 2.96645127e-02,
       -2.72611473e-02, -1.93594415e-02, 3.01411822e-02, 4.23160344e-02,
       1.87220853e-02, -6.53043715e-03, 1.77425053e-02, 2.42999531e-02,
       -2.10223608e-02, -4.10408229e-02, 7.87161104e-03, -3.42943668e-02,
       -3.12284124e-03, -3.53289419e-03, 1.14217028e-02, 1.45079102e-02,
       3.60763222e-02, 1.18959947e-02, -2.21488401e-02, 3.05362288e-02,
       -1.58693995e-02, -1.49181776e-03, 2.77538993e-03, -2.05758885e-02,
       -2.61830539e-02, 3.89596187e-02, 1.90765448e-02, -9.58314911e-03,
       -4.52404507e-02, 1.00468807e-01, 1.62036806e-01, 9.38867480e-02,
       -6.07273281e-02, -6.42724335e-02, -4.30690832e-02,
       -2.61617564e-02, -4.71213013e-02, -2.47690175e-02,
       -2.62441803e-02, 3.72525044e-02, 2.23690420e-02, -2.49658059e-02,
       -2.65439544e-02, 2.16588452e-02, -2.70239338e-02, -2.68435422e-02,
       -2.13934015e-02, 6.71051517e-02, 1.23727895e-01, 1.04855925e-01,
       -2.10435167e-02, -5.32791577e-02, -5.47860153e-02,
       -7.02543706e-02, -6.32107481e-02, 1.15755694e-02, 8.34428798e-03,
       5.65531775e-02, 8.30101520e-02, -8.74427147e-03, -3.10554393e-02,
       -6.05467381e-03, -5.57561591e-03, -9.65935271e-03,
       -6.01811819e-02, -6.10869564e-02, -1.53996730e-02, 4.98271175e-02,
       3.11904233e-02, 1.46497004e-02, -1.95557829e-02, -1.47363199e-02,
       -1.21308658e-02, -3.54572795e-02, -4.34281714e-02,
       -3.53691131e-02, 5.83611708e-03, 2.15474237e-02, -2.89683063e-02,
       1.54781640e-02, -1.37789613e-02, -2.12387946e-02, -2.28334516e-02,
       5.60272764e-03, 4.15819921e-02, 1.18258864e-01, 3.94789986e-02,
       1.05771488e-02, 8.28475505e-03, 1.03509538e-02, 3.22596426e-03,
       -5.88617427e-03, -1.15928454e-02, -1.45661607e-02, 6.14661314e-02,
       4.73324535e-03, -3.48732015e-03, 7.30129657e-03, -1.90073662e-02,
       -2.27457322e-02, -4.73716818e-02, -1.82843115e-02,
       -3.78389060e-02, 2.41385382e-02, 5.89745771e-03, -1.81705169e-02,
       8.26820079e-03, 1.94615964e-02, -3.15348394e-02, -2.16840487e-02,
       -3.76479886e-02, -2.09769029e-02, 7.89307430e-03, 6.23345841e-03,
       2.36461405e-02, 2.37607490e-02, -2.37274840e-02, -1.23660155e-02,
       -3.24650481e-02, 8.06181412e-03, -2.20643338e-02, 4.88272645e-02,
       1.21269384e-02, 1.51971830e-02, 4.50310707e-02, 2.17781924e-02,
       -2.73247939e-02, -2.52861027e-02, -7.88501650e-03,
       -9.61579010e-03, 7.44460970e-02, 2.83161346e-02, -2.94564664e-02,
       4.79608960e-03, -1.68509665e-03, 5.89439180e-03, -3.10564367e-03,
       -2.20972840e-02, -8.44101235e-03, 1.17878560e-02, 7.06224516e-03,
       -1.32679865e-02, -8.94948840e-03, -2.08338369e-02, 3.82042374e-03,
       -2.54190955e-02, -3.30893584e-02, -3.53906006e-02, 8.50914046e-03,
       -7.69581972e-03, 1.89460311e-02, 5.52546140e-03, -1.07768737e-02,
       2.11819820e-03, -1.46860993e-02, 1.01697436e-02, 8.48248601e-03,
       8.23926255e-02, 3.65268625e-02, 2.91064818e-04, 1.34310909e-02,
       1.67443845e-02, 3.30916117e-03, -5.54682873e-03, -2.88051069e-02,
       -1.29471524e-02, 6.02565035e-02, 5.88213280e-02, -2.90758833e-02,
       1.37218796e-02, 2.30057049e-03, 1.73278451e-02, -4.93682921e-02,
       -2.98150331e-02, -2.67594382e-02, 1.86419282e-02, 4.13770601e-03,
       -1.14891548e-02, 4.63715103e-03, -1.85245238e-02, -3.44792660e-03,
       -1.91458706e-02, -4.23776358e-02, -2.68687755e-02,
       -1.78516693e-02, -5.15626697e-03, 3.71139087e-02, 1.21456580e-02,
       -3.41258966e-03, 2.79728491e-02, -2.32816581e-02, -2.86657624e-02,
       4.52752411e-03, 6.62424564e-02, 8.51710439e-02, 6.51532561e-02,
       1.40132401e-02, -7.69582763e-03, 8.29351507e-03, 1.01237167e-02,
       -2.14407947e-02, -1.22045456e-02, 1.14213163e-02, 7.49061704e-02,
       2.38726996e-02, 3.76983881e-02, -8.42572935e-03, -8.08863528e-03,
       -2.03170907e-02, -3.06060296e-02, -2.87821423e-02, 2.40738690e-03,
       -3.89135927e-02, 1.81766376e-02, 1.65590942e-02, -2.61957478e-02,
       -1.72367509e-04, -1.17837666e-02, -2.19490863e-02,
       -3.58819813e-02, 3.77012952e-03, -1.57291647e-02, 7.28590414e-02,
       4.43605520e-02, -7.52878422e-03, 1.05537754e-02, 1.55144669e-02,
       -3.65238972e-02, -2.00924315e-02, 1.79591551e-02, 4.98866215e-02,
       2.54000686e-02, -4.60373145e-03, -2.31834128e-02, 1.81558263e-03,
       1.97174121e-02, -3.38866338e-02, -3.37954201e-02, 7.31125427e-03,
       3.32601182e-02, 2.20019110e-02, 4.28559296e-02, -1.80969108e-02,
       -2.09525879e-03, -4.29971814e-02, -5.93605079e-03,
       -1.49263872e-03, 3.86436768e-02, 1.95333101e-02, -7.63672357e-03,
       1.77979451e-02, -3.44083905e-02, -2.73578949e-02, -5.50009906e-02,
       -2.14929394e-02, 8.34351685e-03, 2.93476135e-02, -4.52606939e-03,
       3.52466255e-02, 5.14286663e-03, -1.95279308e-02, -1.03154015e-02,
       3.14248260e-03, -3.74028534e-02, -4.01379652e-02, 3.24941091e-02,
       1.66711339e-03, 2.28276122e-02, -9.40657407e-03, -5.98544702e-02,
       -2.99643725e-02, 5.30862296e-03, -2.36572120e-02, -3.59345675e-02,
       9.24074743e-03, -1.88417882e-02, 1.17869843e-02, 2.72937194e-02,
       -1.11438045e-02, -1.25710713e-02, -2.55087297e-02,
       -3.72623466e-02, -2.45110318e-02, 6.56007901e-02, 2.79987939e-02,
       3.67294215e-02, 1.63838621e-02, -2.74606310e-02, 6.17151707e-03,
       -2.78544482e-02, -3.18950936e-02, -2.44154483e-02, 3.42019349e-02,
       2.42562443e-02, 1.60372239e-02, 1.50319200e-03, -3.82363759e-02,
       -2.09616721e-02, -8.92865937e-04, -2.04740763e-02,
       -3.57026085e-02, 1.66593473e-02, -2.93410430e-03, -1.68065447e-02,
       -2.48104651e-02, -1.60662755e-02, 8.06680042e-03, 1.37973102e-02,
       1.62394333e-03, -3.87628912e-03, 8.45621526e-03, -1.30746383e-02,
       3.37563083e-02, 4.04768214e-02, -2.74213850e-02, -6.75658975e-03,
       -5.18959016e-02, -5.51104583e-02, -3.56979370e-02, 2.34643519e-02,
       2.39805039e-02, 5.94654717e-02, 4.79566790e-02, -8.49257596e-03,
       -2.33661253e-02, -4.03330475e-02, -3.48005034e-02,
       -5.68013126e-03, 6.06580451e-02, 2.25497615e-02, -2.97134090e-02,
       -1.32153118e-02, -3.20165642e-02, 1.37616461e-03, -6.73661893e-03,
       -7.02100433e-03, 2.20395671e-03, -7.55498259e-05, -3.73144485e-02,
       -1.82783585e-02, -6.97970623e-03, -1.67905949e-02,
       -2.73489263e-02, -3.14977095e-02, -1.53916879e-02,
       -4.97725187e-03, -9.70905460e-03, -9.11559444e-03, 3.13025825e-02,
       4.86874990e-02, 3.00577227e-02, 2.89812461e-02, 3.31744514e-02,
       2.42406633e-02, 5.29334173e-02, 8.48837420e-02, 4.08579633e-02,
       2.60753499e-04, 3.73935960e-02, 1.05023365e-02, -3.98541894e-03,
       1.35377385e-02, 4.00828682e-02, 3.50997224e-02, 3.72550189e-02,
       2.36917064e-02, 2.87319552e-02, 2.19131727e-02, 3.60289705e-04,
       -1.50731008e-03, -1.25948014e-03, -1.39997546e-02,
       -4.81133844e-04, 2.80512869e-02, 8.73109140e-03, -2.83068251e-02,
       1.26860105e-02, -2.22769175e-02, -3.73754613e-02, -4.68587782e-03,
       -2.43081953e-02, -9.17867944e-03, -1.60848275e-02,
       -2.95429304e-02, 3.65521722e-02, 6.21748827e-02, 6.34376779e-02,
       8.18329677e-02, 8.08531940e-02, 6.37685806e-02, 5.47897257e-02,
       4.04861569e-02, 3.87211554e-02, 3.61189991e-03, -2.56743524e-02,
       -2.28160899e-02, 8.04442447e-03, 2.19008587e-02, -9.56772547e-03,
       -2.94517241e-02, -3.00079919e-02, -1.92989763e-02, 5.61293354e-03,
       1.40115302e-02, 2.21064650e-02, 2.88668647e-02, 4.83112559e-02,
       2.33040247e-02, 2.85337921e-02, 5.09608304e-04, -2.45289914e-02,
       -2.52820645e-02, -5.33542410e-02, -4.37730923e-02,
       -6.13534125e-03, 1.64784957e-02, -2.50202585e-02, -1.19801275e-02,
       -4.37992215e-02, -3.62316221e-02, 2.48063412e-02, 5.26375778e-04,
       2.30767634e-02, 4.71746847e-02, -2.68633245e-03, 2.06095222e-02,
       -1.05109625e-02, -9.40080080e-03, -1.69917401e-02, 5.22342790e-03,
       -3.28251859e-03, 2.07028352e-02, 1.47982817e-02, -2.07177456e-02,
       1.23551730e-02, -8.86283815e-03, -4.52123433e-02, -3.16766687e-02,
       2.06914060e-02, -1.39099278e-03, 7.26766419e-03, 5.33533767e-02,
       2.66926605e-02, 3.18250507e-02, 2.30160989e-02, 1.93746816e-02,
       2.29294430e-02, 1.85864849e-03, -3.91799919e-02, 2.54282504e-02,
       3.83137017e-02, 1.33253075e-02, 4.07875404e-02, 2.33091116e-02,
       -2.31558625e-02, -2.09881086e-02, -5.85452793e-03,
       -9.09087993e-03, 3.68604111e-03, 1.07097179e-02, -3.72397341e-02,
       -9.43392329e-03, -3.95754315e-02, -3.85741927e-02,
       -2.37562470e-02, 1.00489398e-02, -4.99001751e-03, -5.08152414e-03,
       3.18202097e-03, -2.98959911e-02, -2.87912823e-02, -4.43712622e-03,
       -4.31517176e-02, -1.32010514e-02, 8.16283096e-03, -1.75020993e-02,
       -1.24233542e-02, 4.08631638e-02, 1.32395504e-02, 2.06244141e-02,
       -2.03020368e-02, -1.38449827e-02, 8.38103704e-03, 3.18197906e-02,
       -1.01741236e-02, -1.47735542e-02, 2.57305335e-02, 2.48867348e-02,
       2.95281764e-02, -1.92278484e-03, -2.98990426e-03, 3.35889645e-02,
       -1.11358510e-02, -3.01328804e-02, 5.33003872e-03, 2.08719615e-02,
       -7.60502741e-03, -2.40988452e-02, 1.92496311e-02, -1.75889768e-02,
       -6.21431833e-03, 1.17070023e-02, -2.95976717e-02, -2.86412961e-03,
       6.20746845e-03, -3.17159370e-02, 1.36415530e-02, 2.34943535e-02,
       -2.28551892e-03, 1.79601647e-02, 3.78850028e-02, -2.13987697e-02,
       -3.16682085e-02, 2.49094907e-02, 5.44321816e-03, -1.78718790e-02,
       -1.38889486e-03, -9.46592540e-03, 1.19662499e-02, 3.99934612e-02,
       -7.74753187e-03, 1.14817061e-02, 1.64024998e-02, 1.69747155e-02,
       -4.63548955e-03, -1.81614328e-02, -6.49528811e-03, 2.86003370e-02,
       4.93382243e-03, -8.82613752e-03, -1.77337416e-02, -1.14274370e-02,
       8.31862353e-03, -7.00700283e-03, -4.72188694e-03, -1.19250240e-02,
       -9.00640339e-03, -1.74400285e-02, 3.22661251e-02, 7.40323542e-03,
       7.36715214e-04, -5.02264267e-03, -1.86928976e-02, -4.65652421e-02,
       -1.48574831e-02, -4.74382378e-02, -1.44116841e-02,
       -2.65930798e-02, -2.33093183e-03, -1.29508916e-02, 3.48911062e-02,
       7.78276892e-03, -4.47471105e-02, -1.25643825e-02, -2.70454288e-02,
       3.19115119e-03, -5.46706095e-03, -1.07565569e-02, -2.19760127e-02,
       3.99685353e-02, -5.19286375e-03, -2.26875879e-02, -3.55842486e-02,
       6.11465564e-03, -4.95916698e-03, 4.44200002e-02, 2.14194733e-04,
       9.02972650e-03, -2.58307084e-02, 5.74161112e-03, 1.91964228e-02,
       2.99454648e-02, -2.42413990e-02, -1.54417604e-02, -1.32804569e-02,
       -1.75062381e-02, -1.71560012e-02, -4.72840387e-03,
       -1.35668879e-02, -1.45099536e-02, 4.34300676e-02, 3.72108957e-03,
       -1.01144137e-02, -1.11804809e-03, -3.25124562e-02,
       -1.62088796e-02, -3.42001440e-03, -3.22527736e-02, 7.60895855e-05,
       -1.93014964e-02, -2.14362014e-02, -2.59297527e-02,
       -1.50104575e-02, -3.08740363e-02, -9.72001627e-03, 1.18900342e-02,
       -3.21291089e-02, -7.41548324e-03, -4.66063153e-03,
       -8.72361939e-03, 4.00004629e-03, 1.31609095e-02, 5.18061977e-04,
       1.05058122e-02, 4.86246031e-03, -3.12608965e-02, -1.05455751e-02,
       1.02132849e-01, 4.61740568e-02, -2.61766911e-02, -2.00700783e-03,
       -2.26407610e-02, -1.25193456e-03, 2.98882555e-02, -1.93792060e-02,
       -1.86922960e-02, 6.07168898e-02, 1.34617407e-02, -6.93385024e-03,
       -1.21179447e-02, -3.05425725e-03, -1.89571187e-03,
       -7.51666166e-03, -4.45075035e-02, -8.27473868e-03, 2.26655491e-02,
       -1.09669112e-03, 6.04750821e-03, -4.30226699e-03, -1.25652179e-02,
       -4.65611694e-03, 2.32585310e-03, -3.74633595e-02, -1.84155386e-02,
       2.25785710e-02, -1.78561243e-03, -1.12988595e-02, 1.41652329e-02,
       -1.44150015e-02, 7.45870173e-03, 6.29078690e-03, 1.34405494e-02,
       1.11196712e-02, 6.64927810e-02, 2.80799903e-02, -3.12895253e-02,
       -1.77957083e-03, -4.63422528e-03, -4.09790091e-02,
       -1.12368511e-02, 3.33402120e-03, 1.70254183e-03, 4.01073843e-02,
       2.06423621e-03, 3.51061597e-02, 5.90851880e-04, -2.03693565e-02,
       7.35919597e-03, 1.32115707e-02, 1.23255206e-02, -2.59669754e-03,
       3.43033597e-02, 1.87206306e-02, 2.02438757e-02, -9.92992334e-03,
       -4.72714612e-03, -1.47915492e-03, 1.82540268e-02, 6.97960495e-04,
       -4.17922959e-02, 3.59702064e-03, -2.19350361e-04, -2.33060531e-02,
       1.00457435e-02, 5.40641509e-03, 1.33487852e-02, 1.48854563e-02,
       3.38670835e-02, 5.84448874e-03, 6.34242967e-02, 3.13240811e-02,
       -1.02686114e-03, 2.68499926e-02, 3.92763689e-03, 1.20845633e-02,
       5.08699380e-02, 2.15406064e-02, 6.74693938e-03, 3.38860378e-02,
       4.06794325e-02, 2.09990758e-02, 7.77787948e-03, -2.52412632e-02,
       2.09365170e-02, 4.83801923e-05, 1.27229523e-02, -2.79220194e-02,
       -9.40046366e-03, 4.33758181e-03, 1.89221632e-02, -1.17041962e-02,
       -3.40110511e-02, -1.58805046e-02, 3.37547213e-02, -6.89255632e-03,
       2.74122618e-02, -1.17783574e-02, -4.89920611e-03, 3.80188506e-03,
       2.16731839e-02, 3.30449827e-03, 2.99278665e-02, -8.45939852e-04,
       2.56384984e-02, 1.41527858e-02, 7.00696781e-02, 2.94716023e-02,
       1.12442384e-02, -2.27136482e-02, -1.14674168e-02, 1.86666306e-02,
       1.67968050e-02, 2.63291113e-02, 7.36735121e-04, 3.36053595e-02,
       -2.27909293e-02, 7.01184850e-03, 1.27440430e-02, -1.60549693e-02,
       -1.68630276e-02, -1.72380824e-02, 9.31714475e-03, 9.52486228e-03,
       -2.34845851e-04, -2.82447739e-03, 3.69618065e-03, 1.12775005e-02,
       -1.72163658e-02, -1.86856799e-02, -1.37437857e-03,
       -3.54064349e-03, -2.60830726e-02, 1.24642542e-02, -2.67676283e-02,
       1.33459419e-02, 6.87303953e-03, -1.41622173e-02, 3.31370756e-02,
       3.56288552e-02, 3.77908796e-02, -1.87204671e-04, 2.13038363e-02,
       -2.44150199e-02, -8.55920184e-03, -1.87259875e-02,
       -4.45759185e-02, 3.23935156e-03, 2.74006948e-02, 3.85015458e-02,
       4.94708028e-03, -5.68030030e-03, -1.24462601e-02, 3.07458416e-02,
       1.50298160e-02, -2.00145338e-02, 5.41833509e-03, 2.41876729e-02,
       -1.48496497e-02, -2.34308615e-02, -9.32669826e-03,
       -1.49760181e-02, -2.21175072e-03, -2.66549736e-02,
       -3.97413522e-02, -1.52085098e-02, 1.24950055e-02, 1.53077524e-02,
       5.17790113e-03, -1.50024062e-02, 1.94367953e-02, 8.16837978e-03,
       8.38216487e-03, -1.81969181e-02, 1.19230505e-02, 3.73195410e-02,
       2.90132072e-02, -1.97714157e-02, 2.42876355e-02, 1.47251394e-02,
       3.63239367e-03, 1.64254904e-02, -2.28984635e-02, 1.46184135e-02,
       2.18420662e-02, 1.79433438e-03, -1.71348564e-02, 1.81395188e-02,
       -1.18530467e-02, -7.93645997e-03, 4.49981424e-04, -2.38337219e-02,
       1.39484238e-02, 1.20271323e-02, 2.76306615e-04, -1.44302836e-02,
       -1.48251038e-02, 1.13810208e-02, -1.84134599e-02, 7.11129513e-03,
       -1.02036782e-02, -2.13422943e-02, -1.23630064e-02,
       -4.13148291e-02, -1.79942939e-02, -3.58330123e-02,
       -1.31318765e-02, 1.00428034e-02, 4.01588641e-02, 2.32639932e-03,
       1.86735429e-02, 1.84844434e-02, 2.46689692e-02, 2.03577094e-02,
       3.89576629e-02, -1.49509525e-02, -2.72492263e-02, -9.58534423e-03,
       2.49831309e-03, 4.47432324e-02, 4.81699184e-02, 4.17605303e-02,
       1.70545205e-02, 3.06920242e-02, -1.09644569e-02, -2.83936355e-02,
       5.32496255e-03, -1.25475070e-02, -1.73707381e-02, -7.04754086e-04,
       -1.70633104e-02, 2.61411793e-03, 1.52926762e-02, -3.71542051e-02,
       -2.70302631e-02, -1.07033793e-02, -3.85418124e-02, 6.40991423e-03,
       -3.03449854e-03, 2.33301558e-02, -2.34512631e-02, -1.20359445e-02,
       -3.41633298e-02, -2.33217739e-02, -9.05734580e-03,
       -1.15385819e-02, 2.01962572e-02, 3.64485979e-02, 3.64420861e-02,
       1.41964694e-02, 3.06194462e-02, 1.41085917e-02, -3.11479829e-02,
       9.35438729e-04, -3.89729161e-03, -4.39452147e-03, 2.07425328e-03,
       4.36173826e-02, 1.36064691e-02, 3.71543244e-02, 1.38090020e-02,
       1.51060233e-02, -7.13328784e-03, -1.69698037e-02, 2.35739443e-03,
       4.09228116e-04, 2.04924252e-02, -3.31333838e-03, 2.21360521e-03,
       -1.30323898e-02, -2.96615418e-02, -2.89880782e-02,
       -1.31167774e-03, -3.21751572e-02, -4.56355289e-02,
       -8.58686585e-03, -1.50420219e-02, 8.74484307e-04, -2.22963467e-03,
       1.11653693e-02, 5.65705858e-02, 1.02905054e-02, 4.59941626e-02,
       5.11419699e-02, 5.11356704e-02, 3.39818783e-02, 4.71981913e-02,
       2.13306621e-02, -1.51923450e-03, 5.87997884e-02, 2.21222900e-02,
       1.90403927e-02, 2.30509900e-02, 3.78442779e-02, -1.23595039e-03,
       1.54928509e-02, -5.41986059e-03, -1.98610313e-02, 1.38764307e-02,
       -8.93530808e-03, -4.76177745e-02, -3.61867845e-02,
       -3.92021425e-03, -3.35180946e-03, -8.28511082e-03,
       -1.13515370e-02, -8.92334152e-03, -1.82173401e-02,
       -2.80921776e-02, -2.87893079e-02, -2.47059204e-02,
       -5.98175684e-03, -2.41630226e-02, -3.53143290e-02,
       -9.60966665e-03, 2.86066229e-03, 3.36627364e-02, 4.64025401e-02,
       4.33263592e-02, 2.94809453e-02, 2.39675324e-02, 2.22248323e-02,
       1.50056351e-02, -9.31885280e-03, 1.01269018e-02, -1.31304264e-02,
       -3.08795855e-03, 2.27223965e-03, 2.10071318e-02, -7.95641448e-03,
       1.84057280e-02, -2.00541262e-02, -1.76519360e-02, 1.04836132e-02,
       -6.07404904e-03, 1.03720026e-02, 2.40583140e-02, 4.59708320e-03,
       4.60860599e-03, -1.60633610e-03, -2.64769346e-02, 3.94347729e-03,
       2.20482163e-02, -2.45447308e-02, -2.59485636e-02, -1.03950398e-02,
       -8.30571167e-03, -1.43731646e-02, -8.39661714e-03,
       -4.89185425e-03, -2.35324632e-03, 4.34934571e-02, 7.17316475e-03,
       8.59255437e-03, 1.13817388e-02, -2.19739322e-02, -2.84096580e-02,
       1.60525013e-02, -1.95950875e-03, 5.44525310e-03, 1.53452633e-02,
       -3.00648082e-02, -4.96786833e-03, -8.46872851e-03,
       -1.55543648e-02, 3.45931761e-02, 4.03470453e-03, -4.39167432e-02,
       4.74413484e-03, 3.33104730e-02, 6.69909827e-03, -3.98058491e-03,
       1.48102390e-02, 4.91031865e-03, 2.52631530e-02, 2.45879050e-02,
       1.10663613e-03, -5.10624901e-04, 3.10465693e-02, -1.72397383e-02,
       -7.50534469e-04, 6.46782434e-03, 9.16760881e-03, 5.56627922e-02,
       9.85949673e-03, -4.69099246e-02, 3.32881999e-03, -9.06613749e-03,
       -2.35931333e-02, -3.89426611e-02, 2.80568260e-03, 3.23531441e-02,
       2.64753643e-02, -2.99798301e-03, -1.31282443e-02, -1.50147909e-02,
       5.15288021e-03, -1.80859840e-03, -3.90290953e-02, 1.37540409e-02,
       2.48711673e-03, 3.14941294e-02, 7.57164788e-03, -9.07236990e-03,
       1.07544083e-02, 5.58996946e-02, 3.05849314e-03, 6.48327312e-03,
       -8.00523162e-03, 3.03895641e-02, 3.04497946e-02, -1.01725571e-03,
       -2.76728813e-02, 1.65163055e-02, 3.27957384e-02, 7.48583721e-03,
       -1.26316510e-02, 1.31357554e-02, -1.08244885e-02, 1.24930488e-02,
       -2.28700251e-03, -2.08032019e-02, 4.62565348e-02, 8.03371705e-03,
       -1.85792195e-03, -1.21957660e-02, 1.93905942e-02, 9.37260315e-03,
       2.42999867e-02, 2.15338711e-02, 6.46041008e-03, 5.17626293e-03,
       1.16966162e-02, 5.36839245e-03, -8.05293443e-04, 1.44732622e-02,
       2.02039517e-02, 9.79948137e-03, 1.44088035e-03, 4.41229809e-03,
       6.31108275e-03, 7.21687358e-03, 1.28477803e-02, -1.59866773e-02,
       7.85994250e-03, 8.30635615e-03, 1.68364663e-02, 8.25999677e-03,
       -1.99222565e-02, -9.00539861e-04, -9.91999544e-03, 2.45886780e-02,
       3.47483414e-03, -5.32446383e-03, 2.53258757e-02, 2.78500374e-02,
       9.18279681e-03, -2.23111194e-02, -5.92160970e-03, -3.36152203e-02,
       3.79337999e-03, 3.17594036e-03, 4.53325501e-03, 1.00361193e-02,
       9.24163125e-03, -2.87974486e-03, -6.12795167e-03, -4.06784490e-02,
       -1.45406537e-02, 4.86016460e-03, 1.33050361e-03, -1.23238806e-02,
       -2.09900271e-02, -1.17090996e-02, -1.02471802e-02,
       -1.77848507e-02, -1.05306813e-02, -1.58692375e-02, 1.64830759e-02,
       7.57258292e-03, 4.55998786e-04, -1.32475756e-02, 3.74349067e-03,
       -1.15027837e-02, -2.27130810e-03, -2.84317043e-03, 4.40875292e-02,
       1.31919663e-02, 1.41830007e-02, 1.51806464e-02, 2.85214167e-02,
       -5.69776725e-03, -1.14269303e-02, 1.78287539e-03, 1.21980906e-02,
       2.40333285e-03, 1.60810109e-02, -8.09427723e-03, 6.98064128e-03,
       -2.52271648e-02, 7.54876854e-03, 1.45967398e-02, 6.85388874e-03,
       -4.97243600e-03, -1.84413586e-02, 1.47106769e-02, -1.96832810e-02,
       -2.12444924e-02, -2.94548217e-02, -2.80952007e-02,
       -1.67448744e-02, -2.40394399e-02, -3.87261733e-02,
       -5.14564570e-03, 1.19717477e-03, 9.89213213e-03, 2.54558362e-02,
       -1.15314620e-02, -1.68161280e-02, -1.42713170e-02, 8.67759809e-03,
       -9.78344027e-03, 1.69922393e-02, 4.31958139e-02, 5.20586362e-03,
       -1.12405391e-02, -2.98516243e-03, -1.24443760e-02, 3.99939017e-03,
       1.89327113e-02, -3.14222164e-02, 4.05266555e-03, 4.27825376e-02,
       2.52450164e-02, 5.54959150e-03, 3.41630424e-03, -1.27756195e-02,
       9.49279685e-03, 2.53318697e-02, -1.97908040e-02, -1.20131029e-02,
       1.77718010e-02, 2.68934853e-02, 1.76786474e-04, 1.86051540e-02,
       -1.54055702e-02, -2.41263788e-02, 2.41958373e-03, -3.08153965e-02,
       1.09315924e-02, 3.35845016e-02, -1.44070908e-02, -3.72681767e-03,
       2.09869426e-02, 8.47226754e-03, -2.35273857e-02, 1.54857896e-02,
       -1.89822707e-02, 1.52990343e-02, -1.36071937e-02, -2.31161602e-02,
       1.14026922e-03, 2.56472155e-02, -6.13418408e-03, -7.24874362e-02,
       -1.95771568e-02, -8.71844497e-03, -1.08935945e-02, 1.57784130e-02,
       1.08072674e-02, 1.28972735e-02, 3.12425196e-02, 2.79609282e-02,
       -1.84416641e-02, 2.19034646e-02, 6.30009687e-03, 9.79099143e-03,
       7.60812720e-04, -1.04892086e-02, -2.58351527e-02, -8.30506906e-03,
       2.91994009e-02, -9.16789006e-03, 4.58424054e-02, 1.75832119e-03,
       -2.40460038e-02, -5.28295990e-03, 7.43074459e-04, 8.46886914e-03,
       2.63356715e-02, 1.66972689e-02, -6.22976087e-02, -3.75070684e-02,
       -2.16401480e-02, -3.31262723e-02, -1.06831808e-02, 3.41078732e-03,
       -2.59969179e-02, -1.83457625e-03, 6.20803470e-03, -3.32428291e-02,
       -4.89869528e-03, -2.48422511e-02, 3.47388275e-02, 1.94451530e-02,
       -1.90506433e-03, 2.63503231e-02, 1.12542221e-02, 4.78420593e-02,
       -2.30806787e-03, 1.41699985e-02, 1.39826266e-02, -2.29807347e-02,
       5.23275835e-03, -3.03747393e-02, -1.23607006e-03, -2.50812527e-02,
       -1.60763767e-02, -2.06682412e-03, -1.26893185e-02,
       -1.95092075e-02, 2.83291489e-02, -1.19738746e-03, 1.98839116e-04,
       5.53584797e-03, -7.61248637e-03, 4.09945138e-02, -1.21141206e-02,
       1.45240966e-02, -1.25160692e-02, -1.06147109e-02, -1.89857129e-02,
       -6.34893924e-02, -1.68484915e-02, -3.99618112e-02,
       -8.53165798e-03, -5.19387424e-02, 2.53473711e-03, -1.28241330e-02,
       -1.00480225e-02, 5.50136007e-02, 1.95587333e-02, 2.15064604e-02,
       8.47675093e-03, 1.73314251e-02, 8.01495276e-03, 3.09689026e-02,
       -3.13449913e-04, 7.60315312e-03, 5.35343401e-02, 2.13808827e-02,
       1.43454541e-02, -9.69204213e-03, 8.54659732e-03, -4.24286909e-03,
       8.68591014e-03, -1.14295688e-02, -2.25113705e-02, 3.96683030e-02,
       -1.67234931e-02, 1.69717222e-02, 2.04652511e-02, -4.12154739e-04,
       -1.63580682e-02, 1.70646906e-02, -1.86662469e-02, 7.91306607e-03,
       3.26973163e-02, -4.61147493e-03, 2.23353244e-02, 4.32387833e-03,
       1.32876569e-02, -6.06314931e-03, 2.80909717e-05, -8.35088920e-03,
       9.63601284e-03, 2.93297023e-02, -4.60710004e-03, 2.90487614e-03,
       -1.09059103e-02, -2.60869395e-02, -7.75695837e-04, 1.52254580e-02,
       -1.72575004e-02, -2.41461098e-02, 1.26551408e-02, 4.85146791e-03,
       -4.97110561e-03, 4.46210476e-03, -8.80690850e-03, 2.30109002e-02,
       4.94953245e-03, -1.71129070e-02, 3.71958315e-03, 2.15437636e-02,
       -2.84744855e-02, -2.50829943e-02, -1.07231289e-02, 1.49102984e-02,
       -1.76554278e-03, 6.14960119e-03, -4.79265340e-02, -1.22715048e-02,
       2.22072508e-02, -1.14447465e-02, 1.50839621e-02, 1.34330112e-02,
       3.20270248e-02, 2.13587359e-02, -1.77228265e-02, -2.48915516e-02,
       -8.19663610e-03, 2.35107001e-02, -1.34366518e-02, 2.17728727e-02,
       1.28298730e-03, 5.56733413e-03, -9.97360423e-03, -1.10439165e-02,
       -4.33704816e-03, -7.36637798e-04, 1.37473950e-02, -2.86390912e-02,
       -3.83679159e-02, -1.82167739e-02, -8.54889583e-03,
       -2.65761241e-02, -3.69852111e-02, -5.15586585e-02, 1.79925896e-02,
       1.78414732e-02, -1.24529721e-02, 1.48258964e-02, -1.09973093e-02,
       9.54027008e-03, -9.26213246e-03, -1.77744273e-02, -1.13362009e-02,
       3.29826074e-03, -1.71732679e-02, -4.72001359e-02, -2.26994939e-02,
       4.24149586e-03, -3.09900027e-02, -4.70150262e-02, -3.96291763e-02,
       -1.20992539e-02, 5.39720384e-03, 1.61220804e-02, -4.50746622e-03,
       -8.40642955e-03, -1.24886259e-02, 4.20790166e-03, 1.32924467e-02,
       1.17271924e-02, -1.19075002e-02, -2.84716506e-02, 3.84124997e-03,
       -1.29495421e-02, -1.55240111e-03, -1.25164781e-02, 1.97770037e-02,
       -1.15074897e-02, 2.01067291e-04, -2.65372656e-02, -6.21194812e-03,
       -1.10435216e-02, -1.05662812e-02, 7.47604389e-03, 3.20314094e-02,
       1.85237862e-02, -1.43277682e-02, -6.80591306e-03, -8.35115742e-03,
       -1.78581811e-02, -1.73935033e-02, -2.35254001e-02, 4.43997746e-03,
       -8.23353697e-03, 9.73340182e-04, 4.20928234e-04, -1.69629119e-02,
       1.58850998e-02, 3.12176021e-03, 3.78927626e-02, 1.96594056e-02,
       1.75633132e-02, 4.85631498e-03, 3.97999957e-02, 9.02477372e-03,
       1.31878760e-02, 8.23738892e-03, -2.45847031e-02, -1.35718267e-02,
       2.58689746e-02, 1.56128341e-02, -4.66123894e-02, 1.02519244e-02,
       2.62579937e-02, -2.45319121e-03, -4.51743826e-02, 3.93951684e-03,
       3.52074578e-02, -1.04309153e-02, -1.80445407e-02, 4.50068479e-03,
       2.88250647e-03, 1.21259503e-02, -2.82913297e-02, 3.09056742e-03,
       -1.24271112e-02, 1.19361281e-03, -2.03241650e-02, -1.66473016e-02,
       -2.93109808e-02, -1.07469978e-02, -1.81628466e-02,
       -5.63933812e-02, -2.77402364e-02, 1.21120075e-02, 2.05063466e-02,
       4.23440523e-02, 8.38733744e-03, -6.85583381e-03, -1.64527434e-03,
       1.72404442e-02, 1.32909818e-02, 3.91107425e-03, 2.37269159e-02,
       4.51914128e-03, 1.86782889e-02, -7.85079133e-03, -4.05164883e-02,
       -2.08959021e-02, 9.62790381e-03, 5.80605818e-03, 1.85092781e-02,
       1.32545282e-03, -1.36658065e-02, -2.01581400e-02, -3.18484730e-03,
       4.71575372e-03, 1.54470960e-02, 3.40493018e-04, -1.66616812e-02,
       -1.43856378e-02, -1.54125094e-02, 4.89351712e-03, -1.47508997e-02,
       -1.97007377e-02, 3.88144981e-03, -2.57262439e-02, -3.48070152e-02,
       -3.96661758e-02, -3.65539528e-02, 4.97754514e-02, 1.14433020e-02,
       -3.21710570e-04, -3.03794537e-03, 8.73609155e-04, 5.64408209e-03,
       1.13657340e-02, 4.26251348e-03, 2.07259208e-02, 1.70768127e-02,
       -2.74127293e-02, -3.21208462e-02, -9.00103897e-03, 1.95470219e-03,
       8.60290229e-03, 4.54116939e-03, -1.89616326e-02, -1.08378055e-02,
       1.56263573e-04, 8.58320110e-03, -1.97412893e-02, -2.29778811e-02,
       6.94943767e-04, 3.70305702e-02, 8.58404394e-03, -1.39287040e-02,
       -1.51532665e-02, 2.68411939e-03, -4.82237861e-02, -2.93934159e-02,
       3.18533770e-04, 2.73887552e-02, 3.19222151e-03, -3.77114192e-02,
       -1.02803307e-02, -5.50661189e-03, 1.44871194e-02, -3.44933965e-03,
       -7.01658754e-03, 3.60514829e-03, -1.61262657e-02, 1.80836096e-02,
       6.20335108e-03, -2.11193990e-02, -8.11386667e-03, 2.38439459e-02,
       -9.21035185e-03, 2.27725189e-02, -1.44058540e-02, -3.67207415e-02,
       3.35807540e-02, 1.79318443e-03, -3.27027403e-02, 1.16249388e-02,
       -8.43448192e-03, -6.43962575e-03, 3.64343124e-03, 2.60828785e-03,
       -4.26089764e-02, 1.21119677e-03, -4.72904257e-02, -1.75169837e-02,
       -4.41232987e-04, 1.53357424e-02, 6.15668716e-03, 3.59786823e-02,
       -1.76294036e-02, -4.57834862e-02, 2.93543003e-02, 2.80860774e-02,
       -1.07074212e-02, 2.93651074e-02, -6.91539288e-01 ]
