%YAML:1.0
---
myHogDector_1: !!opencv-object-detector-hog
   winSize: [ 64, 128 ]
   blockSize: [ 16, 16 ]
   blockStride: [ 8, 8 ]
   cellSize: [ 8, 8 ]
   nbins: 9
   derivAperture: 1
   winSigma: 4.
   histogramNormType: 0
   L2HysThreshold: 2.0000000000000001e-01
   gammaCorrection: 1
   nlevels: 64
   signedGradient: 0
   SVMDetector: [ 4.62799612e-03, -2.79115792e-02, -2.34616268e-02,
       2.78612617e-02, 2.46749204e-02, -4.97939950e-03, -1.11410925e-02,
       -2.94247456e-02, 6.24968996e-03, 3.54997814e-02, -1.40568092e-02,
       4.65554127e-04, -3.21380305e-03, -1.58209186e-02, 2.37241834e-02,
       1.69950929e-02, 1.79817732e-02, 1.16963936e-02, 2.28547342e-02,
       -1.75942071e-02, 2.42995145e-03, 8.90077441e-04, -3.09766410e-03,
       -6.29696622e-03, -2.49140467e-02, -4.29352336e-02, 2.42898776e-03,
       2.64307801e-02, -1.18669467e-02, 3.87748959e-03, 3.11776530e-03,
       -2.05586087e-02, 9.23852250e-03, -1.68726931e-03, 3.47411702e-03,
       -1.66502018e-02, 1.77949555e-02, -7.99280312e-03, 1.35762440e-02,
       1.20803127e-02, 2.19136514e-02, 2.13715844e-02, 1.12912839e-03,
       9.50608123e-03, 4.17577811e-02, 1.38253765e-02, -9.59599670e-03,
       1.59203280e-02, 1.03433114e-02, 3.90713010e-03, 2.00278182e-02,
       -2.33882995e-04, 2.25380082e-02, 3.10110189e-02, 1.22685237e-02,
       4.71716048e-03, 8.74339894e-04, 8.54143314e-03, 6.99034287e-03,
       1.87784862e-02, -1.38673531e-02, 1.74376240e-03, -6.36127777e-03,
       2.95319427e-02, -5.44990879e-03, -1.84351243e-02, 7.10435119e-03,
       -1.87471937e-02, 4.15227339e-02, 3.10089136e-03, -9.35836695e-03,
       2.00654827e-02, 8.95782188e-03, 3.56605597e-04, 2.17670593e-02,
       5.65767428e-03, 1.08980015e-02, 2.26942338e-02, 3.23772081e-03,
       1.34363910e-03, -1.10750590e-02, 1.32416105e-02, -3.00142611e-03,
       9.37703531e-03, 1.70175638e-02, 3.19863632e-02, 1.60645861e-02,
       -5.54105209e-04, 1.47501528e-02, 1.07163610e-02, -2.19418705e-02,
       -4.21318179e-03, 4.72731330e-03, 6.63720304e-03, -2.20937803e-02,
       1.58769377e-02, 1.41293351e-02, 1.09995138e-02, -1.49688795e-02,
       1.17746310e-03, -1.48439198e-03, 1.11028580e-02, 4.34555160e-03,
       -1.71934571e-02, -6.83578057e-03, 2.25488544e-02, 2.48407237e-02,
       -7.56170508e-03, -9.38416738e-03, -4.96766111e-03,
       -1.98677536e-02, -2.77459621e-02, 5.24121523e-03, -2.62625851e-02,
       -3.89099517e-03, 4.77437954e-03, -4.72011277e-03, -4.89848712e-03,
       -4.83749993e-03, -3.18445936e-02, -1.92036200e-02,
       -1.64608825e-02, -2.27205679e-02, -8.17062147e-03,
       -1.92169324e-02, 1.54857029e-04, 7.36037083e-03, 9.80774593e-03,
       3.92812537e-03, 6.93925016e-04, -2.24835854e-02, -1.98712684e-02,
       -6.06260309e-03, 1.47901773e-02, -9.29112211e-05, 1.50301005e-03,
       3.43804457e-03, 3.25362707e-05, -5.06545976e-03, -1.49813360e-02,
       -2.84369290e-03, -8.57373234e-03, -6.11398555e-03, 5.51859289e-03,
       -2.16250513e-02, 9.65665001e-03, -3.43753062e-02, 1.06502622e-02,
       1.33321546e-02, 3.92123265e-03, 1.68184540e-03, -6.22283341e-03,
       3.01435683e-03, -2.43735947e-02, -2.37652045e-02, -5.38166761e-02,
       -1.13164205e-02, -4.24291240e-04, -2.36802418e-02,
       -2.92676240e-02, -7.52910087e-03, 2.05747713e-03, 5.30131627e-03,
       3.37275602e-02, -1.08314045e-02, 1.55347725e-02, 1.81388967e-02,
       2.28897464e-02, 1.83112659e-02, 1.26027344e-02, -1.10576674e-03,
       -2.88959667e-02, -1.65502448e-02, -4.43853065e-02,
       -5.42292604e-03, 1.83893479e-02, -5.09135844e-03, 7.57327443e-03,
       -5.39338589e-03, -2.06844285e-02, -2.39464305e-02,
       -3.02663557e-02, -4.91462387e-02, 1.77338049e-02, 2.33470388e-02,
       5.18886279e-03, -5.92936995e-03, 2.11499725e-02, -1.04328021e-02,
       -6.95642829e-03, 7.72014679e-03, -2.70742420e-02, 5.12982998e-03,
       -3.16340872e-03, -3.20867002e-02, -2.02127919e-02, 4.74791741e-03,
       -1.54387569e-02, 1.65855233e-02, 1.40046643e-03, -2.54026279e-02,
       4.87938002e-02, 1.75891127e-02, 2.72870511e-02, 2.56704795e-03,
       3.87933408e-03, -1.15636904e-02, 3.57016386e-03, 4.03530486e-02,
       1.20787881e-03, 2.18136068e-02, -9.89923067e-03, -1.22087467e-02,
       -2.08449364e-02, -2.20646728e-02, -2.08851583e-02, 3.32495524e-03,
       2.75840461e-02, -4.28927736e-03, 2.53034034e-03, 2.56842691e-02,
       -1.90587807e-02, -1.52742537e-02, 2.08950192e-02, 2.78186332e-02,
       -2.28942931e-02, -8.70751683e-03, -1.97679400e-02,
       -1.98853482e-02, -4.11492714e-04, -1.28075685e-02,
       -2.35455092e-02, 2.01773848e-02, -6.21178467e-03, 6.95902342e-03,
       1.51816038e-02, 1.35332048e-02, 2.68213823e-02, 1.56264249e-02,
       1.24265440e-02, -4.75554680e-03, 2.65469011e-02, 1.25917736e-02,
       -2.43532434e-02, -2.60378029e-02, -8.42875522e-03,
       -2.90219430e-02, 1.46182654e-02, 1.19302832e-02, -3.11858151e-02,
       1.72435250e-02, 3.87964305e-03, -8.12910963e-03, 5.81465475e-03,
       -1.46403806e-02, 8.70788842e-03, 6.37999969e-03, 9.60715301e-03,
       -1.32673690e-02, 2.13760603e-02, -1.61344651e-02, -2.42660381e-03,
       -1.70607716e-02, -1.75586483e-03, -1.90857649e-02, 5.98656386e-03,
       1.42593412e-02, -1.18895695e-02, 3.93010303e-02, -2.62991115e-02,
       -8.48694518e-03, 9.63091198e-03, 6.91227801e-03, 1.85600501e-02,
       2.80572027e-02, 2.52747517e-02, -2.59624254e-02, 2.38158777e-02,
       -1.05695194e-02, -1.31862424e-02, 1.05514005e-02, -1.36599625e-02,
       4.23760992e-03, -1.45092858e-02, 8.65090406e-04, 3.34627141e-04,
       1.39436359e-02, -3.59905548e-02, 3.15873604e-03, 7.91544281e-03,
       1.61144994e-02, 1.84902549e-03, -1.92919956e-03, 4.15972434e-03,
       -2.19879989e-02, 9.50126722e-03, 2.98097753e-03, 5.06460143e-04,
       -8.66010878e-03, -7.26707233e-03, 3.71965056e-04, -1.96122415e-02,
       -8.17820244e-03, -4.08306345e-02, -2.38906872e-02,
       -1.85201317e-02, 1.32006500e-03, -1.55173456e-02, -4.37121931e-03,
       4.20192815e-03, -2.32138648e-03, 3.65005137e-04, 9.69837233e-03,
       2.03311443e-02, -2.02204362e-02, -1.95095968e-02, -2.59623583e-02,
       -4.00255015e-03, -8.01479258e-03, 1.73650833e-03, -1.27937589e-02,
       -2.08178405e-02, 8.16826068e-04, -1.23335784e-02, -5.45385247e-03,
       4.75207949e-03, -1.31820822e-02, 2.71831173e-03, -4.04710397e-02,
       -3.26795573e-03, -2.28409376e-02, -7.31997518e-03, 4.57897829e-03,
       6.49331976e-03, -2.49327696e-03, -5.01574837e-02, -1.94776226e-02,
       -1.84735470e-02, 6.95453864e-03, -1.97718963e-02, -1.85970049e-02,
       -1.82736374e-03, 2.43432838e-02, 2.88832793e-03, 9.73241590e-03,
       1.54771600e-02, -1.62006915e-02, 1.23584848e-02, 1.28259009e-03,
       1.38531327e-02, -2.22306163e-03, 1.65343913e-03, -9.53903794e-03,
       -1.17833875e-02, 1.91557501e-02, -1.55665651e-02, 4.61757276e-03,
       -2.09835973e-02, -2.51352461e-03, -1.26614533e-02, 3.06512229e-02,
       1.03154657e-02, -3.47869545e-02, 1.36622861e-02, -5.30208042e-03,
       8.70295055e-03, -9.18031484e-03, 1.53984567e-02, 2.43086889e-02,
       -1.69650447e-02, -1.33629767e-02, -1.12819858e-02, 5.55485894e-04,
       -2.07398217e-02, -9.16586816e-03, -3.78191732e-02, 3.99990182e-04,
       -1.19657964e-02, 7.97433499e-03, 9.33790207e-03, 1.00689782e-02,
       4.40113284e-02, 1.10555561e-02, 3.08019258e-02, 1.48352631e-03,
       2.61455625e-02, -1.45426420e-02, -2.15149894e-02, -6.47916412e-03,
       -8.26899055e-03, 1.84293687e-02, 1.06446985e-02, 7.31244404e-03,
       -4.93883761e-03, -9.61026922e-03, -1.95354503e-02,
       -2.88374778e-02, -5.43676550e-03, -9.88732558e-04, 2.93662231e-02,
       2.64620166e-02, -2.64203982e-06, -2.93312874e-02, 1.45730386e-02,
       -2.69892346e-03, -2.35558432e-02, -2.55188551e-02,
       -5.13974838e-02, -3.13801169e-02, -5.37534710e-04,
       -2.90060360e-02, -3.16838771e-02, 9.92580038e-03, -6.26442023e-03,
       3.40238470e-03, 1.27511909e-02, -1.49796968e-02, 2.33054683e-02,
       2.61966195e-02, 1.96226444e-02, 1.65662635e-02, 2.97678653e-02,
       -1.47975655e-02, -1.47459367e-02, 5.74349100e-03, -1.45022618e-03,
       -2.45025828e-02, 2.92942557e-03, 1.11519685e-02, -9.58023942e-04,
       -4.39633196e-03, -3.10890209e-02, 9.03520093e-04, -8.92233197e-03,
       -1.96192251e-03, 1.49640674e-02, -6.65136101e-03, -8.25917907e-03,
       -5.67104202e-03, 3.29458830e-03, 2.27651782e-02, 1.32889422e-02,
       -2.29859981e-03, -1.26610016e-02, -1.37708606e-02,
       -2.84849964e-02, -5.79825090e-03, -1.55929360e-03, 2.07303930e-02,
       1.81494013e-03, 1.18408334e-02, 2.07077209e-02, 2.78367493e-02,
       2.49259435e-02, 2.99714059e-02, 1.47832856e-02, 1.56918180e-03,
       -1.66202302e-03, -2.88870838e-02, 2.47708913e-02, -2.18243133e-02,
       -2.51208409e-03, -6.89275155e-04, 3.86438658e-03, 1.58178918e-02,
       -2.65340641e-04, 7.79910386e-03, -1.30853197e-02, 1.13513451e-02,
       4.23852950e-02, 2.80322768e-02, 2.89106499e-02, 1.47899613e-02,
       -1.77991204e-02, -1.52859781e-02, 2.45946869e-02, 9.07544699e-03,
       -1.41722672e-02, -5.15475927e-04, -8.67868774e-03, 8.56197067e-03,
       -8.08306411e-03, 7.34698586e-03, -2.85266899e-02, -2.52644997e-02,
       -1.14320207e-03, 1.43202627e-02, -6.41772803e-03, 6.00660732e-03,
       1.21018337e-02, 1.27388528e-02, 3.13411616e-02, 8.28234293e-03,
       2.16957089e-03, 2.13573463e-02, -1.75119583e-02, -1.31421341e-02,
       2.62835044e-02, 2.24034786e-02, 1.23725636e-02, 1.96173582e-02,
       -1.52691426e-02, 1.56861928e-03, 2.36214240e-04, 1.19070224e-02,
       -2.61332821e-02, -3.76066975e-02, -2.03663774e-04, 1.01712774e-02,
       2.26164460e-02, -1.30042424e-02, -5.84522495e-03, 3.84632461e-02,
       3.28639410e-02, -2.96080150e-02, -2.43683415e-03, 1.77653208e-02,
       -1.37335230e-02, -9.63812415e-03, -1.25488127e-02, 1.83858734e-03,
       2.04960573e-02, -8.76519736e-03, -3.12172752e-02, 3.62312212e-03,
       1.67278443e-02, 8.96751974e-03, 2.93205678e-02, -1.41783338e-02,
       1.24748666e-02, 1.87239815e-02, 3.05884928e-02, -1.76913850e-02,
       6.07658550e-03, 1.06602153e-02, -3.86548950e-03, 2.53421757e-02,
       7.38461828e-03, -1.31700700e-02, 2.78343037e-02, 4.50674184e-02,
       -1.22872274e-03, -4.48810076e-03, 6.79008150e-03, 3.49342637e-02,
       -1.22086564e-03, -1.88422948e-02, -1.00254575e-02, 2.67172996e-02,
       5.25026321e-02, 2.09335051e-02, 7.70720001e-03, -3.18582938e-03,
       6.56486768e-03, 2.68073585e-02, 5.98920789e-03, 1.50297945e-02,
       3.13410684e-02, 5.16247645e-04, -2.48111170e-02, 6.26127981e-03,
       2.20601950e-02, 1.62702687e-02, -1.01326276e-02, -6.14318484e-03,
       -4.26292419e-03, 1.84163060e-02, 1.37786474e-02, -1.46855870e-02,
       3.79855707e-02, -5.01103792e-03, -1.18314093e-02, 5.37558272e-03,
       2.29941886e-02, 1.65431295e-02, 1.09717092e-02, 2.44333949e-02,
       -1.24229463e-02, -1.85656510e-02, -2.42610537e-02, 1.73297916e-02,
       1.30113699e-02, -1.61776580e-02, -4.76726657e-03, 1.76872760e-02,
       2.43046433e-02, -1.68477092e-02, -2.60461811e-02, -2.02252064e-02,
       7.52804335e-03, 4.09753472e-02, -1.50758149e-02, -1.54133514e-02,
       2.49180011e-02, -2.21988913e-02, -1.67162288e-02, 2.18027625e-02,
       -1.66526362e-02, 8.73593893e-03, 1.06509728e-02, 3.08204355e-04,
       -1.48901427e-02, 7.63304648e-04, 6.05363958e-03, 4.01873421e-03,
       1.86261870e-02, -7.40771228e-03, -1.53932767e-02, 2.65669432e-02,
       -2.10870989e-03, -5.80642745e-03, 1.08185643e-02, -8.20984319e-03,
       -9.57067683e-03, -5.95714711e-03, 8.41486733e-03, 3.11433710e-02,
       1.46108503e-02, -1.45419117e-03, -1.41855432e-02, 2.06997804e-03,
       2.03352817e-03, 4.04944643e-03, 1.86813679e-02, -1.40074492e-02,
       1.50048379e-02, -6.48653228e-03, 1.16787059e-02, 1.75023377e-02,
       8.72645341e-03, 7.54958065e-03, 7.81558082e-03, -3.96125205e-03,
       -1.11827292e-02, 1.85835864e-02, 2.05280893e-02, -1.34135280e-02,
       -1.51015511e-02, 2.95636691e-02, -3.11856177e-02, -2.58376449e-02,
       -8.79832916e-03, -1.22758085e-02, 2.67352653e-03, -2.58283364e-03,
       -6.33470062e-03, 2.15696767e-02, -2.03662012e-02, -1.01165881e-03,
       -1.12429995e-03, -8.29902198e-03, -3.85777801e-02, 8.42075143e-03,
       -2.22087465e-02, -1.20851994e-02, 9.50301718e-03, 4.60022641e-03,
       2.85403407e-03, 5.61250839e-03, -2.67772358e-02, -1.74605623e-02,
       2.58422196e-02, 7.12558441e-03, -1.22399358e-02, -4.87039937e-03,
       -7.41359591e-03, -1.04404874e-02, 1.22716874e-02, 2.77498215e-02,
       -2.06435448e-03, 4.30489099e-03, -2.93613058e-02, 2.50378530e-02,
       4.09408547e-02, 6.57588197e-03, -4.16291924e-03, 3.08786016e-02,
       1.20261486e-03, -8.21368943e-04, 1.15722921e-02, 4.14332887e-03,
       2.53714491e-02, 7.05260970e-03, -1.17925294e-02, 2.84267738e-02,
       5.30227609e-02, -3.10769980e-03, -3.11924354e-03, 2.68945433e-02,
       -1.26204789e-02, 7.80834118e-03, -7.60985538e-03, -2.45364178e-02,
       2.57234294e-02, 2.93402397e-03, -4.65612039e-02, -2.13440508e-02,
       1.44133242e-02, -2.16836389e-02, -1.67913903e-02, -1.81482211e-02,
       -1.47640212e-02, 3.77299599e-02, 7.67573938e-02, -1.85053796e-02,
       -3.97641165e-03, 3.68196238e-03, -1.42897274e-02, 5.20662544e-03,
       9.02996678e-03, -1.95912048e-02, 1.51556861e-02, 1.53193232e-02,
       -5.85011691e-02, -6.23966893e-03, -2.19952166e-02,
       -3.15902159e-02, -1.79072209e-02, -2.68625887e-03,
       -3.56643908e-02, 3.07718143e-02, 2.13296879e-02, -6.27519283e-03,
       1.51542365e-03, 8.81677121e-03, 3.32957343e-03, -1.35147257e-03,
       -3.98496492e-03, 1.45621104e-02, 4.37923940e-03, 2.52839997e-02,
       -1.45186015e-04, 1.32044265e-02, 1.32556232e-02, -8.33538454e-03,
       -3.79075296e-02, 1.14632091e-02, -2.10609008e-02, 8.01866129e-03,
       2.72932239e-02, -4.00100369e-03, 1.17713856e-02, -1.67047943e-03,
       5.26539376e-03, 6.95694704e-03, 2.32417975e-02, -3.33283804e-02,
       -8.39898828e-03, 1.70284845e-02, 3.29287286e-04, -1.15261199e-02,
       1.22018531e-02, -1.14809563e-02, -1.40337378e-03, 9.47999768e-03,
       -4.17885296e-02, 2.85619479e-02, 3.74797871e-03, -2.98030348e-03,
       -8.67797807e-03, -3.25074419e-03, -1.91459041e-02,
       -2.60370038e-02, 2.06545535e-02, 1.31704146e-02, 1.43199170e-03,
       -1.83027573e-02, -1.88925508e-02, -3.14280055e-02, 2.14195922e-02,
       -3.36422697e-02, -2.57146508e-02, 1.30548440e-02, 1.10049616e-04,
       5.32950610e-02, 4.15344350e-02, -2.27647405e-02, -2.60632276e-03,
       3.81162912e-02, 1.05726877e-02, 2.63063218e-02, 1.82235669e-02,
       -1.39622891e-03, 9.47749987e-03, 2.72983629e-02, -2.73883082e-02,
       3.26929707e-03, 4.42277789e-02, -1.40445260e-02, 9.69255529e-03,
       -1.18212886e-02, -8.51621013e-03, 1.26164742e-02, -6.80717221e-03,
       1.12073859e-02, -6.28892914e-04, 9.19536338e-04, -1.86348315e-02,
       -3.04348599e-02, 1.13732899e-02, 5.33737475e-03, 4.31109266e-03,
       3.81940859e-03, -9.45503265e-03, 7.38391047e-03, -1.46019105e-02,
       -4.36354615e-03, -1.57047138e-02, 3.97972204e-03, -1.07899792e-02,
       3.07113621e-02, 3.37069072e-02, 1.14751766e-02, 4.33075763e-02,
       2.89909542e-02, 9.52913798e-03, 1.65799893e-02, -2.24599638e-03,
       -1.16083957e-02, 1.77474283e-02, 1.93347242e-02, 1.05917472e-02,
       1.68419033e-02, 1.25348326e-02, 1.36220083e-02, -1.64390933e-02,
       6.48582960e-03, 2.93338858e-02, 2.47397423e-02, 1.67203881e-02,
       -2.70098373e-02, 1.93452684e-03, 2.65434049e-02, 1.02482121e-02,
       -2.45294608e-02, 1.12161576e-03, 6.92900270e-04, 9.27234162e-03,
       -8.79366882e-04, -3.13967951e-02, -2.73919711e-03, 1.19762802e-02,
       -2.38265395e-02, -2.74796039e-02, -9.99182928e-03,
       -7.78169278e-03, 1.45851336e-02, 1.75455194e-02, -5.16760349e-03,
       2.27417592e-02, 4.27704640e-02, 3.27202789e-02, -4.03877348e-03,
       3.89931574e-02, 3.53863277e-02, -7.81221734e-03, -6.64568972e-03,
       -1.08842812e-02, 2.25061942e-02, 1.41592920e-02, 1.46787371e-02,
       -1.37424944e-02, 1.65015133e-03, -7.01490231e-03, -6.27971254e-03,
       6.75465399e-03, -1.84626430e-02, 5.31811733e-03, -1.36198392e-02,
       -1.80108603e-02, -1.50666889e-02, -1.44871371e-02,
       -3.10034398e-02, -3.81208793e-03, 1.49873979e-02, -1.71268650e-03,
       -1.16276974e-02, -2.67879609e-02, 4.38183360e-03, -2.25287024e-03,
       6.83539035e-03, -3.28497514e-02, 2.65030866e-03, 4.23780717e-02,
       -6.69144513e-03, 2.70739477e-02, -8.77087936e-03, 2.17990428e-02,
       -2.19378471e-02, -7.66934967e-03, -2.96033118e-02,
       -4.38119099e-03, 1.12407934e-02, -2.45268755e-02, -5.60821919e-03,
       -9.39473161e-04, 1.23653444e-03, -5.14149517e-02, -1.52885178e-02,
       -4.88591893e-03, -2.49517243e-02, 2.82800868e-02, -3.95103451e-03,
       7.53921166e-04, -1.89346727e-02, 2.61389855e-02, -4.82107466e-03,
       1.78159401e-02, -4.56386954e-02, -4.21171077e-02, 4.01440077e-03,
       -2.91040372e-02, 4.98871785e-03, -2.86422893e-02, -1.13752047e-02,
       -1.89100914e-02, -7.69132329e-03, -2.91152503e-02, 1.97653081e-02,
       9.62665025e-03, -2.90071988e-03, 2.26316024e-02, 1.52399344e-02,
       1.95542760e-02, -1.15226433e-02, 1.41881267e-02, -1.03294374e-02,
       1.90912420e-03, 7.00978097e-03, -2.65744478e-02, 2.53200089e-03,
       2.39731595e-02, 1.23585612e-02, -2.72457860e-02, -1.56550724e-02,
       -6.40100508e-04, 5.67642180e-03, 1.79082043e-02, -1.55800572e-02,
       1.01349540e-02, -9.81339253e-03, -2.12368052e-02, -2.33488046e-02,
       1.77138054e-03, -1.30567765e-02, 7.75754312e-03, 2.13975031e-02,
       1.24347946e-02, -1.40804248e-02, -2.02461109e-02, -3.69301513e-02,
       -2.35539470e-02, -1.94245912e-02, -5.33882268e-02, 7.83602893e-03,
       1.89507809e-02, -2.22453754e-02, 1.83719490e-02, 4.61905450e-02,
       3.38868573e-02, -2.81362161e-02, -1.44737344e-02, -7.02461414e-03,
       -2.53178701e-02, 9.19649750e-03, -1.02795409e-02, 1.55639192e-02,
       2.82422900e-02, 1.44123659e-02, -8.63489788e-03, -8.59271269e-03,
       -1.88697875e-02, 3.16676847e-03, 7.10102962e-03, 1.67615172e-02,
       -2.10676789e-02, -3.30839679e-02, -2.66912747e-02,
       -2.43438724e-02, -1.85654238e-02, -2.96564102e-02, 2.92427205e-02,
       -2.90730838e-02, -2.80459821e-02, -2.54247095e-02,
       -2.84822490e-02, -2.06417087e-02, -2.16682125e-02,
       -2.61758026e-02, 7.09688338e-03, -2.61502713e-02, 2.82945894e-02,
       1.46506326e-02, 1.84844863e-02, 4.26186956e-02, 6.21355698e-02,
       -5.47993346e-04, 3.93766677e-03, -5.68958372e-03, 1.81309618e-02,
       4.00979109e-02, 2.82349973e-03, -8.26428831e-03, 1.28070293e-02,
       4.55018058e-02, 5.03132073e-03, 1.52049977e-02, -2.52887495e-02,
       2.75484249e-02, -2.37658098e-02, -3.83834564e-03, -1.32917846e-02,
       -2.99997441e-02, 1.41807226e-02, 3.75599088e-03, -4.19442216e-03,
       2.26202570e-02, 3.95127293e-03, -1.64400432e-02, 8.08174629e-03,
       -9.68630984e-03, -1.88057311e-02, -1.87521819e-02,
       -1.67658608e-02, 1.46865826e-02, 2.19924301e-02, 4.04822566e-02,
       -1.46299647e-03, 1.42502319e-02, 1.60776898e-02, 2.21048966e-02,
       6.08387142e-02, 5.09594306e-02, 3.90087664e-02, -1.25862341e-02,
       -2.48888303e-02, -5.50103635e-02, 2.97625409e-03, 5.41010231e-04,
       1.36201940e-02, 3.65603007e-02, -1.51109509e-02, -1.20612932e-02,
       -3.37601230e-02, -2.48023234e-02, -2.95330286e-02, 6.79712882e-03,
       8.09101854e-03, -8.52044905e-04, 8.34730733e-03, -1.49655147e-02,
       1.03057632e-02, 5.53068519e-03, 2.39351159e-03, -4.15294468e-02,
       -4.22263518e-03, 1.32507831e-02, -1.95243526e-02, 6.60869246e-03,
       -9.33964644e-03, -3.72061431e-02, -4.23111022e-03, 1.89710017e-02,
       -6.28628582e-03, 2.39530839e-02, 2.59406678e-02, 1.06341522e-02,
       3.26793976e-02, -6.27307221e-03, 3.14293150e-03, 1.35432854e-02,
       1.88452227e-03, -5.27988710e-02, -4.52589651e-04, 5.19904979e-02,
       -7.15822075e-03, 2.20748037e-02, -3.44277779e-03, -2.44233478e-02,
       6.89471082e-04, -8.98718741e-03, -9.63511970e-03, 3.14772911e-02,
       4.56079952e-02, 2.79473029e-02, -1.70015136e-03, -2.35164668e-02,
       -8.76943395e-03, 3.00725037e-03, 1.54325143e-02, 3.19615501e-04,
       4.17011976e-02, 2.03861743e-02, -5.07135456e-03, -1.28343320e-02,
       -1.69121176e-02, 9.79259703e-03, 1.93903781e-02, -4.83175681e-04,
       -8.93964339e-03, 3.59534547e-02, 3.17175090e-02, 2.34749634e-02,
       2.21994426e-03, -2.65239719e-02, -2.12964639e-02, -1.74639863e-03,
       7.00428803e-03, -2.64678951e-02, -1.70301013e-02, 2.26929388e-03,
       -1.47205321e-02, 1.67871956e-02, -2.44204532e-02, -8.07325356e-03,
       -5.46233030e-04, -3.67144756e-02, -2.78844982e-02, 9.28578712e-03,
       -7.59313861e-03, -1.80575950e-03, -4.13761362e-02,
       -3.77692953e-02, -3.33530679e-02, -1.98195055e-02, 2.15306804e-02,
       2.52495632e-02, 3.36234830e-02, 2.82957926e-02, 2.90147425e-03,
       -1.53299114e-02, -1.43972263e-02, -2.51733251e-02,
       -7.76054384e-03, -9.63542238e-03, 1.77329481e-02, 5.74763939e-02,
       5.47366552e-02, 2.84494627e-02, 4.54526348e-03, -4.14474905e-02,
       -5.20398840e-02, -4.20459472e-02, 4.74740192e-02, 8.03811178e-02,
       8.20500106e-02, 5.37192412e-02, -7.10115489e-03, 5.86356362e-03,
       -1.02578616e-03, -2.13125534e-02, -1.34875327e-02, 3.88044529e-02,
       6.55804342e-03, -3.65247428e-02, -3.54917794e-02, 2.63177295e-04,
       -7.91515317e-03, 7.72466301e-04, 6.16540387e-03, 4.25513461e-02,
       -2.17927732e-02, -2.89504509e-02, -1.59524530e-02, 6.01463206e-03,
       4.79083229e-03, -2.24368032e-02, 1.58160981e-02, 5.52715883e-02,
       7.72025855e-03, 5.37913591e-02, 1.73471067e-02, -1.84875149e-02,
       -1.29278507e-02, -1.80798844e-02, -5.87256253e-03, 5.89607470e-03,
       5.77567220e-02, 6.60625100e-02, -3.76465917e-03, -8.13163351e-03,
       7.08195032e-04, 3.36582698e-02, -5.89600718e-03, -1.24513963e-02,
       6.40645251e-02, 9.28199813e-02, 3.77723277e-02, -1.39316460e-02,
       6.69915378e-02, 1.09819911e-01, 7.23571181e-02, 5.00048278e-04,
       -4.02402058e-02, 7.88321346e-03, 3.84744480e-02, -2.06977539e-02,
       -1.00565935e-03, 6.42601550e-02, 3.78770046e-02, 7.38323014e-03,
       -1.15666380e-02, -3.25407647e-02, -3.32032181e-02,
       -2.09222361e-02, -5.69473431e-02, -3.17781717e-02, 6.55629262e-02,
       8.99500847e-02, 6.40202761e-02, -2.58389558e-03, -1.97351072e-02,
       6.95428206e-03, 4.99646999e-02, -1.48211094e-02, -3.19528691e-02,
       1.72625929e-02, 3.34356055e-02, -4.89220256e-03, -1.39695713e-02,
       -3.27523276e-02, -2.89496183e-02, -2.78862286e-02,
       -6.35210574e-02, 3.40447053e-02, 1.03885800e-01, 1.68135539e-02,
       4.15352685e-03, -7.63441343e-03, 1.36296656e-02, 1.81575939e-02,
       2.02107076e-02, -2.33139209e-02, 6.28749654e-03, 2.48419978e-02,
       -2.94780321e-02, -1.16223814e-02, -2.35569701e-02, 4.98060184e-03,
       2.76995674e-02, 2.86918506e-02, -1.60354543e-02, -1.61558725e-02,
       2.17184257e-02, -1.73523836e-02, -4.01668698e-02, -2.18701344e-02,
       5.58845606e-03, -1.76049420e-03, 1.35399634e-03, -3.81728783e-02,
       -2.61320993e-02, -7.16538448e-03, -4.92569767e-02,
       -5.51145002e-02, -2.14795694e-02, -2.09842380e-02,
       -3.24446149e-03, 1.42999506e-02, 1.58426333e-02, 4.67335153e-03,
       3.75515074e-02, -1.18513592e-02, 4.93490184e-03, -3.15333568e-02,
       -1.20660923e-02, 9.03165061e-03, 4.30666544e-02, -4.27372893e-03,
       3.41806971e-02, 6.53197914e-02, 2.03253888e-02, 2.24301568e-03,
       -1.44740045e-02, 1.21121295e-02, 1.12036867e-02, 3.72753702e-02,
       -6.67172996e-03, 5.70616545e-03, 4.14733924e-02, -2.62697395e-02,
       -1.40910437e-02, -5.42333862e-03, -3.10000330e-02,
       -1.87468156e-02, 1.10043725e-02, -9.07320646e-04, 3.54136601e-02,
       2.88826860e-02, -1.26017593e-02, -2.88840365e-02, -6.78279018e-03,
       -2.80799419e-02, -2.20242478e-02, 4.06037364e-03, -1.80362910e-02,
       4.30166908e-02, 8.84248689e-02, 2.55410559e-02, 5.61596313e-03,
       -1.76320914e-02, 8.94358754e-03, 4.72089462e-03, 2.88814511e-02,
       2.75518354e-02, 4.23520245e-02, 5.26494719e-02, -9.97474603e-03,
       -1.92850847e-02, -8.99612717e-03, -9.23990738e-03, 2.19314042e-02,
       1.31090954e-02, 1.81844849e-02, 1.55769565e-04, 2.58077756e-02,
       1.48420837e-02, -4.21977881e-03, -1.69296823e-02, 9.23597999e-03,
       -1.69431791e-02, -1.71067216e-03, -2.00975072e-02, 2.70150282e-04,
       -4.40326706e-03, -1.45205306e-02, -4.27164100e-02,
       -3.47544402e-02, -1.95220690e-02, -2.02955473e-02,
       -9.23713483e-03, 7.21249450e-03, 5.27677201e-02, 4.98744324e-02,
       1.53744472e-02, 4.18472802e-03, 9.00029484e-03, 1.79569293e-02,
       1.55475680e-02, 5.80605539e-03, 2.10433006e-02, 3.17580514e-02,
       1.98094901e-02, -8.23152438e-03, -1.91190857e-02, -1.70957427e-02,
       -4.90126293e-03, 9.43482373e-05, 3.02688703e-02, 4.09191325e-02,
       2.11534183e-02, -2.74470611e-03, -1.92387924e-02, -1.88786201e-02,
       -3.40435072e-03, 7.63783185e-03, -1.02225039e-03, 2.32548243e-03,
       -7.52060488e-03, -2.40471251e-02, -1.64584704e-02,
       -2.94277053e-02, -5.96803576e-02, -1.84204932e-02,
       -4.67739580e-03, -8.35455954e-03, -1.40083116e-02,
       -3.12174819e-02, 6.64728414e-03, 8.23967438e-03, -2.10588966e-02,
       -2.44851019e-02, -4.90009785e-03, 1.74713954e-02, 3.16166342e-03,
       6.92186654e-02, 6.11811839e-02, 7.97800720e-03, 1.13350665e-03,
       -2.52465587e-02, -8.48501734e-03, 1.04786549e-02, 2.79047489e-02,
       6.94286916e-03, 5.06576560e-02, 2.22448949e-02, -3.09921913e-02,
       1.37803797e-02, -3.16509120e-02, -3.58870551e-02, -4.21328396e-02,
       -1.32549191e-02, 4.48084855e-03, 4.50814143e-02, 2.42190324e-02,
       -1.12883933e-02, 1.33934598e-02, -4.29726839e-02, -2.82244310e-02,
       2.28344556e-03, 4.17902786e-03, -3.58180329e-02, 3.98342721e-02,
       1.76426508e-02, 1.09916017e-03, 2.45450940e-02, -1.51833026e-02,
       -1.03526311e-02, -1.96645129e-02, 1.24757458e-02, -4.25891299e-03,
       2.26367153e-02, 2.59233359e-02, 2.17485446e-02, -1.62024386e-02,
       -3.45349871e-02, -3.90356109e-02, 1.65317743e-03, -1.06678093e-02,
       -5.21533974e-02, -3.75339732e-05, 3.44173238e-03, 1.08848447e-02,
       9.64209251e-03, -3.37055475e-02, -1.97937619e-02, -7.97703397e-04,
       9.20624100e-03, -1.85857415e-02, 3.90843861e-02, 7.78296264e-04,
       3.10944356e-02, 2.56056003e-02, -8.00555013e-03, -5.21455258e-02,
       -6.49957871e-03, -6.29128981e-03, -4.89707701e-02, 6.82351599e-03,
       -7.26751110e-04, -1.95413008e-02, -5.55064250e-03,
       -2.69117970e-02, -3.14878188e-02, 1.98783772e-03, 8.99509527e-03,
       -3.76407914e-02, -3.86070181e-03, -3.18050943e-02,
       -1.57682505e-02, 1.26246433e-03, -2.12640837e-02, -6.98509254e-03,
       -7.12391175e-03, -1.42417001e-02, -3.30363661e-02, 7.21194723e-04,
       -1.84580665e-02, -1.03107505e-02, 5.99705130e-02, 5.91768697e-03,
       -1.26354592e-02, -1.11567136e-03, 8.12305603e-03, -2.16964073e-02,
       1.28070489e-02, -2.51850523e-02, -5.84325520e-03, 6.06486341e-03,
       -2.75247470e-02, 5.05734421e-03, -1.68075860e-02, -2.94183847e-02,
       -2.10403036e-02, 9.07014217e-03, 1.72359813e-02, -3.04676238e-02,
       -1.45959493e-03, -1.09216208e-02, 1.15829124e-03, -2.12273356e-02,
       -2.00466793e-02, -4.66094501e-02, -1.07080629e-02,
       -1.55684939e-02, -1.45611539e-02, 1.54493684e-02, -2.80616991e-02,
       -1.28632998e-02, -3.91099490e-02, -2.84427740e-02,
       -1.15157040e-02, -8.53211060e-03, -1.17419744e-02,
       -1.56359710e-02, -1.10707339e-02, -3.83243598e-02,
       -5.49983932e-03, -2.43766289e-02, -3.77971306e-02,
       -4.10715416e-02, 4.27570678e-02, 2.08926834e-02, 1.03899399e-02,
       3.63898724e-02, -1.57568362e-02, -1.90723874e-03, 1.17619541e-02,
       -1.71461664e-02, -5.41114900e-03, 3.73509489e-02, 3.94555368e-02,
       -1.07889790e-02, 4.16451320e-02, -1.19693559e-02, -1.98913570e-02,
       -4.68254127e-02, 3.72842955e-03, -9.38182976e-03, 5.85650140e-03,
       -5.44783194e-03, -1.96395405e-02, 5.04156994e-03, -1.75488871e-02,
       -4.95776720e-02, -2.98241340e-02, -4.46928255e-02,
       -2.34169904e-02, 1.81365199e-02, -2.27548759e-02, 1.92822199e-02,
       6.08770810e-02, 3.24161164e-02, 4.26069126e-02, 5.35694137e-03,
       1.81617364e-02, 1.66953262e-02, 2.43055038e-02, 2.22320817e-02,
       -6.10435673e-04, 4.54236120e-02, 4.25933115e-02, 1.06063150e-02,
       1.68907363e-02, 1.31401429e-02, -2.05551088e-03, 5.46372943e-02,
       1.81776639e-02, -6.78487075e-03, -2.40546390e-02, -2.21844413e-03,
       1.20067748e-03, 3.14492173e-02, 4.48109657e-02, 2.32394598e-02,
       4.00293954e-02, 4.16166382e-03, -8.98956228e-03, -5.47758937e-02,
       -3.36554274e-02, -6.41701296e-02, -3.70202027e-02, 2.55527673e-03,
       -3.33659314e-02, -3.85878943e-02, -3.52275558e-02, 3.75118330e-02,
       5.94350845e-02, 3.21467295e-02, 4.27464545e-02, 8.19427073e-02,
       1.03412360e-01, 3.92292701e-02, 6.20699339e-02, 4.63041291e-02,
       7.95668084e-03, -3.81030585e-03, -1.66204274e-02, -2.34396756e-02,
       3.07133514e-03, 2.78247315e-02, -9.71233821e-04, -3.98137048e-02,
       -1.64858717e-03, 2.16012578e-02, -9.63167567e-03, 1.09749576e-02,
       -5.74611966e-03, -1.57260094e-02, 1.43760405e-02, -1.33113824e-02,
       3.61543708e-03, -1.26613840e-03, -4.31100354e-02, -4.54795994e-02,
       -2.86634415e-02, 2.35589948e-02, -3.68613899e-02, -2.93298927e-03,
       2.38226959e-03, -2.20392440e-02, -2.02020220e-02, 2.98651308e-02,
       -7.75034726e-03, -9.56052158e-04, 7.96685927e-03, -2.48730648e-02,
       3.59575078e-02, 2.17964817e-02, -5.88270230e-03, 3.36550437e-02,
       2.11970713e-02, -4.56355736e-02, -4.21582982e-02, 1.28123108e-02,
       -2.51702163e-02, 3.32161859e-02, 9.79059469e-03, -2.34991945e-02,
       7.62377633e-03, 2.44418569e-02, -3.71646136e-02, -1.39167411e-02,
       -1.72146298e-02, 1.62815992e-02, -2.83295667e-04, -3.64883542e-02,
       -3.58142853e-02, 1.66631397e-02, 4.64443527e-02, -3.97390276e-02,
       -3.47065888e-02, -8.46284814e-03, 8.42366368e-03, 2.29389351e-02,
       -1.66467223e-02, -1.75924186e-04, 3.50003429e-02, 3.90727483e-02,
       -4.89200465e-04, -3.20936479e-02, -2.87941508e-02, 2.38174982e-02,
       -2.86128046e-03, -4.99815606e-02, -5.60232103e-02, 4.04817797e-02,
       2.32938696e-02, -3.66996578e-03, 6.24446431e-03, 2.20820699e-02,
       4.12744004e-03, 1.43067092e-02, -2.62830909e-02, -1.27032287e-02,
       2.72834133e-02, -8.49020015e-03, -2.53126062e-02, 3.42616811e-02,
       3.92041206e-02, 3.50460671e-02, 3.89492735e-02, 1.39088752e-02,
       -2.37044320e-02, -2.75120139e-02, -1.93641819e-02, 4.53633219e-02,
       7.65800253e-02, 5.48857637e-02, -3.96183552e-03, 5.51155396e-02,
       2.23488901e-02, -1.20482054e-02, -6.35012537e-02, -3.75133567e-02,
       -3.11926194e-02, 2.77724545e-02, 4.45212573e-02, 2.40041446e-02,
       7.45672807e-02, 5.84135689e-02, -1.82667281e-02, -3.44512612e-02,
       -4.08357903e-02, 1.98339485e-03, 3.04340273e-02, 3.60078141e-02,
       -1.34173995e-02, 4.35030237e-02, 7.03729242e-02, 3.35352533e-02,
       -2.24732924e-02, 6.86046630e-02, 4.74261232e-02, 1.37568172e-02,
       2.18806006e-02, -1.64135490e-02, 4.44797240e-03, 5.66002727e-03,
       3.85094881e-02, 3.87012959e-02, 2.25497447e-02, 1.71508659e-02,
       -4.20110906e-03, 1.33516984e-02, 4.94634127e-03, -4.56209388e-03,
       3.10518537e-02, 5.49248606e-02, 1.36916786e-02, 4.73500825e-02,
       6.26215115e-02, 3.22991125e-02, -1.24488794e-03, -3.29267909e-03,
       7.82395247e-03, -1.06185097e-02, 3.36672775e-02, 3.39126103e-02,
       5.59415342e-03, 4.50160950e-02, 3.59563157e-02, -2.20344774e-02,
       -8.06440972e-03, -9.44057759e-03, 9.25131049e-03, 8.17841943e-03,
       -1.39342444e-02, -5.66278724e-03, 3.87213044e-02, 5.49856424e-02,
       4.45094220e-02, 5.81536442e-03, 3.89831178e-02, 4.21974957e-02,
       5.55515662e-02, -6.08985603e-04, -1.79825388e-02, 3.63168633e-03,
       1.01378439e-02, -2.30542775e-02, 1.06119849e-02, 7.09973974e-03,
       2.33157743e-02, -1.17498161e-02, -3.18424664e-02, -8.45868234e-03,
       4.72602993e-02, 4.66321148e-02, 3.52579653e-02, 1.38597675e-02,
       4.63691801e-02, 3.59903276e-02, 2.61728670e-02, -3.51189151e-02,
       -4.02892902e-02, -3.35487425e-02, 2.91447099e-02, -2.18527541e-02,
       3.81523184e-02, 8.46373476e-03, -1.76639035e-02, -1.74355954e-02,
       -6.45602718e-02, -1.79445129e-02, -9.84535925e-03,
       -1.05450302e-02, -2.29595825e-02, -4.03478295e-02, 7.63464672e-03,
       2.06736978e-02, 2.52682436e-02, -3.28123197e-02, -3.35002393e-02,
       -3.05425655e-02, -4.80377004e-02, -4.82168011e-02,
       -2.91121341e-02, -3.48651223e-02, -3.54302861e-02, 5.05703560e-04,
       -5.45005361e-03, -4.07290012e-02, 7.41287926e-03, 2.97268499e-02,
       -1.58546939e-02, -2.12675612e-02, 1.91610176e-02, 3.01056658e-03,
       2.89404653e-02, -4.70023304e-02, -4.19891672e-04, 5.68713644e-04,
       -2.81565227e-02, -3.33454981e-02, -2.55200118e-02,
       -2.78817341e-02, -2.87574381e-02, -6.20177540e-04,
       -2.73748096e-02, -1.62428524e-02, 2.11266428e-02, 1.81228179e-03,
       -1.40500693e-02, 2.77464953e-03, 8.88119824e-03, -1.64593402e-02,
       1.84138957e-02, -3.20845237e-03, -3.28072160e-02, 1.61501244e-02,
       -1.44441234e-04, -4.49387729e-02, -1.34339761e-02,
       -1.70516428e-02, -1.68044809e-02, 1.12854149e-02, -5.85758910e-02,
       1.29962852e-02, 2.35992409e-02, -2.41613407e-02, -1.46825528e-02,
       6.72546914e-03, 4.36299480e-03, -1.01264119e-02, 2.23337281e-02,
       -6.41542301e-03, -4.85075191e-02, 1.08751254e-02, -1.23956176e-02,
       -5.51199652e-02, -1.96629073e-02, -2.73609310e-02,
       -1.04086734e-02, -4.66631213e-03, -2.44315602e-02,
       -2.28522308e-02, 2.13069152e-02, 8.78358539e-03, 1.26452874e-02,
       6.88481657e-03, 1.32137155e-02, -3.33134457e-03, -1.04834316e-02,
       -4.67857718e-02, -1.64734721e-02, -1.12726763e-02,
       -3.59559176e-03, -3.96935549e-03, 9.14772600e-03, 4.32285592e-02,
       1.11041609e-02, -1.07304398e-02, -3.54465060e-02, -2.26179622e-02,
       -2.16445662e-02, -6.50654687e-03, -1.67988555e-03,
       -2.36234367e-02, -7.20038824e-03, -1.52259227e-02,
       -7.91694783e-03, -2.64773555e-02, -1.95888560e-02,
       -1.93000734e-02, -7.69675663e-03, 1.63768716e-02, 3.58560085e-02,
       8.51514377e-03, -1.01773776e-02, -1.60720181e-02, -2.84056570e-02,
       -2.15112697e-03, 9.76573396e-03, 8.85656383e-03, 1.91062298e-02,
       2.60641836e-02, 3.33313160e-02, 1.15305865e-02, 2.09805649e-02,
       -2.43762639e-04, -1.54488543e-02, -5.84566360e-03,
       -7.92715326e-03, 1.33636883e-02, 3.11827417e-02, -2.43057217e-03,
       -7.35055842e-03, -6.13490702e-04, -3.96517552e-02,
       -2.01824959e-02, 3.18081230e-02, 1.48165114e-02, 3.06859445e-02,
       3.44642401e-02, 8.36087018e-03, -4.99877520e-03, 7.48336874e-03,
       -3.05943582e-02, -4.49876413e-02, 3.37015986e-02, -4.54956060e-03,
       4.62300889e-03, 4.49956618e-02, -1.45668965e-02, -1.15740383e-02,
       -2.28471030e-02, -3.86323109e-02, -1.57886241e-02, 2.77107675e-02,
       5.38102211e-03, -4.49901214e-03, -7.33743235e-03, -2.71684602e-02,
       -2.24199183e-02, 2.01722179e-02, 5.33015467e-03, 1.19654192e-02,
       6.16013855e-02, -5.42164966e-03, 1.72266364e-02, 2.31984127e-02,
       -4.10897024e-02, -4.49699983e-02, 2.29476206e-02, 1.95020344e-02,
       -9.61193163e-03, 4.46968414e-02, -1.54988291e-02, -8.32830381e-04,
       3.20130517e-03, -4.01231945e-02, 1.23246433e-02, 2.49469392e-02,
       -4.04011533e-02, 2.33856142e-02, 3.16570364e-02, -2.55118143e-02,
       -2.61527691e-02, 1.41335111e-02, -2.15164963e-02, -2.11737193e-02,
       3.44953053e-02, 1.28762694e-02, 9.88758635e-04, 4.61859293e-02,
       -2.12478135e-02, -1.41693251e-02, 1.12015791e-02, -1.25851762e-02,
       -2.32244879e-02, 2.12298688e-02, -5.29076857e-03, 2.48643686e-03,
       5.91942519e-02, 2.54580099e-02, -4.93830778e-02, -9.67919175e-03,
       -1.94352381e-02, 1.08562806e-03, 2.19041687e-02, 1.90024916e-02,
       -6.20151591e-03, 1.90687533e-02, -1.91297773e-02, -1.21330814e-02,
       1.84248462e-02, -3.08123957e-02, -2.75984611e-02, 4.90518250e-02,
       -2.61195865e-03, 9.05273948e-03, 2.31700260e-02, -4.43520071e-03,
       -3.86131778e-02, -2.50029583e-02, -5.98311834e-02, 1.63280517e-02,
       6.23001456e-02, 1.73109095e-03, -1.02222827e-03, 4.51896414e-02,
       8.72361567e-03, -9.53505561e-03, -1.46579230e-03, -2.17897780e-02,
       -1.60268275e-03, 3.06508429e-02, -1.50893675e-02, 2.88501312e-03,
       -4.66270983e-04, -4.67275567e-02, -1.78544465e-02,
       -4.24632020e-02, -3.98556218e-02, -2.38947961e-02, 1.13728894e-02,
       -2.88481382e-03, -1.87178589e-02, 2.29287688e-02, -2.19856622e-03,
       -1.56799834e-02, 5.87996515e-03, -3.54559943e-02, 7.45275011e-03,
       8.36203545e-02, -5.09034144e-03, -1.56509299e-02, -2.40071537e-03,
       -3.41322497e-02, -2.02946290e-02, -9.88660194e-03,
       -3.86275090e-02, -2.34536361e-02, 1.15910210e-02, -4.36322996e-03,
       -1.84400994e-02, 1.37372245e-03, -3.32704000e-02, -1.50523959e-02,
       -1.85619295e-03, -3.38779055e-02, -4.00229134e-02,
       -1.29037350e-02, -2.84036942e-04, 1.65824462e-02, 1.66151822e-02,
       -1.45921567e-02, -1.56867504e-02, -4.13039327e-03,
       -3.39751728e-02, -7.41694588e-03, 9.99961235e-03, 3.39993723e-02,
       1.86832864e-02, -2.57890346e-03, -5.63249290e-02, -3.32513042e-02,
       1.90272294e-02, -4.25124466e-02, -2.11444199e-02, 1.85438786e-02,
       -2.57112645e-02, 3.86940129e-02, 1.40353432e-02, -6.77420245e-03,
       -4.95320000e-02, 1.08310301e-02, -1.41923120e-02, -1.32948784e-02,
       1.71703398e-02, -1.12823611e-02, -1.35011198e-02, -6.62773801e-03,
       -1.76554814e-03, 2.41780579e-02, 2.01378064e-03, 1.67100001e-02,
       5.92679484e-03, -4.66790609e-03, 1.32724950e-02, -7.84701016e-03,
       2.80790012e-02, 1.95792667e-03, -4.72757407e-03, 1.27647659e-02,
       -1.67368948e-02, -4.37767897e-03, 2.94466503e-02, 6.54031942e-03,
       3.55181359e-02, 1.19338939e-02, -1.29643930e-02, -6.32528495e-03,
       2.13313811e-02, 5.48019521e-02, 5.82866464e-03, 4.67231963e-03,
       -1.66735146e-02, 2.45247614e-02, 1.51288966e-02, -7.98863731e-03,
       -1.99620370e-02, 1.53927077e-02, -1.29838092e-02, -8.08915310e-03,
       4.06899350e-03, -2.43219100e-02, 2.36951038e-02, 4.14226204e-02,
       -1.09673180e-02, 4.00476828e-02, 7.68446177e-02, 6.72057346e-02,
       1.07169561e-02, 2.99356636e-02, 2.51377337e-02, -1.67097151e-02,
       -2.72733979e-02, -4.65521552e-02, -3.34568061e-02,
       -7.58690387e-03, -2.53244285e-02, -5.42625552e-03,
       -3.59789841e-02, -1.68867912e-02, 3.14724669e-02, 1.93129778e-02,
       -4.28796373e-03, 6.30796999e-02, 7.64230937e-02, 2.33861934e-02,
       -2.52146591e-02, 3.00626718e-02, 1.97631195e-02, -2.34109648e-02,
       -4.21600714e-02, -3.31198573e-02, -1.59372538e-02, 4.49962355e-03,
       -3.83993499e-02, -4.63009067e-02, -4.95012030e-02,
       -2.03896891e-02, 1.03488034e-02, -2.78619360e-02, 1.73588644e-03,
       3.59441191e-02, -3.94772412e-03, 2.72353813e-02, 2.44428180e-02,
       -1.48021122e-02, 2.20627580e-02, 2.22722795e-02, -2.96057090e-02,
       -1.86871272e-02, 6.69114524e-03, -2.24574618e-02, 2.40107104e-02,
       -3.29579646e-03, -3.21343280e-02, 1.09349154e-02, 1.31254420e-02,
       -2.31277104e-02, 8.63187760e-03, 5.78178205e-02, 1.85830537e-02,
       1.87288523e-02, -9.39103309e-03, -1.71466172e-02, 1.61598884e-02,
       3.14124161e-03, -6.18287176e-03, -3.24288346e-02, 8.11489671e-03,
       6.16330234e-03, -4.10311017e-03, -4.54498455e-03, -1.75055284e-02,
       9.71510261e-03, 3.63134295e-02, -8.30787420e-03, -2.37521436e-02,
       -1.53760696e-02, 2.05644276e-02, 2.22251154e-02, -2.03107595e-02,
       -2.02742890e-02, 2.04848927e-02, 2.58971862e-02, -5.53576788e-03,
       -3.64433788e-03, 1.08820591e-02, -2.54462082e-02, 1.72903633e-03,
       -2.15263534e-02, -1.11502288e-02, 2.84592491e-02, -4.82031115e-04,
       -3.43651734e-02, -2.94624399e-02, 4.18327004e-03, -1.27538024e-02,
       3.81623730e-02, 7.31871871e-04, -3.64134903e-03, 2.60984004e-02,
       7.67998304e-03, 1.73757924e-03, -5.36696846e-03, -2.65451754e-03,
       -2.95504881e-03, 1.89900920e-02, 1.91750121e-03, 1.01662101e-02,
       2.84780655e-02, -1.67984404e-02, -4.13317792e-02, -6.37965975e-03,
       1.67897791e-02, 4.55080085e-02, 7.69591704e-02, 6.53207898e-02,
       8.54253490e-03, -7.00630667e-03, -1.75069347e-02, -3.03661381e-03,
       1.47803584e-02, 1.75066525e-03, 8.86002369e-03, 6.62878975e-02,
       8.52294639e-02, 5.87126911e-02, 3.85150500e-02, -3.54972370e-02,
       -4.01532874e-02, -2.87129097e-02, -2.02093143e-02,
       -4.96242009e-03, -1.15051921e-02, -3.62751330e-03,
       -3.93039510e-02, -3.16655934e-02, -1.11584757e-02,
       -5.92857366e-03, -1.96314063e-02, -1.26325879e-02,
       -2.15609819e-02, 2.06702966e-02, 3.91710848e-02, 3.12203486e-02,
       2.14121491e-02, 5.32798767e-02, 6.69602007e-02, 3.09709273e-02,
       -1.89421140e-02, 1.03380857e-02, -2.74096383e-03, -1.22993207e-02,
       3.07073090e-02, 4.31346036e-02, 3.93904187e-02, 7.26100057e-02,
       4.49855812e-02, -3.43120121e-03, -2.32915417e-03, 4.12062481e-02,
       2.22175885e-02, -1.07307211e-02, -1.85844582e-02, 4.69037332e-02,
       3.70887332e-02, -8.48137424e-04, -1.65253342e-03, 6.00418448e-03,
       -4.04620841e-02, -3.20963077e-02, 7.18325423e-03, 5.22570275e-02,
       1.50104435e-02, 3.57809328e-02, 1.14412364e-02, -2.82280566e-03,
       1.82513371e-02, 5.39212767e-03, -2.18817368e-02, -3.97091694e-02,
       -2.32354496e-02, -1.92748345e-02, 3.85109633e-02, -7.78242853e-03,
       -2.82975752e-03, 7.85734877e-03, 8.16155374e-02, 8.84146392e-02,
       6.24472350e-02, -4.69408743e-02, -4.14322056e-02, -2.15577688e-02,
       -1.67813264e-02, -3.58148701e-02, -3.74370441e-03, 5.60179725e-03,
       1.71834175e-02, 1.69465449e-02, -3.49531812e-03, -2.64321957e-02,
       1.07736764e-02, -1.04670487e-02, -1.67660285e-02, 1.90059040e-02,
       9.87665728e-02, 1.10710718e-01, 8.32963958e-02, -1.27603961e-02,
       -6.05071709e-02, -2.13801134e-02, -2.21151114e-02,
       -4.55173403e-02, -8.70549399e-03, 1.18078673e-02, 4.66673411e-02,
       6.43540099e-02, 6.93628564e-03, -3.43606733e-02, 1.35351941e-02,
       1.95151865e-02, 2.22462171e-04, -3.05236876e-02, -1.55252442e-02,
       -1.83018669e-02, 2.54283696e-02, -3.95691814e-03, 1.16738705e-02,
       1.63621604e-02, -2.34459173e-02, -6.22118777e-03, -9.97020863e-04,
       -2.46360041e-02, -3.35757509e-02, 2.10729148e-03, -1.48250908e-02,
       -1.13899102e-02, 3.59891132e-02, 2.24237349e-02, -1.96559722e-06,
       -1.53185986e-02, -8.45867395e-03, 1.54850343e-02, 6.81722462e-02,
       3.05255689e-02, 1.37730064e-02, 2.74353661e-02, 2.40836628e-02,
       -5.17411577e-03, -1.35926884e-02, -2.45464817e-02,
       -4.11636606e-02, 9.57142003e-03, 1.64834745e-02, 9.44866706e-03,
       2.10061241e-02, -1.42207984e-02, -1.25851883e-02, 2.57599633e-02,
       -1.07110022e-02, -2.44671963e-02, 1.62378438e-02, 4.88711195e-03,
       -2.17859242e-02, 1.18837773e-03, -2.01417110e-03, -2.35261861e-02,
       8.08020867e-03, -2.29971018e-02, -2.35364269e-02, 4.33777692e-03,
       1.77460853e-02, 1.67955384e-02, 9.87614878e-03, -1.09437983e-02,
       -7.22525502e-03, -2.09077019e-02, -2.52441801e-02,
       -1.34175969e-02, 4.81054597e-02, 1.75501239e-02, -2.97327409e-03,
       4.61852029e-02, 2.87476461e-03, 7.40336138e-04, 1.02195016e-03,
       -6.35168003e-03, 8.72149039e-03, 7.33142644e-02, 2.35567819e-02,
       4.06092638e-03, 6.45353319e-03, 5.40082157e-03, 9.95824113e-03,
       -1.96790826e-02, -1.39123704e-02, -3.58658917e-02,
       -3.93534033e-03, 1.10835796e-02, -1.19953062e-02, -6.46172231e-03,
       -1.33282803e-02, 1.67310499e-02, 4.89158696e-03, -2.39462741e-02,
       -3.14107686e-02, 1.13872241e-03, -1.65482871e-02, 2.98592541e-02,
       3.41463946e-02, 1.47478515e-02, 1.56869143e-02, -5.51427202e-03,
       4.56908857e-03, 3.81253962e-03, 7.20999241e-02, 1.70668568e-02,
       -1.35895684e-02, 2.03147158e-02, 3.12071275e-02, 9.93773062e-03,
       -6.03421917e-03, -1.41579229e-02, -3.31787765e-02, 1.53043251e-02,
       1.83274746e-02, -3.90329473e-02, 1.99001539e-03, -2.50466373e-02,
       1.28284413e-02, -3.18286195e-02, -3.47778294e-03, -1.78983212e-02,
       1.82337202e-02, 9.43602994e-03, -2.75901724e-02, 1.93581898e-02,
       -3.62247601e-02, -7.85747916e-03, -1.90167187e-03,
       -4.05411534e-02, -2.48158500e-02, -7.61084538e-03,
       -3.35657783e-02, 2.71858610e-02, 1.04698436e-02, 5.56799211e-03,
       1.73373949e-02, -2.01020334e-02, -9.97894350e-03, -5.78331714e-03,
       3.53083685e-02, 5.83277531e-02, 3.16380076e-02, 3.20226066e-02,
       8.34664609e-03, 2.76293978e-02, 1.41966715e-03, -1.29613513e-02,
       -1.73547938e-02, 1.01671042e-02, 3.41476090e-02, 2.87552625e-02,
       4.47009541e-02, -6.64635934e-03, 8.32018722e-03, -3.53382975e-02,
       -2.61329096e-02, -9.00756568e-03, 2.43002996e-02, -2.79538389e-02,
       3.17807607e-02, 8.57562292e-03, -4.84993681e-02, -1.56120502e-03,
       2.20342237e-03, -1.52252046e-02, -3.12172119e-02, -9.37664788e-03,
       -8.31259880e-03, 5.35488874e-02, 5.24423420e-02, 5.04442118e-03,
       3.91774699e-02, -2.09964067e-03, -1.68270376e-02, -2.59452350e-02,
       1.84324291e-02, 2.86833365e-02, 2.09473986e-02, 2.54735481e-02,
       -3.24030705e-02, 1.83497481e-02, -1.77448280e-02, 3.42634594e-04,
       -8.56815465e-03, -3.70792579e-03, 1.76236536e-02, 1.07132727e-02,
       3.29626240e-02, -2.79383902e-02, -1.25687169e-02, -3.79933161e-03,
       -1.53243924e-02, -2.08801646e-02, 2.23171096e-02, -1.21825859e-02,
       1.73587371e-02, 1.18523864e-02, -3.96543071e-02, -2.67770607e-02,
       -4.70943935e-02, -5.00622243e-02, -2.41766516e-02, 3.66639085e-02,
       -1.22943250e-02, 1.96070019e-02, 1.31550375e-02, -1.54921189e-02,
       5.93684672e-04, -1.60142481e-02, -6.12035207e-03, -1.26398765e-02,
       1.52693326e-02, 1.68616083e-02, 4.91884770e-03, -3.20900790e-03,
       -2.65479740e-02, -2.10301429e-02, -2.42255386e-02,
       -3.57354730e-02, -3.38860378e-02, 1.58270262e-02, 3.14251930e-02,
       -2.37462353e-02, 7.12884963e-03, -1.60266273e-02, -7.36388704e-03,
       -6.53195288e-03, -2.30154172e-02, -2.12139338e-02, 7.49552101e-02,
       -5.81827573e-03, 8.95894319e-03, 7.13015581e-03, -5.21008112e-02,
       -1.16157513e-02, -2.28763688e-02, -1.13981022e-02,
       -2.90119685e-02, 4.83630970e-02, 1.16813350e-02, -4.04058807e-02,
       -5.42726740e-03, -2.64262687e-02, 1.21092354e-03, 7.95774907e-03,
       -3.75628583e-02, -6.00679778e-02, 2.94840662e-04, -1.17728747e-02,
       -1.35720745e-02, -1.07534165e-02, -4.67849933e-02,
       -2.28837915e-02, -7.53743760e-03, -9.41188913e-03,
       -3.42065506e-02, 1.87650919e-02, 5.22435363e-03, 2.31401343e-02,
       4.78679687e-02, -5.13560399e-02, -3.76590528e-02, 6.52601290e-03,
       -2.30627060e-02, -2.31338087e-02, 3.14797834e-02, -9.07452125e-03,
       4.75409813e-02, 3.36881652e-02, -3.53343822e-02, -5.80181591e-02,
       5.35688689e-03, 1.68603414e-03, -1.04089221e-02, 4.31671068e-02,
       4.28715069e-03, -9.39379819e-03, -1.83859635e-02, -7.73083791e-02,
       -3.67113985e-02, -1.66676268e-02, -2.85721608e-02,
       -1.02404784e-02, 4.74946434e-03, -3.24786678e-02, -5.47906570e-03,
       -1.33512914e-02, -5.21816611e-02, -2.31469851e-02,
       -3.16338241e-02, -3.63557376e-02, -3.73651832e-02,
       -1.12651596e-02, -1.30002536e-02, 2.46446040e-02, 2.80247480e-02,
       9.22613963e-03, 1.35254618e-02, 3.44778597e-02, 6.31304011e-02,
       4.91225608e-02, 6.37612343e-02, 2.89073791e-02, 1.81750394e-02,
       1.45710809e-02, -6.16430258e-03, -2.42536720e-02, 5.98740391e-03,
       1.04989698e-02, 2.72399280e-02, 2.34887563e-02, 9.53795481e-03,
       -7.64409592e-03, 3.78362648e-03, -9.04129259e-03, 1.57146007e-02,
       -1.60552263e-02, -8.40888917e-03, -1.86908874e-03, 4.08207141e-02,
       1.52294552e-02, -3.87381166e-02, -2.92540397e-02, -2.43903995e-02,
       -4.61810343e-02, 2.65558250e-02, -4.38358113e-02, -2.09039785e-02,
       7.74535118e-03, -2.31182575e-02, 4.44844440e-02, 3.94877307e-02,
       2.35753413e-02, 7.04035163e-02, 6.21430166e-02, 1.48097733e-02,
       -2.65235803e-03, 4.29084226e-02, 5.29753976e-02, -9.46004130e-03,
       -2.75433175e-02, -1.15067894e-02, 2.80608404e-02, 2.07173489e-02,
       -4.55131158e-02, -4.13153805e-02, -2.64583267e-02,
       -7.21366657e-03, 2.12985114e-03, 1.57139152e-02, 2.94778142e-02,
       4.63371649e-02, 5.86798117e-02, 9.22779739e-03, 9.99517157e-04,
       1.12799285e-02, 1.26005989e-02, -3.11284941e-02, -2.04702206e-02,
       -3.87319759e-03, 2.42101643e-02, -3.84607073e-03, -4.34209332e-02,
       -3.92224789e-02, -3.94805297e-02, -1.77487805e-02, 1.91098619e-02,
       -9.57154762e-03, 1.15521057e-02, 3.77760604e-02, -1.95414051e-02,
       -8.52149271e-04, -9.08705639e-04, 7.95185659e-03, 1.60124321e-02,
       1.87834958e-03, -2.51613767e-03, -1.11455598e-03, 1.05347214e-02,
       -2.56066415e-02, 1.60885099e-02, -3.81074753e-03, -2.20123678e-02,
       8.20671208e-03, 1.09306080e-02, -5.01141697e-03, -5.44515578e-03,
       3.04098893e-02, 1.43923368e-02, 1.84341911e-02, 1.14006856e-02,
       2.13884506e-02, 2.38611531e-02, -8.74941144e-03, -3.23690437e-02,
       1.52802225e-02, 4.44900729e-02, 2.99311732e-03, 3.33641283e-02,
       -1.73006151e-02, -2.66612750e-02, -1.35978470e-02, 3.56353261e-02,
       -1.70252435e-02, -2.85930317e-02, -1.06374677e-02, 2.38727015e-02,
       1.52640445e-02, -8.13545659e-04, 3.87299748e-04, 5.07719740e-02,
       2.11883951e-02, 1.31658698e-02, 7.76132802e-03, -4.37226426e-03,
       -1.18756983e-02, -1.01932213e-02, 3.22985719e-03, -2.37751240e-03,
       1.51087865e-02, 1.60600059e-02, -2.48968620e-02, -4.14884761e-02,
       -1.36998529e-02, 7.19188526e-03, 3.04709859e-02, 2.39056326e-03,
       2.22042687e-02, 2.10106894e-02, 2.01004706e-02, 1.32616377e-02,
       -6.05089962e-03, 2.14235839e-02, 1.49678509e-03, 1.66692976e-02,
       5.96419256e-03, 1.25597846e-02, 1.46613056e-02, 1.42896548e-02,
       -1.51996473e-02, -5.01030218e-03, 2.08542645e-02, -6.00350555e-03,
       -6.51314855e-03, 9.09718126e-03, -1.32567864e-02, 7.06625497e-03,
       3.65080759e-02, -1.45290615e-02, -1.09420633e-02, 3.45390895e-03,
       -5.40286340e-02, -4.91653103e-03, 2.20050733e-03, 1.01518966e-02,
       2.84822080e-02, 2.55795550e-02, 7.90052116e-03, -1.40316701e-02,
       2.04541981e-02, -4.60600434e-03, 5.05268760e-03, -1.86888669e-02,
       -2.59583555e-02, 8.67422298e-03, 1.76682752e-02, -3.48231173e-03,
       5.39934635e-03, 1.39274122e-02, 9.95879341e-03, 1.76250259e-03,
       -2.80032232e-02, -1.84640326e-02, 2.80019250e-02, 2.98795812e-02,
       -5.63571649e-03, -3.20726931e-02, 1.46419303e-02, 3.57382447e-02,
       -7.68415956e-03, -3.61896865e-02, -1.95504501e-02, 2.11771403e-04,
       -1.01861069e-02, 2.49958243e-02, 2.22981878e-04, -2.16958026e-04,
       1.67031270e-02, 4.98016411e-03, -3.92788798e-02, -3.12884264e-02,
       -3.03196032e-02, -1.20119577e-04, -2.35290155e-02,
       -1.33845499e-02, -1.46376323e-02, 4.85330187e-02, 2.52020676e-02,
       -2.01785881e-02, 3.05084803e-04, -8.61348305e-03, 1.83631890e-02,
       1.68966353e-02, 2.08594333e-02, -1.65986922e-02, 9.80892219e-03,
       3.13136098e-03, -1.91057974e-03, -4.72381711e-03, -1.88323320e-03,
       -2.06469744e-03, 2.94655114e-02, 2.03876477e-02, -1.86177623e-02,
       -1.67465268e-03, 2.83558690e-03, 1.11858500e-02, 2.98889056e-02,
       -2.09994204e-02, -2.18601804e-02, -2.91699590e-03,
       -5.37780486e-03, -2.62831058e-02, -1.98467169e-02,
       -1.52171701e-02, 3.28370766e-03, 2.22486723e-02, 5.27991401e-03,
       -1.61735166e-03, 5.06558130e-03, 2.44238210e-04, -8.26913398e-03,
       5.27113350e-03, -3.53332423e-02, 2.64186109e-03, 8.44559819e-03,
       -6.09682035e-03, -4.34531737e-03, -2.67380453e-03,
       -1.85419507e-02, 2.08651516e-04, 1.57359652e-02, -3.17554511e-02,
       5.15692635e-04, 1.63641740e-02, 2.79135723e-02, 5.79092884e-04,
       4.16233651e-02, 9.13466606e-03, 1.53355617e-02, -2.52375775e-03,
       -1.41503513e-02, -1.20887663e-02, 7.00482577e-02, 2.96406150e-02,
       -3.84055786e-02, 1.35745388e-02, -4.55150940e-03, -8.21459666e-03,
       1.93479545e-02, -1.85669269e-02, -5.28269559e-02, 2.79939584e-02,
       8.27869028e-03, -2.01448817e-02, -1.83366016e-02, -2.70180684e-02,
       7.18292501e-03, 5.31081576e-04, -1.75822880e-02, -1.41759694e-03,
       4.57526185e-02, 3.93893942e-02, -3.11006065e-02, -1.23504894e-02,
       -2.32198276e-02, -4.60641552e-03, 1.31792128e-02, -1.72720440e-02,
       -2.79690865e-02, 2.58009080e-02, 8.56900867e-03, -2.94753481e-02,
       1.52203282e-02, -9.89817781e-04, 6.55073207e-03, 1.14593301e-02,
       -2.74440227e-03, 6.38219854e-03, 5.02704009e-02, 1.66367311e-02,
       -5.03012948e-02, -1.06056845e-02, -1.69381630e-02,
       -1.13392305e-02, 4.18409519e-03, 1.19462758e-02, -5.07290196e-03,
       3.02032847e-02, -2.88909618e-02, 2.49424838e-02, 1.19288974e-02,
       -3.55828404e-02, 7.80827645e-03, 1.70974210e-02, -1.92955451e-03,
       -2.20367797e-02, 1.34887453e-02, 4.13934588e-02, 1.20863738e-02,
       9.17557999e-03, -2.28792280e-02, -1.06246760e-02, 2.75148172e-03,
       2.77812220e-03, -2.14130767e-02, 6.72235480e-03, 1.24579500e-02,
       2.70555285e-03, 8.28248635e-03, -6.69701403e-05, 6.90601254e-03,
       -7.79242534e-03, -1.07113253e-02, -7.43958633e-03, 4.91765775e-02,
       6.52254280e-03, 1.30052175e-02, 1.32277887e-02, 8.77253071e-04,
       -3.10213659e-02, 5.74109936e-03, -1.14780171e-02, -2.60370988e-02,
       8.34357087e-03, 1.10380992e-03, 7.78778316e-03, 7.79849663e-03,
       -3.53329652e-03, -1.13025308e-02, 1.46301126e-03, -2.35340502e-02,
       -1.14520593e-02, -1.32849137e-03, 3.37124825e-03, -1.06586132e-03,
       1.83033980e-02, -1.37363411e-02, -2.13922411e-02, 2.67968401e-02,
       -2.54668258e-02, 1.15494458e-02, -6.29105233e-03, -2.70400085e-02,
       8.82332306e-03, 2.76673771e-02, 1.64551046e-02, 4.08007670e-03,
       -4.72623901e-03, 2.88223685e-03, -2.22433079e-03, 2.77393013e-02,
       2.27825791e-02, 3.57733946e-03, 1.30594214e-02, 2.46073375e-03,
       2.77926251e-02, 1.13249915e-02, -2.66120629e-03, -1.44718727e-02,
       2.25082040e-02, 9.56317876e-03, 5.35257570e-02, 3.33232358e-02,
       -9.54193063e-03, -2.37656627e-02, -2.36112177e-02,
       -1.97056513e-02, 1.77575611e-02, -1.18262507e-02, -9.15251859e-03,
       -1.34253232e-02, -5.59775485e-03, -1.42452717e-02,
       -1.02172159e-02, 2.21666414e-02, -1.99558623e-02, 2.78493250e-03,
       -7.63783371e-03, -1.67910177e-02, 1.59340166e-02, 2.19335426e-02,
       -3.44601716e-03, 5.14878966e-02, 3.05623431e-02, 2.32779644e-02,
       -1.24831712e-02, 1.31188286e-02, -1.06859654e-02, 1.05291409e-02,
       5.89601556e-03, -2.39935424e-02, 3.42967361e-02, 1.32102184e-02,
       4.53580283e-02, 2.60034297e-02, -7.61144282e-03, -1.22725274e-02,
       1.43169425e-02, -1.09963706e-02, -2.72642616e-02, 2.32810830e-03,
       8.20539147e-03, -1.21709248e-02, -1.96868572e-02, 3.86399822e-03,
       -5.94917079e-03, 1.30253853e-02, -8.07280093e-03, -2.12785089e-03,
       -7.55350222e-04, 1.65785349e-03, -6.19826326e-03, -1.72241051e-02,
       -7.71137746e-03, 1.85550656e-02, -8.96924455e-03, -3.94725660e-03,
       -6.58062985e-03, 2.85857338e-02, 8.91110487e-03, 3.83120328e-02,
       1.54876821e-02, 3.39918286e-02, 4.57184017e-03, -2.28667948e-02,
       -7.72190280e-03, -2.81308964e-02, 1.42321689e-02, 5.34129236e-03,
       7.63264438e-03, 1.11140602e-03, 3.29288282e-02, -5.62112266e-03,
       -8.32323171e-03, 9.83760343e-04, 9.75124713e-05, 9.86485276e-04,
       -2.16602441e-02, 1.70733605e-03, -1.78004242e-02, -6.74590701e-04,
       8.63409042e-03, -3.56530137e-02, -2.16353275e-02, -9.68581066e-03,
       2.12647719e-03, -1.86577048e-02, -2.50373762e-02, -2.47496981e-02,
       5.92712639e-03, -2.13135150e-03, 3.21782008e-03, 1.81856882e-02,
       1.57806929e-02, 4.34499010e-02, 2.99244374e-02, 4.04916378e-03,
       -1.44451554e-03, 1.80356596e-02, -4.55255061e-03, 1.16664050e-02,
       1.16278538e-02, -2.18372350e-03, 2.66732108e-02, 1.77500919e-02,
       2.44726706e-02, 7.69867701e-03, 2.74661109e-02, 7.43790902e-03,
       -4.10336293e-02, -1.31930960e-02, -8.24323017e-03, 1.66901480e-02,
       4.02847026e-03, -1.89044978e-02, -1.25524374e-02, -3.66089726e-03,
       -3.24429423e-02, -1.59098970e-04, 1.30748060e-02, -1.92097500e-02,
       -1.08819222e-02, -3.41335200e-02, 3.25822295e-03, -2.12668106e-02,
       -1.22345798e-02, -1.58577394e-02, 2.15858817e-02, -1.23352222e-02,
       -2.83890925e-02, 2.50913277e-02, 3.19793411e-02, 1.74598303e-02,
       4.35125083e-03, 1.66596230e-02, 4.30849753e-02, -8.41013435e-03,
       2.19388269e-02, 8.36335681e-03, 3.55410278e-02, -6.14362955e-03,
       -1.29226949e-02, -5.05889161e-03, 6.24994282e-03, 2.14318391e-02,
       2.99151745e-02, -3.23766423e-03, -3.03331092e-02, 2.26503890e-02,
       9.91007593e-03, 1.59185175e-02, -5.30536473e-03, -2.75194459e-02,
       7.34138535e-03, -4.85894606e-02, -1.53818950e-02, -3.16886455e-02,
       -1.50366211e-02, -4.80034901e-03, -3.13788429e-02,
       -9.94741637e-03, -9.92617384e-03, -5.62540255e-03,
       -2.33632810e-02, 3.78747135e-02, 1.26744155e-02, 7.21895546e-02,
       4.56281081e-02, 1.15024270e-02, 3.88046494e-03, 1.92444511e-02,
       1.48581499e-02, -1.29983146e-02, 2.89003481e-03, 2.89102434e-03,
       3.13073397e-02, 3.58962566e-02, -1.57690290e-02, -8.92531127e-03,
       2.86783166e-02, 4.23064549e-03, -3.34810019e-02, 2.33664103e-02,
       -6.52517099e-03, -9.82621778e-03, -5.05796587e-03, 1.51189719e-03,
       1.77836306e-02, 1.77127458e-02, -2.16722041e-02, -1.57113578e-02,
       -6.83379499e-03, -9.55007691e-03, -8.88212491e-03,
       -1.79589149e-02, -2.52060909e-02, -1.74569003e-02,
       -1.40532413e-02, -1.90732740e-02, 4.25079325e-03, 1.63353831e-02,
       4.48524840e-02, 6.08460568e-02, 1.46661401e-02, 1.17302742e-02,
       1.54786808e-02, 1.31521896e-02, 9.40865185e-03, -1.41894948e-02,
       1.58632528e-02, 1.78194959e-02, 2.11548246e-02, -1.56709608e-02,
       -1.83876511e-02, 6.68347767e-03, -2.51003373e-02, -3.52638401e-02,
       2.82399412e-02, 1.28233582e-02, 1.64207071e-02, 2.30813194e-02,
       -2.42001433e-02, -9.93779302e-03, 7.44847814e-03, -7.09872181e-03,
       1.36075821e-02, 4.73285298e-04, 6.68788934e-03, -2.67289132e-02,
       -1.85932107e-02, -3.09530795e-02, -2.68535670e-02, 9.10179410e-03,
       -1.75345335e-02, -3.12243067e-02, 2.92012747e-02, 2.47247890e-02,
       -1.14831293e-03, 1.20178983e-02, -2.56158505e-02, -2.81131454e-03,
       3.15971151e-02, 7.38659501e-03, 5.41958399e-03, -6.50824839e-03,
       -4.46917079e-02, -1.04711168e-02, -7.38788256e-03,
       -1.87168084e-02, 2.67066695e-02, -2.33017397e-03, -4.86741662e-02,
       2.89464439e-03, 7.94551242e-03, 1.45071242e-02, -1.11539681e-02,
       1.16838710e-02, 4.49696759e-04, 9.99407936e-03, 2.80935150e-02,
       2.63249292e-03, -2.53805257e-02, 2.00675726e-02, -5.17784692e-02,
       -4.55996394e-02, -5.94755681e-03, -7.55564636e-03, 4.27720137e-03,
       -1.62792094e-02, -4.09945883e-02, 2.94372463e-03, 5.23935072e-03,
       -3.59742567e-02, -5.20971939e-02, -1.79629903e-02, 4.01420593e-02,
       1.82776377e-02, -1.67720132e-02, -1.95196141e-02, 1.69161614e-02,
       7.08353100e-03, 1.13783777e-02, -1.22076608e-02, 2.69965585e-02,
       3.91240418e-03, 4.21742722e-02, 4.22243541e-03, -1.36304218e-02,
       2.26240214e-02, 3.70301940e-02, -3.58357653e-02, -1.73915047e-02,
       -1.53457951e-02, 1.07886186e-02, 1.81908645e-02, 1.75336993e-03,
       -4.07736301e-02, 1.91316139e-02, 3.58129591e-02, -2.36724224e-02,
       -2.92993430e-02, 2.47743595e-02, -1.61787942e-02, -1.45066704e-03,
       1.46636814e-02, -2.21670158e-02, 3.91269326e-02, -5.36770700e-03,
       7.10833352e-03, -6.90699508e-03, 4.97404160e-03, -2.51372140e-02,
       2.62351446e-02, 7.05714757e-03, -5.35929715e-03, -4.12596297e-03,
       4.88281017e-03, 1.10728294e-02, 1.44562395e-02, 5.97009528e-03,
       2.35615578e-03, 6.38786331e-03, -1.71094388e-02, 8.59377964e-04,
       1.10621750e-02, 5.22609539e-02, -8.08662642e-03, -1.84183326e-02,
       1.89089905e-02, -4.00617690e-04, 6.72881072e-03, -1.06250402e-03,
       -1.22761596e-02, 2.86434684e-02, 3.37991044e-02, 1.80619080e-02,
       -1.15054492e-02, 7.99790304e-03, 2.16492228e-02, 2.01541893e-02,
       -4.17049369e-03, -1.13777416e-02, 2.26724688e-02, -5.77374361e-03,
       -2.43043271e-03, 3.47681344e-03, -2.89665274e-02, -6.31535333e-03,
       -9.04564839e-03, 2.91828741e-03, 8.33336450e-03, -1.95623580e-02,
       -5.31056616e-03, 5.63395210e-03, 1.59872416e-02, -7.05069583e-03,
       -4.50938428e-03, -1.21226367e-02, 1.00673744e-02, 1.68598294e-02,
       -2.37098802e-03, -7.74532510e-03, 7.46891275e-03, -4.78517730e-03,
       2.12526973e-02, 2.10075006e-02, -8.09821114e-03, -9.49595496e-03,
       8.62084050e-03, 9.58575308e-03, 3.90512012e-02, 1.01267798e-02,
       2.45830249e-02, 1.28693122e-03, 4.31545498e-03, 1.61092030e-03,
       1.69887319e-02, 3.37762013e-02, 3.82354110e-02, -2.21624393e-02,
       6.80867350e-04, 6.93772873e-03, 6.53609307e-03, 5.10547217e-03,
       -3.39452294e-04, 1.84594803e-02, 2.06536297e-02, -3.12507665e-03,
       -2.17496362e-02, -8.74291919e-03, -1.13836983e-02, 2.37986539e-02,
       -9.44421906e-03, -2.28852630e-02, -6.10032910e-03, 7.48467073e-03,
       1.52275967e-03, 6.40125573e-03, -1.86065808e-02, -1.07219378e-02,
       -8.25472176e-04, -5.67820808e-03, -1.81889236e-02,
       -3.21653811e-03, 2.31008623e-02, 1.18675586e-02, -6.65579829e-03,
       -6.39302307e-04, -3.31124403e-02, -3.61508224e-04,
       -1.45802768e-02, -1.40946964e-02, -2.24268995e-02, 1.50734046e-02,
       -2.38380637e-02, -2.65750978e-02, -5.81518223e-04, 2.25375741e-04,
       2.95954049e-02, -2.46390607e-03, -1.18283052e-02, -8.11128598e-03,
       3.22598219e-02, -1.17140766e-02, -2.02736817e-02, 1.47882756e-02,
       -1.63588449e-02, -5.36786113e-03, -8.73072073e-03, 4.26961761e-03,
       -2.09016316e-02, -9.16590821e-03, -1.74325481e-02, 5.46876434e-03,
       1.74511354e-02, -1.07070608e-02, 7.16942456e-03, 1.95938610e-02,
       2.21542912e-04, -2.72861049e-02, 2.37216968e-02, -2.97110435e-02,
       8.88173375e-03, 1.91062558e-02, -1.02162436e-02, -9.13375616e-03,
       1.03694946e-02, -1.12504698e-02, -3.70286182e-02, -4.20056283e-03,
       -1.20335817e-02, 3.83978942e-03, 3.18939462e-02, -2.71774977e-02,
       2.96874717e-02, 2.49971244e-02, 3.33151594e-02, -2.63369717e-02,
       -2.89003341e-03, 1.68040432e-02, -7.14412518e-03, 1.59467645e-02,
       -2.25196611e-02, -3.42838317e-02, 6.10226206e-03, 1.26523143e-02,
       -2.25686971e-02, 1.52171990e-02, -1.25714624e-02, 6.47006696e-03,
       3.28365378e-02, -7.36508006e-03, 2.34928192e-03, 2.78174300e-02,
       8.05096608e-03, -3.49690206e-02, -1.44688273e-02, -2.62920652e-02,
       -4.13908064e-03, 2.35947203e-02, -1.56301204e-02, -5.64034507e-02,
       9.30859987e-03, -1.02266287e-02, -3.33885700e-02, -1.86282247e-02,
       -2.09187642e-02, 7.23753823e-03, 3.24712992e-02, 8.43140017e-03,
       8.35112669e-03, 7.83323590e-03, 3.12471818e-02, -2.97706341e-03,
       -6.07262691e-03, 1.40100634e-02, -3.69479731e-02, 4.99856612e-03,
       -2.48650238e-02, 1.08819837e-02, -2.95149838e-03, -9.16386023e-04,
       -1.88377164e-02, 2.34416759e-04, -5.24985045e-02, 1.73575729e-02,
       3.51230651e-02, -1.82986865e-03, -3.94685572e-04, 2.05934513e-02,
       2.52863131e-02, -8.67861789e-03, 3.27144284e-04, 1.96822360e-03,
       -1.08949351e-03, 1.49287339e-02, -4.55704071e-02, -1.82617065e-02,
       2.34970506e-02, -1.72445346e-02, -3.13042626e-02, 3.54721723e-03,
       7.24123651e-03, 3.44299227e-02, 2.40141749e-02, -2.07054932e-02,
       5.53933019e-03, -8.47216637e-04, 1.20723695e-02, 2.17263419e-02,
       1.14077786e-02, 1.28378757e-04, -7.88336433e-03, 1.30716069e-02,
       -9.70898569e-03, -1.63546391e-02, -4.56201471e-03, 5.75916190e-03,
       2.54093623e-03, -1.10358112e-02, -2.90647037e-02, -2.79424083e-03,
       1.75363328e-02, -4.56667319e-02, -1.20378500e-02, 2.60597393e-02,
       -7.82849640e-03, -1.34467874e-02, 4.59409785e-03, 2.64857709e-03,
       -3.47411260e-02, 1.75904110e-02, -2.48109661e-02, 6.04330050e-03,
       2.45664772e-02, -3.20154540e-02, -1.41552063e-02, -3.97503329e-03,
       2.06131097e-02, 6.65312819e-03, 5.90235693e-03, -1.10428175e-02,
       1.01863723e-02, -2.00866954e-03, -6.95473095e-03, 1.18564377e-02,
       -1.21059464e-02, -1.15110157e-02, -1.12287246e-03, 1.41887134e-03,
       -1.02154668e-02, -1.01559283e-02, -2.22388636e-02,
       -9.00963414e-03, 1.34577993e-02, 4.88038687e-03, -1.04188072e-02,
       8.65234993e-03, 1.31905582e-02, -1.39282085e-02, 6.68406067e-03,
       1.74195189e-02, 7.09461560e-03, 1.20429043e-02, 5.83218352e-04,
       -1.80576451e-03, 1.12743592e-02, -2.24187728e-02, -2.27932520e-02,
       3.35097732e-03, -7.38705788e-03, 1.52514270e-02, 3.31076258e-03,
       -1.09400982e-02, -3.22090532e-03, 4.32555797e-03, 1.90731809e-02,
       6.34076400e-03, 2.08726358e-02, -1.27521669e-02, 2.56228596e-02,
       2.51829787e-03, 5.58200991e-03, 1.18600857e-02, -1.25059607e-02,
       -9.96256806e-03, 5.27925417e-03, 1.79959536e-02, -1.91283412e-02,
       1.79628264e-02, -4.88811266e-03, 1.49838822e-02, -1.34400772e-02,
       1.71986576e-02, -1.34622445e-02, -1.11757945e-02, -9.85280890e-03,
       -2.38951668e-02, -2.48164230e-04, -3.01308837e-02,
       -2.25026198e-02, -9.34166554e-03, 5.82184084e-03, -1.00308433e-02,
       -2.08404772e-02, 1.52990157e-02, 1.29346466e-02, -3.26800682e-02,
       -2.79634073e-02, -1.03401011e-02, -9.21338797e-03,
       -1.46313570e-02, 5.14915446e-03, 1.66386738e-03, 3.47080082e-02,
       8.83644074e-03, 3.54510285e-02, 1.88045073e-02, 1.16642630e-02,
       -3.42872692e-03, -1.92262251e-02, 3.65053713e-02, 4.20540432e-03,
       8.76221061e-03, -4.09529954e-02, 3.50211076e-02, 3.89263529e-04,
       -5.96764311e-03, -2.21412312e-02, 1.35989366e-02, -8.09364393e-03,
       -2.36398764e-02, -1.52114371e-04, 3.95706445e-02, 1.10710030e-02,
       -1.22455927e-02, 7.16560567e-03, 2.09165690e-03, -2.00703405e-02,
       9.59251251e-04, -2.45919526e-02, -2.35141087e-02, -2.09299643e-02,
       -1.36341043e-02, -2.71966476e-02, -2.17010435e-02,
       -1.66915301e-02, 3.48732946e-03, 1.74054392e-02, -3.10813379e-03,
       2.90200878e-02, -1.25146122e-03, 4.13346626e-02, 3.71219078e-03,
       -2.01242766e-03, 2.02236474e-02, -3.32891457e-02, -2.38220803e-02,
       -3.23447548e-02, 1.12365307e-02, 8.31777987e-04, -3.98471067e-03,
       5.55925723e-03, -5.35318628e-03, -2.97018886e-02, 3.26148118e-03,
       2.71093100e-02, -8.83996300e-03, -8.57426599e-03, -5.14069980e-04,
       1.29871555e-02, 1.48860691e-03, -1.81998294e-02, -2.62620375e-02,
       -2.69266963e-02, 2.95127295e-02, -2.33654678e-02, -1.25835557e-03,
       -9.74781625e-03, -2.26907693e-02, -2.51816083e-02, 1.10540004e-03,
       -3.89583781e-02, -2.07063071e-02, 2.79107206e-02, 1.57479625e-02,
       1.80399101e-02, 2.94143967e-02, 5.07055260e-02, 3.68707404e-02,
       1.58825442e-02, -9.61718615e-03, -1.84794907e-02, 2.93013677e-02,
       4.05196883e-02, 4.06691246e-03, -1.44369928e-02, 1.59304477e-02,
       2.29123011e-02, 1.56271644e-02, 5.97307552e-03, -1.63955130e-02,
       1.01711843e-02, -1.02470089e-02, -1.44352466e-02, 3.33790376e-04,
       3.21424007e-02, 1.47220716e-02, 2.65671201e-02, -9.48694348e-03,
       -2.37581655e-02, 1.35309575e-02, 2.79558473e-04, -4.73525822e-02,
       2.99689174e-03, -1.40959891e-02, -1.52966054e-02, 3.19290138e-03,
       -5.40378410e-03, 8.21840670e-03, 2.16285400e-02, 2.98224930e-02,
       1.92889199e-02, 7.18205143e-03, 7.49334507e-03, 1.46616260e-02,
       2.25846469e-02, -7.75248685e-04, -1.30299637e-02, -2.33005662e-03,
       -1.79587957e-02, 7.84928817e-03, 1.85962450e-02, -1.52919423e-02,
       1.29081709e-02, -1.85477361e-02, -3.51791605e-02, 1.09965550e-02,
       3.09304986e-02, -1.44487421e-03, -1.91245787e-02, -4.77496628e-03,
       3.30760027e-03, 2.28414349e-02, 2.22181194e-02, 5.36754634e-03,
       1.06736822e-02, 1.32767884e-02, -2.83931009e-02, -2.98116961e-03,
       2.76677925e-02, 1.62456296e-02, 1.20884795e-02, -9.42689460e-03,
       -4.33444278e-03, -2.89458944e-03, -8.38032179e-03,
       -7.46472320e-03, 1.68356039e-02, 4.55371523e-03, -2.95782518e-02,
       1.37337449e-03, -2.87909489e-02, -3.03976014e-02, 1.78958774e-02,
       -2.14395728e-02, -8.25246703e-03, 1.34137776e-02, -1.59917045e-02,
       -3.04207224e-02, -2.46097017e-02, -3.99209820e-02, 1.33559145e-02,
       6.34670956e-03, 1.61725823e-02, -1.21833247e-04, 4.19411715e-03,
       5.99620107e-05, -1.34177832e-02, -1.96992718e-02, -2.01936048e-02,
       -1.89867243e-03, 2.58401427e-02, -4.59592650e-03, 2.81911669e-03,
       2.00742646e-03, 1.49549532e-03, 4.21069842e-03, -1.54644400e-02,
       -3.08908038e-02, 3.73755693e-02, -1.21677232e+00 ]
