%YAML:1.0
---
myHogDector_3: !!opencv-object-detector-hog
   winSize: [ 64, 128 ]
   blockSize: [ 16, 16 ]
   blockStride: [ 8, 8 ]
   cellSize: [ 8, 8 ]
   nbins: 9
   derivAperture: 1
   winSigma: 4.
   histogramNormType: 0
   L2HysThreshold: 2.0000000000000001e-01
   gammaCorrection: 1
   nlevels: 64
   signedGradient: 0
   SVMDetector: [ 3.88003066e-02, -3.23851109e-02, -2.62355823e-02,
       1.37602082e-02, 2.49402374e-02, -1.53539227e-02, -5.66925900e-03,
       -2.54297759e-02, 2.12855805e-02, 3.14489827e-02, -1.19581567e-02,
       3.93901486e-03, -9.03233886e-03, 1.70406830e-02, 5.88866044e-03,
       2.29934920e-02, 1.05910683e-02, 4.21036081e-03, 1.87922530e-02,
       -2.88940556e-02, -1.03532774e-02, 1.97929535e-02, 1.63858123e-02,
       -8.26240610e-03, -1.30522735e-02, -3.28930058e-02, 1.00876652e-02,
       7.04731233e-03, -1.30196512e-02, 1.30807050e-02, 2.45880671e-02,
       -1.85273737e-02, 7.52867386e-03, -5.80402883e-03, 1.14935299e-03,
       -2.26096828e-02, -6.72973413e-03, -6.21324219e-03, 1.03226658e-02,
       3.26927099e-03, 3.67226638e-02, 2.29180790e-02, 9.18582454e-03,
       1.93421021e-02, 2.18140497e-03, -1.79648492e-03, -7.78443273e-03,
       1.96499620e-02, 2.00153179e-02, 1.28098242e-02, -4.52189660e-03,
       9.74426139e-03, 4.04568501e-02, 6.88435836e-03, 1.50047308e-02,
       6.52379263e-03, 1.55976871e-02, 1.03310030e-02, 1.06155092e-03,
       -2.98887026e-04, -3.21205147e-02, 5.80585282e-03, -1.68607403e-02,
       3.83675434e-02, 5.59991365e-03, -5.95545024e-03, 1.20907966e-02,
       7.07992027e-03, 1.07198898e-02, 1.38512300e-02, -2.97360937e-03,
       2.90492941e-02, -1.22924559e-02, 1.17412861e-02, 2.41440535e-02,
       1.91413295e-02, 3.52727287e-02, 4.68008826e-03, 1.06951175e-02,
       1.31414328e-02, -4.55633216e-02, 1.47930272e-02, 1.04402313e-02,
       6.58249622e-03, -4.12371388e-04, 2.19412446e-02, -7.11211516e-03,
       3.80477170e-04, -7.46733695e-03, 7.28515303e-03, 1.51745351e-02,
       1.23738963e-02, 5.39855007e-03, 2.17944160e-02, 2.05356325e-03,
       1.33323483e-02, 2.55379863e-02, 1.82341635e-02, -3.13418056e-03,
       1.33615742e-02, -2.18872204e-02, 3.73989693e-03, 5.29387267e-03,
       -2.28588376e-02, -2.63955118e-03, 2.03159340e-02, 2.58833114e-02,
       4.80132323e-04, 3.30874347e-03, 1.52549322e-03, -6.43368252e-03,
       -9.85899474e-03, -6.23599812e-03, -1.44412816e-02,
       -1.17321219e-02, 3.34012834e-03, -1.00748679e-02, -1.05328916e-03,
       6.59103156e-04, -5.31470729e-03, -2.17825864e-02, -2.05998980e-02,
       -5.78797748e-03, -4.60064178e-03, -3.73599422e-03,
       -8.99646617e-03, -3.01430118e-03, -7.58631271e-04, 8.12298711e-03,
       -3.02426377e-03, -6.26607798e-03, 4.12464049e-03, -8.82439502e-03,
       1.74536742e-02, -1.82663724e-02, -6.36509014e-03, -1.45227807e-02,
       3.25353653e-03, -2.44590063e-02, -2.56567150e-02, -9.85489134e-03,
       -1.46116074e-02, -7.29283411e-03, -5.62155619e-03,
       -1.42265577e-02, 1.54400046e-03, -1.32969422e-02, -7.65698729e-03,
       1.10829724e-02, -1.26137547e-02, 7.60770519e-04, 1.74941607e-02,
       1.19545786e-02, -2.45988593e-02, -1.37803564e-02, -4.02908623e-02,
       -8.85795243e-03, 1.70748327e-02, -3.12352069e-02, -2.06934568e-02,
       2.78864782e-02, 4.32515107e-02, 1.11646065e-02, 2.98665036e-02,
       9.58212186e-03, -1.88493505e-04, 2.10360717e-02, 1.43656190e-02,
       1.91280898e-02, 2.59029064e-02, 8.62808526e-03, -2.89110374e-02,
       -8.86465830e-04, -1.70724802e-02, -2.64536869e-03, 1.29975518e-02,
       -9.87965334e-03, -1.44623881e-02, -9.01209284e-03,
       -1.53150186e-02, -2.30389312e-02, -1.10727409e-02,
       -3.83881107e-02, 1.36112384e-02, 1.09015079e-02, -7.04435678e-03,
       -1.85336303e-02, 1.04574570e-02, 2.63405424e-02, -2.52923314e-02,
       -3.10894707e-03, -1.11933965e-02, 4.74432763e-03, -1.06029045e-02,
       -1.29227433e-02, -2.88772234e-03, -5.34164626e-03,
       -1.49280680e-02, 5.06040268e-03, -6.14434155e-03, -1.49639202e-02,
       4.56409678e-02, 1.52736790e-02, 9.64019727e-03, -1.06784115e-02,
       3.29880440e-03, 3.60895158e-03, 5.06178825e-04, 1.61675755e-02,
       -6.69347402e-03, -1.12808114e-02, 7.96808209e-03, -1.68603491e-02,
       -2.17185076e-03, 1.78092299e-03, -5.78787597e-03, -7.06475170e-04,
       1.72060356e-02, -1.71606168e-02, -6.82388712e-03, 1.33945392e-02,
       -9.48035810e-03, 8.84863455e-03, 2.53877267e-02, 2.43408438e-02,
       -1.30925998e-02, 8.44681927e-04, -4.08681929e-02, -8.53382703e-03,
       2.62911618e-02, -3.96584943e-02, -2.45724563e-02, 2.14770380e-02,
       -1.35159940e-02, 3.19939689e-03, -8.87316465e-03, -1.37267984e-03,
       2.71426272e-02, 2.34431792e-02, 1.18088545e-02, 1.02709327e-02,
       3.04787792e-02, 2.12431289e-02, -2.86934208e-02, -2.78122304e-03,
       2.38068793e-02, 5.59711363e-03, 2.08696630e-02, -3.92935006e-03,
       -3.78415920e-02, 7.22835539e-03, 1.38035147e-02, -3.16035305e-03,
       6.18158421e-03, -4.22399910e-03, 2.64036711e-02, 3.03052533e-02,
       3.95474909e-03, -1.45304389e-02, 2.09530871e-02, -2.17817146e-02,
       -1.31477574e-02, -1.41651370e-02, -1.17437290e-02,
       -1.49891188e-04, 1.96073651e-02, 7.67241092e-03, -2.17411537e-02,
       2.76034866e-02, -2.79058386e-02, 1.76024418e-02, 1.22245345e-02,
       3.17377932e-02, 3.16083468e-02, 1.42830312e-02, 1.67035330e-02,
       -1.61157381e-02, 4.00721394e-02, 2.54343133e-02, -3.17705504e-04,
       4.34677489e-03, -2.48898920e-02, 3.98382312e-03, -3.90338823e-02,
       -6.82987552e-03, -2.17992794e-02, 1.34877739e-02, -2.38694833e-03,
       -6.20633084e-03, 1.84370559e-02, -3.47890519e-03, 8.13996233e-03,
       1.31015684e-02, -4.22688993e-03, -8.61403905e-03, 1.65352877e-02,
       1.33306545e-03, 1.65506185e-03, 9.89230233e-04, -2.08245385e-02,
       -1.75727308e-02, 1.46494724e-03, -1.91231780e-02, -3.80018950e-02,
       -1.93479750e-02, 3.29062605e-04, 6.00829814e-03, 6.91252109e-03,
       -5.45553956e-03, 6.92477683e-03, -6.83109928e-03, -1.57634597e-02,
       5.52387675e-03, 2.73292381e-02, 2.79518007e-03, -3.16586316e-04,
       8.68326332e-03, -3.38026672e-04, -1.87281612e-02, 1.69789279e-03,
       -2.91768573e-02, 6.18492952e-03, -1.34760898e-03, 5.56262489e-03,
       -2.71756258e-02, -5.41682728e-03, -3.43926959e-02,
       -1.45051219e-02, -1.38334287e-02, 1.47177866e-02, -3.26003321e-02,
       -1.81985293e-02, 5.22832433e-03, 8.56569130e-03, 9.12430044e-03,
       -5.26889078e-02, -2.96509713e-02, 1.02354027e-02, 9.12929326e-03,
       -1.63888857e-02, -1.97110474e-02, 2.35054065e-02, 2.38560047e-02,
       2.62791198e-02, -1.70870859e-03, 1.47761656e-02, -1.59439957e-03,
       1.66949201e-02, 1.91509873e-02, 4.12100274e-03, 7.02039863e-04,
       -5.83093474e-03, 1.42182438e-02, -2.30530445e-02, 1.66900121e-02,
       -9.97311343e-03, -5.48773445e-03, -8.42612982e-03, 7.78604485e-03,
       1.27375021e-03, 1.69707239e-02, 1.07505647e-02, -2.59243120e-02,
       1.25306631e-02, 1.35049801e-02, 1.33499075e-02, -4.12901572e-04,
       8.10131244e-03, 3.87379574e-03, -3.17041250e-03, 8.16864055e-03,
       -6.77998364e-03, 2.93658441e-03, -1.47402175e-02, -1.24012446e-02,
       -1.86140947e-02, 1.82926282e-02, -6.59721345e-03, -8.30132328e-03,
       -4.31447197e-03, 1.20134893e-04, 3.39694470e-02, 2.05315538e-02,
       2.08616052e-02, -6.71115890e-03, 2.10999716e-02, -9.88735911e-03,
       -1.31858522e-02, -7.62068946e-03, 2.87014269e-03, 2.70349719e-02,
       4.29358706e-03, -1.18818944e-02, -1.12115666e-02, 5.33090532e-03,
       -1.39320605e-02, -2.60744598e-02, 4.16457606e-03, -3.35007417e-03,
       1.16086227e-03, -1.57716814e-02, -3.32966633e-03, -2.09436547e-02,
       2.55918857e-02, -9.85702593e-03, -1.05655724e-02, -8.24670959e-03,
       -2.81898696e-02, -2.96752825e-02, -1.29128415e-02,
       -4.57157101e-03, -3.52704041e-02, -1.38294110e-02,
       -2.35505998e-02, 4.49630851e-03, 1.73534118e-02, -1.83127436e-03,
       3.22117917e-02, 7.27409171e-03, 3.72172706e-02, 2.94349808e-02,
       2.33421996e-02, -1.36119286e-02, -8.49346444e-03, -5.52880485e-03,
       3.47230327e-03, 4.23247740e-03, 8.09483975e-03, 3.61716114e-02,
       4.81439615e-03, -3.89093743e-03, -2.91920584e-02, 2.25742604e-03,
       -3.80853919e-04, 1.20447844e-03, 1.33572370e-02, 2.46327749e-04,
       7.02444086e-05, -3.99890877e-02, -4.49910685e-02, -2.10528988e-02,
       5.03315963e-03, 1.29637187e-02, -1.22692401e-03, -7.31576467e-03,
       4.20280173e-03, -3.33004221e-02, -1.09702563e-02, 7.01497123e-03,
       -2.65791230e-02, 7.25185871e-03, 8.16213142e-04, 1.53586129e-02,
       2.75966283e-02, 1.67184174e-02, 2.59544682e-02, -9.93708801e-03,
       1.66483205e-02, -2.34139524e-02, -1.72127981e-03, -1.55721288e-02,
       -2.62083253e-03, -4.61262325e-03, 9.54339840e-03, -6.54780818e-03,
       1.25994422e-02, 3.34607661e-02, -1.98980626e-02, -1.29170120e-02,
       2.73957755e-02, 1.72040313e-02, 3.94036621e-02, 1.73532292e-02,
       -3.93267684e-02, -1.53631475e-02, 3.97051722e-02, -4.88074310e-03,
       6.11982215e-03, -1.25272349e-02, 9.31734778e-03, 9.57703497e-03,
       3.21931089e-03, -5.98555850e-03, -2.09942069e-02, -1.51463067e-02,
       5.02506411e-03, -1.42963193e-02, 2.45547877e-03, 6.95495866e-03,
       4.58113058e-03, 9.81011428e-03, -1.56499799e-02, 5.70261665e-03,
       1.94795486e-02, 5.04500931e-04, -4.82331403e-03, -1.25680184e-02,
       2.65593771e-02, -6.52732560e-04, 6.22199010e-03, -2.15734029e-03,
       -1.26210209e-02, -1.71708467e-03, 6.31694403e-03, 5.91801433e-03,
       -3.90035510e-02, -2.32964307e-02, 5.46344137e-03, -5.49899321e-03,
       1.97590329e-02, -1.85687598e-02, -1.09276036e-02, 2.37076599e-02,
       2.91831084e-02, -2.94957105e-02, -2.14616936e-02, 1.19562875e-02,
       -3.12862732e-02, -1.03507945e-02, 2.38443003e-03, 4.88513336e-03,
       1.82520393e-02, -5.65168168e-03, -2.34137774e-02, 1.46385264e-02,
       2.05304492e-02, 7.88624026e-03, 2.43700556e-02, -8.37864168e-03,
       3.71979526e-03, 1.34566082e-02, 2.51902919e-02, -2.15983056e-02,
       6.49726950e-03, -1.42269433e-02, -1.42300995e-02, 1.38517432e-02,
       1.27888503e-04, -1.51632894e-02, 7.56631372e-03, 3.23251300e-02,
       -1.65779144e-02, -4.17735195e-03, 1.78932231e-02, 2.77579315e-02,
       1.59496255e-02, -1.24316011e-02, -1.92853771e-02, 2.83437949e-02,
       2.20881142e-02, -3.50619841e-04, 1.88672580e-02, 6.39006449e-03,
       -2.04270966e-02, 2.49895453e-02, 1.56130800e-02, 1.02542304e-02,
       1.36363646e-02, -4.28065145e-03, -2.00556032e-02, 8.63271579e-03,
       1.82980690e-02, -9.49675031e-03, -6.24633301e-03, 1.03003234e-02,
       -1.67596154e-02, 2.51135565e-02, 1.90843493e-02, -2.36725863e-02,
       1.65543612e-02, 2.02154135e-03, -2.42141709e-02, -4.40732902e-03,
       2.22938024e-02, 1.83594264e-02, 3.22167836e-02, 1.41464798e-02,
       -1.75224580e-02, -1.21055581e-02, -9.47917160e-03, 9.61177889e-03,
       2.94699101e-03, -2.46808492e-02, 9.23947245e-03, 7.37403380e-03,
       2.42538936e-02, 2.34668073e-03, -1.63723715e-02, -1.55604482e-02,
       2.13739462e-02, 1.82756316e-02, -1.18126580e-03, -6.36256346e-03,
       1.23942969e-02, -1.99388377e-02, -2.10516192e-02, 8.27358756e-03,
       -5.65967942e-03, 9.78533830e-03, 1.61168855e-02, -4.13484452e-03,
       -1.79198280e-03, 8.96200445e-03, 9.78118088e-03, -4.91932314e-03,
       1.04771536e-02, -1.00964373e-02, -1.29239643e-02, 2.76288507e-03,
       -1.04725151e-03, 1.00216810e-02, -2.83759763e-03, -6.45858422e-03,
       -1.10229440e-02, -6.41459879e-03, 4.66718385e-03, 3.88917252e-02,
       2.88771669e-04, 6.96407910e-03, -1.99081060e-02, -9.43429768e-03,
       1.28549924e-02, -5.69040794e-03, 7.35525275e-03, 1.98363705e-04,
       -1.03844758e-02, -1.17485155e-03, 2.80905273e-02, 2.82267798e-02,
       1.99596640e-02, 6.66698674e-03, -1.42217185e-02, 9.76304337e-03,
       2.84333597e-03, 3.67509536e-02, 1.47312554e-02, -1.05917891e-02,
       -1.27412251e-03, 2.29629632e-02, -2.02902872e-02, -2.80277878e-02,
       -2.58452334e-02, -1.81585795e-03, -2.47758385e-02, 4.39820718e-03,
       1.00652613e-02, 1.94448326e-02, -1.98654030e-02, -2.10569166e-02,
       -7.34566245e-03, -8.51208996e-03, -4.34331372e-02,
       -2.29557700e-04, -3.12857958e-03, -3.63993295e-03, 6.56747399e-03,
       -2.80429553e-02, 1.85401049e-02, -1.19213061e-03, -3.67533527e-02,
       -2.14577410e-02, 1.63809359e-02, 1.12242706e-03, -1.91865824e-02,
       -1.03134420e-02, -3.94306626e-05, 1.10984370e-02, 9.57894325e-03,
       1.85959041e-02, 6.54488709e-03, -4.36344696e-03, -6.22366264e-04,
       2.44725235e-02, 2.27043647e-02, -3.82790482e-03, 8.75820778e-03,
       8.97698943e-03, -1.68439411e-02, 6.16319652e-04, 1.93739496e-02,
       1.01143280e-02, 1.09019317e-02, 6.56808668e-04, 2.44079414e-03,
       3.66845131e-02, 4.92581353e-02, -1.31009864e-02, -1.19064301e-02,
       4.28199023e-02, -2.76140915e-03, -3.61461565e-03, 4.87390393e-03,
       -9.04248469e-03, 1.34360828e-02, 6.02893159e-03, -3.17535140e-02,
       -2.51795538e-02, 1.76885314e-02, -6.19179616e-03, -2.00425945e-02,
       -3.37719135e-02, -1.45895984e-02, 4.75315861e-02, 4.81545739e-02,
       -3.26370671e-02, -8.36832169e-03, 1.55154951e-02, -2.24586180e-03,
       4.19188058e-03, 1.17284935e-02, 7.98640680e-03, 2.65885442e-02,
       6.24436652e-03, -1.45293456e-02, 1.63041102e-03, -1.17549337e-02,
       -2.93586515e-02, -5.85685112e-03, -1.35508552e-02, 2.22608191e-03,
       2.57985834e-02, 1.99751016e-02, -1.92588251e-02, -2.64860434e-03,
       2.24492792e-02, -2.97292857e-03, -1.53807057e-02, -2.49862298e-02,
       2.14298889e-02, 2.18854425e-03, 2.19829613e-03, -1.62425414e-02,
       1.12212719e-02, 2.86889933e-02, -1.84458084e-02, -2.55881455e-02,
       2.32639853e-02, 1.24306316e-02, 2.83992290e-03, 1.87858865e-02,
       2.45300517e-03, -3.36979330e-03, -1.19597670e-02, 1.27474393e-03,
       6.53228443e-03, 1.35280099e-02, -5.39618125e-03, -2.99735344e-04,
       1.35607338e-02, -1.44304819e-02, 1.51721621e-02, 1.39548676e-02,
       -6.67384872e-03, 3.40082706e-03, 2.29099975e-03, -1.61909461e-02,
       9.07123461e-03, -7.33065745e-03, -8.95401277e-03, -2.37705861e-03,
       5.71427168e-03, -9.46940668e-03, -2.02762578e-02, 2.75146589e-02,
       2.19079554e-02, -9.99126816e-04, -1.49575091e-04, -3.21608619e-03,
       -2.46844050e-02, 1.31558878e-02, -2.89636813e-02, -2.95944158e-02,
       1.85427535e-02, 1.06168687e-02, 4.19291034e-02, 3.89073715e-02,
       -1.55335981e-02, 1.08345486e-02, 1.56511795e-02, 8.50745942e-03,
       1.21603943e-02, 1.14830313e-02, 5.06629935e-03, -7.53811095e-03,
       1.01079512e-02, -4.09508571e-02, -1.31125357e-02, 3.42324600e-02,
       -2.83886995e-02, 1.62097868e-02, 2.47705961e-03, -3.02076079e-02,
       1.04889311e-02, 1.12645077e-02, 1.09069133e-02, 7.85749499e-03,
       6.72482233e-03, -1.60094388e-02, -2.98783090e-02, 2.35934649e-02,
       2.58112606e-02, -1.04858065e-02, 6.70626527e-03, -1.18370606e-02,
       5.21946640e-04, -2.09125299e-02, -1.14982687e-02, -2.12019980e-02,
       4.97125555e-03, 1.37877846e-02, 2.88612302e-02, 4.43176478e-02,
       3.21713355e-06, 4.08066958e-02, 3.25330757e-02, -3.31465085e-03,
       2.09078076e-03, -3.67951789e-03, -1.38921570e-02, 1.81693193e-02,
       9.71950963e-03, -4.34420491e-03, 1.25790667e-02, -4.43265261e-03,
       1.51434271e-02, -2.30191760e-02, -1.81977786e-02, 1.81392971e-02,
       -9.04658996e-03, 9.65502393e-03, -2.36763433e-02, -2.91033136e-03,
       2.46908627e-02, 3.66905588e-03, -2.70174816e-02, 1.65801775e-02,
       1.77567266e-03, -2.89742369e-03, 5.60052553e-03, -2.23963205e-02,
       -9.42644943e-03, -1.99476746e-03, -2.37348955e-02,
       -9.11640842e-03, -9.12041962e-03, -1.20497504e-02,
       -1.40835596e-02, -2.28480459e-03, -7.69209443e-03, 2.78247930e-02,
       6.08375333e-02, 6.19314089e-02, 1.33606838e-02, 2.24642716e-02,
       6.90617040e-03, -1.28683886e-02, -8.29886552e-03, 1.38187828e-02,
       1.68306306e-02, 1.85133535e-02, 2.33611818e-02, 1.30394604e-02,
       3.81814665e-03, -1.14417924e-02, -1.02661690e-02, 6.05526846e-03,
       -1.56956930e-02, 1.40519071e-04, -1.16336141e-02, -3.30820270e-02,
       -1.04839941e-02, -2.08965712e-03, -1.95340868e-02, 4.51134890e-03,
       1.33194709e-02, -5.81926107e-03, -9.13742837e-03, -1.99269094e-02,
       -1.17431702e-02, -1.78813655e-02, 1.69343092e-02, -5.48947323e-03,
       -9.47684795e-03, 2.64094528e-02, -1.57180591e-03, 1.43670803e-02,
       1.71981622e-02, 5.40506048e-03, 9.22974385e-03, 1.39886350e-03,
       -3.40434127e-02, -5.59920724e-03, 1.89880896e-02, -1.31223192e-02,
       -6.79568155e-03, 1.72745381e-02, -8.82008753e-04, -5.09705096e-02,
       -2.33984143e-02, -6.86563551e-03, -1.37783689e-02, 2.12518461e-02,
       -8.27518292e-03, -9.80372075e-03, 3.07589513e-03, 1.53449131e-02,
       -2.25882661e-02, 1.02054216e-02, -8.65142606e-03, -2.96658874e-02,
       -1.93659868e-02, -3.57511081e-02, 2.23909086e-03, -1.36978645e-02,
       -1.67671200e-02, -2.31437963e-02, 2.07170518e-03, -1.67422369e-02,
       2.49813683e-02, 1.63577385e-02, -1.59725419e-03, 6.17506448e-03,
       2.23491378e-02, 3.95927466e-02, -7.21735926e-03, 7.73076201e-03,
       2.09355354e-02, 1.74503285e-03, 2.26611104e-02, -7.45181926e-03,
       1.78027619e-02, 1.99039429e-02, 4.47122753e-02, -8.63628462e-03,
       5.06627257e-05, 1.24135623e-02, 1.43939909e-02, 1.34841353e-02,
       -1.33622950e-02, 1.40782306e-02, -2.32760217e-02, 1.63044475e-04,
       6.04490415e-05, 1.04061067e-02, -5.31451823e-03, 2.48956494e-02,
       9.69193503e-03, -6.51798677e-03, -2.03850004e-03, -8.70375801e-03,
       -7.68873189e-03, 1.50183809e-03, -5.68177411e-03, -4.04811986e-02,
       4.11363086e-03, 6.70851953e-03, -1.96139831e-02, 1.15616973e-02,
       1.25389518e-02, 2.28897724e-02, -1.40606873e-02, -7.00371666e-03,
       -4.24131067e-05, 1.25782276e-02, 1.99991446e-02, -2.05275672e-03,
       8.30404181e-03, 3.56431827e-02, -8.71712435e-03, 9.56034195e-03,
       -2.06702179e-03, -3.92928207e-03, 4.81345132e-03, -2.08324119e-02,
       1.63067416e-05, 8.88693670e-04, -2.87290141e-02, -9.72628780e-03,
       -8.49825423e-03, 7.06725009e-03, -2.36200392e-02, -6.20831177e-03,
       -3.33772600e-02, -2.24706158e-02, -1.99966896e-02,
       -3.13949957e-02, -4.75269221e-02, -1.17569976e-02, 2.22084098e-04,
       -1.21242469e-02, 1.40019273e-02, 1.76981278e-02, 5.79426857e-03,
       2.48391610e-02, 4.59831432e-02, 4.56189439e-02, 8.05166457e-03,
       2.27530785e-02, 1.00646866e-03, 2.12227926e-02, 3.83718796e-02,
       2.16927771e-02, 9.65887681e-03, 1.89291239e-02, 1.53061794e-02,
       2.69878283e-03, 9.14241001e-03, -1.47564104e-02, 2.50181439e-03,
       -3.02519789e-03, -3.20882420e-04, -1.04536163e-02,
       -1.09122302e-02, -1.18389437e-02, 1.34886028e-02, -3.67821846e-03,
       -9.25074238e-03, 9.19970963e-03, -1.37794502e-02, 1.19908638e-02,
       -2.22234074e-02, -1.42619088e-02, -3.56247313e-02,
       -2.81302445e-03, -1.57224457e-03, 2.94351690e-02, 2.16127466e-02,
       1.38599873e-02, 2.04622503e-02, 1.87415369e-02, 3.73536423e-02,
       4.19120044e-02, 4.68178019e-02, 2.84969453e-02, -8.88691097e-03,
       -2.07535345e-02, -4.22648601e-02, -5.74069971e-04,
       -4.41215467e-03, 1.10201202e-02, 2.06269640e-02, -1.02028623e-02,
       -8.20090622e-03, -2.04108283e-02, -9.55004245e-03,
       -1.36713348e-02, 1.15546631e-02, 1.21789062e-02, 1.32947676e-02,
       -1.55620265e-03, 7.96675449e-04, 1.14313830e-02, 9.11183190e-03,
       2.10228451e-02, -1.35685718e-02, 9.81675345e-04, 1.82830391e-03,
       -9.66091082e-03, -2.38736756e-02, -4.73806309e-03,
       -3.01953424e-02, 4.23530908e-03, 2.05945014e-03, -5.82538871e-03,
       1.40013285e-02, 1.21320980e-02, -2.02949848e-02, 1.65989976e-02,
       -1.63491524e-03, 5.88388462e-03, -7.57159141e-04, 8.60780827e-04,
       -2.62722168e-02, -1.08514857e-02, 2.82558687e-02, -2.19027735e-02,
       -4.09959257e-03, -2.77504791e-03, -2.68225837e-02,
       -5.14253089e-03, -2.50328649e-02, -1.27230017e-02, 2.44460423e-02,
       3.71344537e-02, 3.32700498e-02, 5.33728441e-03, -3.24411876e-03,
       -1.52400266e-02, 6.17890665e-03, 6.57414272e-03, -8.96944758e-03,
       1.19890906e-02, 2.80776769e-02, -9.13110003e-03, -6.96446886e-03,
       -1.85201317e-02, -1.86763325e-04, 1.94038320e-02, -4.36348468e-03,
       6.67838240e-03, 5.64555079e-03, -1.73593976e-03, 1.88042205e-02,
       1.34343663e-02, -8.04394763e-03, -5.97635284e-03, 1.28735052e-02,
       -1.38568077e-02, -9.42372344e-03, -1.22335330e-02, 1.75121240e-02,
       -3.54145840e-02, 1.74279567e-02, -1.28510278e-02, 4.60005738e-03,
       5.07487031e-03, -4.20806035e-02, -3.07112988e-02, 1.05382996e-02,
       5.00979926e-03, 3.14238202e-03, -2.74339430e-02, -2.63203103e-02,
       -2.67758761e-02, -1.74855012e-02, 2.86326259e-02, 1.99739616e-02,
       3.33291255e-02, 3.07710115e-02, -1.32355755e-02, -3.76778692e-02,
       -2.09904071e-02, -4.30334685e-03, 1.74300615e-02, -1.38225630e-02,
       1.68300811e-02, 6.72452524e-02, 4.73365374e-02, 2.13196333e-02,
       1.94354088e-03, -2.00321451e-02, -3.77020314e-02, -2.10133120e-02,
       5.74138239e-02, 6.26638010e-02, 6.83405995e-02, 5.16534746e-02,
       -1.99735863e-03, 1.94123175e-04, 1.49057163e-02, 3.83601268e-03,
       1.71069019e-02, 1.98810641e-02, -1.60282012e-02, -2.24876795e-02,
       -1.47585524e-02, -1.71200130e-02, -3.03234775e-02,
       -6.03869837e-03, 1.59332417e-02, 3.99128795e-02, -2.57105585e-02,
       -3.63516137e-02, -1.94328986e-02, 3.51393782e-02, -8.52376223e-03,
       -2.66651269e-02, 1.70318503e-02, 3.28906290e-02, 3.83332232e-03,
       5.04030325e-02, 3.00389845e-02, -1.48645951e-03, 3.36827221e-03,
       1.99036393e-03, -4.61306330e-03, 7.43359234e-03, 4.49636355e-02,
       6.54830188e-02, 1.44979404e-02, -1.66164909e-03, 2.24716309e-02,
       4.68490459e-02, 2.14966433e-03, -2.13860106e-02, 3.70290764e-02,
       4.77096364e-02, 5.78074344e-02, 7.52223842e-03, 5.22367470e-02,
       9.18116421e-02, 9.39210206e-02, -2.40540667e-03, -2.34383103e-02,
       5.53689152e-03, 2.43228115e-02, -4.98528779e-03, 8.44862871e-03,
       4.26262617e-02, 2.13399511e-02, 2.51089949e-02, -2.10949145e-02,
       -3.14720944e-02, -3.48164625e-02, -2.30779368e-02,
       -3.21036540e-02, -1.47045320e-02, 5.74087091e-02, 7.42167979e-02,
       6.08231314e-02, 1.79627277e-02, -1.63578149e-02, 9.74917971e-03,
       3.38915884e-02, 8.95428378e-03, -2.74594650e-02, 7.62802549e-03,
       2.26051249e-02, 1.27464207e-02, -2.10335967e-03, -2.01715566e-02,
       -1.45713035e-02, -5.24769444e-03, -5.58758080e-02, 2.27072462e-02,
       7.42487162e-02, 9.16174240e-03, 2.76894532e-02, -4.21750359e-03,
       5.03723556e-03, 1.18545359e-02, 1.35359857e-02, -1.23142255e-02,
       1.59994839e-03, 1.14736415e-03, -8.83435085e-03, 1.12796277e-02,
       -1.47423455e-02, 1.54096168e-03, 2.16298550e-02, -1.43313687e-03,
       -1.58128177e-03, -1.94589291e-02, 8.71329848e-03, 5.25947253e-04,
       -1.86472654e-03, -1.74888242e-02, -2.29567522e-03, 9.91220027e-03,
       1.19852340e-02, -3.71233076e-02, -1.90062411e-02, 1.34683761e-03,
       -8.05330370e-03, -4.94696200e-03, -2.39345655e-02, 3.32666282e-03,
       1.34473108e-03, 3.92767834e-03, 2.37842947e-02, 2.21589841e-02,
       2.60373000e-02, -1.39509765e-02, 2.64442130e-03, -1.78309157e-02,
       8.24179221e-03, 2.44766776e-03, 1.04063172e-02, 1.08358609e-02,
       4.58562635e-02, 5.30900285e-02, -7.87919294e-03, 1.12916175e-02,
       -1.91397015e-02, 2.28570476e-02, 1.02755884e-02, 2.35229917e-02,
       -1.02710677e-02, 2.80466303e-03, 3.46546434e-02, -2.25515347e-02,
       -1.69375411e-03, -6.44163787e-03, 9.01739299e-03, -1.01667298e-02,
       -3.83024872e-03, 1.35539919e-02, 2.09543612e-02, 2.82537695e-02,
       -2.25164983e-02, -2.61854567e-02, -2.56356373e-02,
       -2.30280403e-03, 3.47886467e-03, 4.59960662e-03, -3.87057289e-03,
       5.76199144e-02, 8.40412676e-02, 1.85566600e-02, 2.48089507e-02,
       -3.12721170e-02, 1.35365138e-02, 1.31953536e-02, 3.75018753e-02,
       2.08624881e-02, 1.42839411e-02, 4.80369963e-02, -1.14040291e-02,
       -1.17948493e-02, -6.10713789e-04, -2.06555557e-02, 2.66462509e-02,
       1.45524545e-02, -2.16329261e-03, 1.66549571e-02, 3.82864028e-02,
       1.36074228e-02, -9.69744870e-04, -2.69386619e-02, 1.22395027e-02,
       1.05304597e-02, 9.38003231e-03, 4.31252131e-03, -6.88098185e-03,
       1.39577605e-03, -2.43997294e-02, -3.57655212e-02, -3.53247486e-02,
       -9.30574164e-03, -2.65320600e-03, -1.03654675e-02, 2.23415215e-02,
       3.43814045e-02, 4.05314863e-02, 8.48064758e-03, 1.53998667e-02,
       1.72413921e-03, 2.54848730e-02, 2.52282247e-03, -1.02971499e-04,
       6.45661540e-03, 3.53053957e-02, 1.51693579e-02, -1.11074317e-02,
       -1.24045862e-02, -2.84225531e-02, 1.11598559e-02, 4.94647259e-03,
       2.53832061e-02, 4.60511632e-02, 1.59936473e-02, 1.51895760e-02,
       -1.76707841e-03, -4.75101231e-04, -1.51229780e-02, 2.61765327e-02,
       9.82357655e-04, -4.72404389e-03, -1.17151961e-02, -1.13255484e-02,
       -2.10245289e-02, -1.15609085e-02, -3.58000547e-02,
       -8.49878788e-03, -1.15573080e-02, -1.44331772e-02,
       -1.10773686e-02, -2.16163835e-03, 7.55729293e-03, 1.03671560e-02,
       -1.62320584e-02, -1.51770022e-02, -1.92716271e-02, 3.45098749e-02,
       2.93699745e-03, 4.53459583e-02, 4.47304398e-02, 1.54950721e-02,
       1.28415385e-02, -1.33253140e-02, -6.81601604e-03, 5.10975625e-03,
       2.91046314e-02, 2.31792536e-02, 4.15880717e-02, 2.32342519e-02,
       -4.03511636e-02, 3.92337469e-03, -2.79301386e-02, -1.77388731e-02,
       -2.76498161e-02, -7.52441632e-03, 9.93493386e-03, 2.58341581e-02,
       1.12398230e-02, -8.14923923e-03, 1.83191188e-02, -2.30455138e-02,
       -1.08699575e-02, 1.37114730e-02, 3.64654069e-03, -2.97359265e-02,
       1.11647071e-02, -9.86021114e-05, -6.27332134e-03, 7.73971062e-03,
       -2.22362597e-02, -1.93404648e-02, -3.17212567e-02, 7.10732024e-03,
       1.29665164e-02, 1.97161213e-02, 1.87218152e-02, 1.61606409e-02,
       6.77645812e-03, -2.37794295e-02, -3.46578844e-02, -4.33094706e-03,
       9.00492072e-04, -3.29419747e-02, 8.75668135e-03, 5.54268435e-03,
       2.59361491e-02, 2.72503812e-02, -1.45027228e-02, -2.37173401e-02,
       -2.42676176e-02, -2.36595771e-03, -1.88579783e-02, 3.18049826e-02,
       -1.28200362e-02, 3.07543539e-02, 2.06227414e-02, -3.87505768e-03,
       -5.37370741e-02, -2.10488029e-02, 5.69077628e-03, -3.31509896e-02,
       2.12334041e-02, 1.06860092e-03, -2.44861413e-02, 1.82053149e-02,
       -2.91071013e-02, -4.52663600e-02, -1.71152595e-02, 1.62602141e-02,
       -2.49189679e-02, -1.24763639e-03, -4.09771949e-02,
       -1.93785522e-02, 1.86240263e-02, -1.77184474e-02, -4.46372340e-03,
       -2.59413272e-02, -9.66197625e-03, -2.73583438e-02, 7.45916786e-03,
       -2.63582356e-03, -7.87911564e-03, 5.42452931e-02, -1.86961296e-03,
       -2.69175712e-02, -2.17780415e-02, 1.00586796e-02, -9.64134280e-03,
       2.55054375e-03, -3.38513069e-02, 7.31961103e-03, 3.50216515e-02,
       -2.08429787e-02, -9.69127053e-04, -1.05401101e-02,
       -6.86203456e-03, -1.05440561e-02, -9.56785399e-03, 2.84943320e-02,
       -3.67846005e-02, 7.68971920e-04, 3.60800140e-03, 1.07018994e-02,
       -2.52223443e-02, -1.51768839e-02, -4.65460233e-02,
       -8.14373698e-03, 6.87892735e-03, -2.05734558e-02, 5.33787720e-03,
       -2.15038713e-02, -1.07095391e-02, -3.75712179e-02,
       -3.89708430e-02, -4.28362610e-03, -1.84233170e-02,
       -3.46679520e-03, -2.62330789e-02, 6.32944005e-03, -2.47937404e-02,
       -4.97901393e-03, -1.41912214e-02, -1.42946169e-02,
       -3.55512314e-02, 2.14480609e-02, 2.41319910e-02, -7.88031984e-03,
       3.42442170e-02, -1.55326352e-03, 1.29227443e-02, -4.79275035e-03,
       -1.32073499e-02, -3.80419055e-03, 2.03694794e-02, 2.37381160e-02,
       1.36112922e-03, 3.08790803e-02, -1.01781702e-02, -1.38829779e-02,
       -3.63298096e-02, -7.95305427e-03, -1.84872502e-03,
       -5.87139698e-03, -9.61938500e-03, -1.88237485e-02, 5.65007469e-03,
       -5.14666736e-03, -3.29026692e-02, -3.17501277e-02,
       -4.09220830e-02, -3.98046002e-02, -1.32207563e-02,
       -1.80121567e-02, 1.36671308e-02, 4.98179570e-02, 3.13809216e-02,
       3.12954634e-02, 8.59557651e-03, 9.21766646e-03, 2.21669059e-02,
       -1.26937393e-03, 5.02851000e-03, 1.31376944e-02, 1.77939050e-02,
       2.15561744e-02, 5.41169336e-03, 2.18442529e-02, 1.16059873e-02,
       8.49402603e-03, 3.17949988e-02, 8.61773640e-03, 3.52360425e-03,
       -1.71417948e-02, -8.37318774e-04, 8.69520381e-03, 3.42849977e-02,
       4.83901314e-02, 1.01849744e-02, 2.24564467e-02, 2.13786922e-02,
       -1.54573731e-02, -5.04293144e-02, -2.93454081e-02,
       -3.59182321e-02, -1.55183822e-02, -7.20953615e-03,
       -1.99922025e-02, -2.26552915e-02, -1.14410659e-02, 2.62002926e-02,
       3.97710875e-02, 1.41781224e-02, 4.25723009e-02, 7.14323223e-02,
       9.15722400e-02, 2.81447321e-02, 4.67521958e-02, 3.45113873e-02,
       -1.62433721e-02, -2.79510822e-02, -2.28701644e-02,
       -2.50322372e-02, 1.99199580e-02, 3.32042482e-03, -2.04895101e-02,
       -3.75272632e-02, -3.09184771e-02, 2.76993234e-02, 3.19272396e-03,
       4.65748692e-03, 1.14613166e-02, -2.39257677e-03, 1.44394254e-02,
       3.45475681e-04, 6.92949444e-03, 1.12001579e-02, -1.72136966e-02,
       -3.47236097e-02, -1.89831797e-02, 3.09443078e-03, -2.62884069e-02,
       2.22919006e-02, 1.24014039e-02, -2.09241416e-02, -4.65439353e-03,
       1.63264740e-02, 6.67486293e-03, 1.19349465e-03, 5.47950040e-04,
       -1.81063786e-02, 1.39218904e-02, 5.81772206e-03, -2.34226603e-02,
       -2.23561260e-03, 4.98960726e-03, -3.42291184e-02, -1.06665678e-02,
       1.76151912e-03, -3.22491564e-02, 3.90352421e-02, 6.29174570e-03,
       -3.12256180e-02, -1.22923665e-02, 3.14426683e-02, -2.09255014e-02,
       -3.16533409e-02, -2.19271481e-02, -1.07039348e-03, 3.24089569e-03,
       -2.79091634e-02, -2.23337766e-02, 3.41480039e-02, 2.65771821e-02,
       -1.17737660e-02, -3.13072279e-02, 9.12722107e-03, 3.04378737e-02,
       9.34631750e-03, -6.18269620e-03, -5.03522577e-04, 4.09503803e-02,
       3.74439619e-02, -4.93410230e-03, -4.03079093e-02, -1.43238194e-02,
       -5.66394301e-03, -1.50969578e-02, -3.17729972e-02,
       -3.81425470e-02, 4.01858911e-02, 2.78842915e-02, -6.26666937e-03,
       -9.53250937e-03, 9.55615565e-03, -3.08739976e-03, 6.46420429e-03,
       -4.04623225e-02, -1.62967164e-02, 2.24539563e-02, -1.59021709e-02,
       -1.39971357e-02, 2.19515916e-02, 2.39963066e-02, 3.06707192e-02,
       3.17902528e-02, 1.11735668e-02, -1.92181952e-02, -1.74979549e-02,
       -2.06044521e-02, 4.05327752e-02, 4.87674810e-02, 2.64922548e-02,
       4.82614292e-03, 4.56389450e-02, 2.87325662e-02, 5.71171427e-03,
       -3.80253531e-02, -2.50944756e-02, -2.97624636e-02, 8.01813696e-03,
       3.00125554e-02, 2.63178758e-02, 7.28999600e-02, 5.53188175e-02,
       -6.19592844e-03, -2.51398087e-02, -5.39225861e-02,
       -7.22867297e-03, 1.68061175e-03, 3.29144970e-02, -3.05745676e-02,
       4.86585200e-02, 6.49020746e-02, 5.40090725e-02, -2.19273251e-02,
       5.28899059e-02, 4.20606621e-02, 1.86876450e-02, 2.24402510e-02,
       1.01807909e-02, 2.00189166e-02, 3.28221894e-03, 3.62798423e-02,
       3.87633629e-02, 9.73214395e-03, -1.40796043e-02, -2.88321055e-04,
       1.40990587e-02, -7.53162475e-03, -1.72444265e-02, -7.83975236e-04,
       1.21349329e-02, 3.11305802e-02, 4.37670648e-02, 2.74454001e-02,
       1.54324323e-02, 4.71145287e-03, -4.76716785e-03, 4.62591555e-03,
       -9.70359705e-03, 4.65383939e-02, 3.97935435e-02, 9.58784483e-03,
       3.14617641e-02, 1.37801385e-02, -7.99657963e-03, -1.40875122e-02,
       -2.22778274e-03, 4.32175992e-04, 2.50433106e-03, 9.76665877e-04,
       -1.07253930e-02, 1.40111176e-02, 2.14384496e-02, 3.85488570e-02,
       2.58485950e-03, 2.63776071e-02, 4.20849770e-02, 4.04297672e-02,
       1.50541766e-02, -3.41941155e-02, -1.32917902e-02, -1.66087542e-02,
       2.72933859e-03, 2.58559287e-02, 2.12239102e-02, 2.28579063e-02,
       1.08501350e-03, -3.39457802e-02, 8.34755506e-03, 3.87096033e-02,
       4.25391309e-02, 2.88683362e-02, 4.60912241e-03, 4.61192951e-02,
       4.46846411e-02, 2.34605074e-02, -1.57628376e-02, -1.82384886e-02,
       -2.15988122e-02, 1.08622201e-02, -1.37709957e-02, 2.08421629e-02,
       1.35355061e-02, -3.95320775e-03, -4.86123143e-03, -4.44925390e-02,
       -7.08344858e-03, 2.33267061e-02, 2.61942809e-03, 1.50961895e-02,
       -2.67776977e-02, 3.63527937e-03, 1.16928462e-02, 2.93895304e-02,
       -1.88212525e-02, -1.92286223e-02, -6.89471327e-03,
       -2.84348093e-02, -1.38998851e-02, -3.64754312e-02,
       -2.04148665e-02, -1.70153193e-02, -6.34812168e-04, 2.04600431e-02,
       -1.10835386e-02, -1.04413670e-03, 1.64085962e-02, 4.35564760e-03,
       -3.44633050e-02, 1.52354939e-02, -5.54819545e-03, 1.94248054e-02,
       -1.82984322e-02, -6.14130544e-03, -1.06343403e-02,
       -1.63376443e-02, -3.12851816e-02, -2.77887564e-02,
       -1.72539726e-02, -2.71069948e-02, -1.00793028e-02,
       -1.48598012e-02, -5.33649558e-03, 4.90143197e-03, -5.10022277e-03,
       1.56501513e-02, -2.43073003e-03, 2.37816963e-02, 1.81817927e-03,
       2.00020596e-02, 3.70532125e-02, -2.79211048e-02, 4.40810574e-03,
       6.08069124e-03, -2.66837310e-02, -2.13905890e-02, -1.84136927e-02,
       -6.51464146e-03, 1.83258336e-02, -3.60135548e-02, 1.20343054e-02,
       1.86255425e-02, -1.63076390e-02, -2.75648572e-03, 6.88000908e-03,
       8.61476455e-03, -2.14576168e-04, 6.10111235e-03, -1.04286764e-02,
       -2.75557283e-02, -1.19727221e-03, -1.94338039e-02,
       -2.82227993e-02, -1.46711310e-02, -3.48859467e-02,
       -1.17833763e-02, 1.20774265e-02, -3.03245746e-02, -2.40873192e-02,
       8.21624696e-03, 6.71180710e-03, 1.16846161e-02, 2.07618042e-03,
       -2.16308958e-03, -7.13781035e-03, -6.50744187e-03,
       -4.32262830e-02, -5.48905507e-03, -3.05894110e-03,
       -2.03693472e-03, -4.66818642e-03, 6.74859248e-03, 2.21659653e-02,
       2.19348688e-02, -1.68684940e-03, -2.05855183e-02, -2.60398351e-02,
       -1.56650133e-02, 2.69387756e-03, 5.54136978e-03, 4.85694356e-04,
       -1.50333066e-02, -2.46718023e-02, 1.02190003e-02, -4.26861867e-02,
       -2.28429995e-02, -1.50120175e-02, 2.28750166e-02, 1.38536617e-02,
       2.84093749e-02, 1.69985951e-03, -1.08540580e-02, -1.89497434e-02,
       -3.68952826e-02, 9.71513707e-03, 1.57309007e-02, 3.02248690e-02,
       2.42483597e-02, 5.26568945e-03, 3.29600461e-02, 1.80526394e-02,
       1.19508905e-02, -2.48761494e-02, -1.37763117e-02, -1.97245404e-02,
       4.38719930e-04, 2.26972159e-02, 4.30675857e-02, -1.57033280e-02,
       -5.56592084e-03, 8.14253185e-03, -2.22950112e-02, -3.44482176e-02,
       2.36037131e-02, 3.22093777e-02, 4.29846719e-02, 1.98437590e-02,
       1.41502833e-02, -3.91168782e-04, -1.54240336e-02, -3.73807512e-02,
       -5.25849275e-02, 1.04993610e-02, -1.13459546e-02, 8.47681146e-03,
       3.83094512e-02, -7.67024420e-03, -3.27975117e-03, -2.12935638e-02,
       -1.81400273e-02, -3.37159671e-02, 5.08787390e-03, -1.14783868e-02,
       2.85615236e-03, -1.11897932e-02, -2.54340321e-02, -2.48387195e-02,
       2.28606891e-02, 1.90415734e-03, -1.13879840e-04, 6.28164858e-02,
       -1.18018389e-02, 2.12243740e-02, 3.29388045e-02, -3.25143039e-02,
       -2.44972426e-02, 3.46189626e-02, -1.77698769e-02, -2.65502762e-02,
       2.48413812e-02, -2.68807840e-02, 5.43869566e-03, 6.04519760e-03,
       -1.92993432e-02, -9.94388200e-03, -1.12193520e-05,
       -5.32596409e-02, 1.01505294e-02, 2.35392656e-02, -4.55612615e-02,
       -1.91783663e-02, 1.79287400e-02, -3.85278463e-03, -1.16306832e-02,
       3.44137736e-02, 1.40858516e-02, 2.61055818e-03, 5.30579314e-02,
       -2.01550610e-02, -1.25628607e-02, 7.28466921e-03, -2.06859596e-02,
       -9.73973423e-03, 1.34421838e-02, -2.10148636e-02, 7.42747588e-03,
       4.81096096e-02, 1.50923608e-02, -4.25364487e-02, -1.88409481e-02,
       -2.35867072e-02, 1.08257011e-02, 2.16711853e-02, 1.57310311e-02,
       -1.02936542e-02, 3.03245801e-02, -3.01730130e-02, -1.34637626e-02,
       1.98974963e-02, -2.01574489e-02, -5.33083035e-03, 3.69895473e-02,
       1.56900997e-03, -1.43413898e-02, 2.07645614e-02, -5.33556845e-03,
       -2.24393029e-02, -1.27735138e-02, -5.75817600e-02, 1.99813824e-02,
       5.05366065e-02, -1.42881591e-02, 1.02832699e-02, 4.81950603e-02,
       1.89746898e-02, -2.18325295e-03, 8.22460372e-03, 3.26322438e-03,
       -8.13133549e-03, 1.91198178e-02, -1.76572669e-02, 1.32460557e-02,
       4.29272652e-03, -3.49550135e-02, -1.15936389e-02, -2.49677505e-02,
       -5.78356115e-03, -3.47680151e-02, -1.78287011e-02, 2.30634422e-03,
       -1.72737893e-02, 2.15221550e-02, 7.29715964e-03, -9.48633160e-03,
       1.69448077e-03, -2.40079165e-02, -6.39389036e-03, 6.35260493e-02,
       7.91005883e-03, -1.52165052e-02, -7.72182457e-03, -8.94706789e-03,
       -1.22408464e-03, -2.52635102e-03, -2.23097689e-02,
       -4.69508544e-02, 1.02366321e-02, 2.65704654e-02, -1.21307820e-02,
       1.41214682e-02, -2.66059749e-02, -1.95009075e-02, -8.75359960e-03,
       -5.88433444e-03, -3.80017050e-02, -3.46688256e-02, 1.68205705e-02,
       -6.83992635e-03, 2.51741223e-02, 2.33314815e-03, -1.86674464e-02,
       -3.88169661e-02, -1.00311209e-02, -5.70661435e-03, 5.74467797e-03,
       2.97204871e-02, 2.20390894e-02, -1.02716917e-03, -2.88810246e-02,
       -1.31318020e-02, 1.74724739e-02, -2.75578238e-02, -4.18041386e-02,
       7.78614497e-03, -6.85753208e-03, 3.97647806e-02, 1.64249744e-02,
       -6.92886394e-03, -3.97232212e-02, -1.03847440e-02,
       -1.70622114e-02, -1.66586116e-02, 2.21493877e-02, 8.86046607e-03,
       -7.18404911e-03, 5.48225082e-03, 6.93888264e-03, 2.68678702e-02,
       -9.87120345e-03, 2.70962268e-02, -7.20478408e-03, 2.39306153e-03,
       2.37237886e-02, -1.31266526e-04, 1.61858778e-02, -2.96649011e-03,
       -8.97840131e-03, 1.04833292e-02, -3.54056433e-03, 8.10836628e-03,
       3.22977938e-02, 1.87589731e-02, 3.12493928e-02, 7.29316939e-03,
       -5.03729898e-05, 5.07713389e-03, 3.97061557e-03, 3.13752890e-02,
       -2.05727571e-04, 2.02184767e-02, -1.32434564e-02, 3.64359957e-03,
       1.51212122e-02, -2.03641877e-03, -1.54411420e-02, 5.19223697e-03,
       -1.26174027e-02, -2.05736924e-02, 5.20981476e-03, -2.22417582e-02,
       2.12263539e-02, 4.13049944e-02, -2.09223572e-03, 5.04597984e-02,
       4.55783121e-02, 7.84008875e-02, -6.54323399e-03, 2.38544177e-02,
       8.89112987e-03, -2.07093898e-02, -2.69614421e-02, -3.78508158e-02,
       -2.47945618e-02, 6.65699830e-03, -1.51123302e-02, -1.08360052e-02,
       -2.93542258e-02, -3.34933922e-02, 2.46919412e-02, 1.19481105e-02,
       -6.67241914e-03, 7.28269741e-02, 4.73434292e-02, 3.16353701e-02,
       -2.64775641e-02, 2.78447717e-02, 8.81874841e-03, -2.07623392e-02,
       -4.44620587e-02, -2.82146279e-02, -2.65105572e-02, 1.57802645e-03,
       -1.83361843e-02, -3.39466743e-02, -3.86053845e-02,
       -2.25568563e-02, -7.14149419e-03, -1.99873317e-02, 1.31733133e-03,
       1.65176410e-02, -7.36760208e-03, 7.42723094e-03, 1.75427515e-02,
       -1.32070975e-02, -5.47199929e-03, 9.97672882e-03, -3.46392356e-02,
       -3.60560697e-03, 1.11032445e-02, -4.04460207e-02, 2.11939439e-02,
       -2.51581594e-02, -2.20265053e-02, -1.56450924e-03, 9.32116993e-03,
       -2.06368174e-02, 2.09414251e-02, 4.91259620e-02, 5.05934609e-03,
       2.18723658e-02, 5.36821829e-03, -1.62193533e-02, 1.12433834e-02,
       -8.04960541e-03, -2.71101631e-02, -2.33660564e-02,
       -5.83308283e-04, -9.29568149e-03, -7.65960198e-03,
       -1.98583864e-02, -7.74908066e-03, 3.09629540e-04, 1.22319926e-02,
       2.66233529e-03, -1.71568953e-02, -4.63881576e-03, 6.50306465e-03,
       1.50691886e-02, -5.02129551e-03, -2.31871591e-03, 4.20377450e-03,
       1.69654209e-02, 3.30125028e-03, -1.20146479e-02, 1.11350492e-02,
       -2.36348733e-02, 3.50698829e-03, -2.87312251e-02, -1.19215334e-02,
       2.14582663e-02, 8.09007324e-03, -1.70466993e-02, -3.03471205e-03,
       1.60937924e-02, 5.34376130e-04, 2.68784389e-02, 7.83137744e-04,
       -1.42404502e-02, 6.82807947e-03, 1.13964304e-02, 1.77764129e-02,
       9.62348655e-03, -7.39376619e-03, -7.69945933e-03, 1.63441319e-02,
       -5.06143505e-03, -1.15631372e-02, 1.91192832e-02, -8.90139304e-03,
       -3.63579951e-02, -2.46464238e-02, -5.99685591e-04, 3.20874155e-02,
       6.38505369e-02, 5.86848706e-02, 8.41222983e-03, 9.72864393e-04,
       -2.91245151e-02, -1.58908293e-02, 2.27686949e-03, 8.91461875e-03,
       -8.33229721e-03, 4.21119742e-02, 7.94690922e-02, 6.03807643e-02,
       1.65727772e-02, -2.86705028e-02, -2.15076823e-02, -2.66726688e-02,
       -3.76234651e-02, 2.31598970e-03, -2.34406348e-02, -2.04759464e-02,
       -3.91053595e-02, -9.23499279e-03, -6.25877222e-03,
       -1.72018372e-02, -2.11067144e-02, -2.32291184e-02,
       -1.77785307e-02, 5.98330237e-03, 2.28976682e-02, 1.22468797e-02,
       1.66102163e-02, 5.97217791e-02, 5.00934832e-02, 1.13251815e-02,
       -1.74195990e-02, -1.97108602e-03, -8.01220350e-03,
       -1.09966183e-02, 4.27995026e-02, 4.39979956e-02, 3.39716375e-02,
       6.74118400e-02, 3.74720246e-02, -1.15666101e-02, -1.04660252e-02,
       4.49605249e-02, 4.20951545e-02, 1.41287455e-02, -1.15754139e-02,
       5.78783229e-02, 1.74688920e-02, -1.75868161e-02, -8.99693929e-03,
       -3.91608663e-03, -2.55212486e-02, -1.83053929e-02,
       -9.36137140e-03, 3.72464992e-02, 1.80691741e-02, 2.89908331e-02,
       2.25764792e-02, -2.21294928e-02, -5.38846338e-03, 1.36956451e-02,
       2.35580630e-03, -2.38817260e-02, -2.05333680e-02, -1.70319676e-02,
       3.65204513e-02, 3.59778036e-03, 3.36784660e-03, -2.10021809e-02,
       6.99458495e-02, 6.68052435e-02, 5.74107431e-02, -3.32513526e-02,
       -1.46260960e-02, -1.23153941e-03, -2.40416825e-02,
       -3.00237630e-02, -3.65648307e-02, 6.34998782e-04, 5.79662481e-03,
       1.92851350e-02, 7.82849919e-03, -3.41029018e-02, 1.18136350e-02,
       4.44564549e-03, -1.63426567e-02, 9.61515401e-03, 9.72621590e-02,
       9.64382067e-02, 7.31524006e-02, -6.39648689e-03, -3.11319716e-02,
       -2.33900007e-02, -3.13991643e-02, -4.01747189e-02,
       -2.16366332e-02, -3.05351685e-03, 2.01082174e-02, 4.02864181e-02,
       1.73225312e-03, -4.05112718e-04, 1.98310092e-02, 1.64483525e-02,
       7.78421899e-03, -2.98054088e-02, -8.79883207e-03, -2.44116541e-02,
       2.90023126e-02, 8.66306294e-03, 2.42132600e-02, 1.17804641e-02,
       -8.59005097e-03, -1.27409084e-03, -7.94970617e-03,
       -1.29522840e-02, -2.95002889e-02, -3.36332293e-03,
       -2.27927268e-02, -2.22639274e-02, 1.83893368e-03, 1.84101242e-04,
       -1.29645073e-03, -8.73563904e-03, 1.25172082e-02, 1.16386525e-02,
       5.36757782e-02, 1.42819276e-02, -9.19818121e-04, -1.17697765e-03,
       7.23854592e-03, -5.63107478e-03, -4.22483456e-04, -4.58678836e-03,
       -8.78759753e-03, 2.76649538e-02, 9.81976464e-03, 1.17696142e-02,
       2.66670026e-02, -8.59565567e-03, -1.43834986e-02, 6.70421403e-03,
       1.84462871e-03, -2.23709997e-02, 6.11332711e-04, -2.04773173e-02,
       5.72919007e-03, 8.67001526e-03, -1.37981158e-02, -3.89520428e-03,
       -2.99634319e-03, -1.29657593e-02, -1.36042368e-02, 2.49270978e-03,
       3.81443626e-03, 1.93052124e-02, 1.28807286e-02, -1.21283066e-02,
       -4.76435618e-03, -1.41617013e-02, 6.31270697e-04, 1.07610459e-02,
       5.06759174e-02, 1.03048394e-02, -5.65230520e-03, 4.22362126e-02,
       -4.84356890e-03, -2.20621892e-04, -1.50868800e-02,
       -1.42516280e-02, 1.80463232e-02, 5.23636900e-02, 1.32077429e-02,
       5.67040546e-03, 1.76214650e-02, 2.04090849e-02, 1.62578970e-02,
       -1.59406159e-02, 1.29381591e-03, -1.79742519e-02, 1.19099738e-02,
       -2.15448253e-03, -1.38181727e-02, 1.79581763e-03, 6.79762289e-03,
       5.81831206e-03, -1.85281076e-02, 7.87508558e-04, -1.99712235e-02,
       4.70197992e-03, 2.81303277e-04, 2.13275179e-02, 8.44462588e-03,
       1.69929606e-03, 4.97108651e-03, -6.40807115e-03, 1.82594191e-02,
       1.32966945e-02, 4.84686606e-02, 1.84546094e-02, -2.42506135e-02,
       1.25124780e-02, 2.09099222e-02, 6.12784817e-04, -2.94634271e-02,
       1.16561921e-02, -3.88690550e-03, 4.12832126e-02, 4.07425649e-02,
       -4.17579226e-02, 1.17101865e-02, -1.81427151e-02, 1.16085885e-02,
       -2.65937578e-02, 9.38060228e-03, -1.88156422e-02, 2.13735364e-02,
       1.95607301e-02, -3.45449746e-02, 1.75181422e-02, -4.54746485e-02,
       -1.57883372e-02, 6.03498379e-03, -1.52390888e-02, -1.90668106e-02,
       2.07024440e-03, -1.41562643e-02, 1.55405281e-02, 1.17291212e-02,
       -6.93724863e-03, 4.83431807e-03, -2.82511897e-02, 3.14541277e-03,
       6.49958011e-03, 3.64007540e-02, 5.56129403e-02, 3.29333171e-02,
       2.12011132e-02, -2.67639151e-03, 1.17215095e-02, 8.67889170e-03,
       -7.35294353e-03, -1.99937616e-02, 1.47709984e-03, 4.32302356e-02,
       9.23729595e-03, 3.16559039e-02, -1.42050637e-02, 7.93805462e-04,
       -3.42559889e-02, -2.11676285e-02, -1.79256722e-02, 1.19632073e-02,
       -1.88753307e-02, 1.64769236e-02, -1.77485384e-02, -4.22807373e-02,
       7.61964731e-03, 2.57509924e-03, -5.89930266e-03, -3.20692621e-02,
       -4.67540603e-03, 2.08016858e-03, 5.04507832e-02, 3.95967960e-02,
       8.40167142e-03, 3.07462960e-02, -1.19115328e-04, -2.25483403e-02,
       -1.25204753e-02, 8.08700360e-03, 1.57613456e-02, 1.18066352e-02,
       2.62538786e-03, -2.74258223e-03, 1.01565449e-02, -4.83024539e-03,
       -1.73417311e-02, -1.66612566e-02, -6.55430090e-03, 2.16632895e-02,
       7.93944299e-03, 1.43345129e-02, -2.42991392e-02, -4.14474588e-03,
       3.77490046e-03, -1.18227057e-04, -1.62911005e-02, 3.20984586e-03,
       1.81171503e-02, 1.14904502e-02, 8.54346063e-03, -1.99285727e-02,
       -1.18174404e-02, -2.30359118e-02, -2.97859479e-02,
       -1.23727592e-02, 3.39130983e-02, 8.22752807e-03, 4.65011504e-03,
       -1.15893479e-03, -8.39758199e-03, -2.09526927e-03,
       -9.20155924e-03, -2.25821212e-02, -2.72787139e-02, 7.49521703e-03,
       1.47986365e-03, -2.48242985e-03, -1.23933647e-02, -1.97536722e-02,
       -1.67063624e-02, -2.38181520e-02, -3.69804390e-02,
       -2.75688134e-02, 1.17060877e-02, 2.36332435e-02, -2.08052937e-02,
       -5.98637667e-03, -6.79915724e-03, -1.15659228e-02,
       -6.51865453e-03, -8.75896309e-03, -1.52071854e-02, 6.17929101e-02,
       5.18244505e-03, 2.63785049e-02, 6.06137887e-03, -1.11424802e-02,
       1.56361759e-02, 7.99439102e-03, 7.52063468e-03, -2.47193146e-02,
       2.41572000e-02, 2.34251898e-02, -1.71412472e-02, -1.76148005e-02,
       -2.95425709e-02, 1.14363944e-03, -6.50836900e-03, -2.94469036e-02,
       -2.93711368e-02, 2.04103719e-02, 5.53552643e-04, 3.01176379e-03,
       -1.52100166e-02, -1.77588779e-02, -1.02115469e-03, 9.18970350e-03,
       -8.07157601e-04, -1.83741190e-02, 1.10247675e-02, 4.63997759e-03,
       2.41283737e-02, 5.39382771e-02, -1.97421499e-02, -4.08697501e-03,
       1.01056760e-02, -3.26444069e-03, -3.55535597e-02, -2.41849193e-04,
       -4.80234483e-03, 3.26283574e-02, 4.10744920e-02, -2.47784592e-02,
       -3.42396535e-02, 1.45338997e-02, -6.39418559e-03, -1.18334694e-02,
       3.97236049e-02, -9.04975086e-03, -1.03293080e-02, -1.33462856e-02,
       -5.61712645e-02, -3.58637348e-02, -3.42595321e-03,
       -2.82584666e-03, -2.18776427e-02, 7.81610887e-03, -8.22035130e-03,
       -1.30851036e-02, -2.41222978e-03, -3.78186926e-02,
       -2.26434655e-02, -3.90289933e-03, -1.27477543e-02,
       -3.37327048e-02, 1.53205208e-02, -7.17291667e-04, -8.76148697e-03,
       2.94153485e-02, 1.23578673e-02, 2.00736858e-02, 2.35591270e-02,
       3.15079950e-02, 4.08424921e-02, 7.59040043e-02, 1.31425979e-02,
       -4.33857553e-03, 2.52106786e-02, 2.09339168e-02, -2.17855978e-03,
       1.55486455e-02, 1.45354273e-03, 2.14583594e-02, 3.78059596e-02,
       2.10950859e-02, -6.10722054e-04, 1.71413776e-02, 2.33959593e-03,
       6.10042457e-03, -1.46624278e-02, -2.24589277e-02, -7.18988129e-04,
       5.65638728e-02, 5.62175363e-03, -1.61958393e-02, 2.37550144e-03,
       -1.83817446e-02, -4.67269346e-02, 3.25161731e-03, -4.49927822e-02,
       -1.56608392e-02, 1.65964290e-02, -1.74064469e-02, 2.07465049e-02,
       2.99998745e-02, 1.55019211e-02, 6.44625649e-02, 5.01398221e-02,
       4.23536003e-02, 8.42022523e-03, 4.45704274e-02, 3.28062512e-02,
       -4.00963565e-03, -2.99803633e-02, -5.38326846e-03, 1.45943761e-02,
       1.15561271e-02, -3.66076417e-02, -3.43275405e-02, -2.58163121e-02,
       1.23680325e-03, 5.27599547e-03, 2.77175810e-02, 2.27092281e-02,
       4.31476533e-02, 5.17623685e-02, 2.84377355e-02, -2.85467645e-03,
       1.41124427e-03, 1.10761868e-02, -2.42153034e-02, -2.86961123e-02,
       -2.17410140e-02, 1.07111102e-02, -1.18233915e-03, -4.70792353e-02,
       -4.12528813e-02, -4.47339341e-02, -1.69378030e-03, 1.88089237e-02,
       -1.12817176e-02, 1.26459049e-02, 2.45710127e-02, -3.50233503e-02,
       -6.35434035e-03, -3.35786049e-03, -2.85443704e-04, 1.65091231e-02,
       -4.95013967e-03, -2.42079105e-02, -2.01013428e-03,
       -7.85547867e-03, -2.44794358e-02, 9.23802145e-04, -1.52194500e-02,
       -2.75723580e-02, -7.17092259e-03, 5.26796747e-03, -1.75883062e-02,
       1.51991082e-06, 3.32204588e-02, 7.25382520e-03, 5.72123751e-03,
       -1.02268839e-02, 1.85332838e-02, 3.46080996e-02, -2.00033728e-02,
       -2.28090063e-02, 1.98799372e-02, 3.43180113e-02, 3.05419764e-03,
       1.84901599e-02, -1.99605208e-02, -1.22061977e-02, -9.49955452e-03,
       1.01858005e-02, -1.41061088e-02, -1.62379425e-02, -9.35281068e-03,
       8.48501362e-03, 1.05794156e-02, 1.19688474e-02, -2.20556115e-03,
       -1.09208925e-02, 7.31849950e-03, 8.38861521e-03, 2.24686787e-02,
       4.83342260e-03, 1.56089931e-03, -3.89423571e-03, 1.21782161e-02,
       -6.36761729e-03, -4.26864345e-03, 1.42462216e-02, -1.75994206e-02,
       -3.50273326e-02, -3.71406344e-03, 1.90161616e-02, 4.40050103e-02,
       2.74091903e-02, 1.75398700e-02, 7.79551594e-03, 1.89701021e-02,
       1.80998014e-03, -2.51050876e-03, 2.58871671e-02, 5.53464890e-03,
       1.04336422e-02, 1.10785840e-02, 2.35331021e-02, 1.87868997e-02,
       1.42835928e-02, -1.64892878e-02, 1.67340884e-04, 1.92843396e-02,
       1.61443427e-02, -4.59103240e-03, 3.53469350e-03, 5.53672481e-03,
       1.96630545e-02, 2.04959698e-02, -3.42416652e-02, -1.44394096e-02,
       2.21180636e-03, -4.18530516e-02, 1.74054150e-02, 1.42720565e-02,
       1.48039004e-02, 4.45875414e-02, 2.42047943e-02, 6.27789693e-03,
       -1.94993429e-02, 1.40771503e-02, 3.88166355e-03, -5.32939332e-03,
       -3.23633328e-02, -8.69714096e-03, 1.92731395e-02, 8.98690801e-03,
       -2.58815149e-03, 5.27640106e-03, 1.96563099e-02, 1.40472520e-02,
       1.70357488e-02, -2.86284275e-02, -2.03568060e-02, 2.08158698e-02,
       2.13955194e-02, -2.53092535e-02, -3.85483019e-02, 9.42461193e-03,
       3.18314284e-02, 1.15511417e-02, -1.04021868e-02, -1.43933808e-02,
       1.23896217e-02, -5.37497085e-03, 2.32406761e-02, 1.03490259e-02,
       8.00231937e-03, -1.08783692e-02, 7.24155339e-04, -4.68707783e-03,
       -7.94116408e-03, -2.77687404e-02, 3.66069289e-05, -2.52404306e-02,
       -1.18937660e-02, 4.04800259e-04, 3.80516909e-02, 1.54168373e-02,
       -5.08937472e-03, -5.54604130e-03, -6.04033819e-04, 1.14397956e-02,
       6.44685095e-03, 1.88733507e-02, 4.44751000e-03, -1.70080201e-03,
       -2.39787460e-05, 1.14024617e-02, -9.29215550e-03, 2.19703205e-02,
       1.15200283e-03, 3.22701782e-02, 1.52685530e-02, -6.85960101e-03,
       -3.40561179e-04, 2.05959100e-02, 5.74471941e-03, 2.34995261e-02,
       -8.29849578e-03, -1.62486453e-02, -1.47604495e-02,
       -2.58515235e-02, -2.28107236e-02, -1.30780200e-02,
       -1.71376555e-03, -7.48880720e-03, 5.42056561e-03, 9.93483793e-03,
       5.26115857e-03, 2.01943982e-02, -6.17483165e-03, -6.67294674e-03,
       -7.84500036e-03, -1.90651920e-02, -1.37863429e-02,
       -2.36776024e-02, 3.45927873e-03, -1.05988039e-02, 1.31533220e-02,
       -2.60133371e-02, -4.71370574e-03, 1.75280236e-02, -6.89971587e-03,
       -2.27391701e-02, -1.03594465e-02, 3.19168679e-02, -1.29492646e-02,
       -5.13852201e-03, -7.38799572e-03, 1.05859898e-02, -4.74271597e-03,
       -1.16950227e-02, -3.14256288e-02, 3.46182622e-02, 4.41373773e-02,
       -2.25247703e-02, -2.72881310e-03, -4.18509502e-04,
       -1.04111088e-02, 5.47452504e-03, -9.75128077e-03, -4.13507745e-02,
       3.23796682e-02, 3.10949627e-02, -9.72903054e-03, -6.59022247e-04,
       -1.37371141e-02, -3.32713244e-03, -5.13968873e-04,
       -1.92184653e-02, -2.71340050e-02, 3.29569355e-02, 6.21498823e-02,
       -6.16724743e-03, 7.69312354e-03, -2.02292968e-02, -1.68560576e-02,
       7.45193101e-03, -2.47034952e-02, -4.00001854e-02, 2.19557453e-02,
       2.15519704e-02, -2.15783697e-02, 2.03432105e-02, 4.44239192e-03,
       2.47205440e-02, 7.68154813e-03, 6.30507420e-05, 3.86727299e-03,
       3.01065315e-02, 9.48399119e-03, -6.56683221e-02, -3.12401215e-03,
       -1.51693821e-02, 3.28157400e-03, -6.32503908e-03, -6.03974052e-03,
       1.01742577e-02, 8.41428805e-03, -2.45523043e-02, 2.59938147e-02,
       2.54144650e-02, -1.29019376e-02, 1.31320460e-02, 2.72430778e-02,
       -7.79509824e-03, -2.26410571e-02, 2.63760798e-02, 2.07378548e-02,
       1.29750287e-02, 2.37872414e-02, -1.71175245e-02, -6.09026616e-03,
       1.36623438e-02, -1.06170997e-02, -7.45442975e-03, 3.62909352e-03,
       3.37689021e-03, -1.84954540e-03, 1.47688165e-02, 7.92760961e-03,
       1.14128524e-02, -9.26523877e-04, 1.28215821e-02, 2.75231642e-03,
       2.28404589e-02, 2.22952086e-02, -1.28427129e-02, 2.17584036e-02,
       6.08248077e-03, -2.97565553e-02, -9.99891385e-03, 3.36272293e-03,
       -1.23112965e-02, 1.03978105e-02, 2.18863077e-02, 1.48840845e-02,
       1.17714573e-02, -1.04289018e-02, 8.61748867e-03, 1.44984033e-02,
       -1.20682092e-02, 6.64981129e-03, 1.07567575e-04, 1.44110359e-02,
       6.95095921e-04, 1.71347782e-02, -1.02282763e-02, -1.94445401e-02,
       3.05160042e-02, -1.87379327e-02, 1.26125105e-02, 9.83659457e-03,
       3.22054577e-04, -1.53514883e-02, 2.79463436e-02, 1.65783707e-02,
       -8.47686664e-04, -2.21306272e-02, 1.92791671e-02, -4.89618769e-03,
       1.38470158e-02, 2.86605526e-02, 3.05894716e-03, 2.73745228e-03,
       6.62724813e-03, 3.36915776e-02, -3.24117090e-03, -7.07904622e-03,
       -2.01453399e-02, 1.86542962e-02, 3.08131706e-02, 2.82353386e-02,
       2.26338822e-02, -1.27671589e-03, -2.45060250e-02, -8.45722202e-03,
       3.71187343e-03, 5.34155034e-03, -1.46474345e-02, 6.62358990e-03,
       2.13131290e-02, 2.26459093e-02, 8.07747617e-03, -1.29664997e-02,
       -8.28513689e-03, -1.74915828e-02, 7.58676464e-03, -1.43982209e-02,
       1.00044999e-02, 7.36766076e-03, 1.20859584e-02, 9.79107060e-03,
       5.13856001e-02, 5.41390106e-02, 5.32546267e-03, -2.01777667e-02,
       2.36587338e-02, 3.73756490e-03, 1.54542946e-03, 1.77556847e-03,
       3.14276014e-03, 1.08634317e-02, 3.46542546e-03, 2.25422885e-02,
       1.08522000e-02, 1.22706471e-02, 1.40478341e-02, 2.03472078e-02,
       1.69642530e-02, -1.63418222e-02, 1.54570490e-03, 1.22690918e-02,
       -1.14662899e-02, -1.86202675e-02, -8.56260303e-03, 1.12130737e-03,
       -6.94157882e-03, -3.89362639e-03, -4.00741730e-04,
       -2.41051242e-02, -2.76214741e-02, -1.58760324e-02,
       -1.23048332e-02, 9.51275346e-04, 1.76706854e-02, -1.48893921e-02,
       -4.34433715e-03, 6.37331745e-03, 3.84099483e-02, 8.19331035e-05,
       1.98439416e-02, -5.39879827e-03, 2.73905396e-02, 1.31036052e-02,
       -2.98868325e-02, -1.34280762e-02, -1.91404782e-02, 2.35488228e-02,
       -8.04537069e-03, -1.36156613e-02, -4.96482663e-03, 2.95223966e-02,
       6.96922839e-03, -1.33790756e-02, 1.32291028e-02, 1.28112361e-02,
       4.94712498e-03, -2.32333466e-02, -1.88064878e-03, -2.13109143e-02,
       -4.94520552e-03, -5.32526057e-03, -3.04962844e-02,
       -1.57714002e-02, -2.29172781e-03, 1.02116102e-02, -2.61114687e-02,
       -2.02063527e-02, -1.91625264e-02, -1.13238683e-02,
       -2.64203995e-02, -8.71198718e-03, 6.89269882e-03, -9.97110386e-04,
       2.40740869e-02, 2.34141778e-02, -4.40358045e-03, -1.28024223e-03,
       2.01294720e-02, -4.08378011e-03, 5.58434566e-03, 6.29735179e-03,
       1.62428357e-02, 2.75817700e-02, 9.60685220e-03, 2.12245006e-02,
       -4.55176545e-04, 1.76360421e-02, 1.01818601e-02, -2.66387295e-02,
       1.91688701e-03, -1.12729575e-02, -2.73012696e-03, 2.12619477e-03,
       -9.80602670e-03, -1.18677486e-02, 1.36126135e-03, -3.15033235e-02,
       1.06622418e-02, 2.08458994e-02, -1.36835817e-02, -3.81070338e-02,
       -2.70011928e-02, 5.06611820e-03, -1.86104402e-02, -1.01452209e-02,
       -4.66938922e-03, -1.71685911e-04, -1.36740636e-02,
       -1.83366239e-02, 9.82093159e-04, 8.72786995e-03, 2.37889439e-02,
       -9.41202324e-03, 1.36329336e-02, 3.53238806e-02, -1.89595181e-03,
       9.71700251e-03, 1.80091406e-03, 2.80389357e-02, 3.91950918e-04,
       6.69496693e-03, -2.40872633e-02, 1.33690033e-02, 1.37012443e-02,
       3.34022045e-02, 5.79916313e-03, -2.01974139e-02, -6.20643795e-03,
       -9.02967155e-03, 1.81289408e-02, 3.96932103e-03, -1.75172202e-02,
       2.12831553e-02, -2.38938536e-02, -1.48926917e-02, -3.33873741e-02,
       -2.65018810e-02, 2.15628141e-04, -2.13747099e-02, -1.05833448e-02,
       -6.39747689e-03, 9.21764597e-03, -1.61229745e-02, 2.60963012e-02,
       1.42193772e-03, 4.90402803e-02, 3.65492590e-02, 6.11666357e-03,
       -2.81037414e-03, 1.66240893e-02, 4.63180477e-03, 1.52530912e-02,
       2.32117586e-02, -2.54834606e-03, 1.28622102e-02, -9.19737970e-04,
       -6.29307609e-03, 4.39402601e-03, 2.50746608e-02, 3.80788334e-02,
       -1.25905536e-02, 1.86359920e-02, -2.28603035e-02, -1.46413902e-02,
       2.33152527e-02, -7.86583312e-03, -5.94011694e-03, -1.23845637e-02,
       -1.06253254e-03, -2.19011754e-02, -1.27525432e-02,
       -2.14998759e-02, -1.78582687e-02, 7.40954699e-03, -3.64002511e-02,
       -1.62697006e-02, -3.77667062e-02, -5.17191412e-03, 1.89949118e-03,
       1.19756358e-02, 1.88104790e-02, 5.12573235e-02, 5.20775830e-05,
       1.80813707e-02, 1.14952037e-02, -3.09357909e-03, 1.29795000e-02,
       -5.45609742e-03, 1.41099924e-02, -1.42246652e-02, -1.75453874e-03,
       5.21422550e-03, -4.95037646e-04, -1.04602808e-02, -3.38632278e-02,
       -1.36283450e-02, -1.04442425e-03, -1.25188250e-02,
       -2.82124383e-04, 1.05578732e-02, -1.11150239e-02, -1.46123087e-02,
       9.40938294e-03, -1.45389540e-02, 1.12452405e-02, 5.21257380e-03,
       3.97870690e-03, -1.25034666e-02, -2.50789840e-02, -7.44203571e-03,
       4.30879212e-04, 5.79884648e-03, -4.12562164e-03, -4.57602029e-04,
       1.84211433e-02, 7.69706815e-03, -1.45510994e-02, -2.34457329e-02,
       -2.64712516e-02, 4.36495803e-03, 1.55395968e-02, 1.04963705e-02,
       1.71209034e-02, -8.78104195e-03, -1.07931569e-02, 5.12503181e-03,
       -3.63734700e-02, -3.64260515e-03, 2.77200099e-02, -8.52410740e-04,
       -2.38934252e-02, 5.12677105e-03, 4.81924880e-03, 2.56097969e-03,
       3.50154308e-03, -3.80251236e-04, -4.62429645e-03, 1.39447376e-02,
       1.27535639e-02, 2.25454662e-03, -2.04053451e-03, 1.03241177e-02,
       -2.17238776e-02, -6.85765548e-03, 7.24284677e-04, 6.86220359e-03,
       1.29464325e-02, -7.05465628e-03, -3.04782838e-02, 1.58510469e-02,
       3.04796267e-03, -1.84290782e-02, -2.52799466e-02, 1.41118106e-03,
       3.38489711e-02, 4.31390144e-02, 5.49559831e-04, -8.38566478e-03,
       2.37907004e-02, -3.43858334e-03, 8.85846466e-03, -1.02401385e-03,
       3.04357801e-02, 1.10951588e-02, 3.60406749e-02, 1.49822338e-02,
       -3.04879225e-03, 1.45709496e-02, 3.14872041e-02, -6.17955904e-03,
       -5.13787195e-03, -2.87868944e-03, 4.48720120e-02, 1.23642171e-02,
       -1.86063200e-02, -3.90437357e-02, 2.11034957e-02, 1.66586675e-02,
       9.06502735e-03, -3.42350500e-03, 5.59783466e-02, 2.03581732e-02,
       5.42940246e-03, 4.97304881e-03, -1.16859637e-02, 2.63572112e-02,
       -2.23383326e-02, -2.90608197e-03, 3.81247420e-03, 8.23968672e-04,
       1.13135874e-02, 2.31131539e-02, 8.67490284e-03, -5.16002765e-03,
       -7.09974580e-03, -1.25752599e-03, -7.09140720e-03, 1.60957768e-03,
       8.28334317e-03, -2.12720409e-03, 1.15283420e-02, 1.99402701e-02,
       9.38092358e-03, 2.29451656e-02, 3.28764543e-02, -5.99517627e-03,
       -2.27278005e-03, 1.52363032e-02, 2.66643930e-02, -1.21575678e-02,
       7.12088402e-03, -9.67711769e-03, 1.46839088e-02, 1.16636157e-02,
       3.67932133e-02, 1.13249908e-03, 7.28251459e-03, 5.45231393e-03,
       1.50546571e-02, 9.13409051e-03, -2.83138119e-02, 2.19345260e-02,
       -3.57121113e-03, -6.99572498e-04, 1.00968694e-02, -5.04090916e-03,
       -7.49898423e-03, -1.35708200e-02, 1.25498995e-02, 1.72150973e-02,
       -8.24589655e-03, -3.61448224e-03, -3.24337481e-04, 4.38142046e-02,
       8.11270624e-03, -5.38636697e-03, 1.12024741e-02, 6.09733537e-03,
       1.10864835e-02, 1.41900720e-03, -1.12160938e-02, 2.22524796e-02,
       1.06234085e-02, 4.12997380e-02, 2.00630669e-02, -9.83088464e-03,
       -4.64876043e-03, 3.85469873e-03, 1.22131761e-02, 2.91678309e-02,
       5.40530216e-03, 1.80528276e-02, 2.46693958e-02, 4.55167756e-05,
       1.15441643e-02, 1.48301953e-02, 1.52654620e-02, 2.03845520e-02,
       -1.50571745e-02, 8.89658555e-03, 1.28004067e-02, -7.99697451e-03,
       1.24275535e-02, 9.80626233e-03, 1.71526168e-02, 7.77876936e-03,
       -2.21916940e-03, -2.02374440e-02, -2.74080143e-04,
       -1.83176696e-02, 5.36241475e-03, -1.33721968e-02, -1.26157925e-02,
       -5.63623011e-03, -2.69348617e-03, 8.35400354e-03, 1.68743599e-02,
       -1.44716362e-02, 3.09584988e-03, 1.14350505e-02, 2.92596931e-04,
       5.83651382e-03, -4.57218895e-03, 2.38478817e-02, 2.56437361e-02,
       1.03977304e-02, -3.13409837e-03, -2.66972017e-02, -4.48111771e-03,
       -1.49692493e-02, -1.16332946e-02, -2.33360976e-02, 1.31590879e-02,
       -3.77192185e-03, -2.59008016e-02, 9.93753970e-03, 1.99125172e-03,
       2.35827640e-02, 9.67161788e-04, 5.72671648e-03, -9.70330276e-03,
       2.74797231e-02, 8.86277203e-03, -2.60867607e-02, 1.06049655e-02,
       -1.06503172e-02, -1.38633586e-02, -7.65927089e-03, 2.47397576e-03,
       -1.81967858e-02, -5.36825275e-03, -9.51609854e-03, 9.78647079e-03,
       3.10739186e-02, -4.30715922e-03, 2.87855789e-02, 2.12255437e-02,
       -6.40075468e-03, -3.76814567e-02, 2.95734257e-02, -7.72857852e-03,
       -2.67710956e-03, -4.38183127e-03, -1.35253998e-03,
       -2.09229924e-02, -1.92387891e-03, -1.31328404e-02,
       -2.16768142e-02, 8.10123701e-03, 4.79317782e-03, -9.95264668e-03,
       2.63353214e-02, -1.65872425e-02, 2.37197466e-02, 1.62020139e-02,
       1.94719508e-02, -1.55453626e-02, 4.77304030e-03, 1.81201156e-02,
       -5.20167826e-03, 1.81401372e-02, -1.72209945e-02, -2.15156842e-02,
       6.69763889e-03, 2.11992487e-03, -1.41231073e-02, 3.14849913e-02,
       6.13444019e-03, -1.18099607e-03, 1.39000611e-02, -1.20402372e-03,
       -4.54252632e-03, 1.69653073e-02, 9.66939237e-03, -1.58940144e-02,
       -1.37644960e-02, 3.33310477e-03, -3.25759221e-03, 1.21813929e-02,
       -1.17348237e-02, -4.36126851e-02, 1.06384577e-02, 4.20397613e-03,
       -3.49318609e-02, -1.39624262e-02, -1.21595226e-02, 1.18054252e-03,
       -2.17509631e-04, 1.30954548e-03, 2.09997687e-02, 2.30884440e-02,
       3.71920876e-02, -6.38084440e-03, 5.91252698e-03, 5.92039153e-03,
       -3.41102146e-02, -1.94735471e-02, -2.73535177e-02,
       -5.68836462e-03, 1.80188306e-02, 9.20070149e-03, -4.78389062e-04,
       2.47629657e-02, -4.01516296e-02, 3.48719215e-04, 1.92516278e-02,
       -2.20234552e-03, -1.37253059e-02, 2.80829091e-02, 3.41400765e-02,
       -2.15927046e-02, 6.35588123e-03, -9.00447182e-03, -7.72511167e-03,
       1.49660194e-02, -2.71456968e-02, -1.31057445e-02, 2.71205418e-02,
       1.30455634e-02, -1.53885810e-02, 8.83358996e-03, 5.07591059e-03,
       -1.02876371e-03, 5.76510094e-03, -1.26360208e-02, 8.50629061e-03,
       -3.18158331e-04, 1.47770392e-02, 2.82802228e-02, 3.82702947e-02,
       8.98505095e-03, -3.50195775e-03, 1.25768492e-02, -3.30415834e-03,
       8.33369908e-04, -2.85818353e-02, 2.22075940e-03, -2.61874311e-03,
       -1.23596154e-02, -2.92601213e-02, 3.57109308e-03, 2.59873848e-02,
       -1.68024562e-02, 1.63998567e-02, -1.07828891e-02, 1.37598878e-02,
       6.45826524e-03, 9.09879245e-03, 1.99450850e-02, -8.00123531e-03,
       2.47088578e-02, -3.18902917e-02, 5.09258185e-04, 1.79521181e-03,
       -2.78733391e-02, -1.91894379e-02, -2.20262678e-03, 7.76804378e-03,
       1.04536219e-02, 3.88709921e-03, 1.81719032e-03, 3.66576687e-02,
       -3.34931538e-03, 6.92736683e-03, 1.18060010e-02, -2.49030814e-02,
       -2.05575842e-02, -1.51859755e-02, -1.36237619e-02,
       -9.17109475e-03, -3.26988026e-02, -1.34960553e-02,
       -7.84373668e-04, 2.52101552e-02, 1.23419063e-02, -9.32268891e-03,
       2.11249683e-02, 4.79916222e-02, -9.74649843e-03, 1.68789756e-02,
       1.88591946e-02, 1.13395015e-02, 4.18078707e-04, -7.36252125e-03,
       -3.37674213e-03, -1.06824366e-02, -1.20964600e-03,
       -1.48027791e-02, -5.56199811e-03, -8.80152103e-04,
       -4.85204533e-03, -8.11444595e-03, -4.89904173e-03,
       -9.15962458e-03, -6.86227286e-04, 2.16604229e-02, 2.93908105e-03,
       1.34355566e-02, -1.94071990e-03, 2.36666240e-02, 1.08773448e-02,
       1.43461088e-02, 1.46125304e-02, 1.56238871e-02, 1.40063260e-02,
       -1.94277719e-03, 1.25067150e-02, 2.61607091e-03, 2.12501101e-02,
       1.50434003e-04, 7.46402564e-03, -1.35310348e-02, 2.33341716e-02,
       -2.15845443e-02, -1.72206257e-02, -9.56988521e-03,
       -4.74845245e-03, -1.32625019e-02, -3.10396031e-02,
       -1.31519027e-02, -2.37691728e-03, 1.37054110e-02, -1.44075872e-02,
       -1.82015449e-02, 9.86555009e-04, 1.83726195e-02, -2.96285618e-02,
       -2.88263205e-02, -2.48358510e-02, 9.13827587e-03, -1.11391500e-03,
       3.06182075e-02, 7.22837693e-04, 7.94931222e-03, -2.40962487e-02,
       1.95629206e-02, 1.30379479e-02, 8.76595080e-03, -5.52550238e-03,
       9.02766362e-03, 4.03620079e-02, 1.79050975e-02, -5.59894106e-05,
       -2.20940728e-02, 2.08005961e-02, 4.14203736e-04, -4.09615738e-03,
       -2.66355020e-03, 1.40667930e-02, 1.90655831e-02, -1.00418217e-02,
       -3.88699002e-04, 2.92729028e-03, -4.29725833e-03, -2.47532893e-02,
       -5.46125323e-03, 3.52623919e-03, 1.01786098e-02, 3.35057732e-03,
       -8.71303771e-03, -2.00485382e-02, 3.56321642e-03, -3.18591506e-03,
       -1.29507957e-02, -2.52566533e-03, 4.22792230e-03, 1.44158199e-03,
       9.42375604e-03, -7.96998665e-06, 2.17427667e-02, -6.22266019e-03,
       3.98137346e-02, 1.36810762e-03, -3.81104229e-03, 7.23336358e-03,
       -1.38060199e-02, -2.33254228e-02, -3.53249609e-02,
       -2.37644417e-03, -1.20642292e-03, 7.28446851e-03, 7.29904277e-03,
       -4.46575880e-03, -1.06429076e-02, -3.49540287e-03, 4.80180420e-03,
       -3.00701540e-02, -2.21295543e-02, 5.40032750e-03, 1.88446734e-02,
       1.41981905e-02, -1.65185239e-02, -1.96555797e-02, -5.99240931e-03,
       2.82677598e-02, -3.95904221e-02, -2.23193914e-02, -1.22226076e-02,
       -1.32414466e-02, -1.67556256e-02, 3.15042329e-03, -7.67408358e-03,
       -5.21693984e-03, 2.86437050e-02, -1.97206344e-02, 1.81325171e-02,
       3.52087356e-02, 3.83564346e-02, 2.32518651e-02, 7.14588305e-03,
       1.89810782e-03, -2.95308996e-02, 1.30529422e-02, 7.70768989e-03,
       -5.94367739e-04, -4.11712239e-03, 5.83818043e-03, 1.08953333e-02,
       2.13919957e-05, -6.39901729e-03, 4.97291936e-03, 1.82363857e-02,
       -1.66994780e-02, -3.25433328e-03, -1.22856554e-02, 2.54246462e-02,
       5.33884391e-03, 2.22363267e-02, -1.12390472e-02, -2.59530693e-02,
       -1.49018706e-05, -7.19461497e-03, -4.35665809e-02, 3.82079161e-03,
       -1.91997513e-02, -1.87015273e-02, -2.49853102e-03,
       -1.21745151e-02, -1.85302254e-02, -2.10847612e-03, 1.06421821e-02,
       1.68323331e-02, 1.36739165e-02, 1.32801514e-02, 8.23914446e-03,
       1.68923903e-02, 3.29754606e-04, -2.44185468e-03, -3.30052152e-03,
       -5.96828526e-03, 3.89764598e-03, 2.08458528e-02, -3.60469986e-03,
       1.95057336e-02, -1.24171982e-02, -1.11184018e-02, -8.79152026e-03,
       3.11958939e-02, -3.48705263e-03, -1.02326004e-02, 1.31348483e-02,
       8.06419458e-03, -7.11501401e-04, 1.89665072e-02, -6.35093963e-03,
       9.38221626e-03, 5.95552847e-03, -4.16367762e-02, -8.18826910e-03,
       2.98315920e-02, 1.28780259e-02, 9.52210743e-03, -2.67427089e-03,
       -1.56044606e-02, -1.36865000e-03, -7.58925499e-03, 1.16390537e-03,
       1.86117627e-02, -1.69924218e-02, -1.81086622e-02, -3.29550938e-03,
       -2.63039321e-02, -9.41783469e-03, 2.56561465e-03, -1.58073194e-02,
       1.76423148e-03, 1.87996160e-02, -1.79291610e-02, -1.48638310e-02,
       -3.86655591e-02, -4.06440981e-02, 1.35223754e-02, 1.14457915e-02,
       8.48633610e-03, -7.41057005e-03, -1.65925932e-03, -4.58599348e-03,
       5.79545368e-03, -7.84706417e-03, -3.44788120e-03, 4.00502933e-04,
       2.13898327e-02, 2.27612685e-02, -7.38256192e-03, -9.15199332e-03,
       7.71157071e-03, 3.13976444e-02, -2.80293487e-02, -3.83481048e-02,
       2.56184805e-02, -1.43740773e+00 ]
