%YAML:1.0
---
myHogDector_2: !!opencv-object-detector-hog
   winSize: [ 64, 128 ]
   blockSize: [ 16, 16 ]
   blockStride: [ 8, 8 ]
   cellSize: [ 8, 8 ]
   nbins: 9
   derivAperture: 1
   winSigma: 4.
   histogramNormType: 0
   L2HysThreshold: 2.0000000000000001e-01
   gammaCorrection: 1
   nlevels: 64
   signedGradient: 0
   SVMDetector: [ 3.32951322e-02, -4.00675647e-02, -2.23865341e-02,
       1.70856267e-02, 2.26203203e-02, -3.76177323e-03, 5.40993223e-03,
       -3.36857862e-03, 4.76897620e-02, 4.05685939e-02, -1.61597636e-02,
       1.49827227e-02, -1.24081364e-02, 1.00706648e-02, 1.54294735e-02,
       1.26009015e-02, 1.17338337e-02, 2.18286086e-02, 3.62166273e-03,
       -1.50369685e-02, -7.87241850e-03, 1.50415590e-02, -1.03552015e-02,
       -3.24329827e-04, -1.19811567e-02, -2.09216140e-02, 1.41654741e-02,
       -5.77996206e-03, -1.41848959e-02, 1.06742568e-02, 1.13363806e-02,
       -2.36584991e-02, 1.58214271e-02, -4.25116019e-03, -2.77272705e-03,
       -1.88176148e-02, 1.10163288e-02, -1.72610935e-02, 2.31125355e-02,
       3.84084973e-03, 1.74984112e-02, 2.64553037e-02, -2.62011657e-03,
       1.37325870e-02, 2.15089470e-02, 1.10228779e-02, -1.40433945e-02,
       3.76593843e-02, 2.41426211e-02, 2.11486127e-03, 7.81535078e-03,
       1.63450744e-02, 2.17590313e-02, 1.19442921e-02, 6.82886969e-03,
       -4.18960210e-03, 1.18369870e-02, 1.18979476e-02, 9.77798831e-03,
       1.77120548e-02, -2.86250301e-02, -5.55259502e-03, -1.35025950e-02,
       3.47800143e-02, -6.35194359e-03, -1.50245605e-02, -1.91694315e-04,
       -1.66133884e-02, 2.76540648e-02, 1.22107845e-02, -1.86594781e-02,
       3.30761895e-02, 2.74794456e-03, 1.77139346e-03, 2.71072295e-02,
       1.38140386e-02, 1.10330526e-02, 3.86018399e-03, 1.68759003e-02,
       2.26672203e-03, -3.99181619e-02, 2.78116278e-02, 2.17292807e-03,
       1.07114967e-02, 6.62059570e-03, 3.62279117e-02, 1.09000187e-02,
       2.80308779e-02, -1.00297877e-03, 8.09896085e-03, -7.38797570e-03,
       1.91746873e-03, 9.00422689e-03, -6.64044963e-03, -2.88649742e-02,
       4.77110781e-03, 1.33800684e-02, 4.78704553e-03, -1.90296711e-03,
       -3.02885612e-03, -2.15018131e-02, -3.02560348e-03,
       -8.44403077e-03, -3.72731127e-02, -1.38006052e-02, 2.56209597e-02,
       3.19340974e-02, -4.90212487e-03, 1.89956203e-02, -3.42237996e-03,
       3.01807933e-03, 4.55127005e-03, 2.14701369e-02, 1.53418565e-02,
       5.10353828e-03, -1.26577439e-02, -8.54917150e-03, 1.18424762e-02,
       1.42334634e-02, -3.24538630e-03, -2.51139572e-04, -2.82465704e-02,
       -8.03166162e-03, -3.58762546e-03, -8.13608337e-03,
       -1.11066308e-02, -2.28739245e-05, -1.56930983e-02, 1.37407966e-02,
       8.87281421e-05, -6.37502829e-03, -4.85006999e-03, 6.02508150e-03,
       1.66267343e-02, -2.60856468e-02, -1.06975464e-02, -5.71808778e-03,
       4.51843673e-03, -1.83114372e-02, -2.71040518e-02, 3.61538841e-04,
       -4.74048918e-03, 8.86331219e-03, 2.17033536e-04, 2.83068465e-03,
       3.15310284e-02, -4.71466035e-03, 1.04039563e-02, 9.95789468e-03,
       -2.36687306e-02, -9.34126973e-03, 9.39883105e-03, 2.75676185e-03,
       -1.52308643e-02, -2.99565750e-03, -3.66652608e-02,
       -7.82590546e-03, 2.18703598e-02, -3.01443543e-02, -1.07537983e-02,
       1.42830154e-02, 1.93434767e-02, 1.35848671e-02, 3.93033177e-02,
       -4.47824365e-03, 1.92272605e-03, -4.36769519e-03, 1.44779030e-02,
       1.52171832e-02, 3.55181694e-02, 7.81301688e-03, -1.35229658e-02,
       1.51090277e-02, -2.53700521e-02, -1.62738264e-02, -2.11210153e-03,
       -2.22387854e-02, -5.00614243e-03, -3.87795665e-03,
       -1.83886557e-03, -2.26313714e-02, -1.00907469e-02,
       -2.95585487e-02, 1.49352103e-02, 1.78195443e-02, 1.21871727e-02,
       -1.91504101e-03, 2.29982045e-02, 5.75632369e-03, -1.81717593e-02,
       -7.20521947e-03, -1.64262541e-02, 1.50863198e-03, -1.34160677e-02,
       -1.63081829e-02, -1.71494372e-02, 1.55609436e-02, -7.65374396e-03,
       4.26083012e-03, 1.26224561e-02, -1.59807391e-02, 3.65652554e-02,
       -4.56100842e-03, 2.86581889e-02, 3.42992530e-03, -3.28776613e-03,
       -1.47232916e-02, -1.77097674e-02, 2.00804397e-02, -4.96820407e-03,
       3.53761110e-03, -2.49726581e-03, -1.03062149e-02, -1.98369846e-02,
       -7.32262386e-03, -8.24732147e-03, 5.43220481e-03, 1.31462691e-02,
       -1.92749575e-02, 3.42494575e-03, 3.49665992e-02, -1.94389671e-02,
       -1.82580911e-02, 2.65383087e-02, 3.47037502e-02, -5.27022500e-03,
       -1.93247497e-02, -5.49450517e-02, -1.22318724e-02, 2.82773040e-02,
       -2.65096314e-02, -2.83834208e-02, 1.44063132e-02, -2.11875071e-03,
       1.31822180e-03, -4.64481488e-03, 9.07090493e-03, 2.84852460e-02,
       2.34171096e-02, 7.06861785e-04, -1.66291203e-02, 2.52443720e-02,
       9.94938612e-03, -2.75889467e-02, -2.07876414e-02, 4.79001639e-04,
       -1.44855548e-02, 2.95817014e-02, -5.92685828e-04, -4.49797064e-02,
       4.25484916e-03, 3.66123486e-03, 1.14828325e-03, -1.16520682e-02,
       -2.44582277e-02, 1.28425090e-02, 2.20426153e-02, 1.26885576e-02,
       -8.55274312e-03, 1.32329166e-02, -2.22087484e-02, -1.40395192e-02,
       -9.06221010e-03, -2.20589396e-02, -3.25418822e-02, 8.04745127e-03,
       1.76035240e-02, -7.94521999e-03, 3.76651809e-02, -1.39713883e-02,
       -1.13567966e-03, -3.56297661e-03, 7.77186779e-03, 1.62888207e-02,
       2.06132662e-02, 3.96729559e-02, -2.11520772e-02, 2.96820421e-02,
       4.96213976e-03, -1.69394575e-02, -1.53385065e-02, -4.16211821e-02,
       -1.30417012e-02, -2.74046622e-02, -2.45318841e-03,
       -2.88714399e-03, 1.77428983e-02, -1.66057236e-03, -1.76120643e-02,
       3.78243485e-03, -4.89972020e-03, -4.42751404e-03, 2.98488187e-03,
       6.14705868e-03, -9.28144623e-03, 2.93404944e-02, 6.86787954e-03,
       -1.00500183e-02, -1.54273501e-02, -3.03934608e-03, 8.91200174e-03,
       -1.17609953e-03, 6.17841142e-04, -1.97392777e-02, -3.75430728e-03,
       -8.28704052e-03, -1.28173549e-02, -2.20806934e-02,
       -5.78688784e-03, 1.09492680e-02, 2.43176677e-04, -1.16925528e-02,
       1.53313868e-03, 1.92738324e-02, 6.97250012e-03, -3.38831358e-02,
       -2.11834460e-02, 1.54121807e-02, 1.38009582e-02, 9.87256691e-03,
       -1.37422429e-02, -1.70583706e-02, -1.68110970e-02,
       -9.16772150e-03, -2.17508934e-02, 4.41879407e-03, -1.04895476e-02,
       2.10837112e-03, -2.25082524e-02, 2.56826403e-03, -1.81890614e-02,
       -1.22247860e-02, -7.82617368e-03, 4.31784010e-03, -3.57027724e-03,
       -2.51410492e-02, -1.68555304e-02, -1.56820547e-02,
       -4.28243913e-03, -2.59093810e-02, -1.53441466e-02, 9.47719999e-03,
       1.42788468e-02, 8.68218206e-03, 4.43589222e-03, 1.22853676e-02,
       -1.77845005e-02, 2.24664789e-02, 1.79616399e-02, 7.15354225e-04,
       1.60019239e-03, 6.45163516e-03, 3.57865915e-03, -2.88018375e-03,
       2.52541620e-02, -1.76579673e-02, -1.83237647e-03, -1.12230256e-02,
       6.66136714e-03, 2.44206213e-03, 2.12629028e-02, 2.58918409e-03,
       -2.83416770e-02, 3.16833030e-03, 1.70044252e-03, 3.22449137e-03,
       5.81235113e-03, 2.44690012e-02, 2.97412705e-02, -1.54855987e-02,
       5.06548351e-03, -2.77668834e-02, 4.05118661e-03, -8.74141324e-03,
       -2.30204239e-02, -2.33788975e-02, 1.05417790e-02, -6.36713160e-03,
       2.45843828e-03, -1.13809491e-02, 4.01319144e-03, 3.71751115e-02,
       1.14971185e-02, 1.62689909e-02, -8.07330105e-03, 3.55969146e-02,
       -1.74148148e-03, -1.73465610e-02, -1.40408836e-02,
       -1.62011869e-02, 2.06786431e-02, -3.06058722e-03, -2.37553194e-03,
       -1.53370099e-02, -1.57933202e-04, -2.52630358e-04,
       -2.18200069e-02, 1.22387893e-02, -1.26503175e-02, 7.40796654e-03,
       4.10576724e-03, -8.23737588e-03, -3.10378056e-02, 1.56420153e-02,
       -4.72085876e-03, -1.00403568e-02, -6.66611083e-03,
       -3.22415456e-02, -2.75694877e-02, 7.92612729e-04, -1.54011920e-02,
       -3.53711359e-02, -4.50068433e-03, -9.48016904e-03, 9.15144943e-03,
       1.38002206e-02, -9.25409980e-03, 3.61516513e-02, 1.92859024e-02,
       2.97206491e-02, 2.10868865e-02, 1.93948746e-02, -4.34107991e-04,
       -2.58278586e-02, -1.07274717e-02, -3.15318466e-03,
       -1.28661403e-02, 2.21093670e-02, 2.88833771e-02, -1.09098982e-02,
       -6.50162459e-04, -1.65893845e-02, 4.54881694e-03, 2.41298135e-03,
       -2.14318209e-03, 1.82963479e-02, -9.61815380e-03, -9.52425227e-03,
       -2.27929559e-02, -1.86411496e-02, 6.43901527e-03, 6.48191059e-03,
       -2.61162437e-04, -2.27768123e-02, -1.60944089e-02,
       -1.72854662e-02, 3.91896395e-03, 5.74595807e-03, 2.06918977e-02,
       3.84824607e-03, 1.09316350e-03, 1.16641205e-02, 2.90268995e-02,
       2.71472894e-02, 4.90576774e-03, 2.70233825e-02, 9.32155922e-03,
       3.03529128e-02, -1.65707190e-02, 4.33861278e-03, -1.20686572e-02,
       1.34514999e-02, -2.75377976e-03, -1.08516868e-02, 1.20454235e-02,
       2.97748134e-03, 9.03492048e-03, -2.37320270e-02, -2.79443315e-03,
       2.53416989e-02, 1.62282661e-02, 2.99783237e-02, 2.40939553e-03,
       -1.37591586e-02, -1.89665128e-02, 4.15616184e-02, 2.35967021e-02,
       1.47650705e-03, 8.31333082e-03, -2.38985114e-04, 2.15563644e-02,
       7.63342367e-04, 1.10126454e-02, -3.13720331e-02, -1.83373690e-02,
       4.88641113e-03, -1.06535023e-02, -3.41195869e-03, 1.24989059e-02,
       6.59201574e-03, -1.28369667e-02, 4.23781248e-03, -1.08281402e-02,
       -6.77165296e-03, -9.77421831e-03, -1.25305550e-02,
       -9.32694506e-03, 2.82430518e-02, 2.04827767e-02, -2.41032871e-03,
       1.70984939e-02, -3.20800841e-02, -3.09567805e-03, -8.60057678e-03,
       3.14704468e-03, -2.60932148e-02, -5.51921017e-02, 1.41239017e-02,
       -1.67258289e-02, 1.94594730e-02, -1.11176362e-02, -4.86815441e-03,
       2.68879179e-02, 3.46300825e-02, -1.47612058e-02, -2.66267024e-02,
       2.80919895e-02, -4.41870652e-02, -2.58887000e-02, -7.17814965e-03,
       9.37459804e-03, 1.32618528e-02, -9.29814763e-03, -1.44306887e-02,
       -2.88249762e-03, 3.09691485e-02, -1.76636607e-03, 3.37133035e-02,
       -2.42100339e-02, -5.32315299e-03, 2.31024679e-02, 2.88390908e-02,
       -1.25808278e-02, 6.57110056e-03, 6.51731994e-03, -1.30236885e-02,
       1.26067689e-02, 7.71062681e-04, -1.85465328e-02, 7.61609350e-04,
       3.37564498e-02, 1.85445606e-04, -6.21515512e-03, 1.65697038e-02,
       1.68173481e-02, 1.21125495e-02, -1.85072739e-02, -1.78980455e-02,
       2.07535494e-02, 4.10730839e-02, 1.34194372e-02, 2.24960670e-02,
       1.69731136e-02, -2.31866026e-03, 1.93721708e-02, 6.15535211e-03,
       -9.19909962e-03, 2.68825237e-02, 5.72920358e-03, -1.23629533e-02,
       1.22958631e-03, 1.89693812e-02, 1.71918515e-03, -3.44271946e-04,
       6.42420305e-03, 2.73624389e-03, 9.68878437e-03, 1.36108492e-02,
       -8.84897262e-03, 3.02674342e-02, 6.04380947e-03, -1.57249831e-02,
       1.76948737e-02, 3.44386734e-02, 1.93403475e-02, 1.13120768e-02,
       2.35510953e-02, -1.01608168e-02, -1.22163293e-03, -1.77708431e-03,
       1.87781658e-02, 9.90428589e-03, -3.31910625e-02, -1.68318991e-02,
       2.10545324e-02, 3.22692730e-02, -1.93991531e-02, -7.59804249e-03,
       -9.77439433e-03, 1.01382369e-02, 2.41592824e-02, -1.84376575e-02,
       -2.28745602e-02, 2.69339271e-02, -7.66056078e-03, -6.88950205e-03,
       1.50545072e-02, -2.01185010e-02, 5.31693455e-03, 2.51836535e-02,
       6.94283657e-03, -9.51712765e-03, 2.20393874e-02, 1.08794579e-02,
       -1.48806977e-03, 5.82475169e-03, -1.80839431e-02, -3.20239849e-02,
       6.97948458e-03, 7.07438961e-03, -9.04657040e-03, 1.37573294e-02,
       -1.79331601e-02, -2.04020906e-02, 2.86065531e-03, 2.58383155e-03,
       3.82706821e-02, 1.16173560e-02, 3.87321576e-03, -2.23835856e-02,
       -3.48602235e-03, -5.83471404e-03, -8.47424101e-03, 7.51101039e-03,
       -5.75265195e-03, 7.78356055e-03, 5.13212569e-03, 2.24587191e-02,
       2.25401521e-02, 3.56618222e-03, -4.50924085e-03, -6.49102731e-03,
       5.94805751e-04, -2.31492729e-03, 3.23441960e-02, 2.72624306e-02,
       -3.92247894e-04, -2.52729040e-02, 1.62455812e-02, -2.95456275e-02,
       -3.28981504e-02, -1.99932195e-02, 5.26785245e-03, -1.09204147e-02,
       1.80215165e-02, 8.31021753e-04, -2.36755307e-03, -3.07007283e-02,
       -1.84418727e-02, -2.62088072e-03, -6.32657902e-03,
       -3.08655687e-02, 1.33941285e-02, -1.80605259e-02, -1.57450549e-02,
       3.63613572e-03, -2.74454281e-02, 1.18026705e-02, 1.75550487e-02,
       -2.15522796e-02, -1.77819356e-02, 3.04760858e-02, 1.17345629e-02,
       -1.46122621e-02, 2.52849655e-03, -7.70923262e-03, 9.59486206e-05,
       1.94445476e-02, 2.45009270e-02, 1.36172995e-02, -3.83129250e-03,
       -2.09349934e-02, 1.62722718e-03, 1.26054361e-02, -1.16217965e-02,
       9.95023269e-03, 1.78819336e-02, -1.09863766e-02, 3.45200626e-03,
       4.43816278e-03, -1.27435029e-02, 3.99384880e-03, 3.73475580e-03,
       -2.20144875e-02, 2.26907879e-02, 5.51113561e-02, -6.15561102e-03,
       -2.08001658e-02, 1.85539499e-02, -5.61011862e-03, -7.64186401e-03,
       -4.51269187e-03, -2.34935991e-02, 1.63140800e-02, 6.47941604e-03,
       -3.87267806e-02, -3.37029323e-02, 7.03940750e-04, -2.36917716e-02,
       -2.36155540e-02, -1.89242885e-02, -8.33573099e-03, 5.20260856e-02,
       6.33687377e-02, -2.52439920e-02, -5.70918387e-03, -9.30714537e-04,
       -8.45850818e-03, 9.77595701e-05, 2.24992707e-02, -9.62501019e-03,
       8.22297577e-03, -4.38787189e-04, -3.69643718e-02, 1.65566187e-02,
       6.16760273e-03, -3.52880880e-02, -1.90073885e-02, 1.18400436e-02,
       -1.42986523e-02, 2.36584339e-02, 3.02602164e-02, -2.31807176e-02,
       -5.05732745e-03, 1.29418159e-02, 6.73724618e-03, -9.23263375e-03,
       -6.98822271e-03, 8.95882584e-03, -1.26215229e-02, 2.05126349e-02,
       5.38061000e-03, 9.55591165e-03, 6.86606066e-03, -1.99181903e-02,
       -3.61884609e-02, 2.16896366e-02, -6.03876915e-03, 1.96203683e-03,
       3.23631577e-02, 4.60370175e-05, 2.18734425e-02, 1.30437445e-02,
       -3.49765085e-03, 5.91555005e-03, 4.23713662e-02, -1.01653663e-02,
       -6.15638448e-03, 2.72478182e-02, -4.26419033e-03, 1.29583692e-02,
       1.26890559e-02, -2.44513955e-02, -7.21948547e-03, 2.28498802e-02,
       -2.99327448e-02, 3.01648700e-03, 6.80540921e-03, 1.29350191e-02,
       -8.92635807e-03, -1.01839369e-02, -2.21355688e-02,
       -3.63081321e-02, 3.20570357e-02, 2.12608427e-02, -1.56538110e-04,
       1.55385491e-02, 9.39109735e-03, -2.05751657e-02, 2.25999635e-02,
       -1.92754045e-02, -1.91682037e-02, 1.86276883e-02, 1.23313731e-02,
       2.95825358e-02, 4.65325005e-02, -1.62029080e-02, 1.86367775e-03,
       2.59039290e-02, -5.71431173e-03, 4.38274816e-03, 3.51463299e-04,
       2.36549904e-03, 1.30392564e-03, 2.68595498e-02, -2.53527183e-02,
       -1.23811886e-03, 3.60157415e-02, -1.62451379e-02, 2.26902664e-02,
       2.65712640e-03, -2.01101657e-02, 6.71602134e-03, 1.60202850e-03,
       1.47220995e-02, 4.21649311e-03, 2.60846037e-03, -1.39870765e-02,
       -1.44706722e-02, 2.15610433e-02, 9.45224240e-03, -7.94549845e-03,
       -3.32971965e-03, -1.31042004e-02, -2.28626467e-03,
       -2.27356926e-02, -3.40195224e-02, -1.05197821e-02, 1.86152980e-02,
       6.35978999e-03, 2.93860100e-02, 3.60672735e-02, 1.24518694e-02,
       3.89537849e-02, 4.00558449e-02, 4.43809258e-04, 1.95693355e-02,
       1.77663416e-02, -1.79212242e-02, 2.42546313e-02, 1.31426230e-02,
       7.20141828e-03, 1.57897267e-02, 1.15988040e-02, -9.30193719e-03,
       -2.10665911e-02, -5.35143912e-03, 1.94448065e-02, 1.27623556e-02,
       8.45042616e-03, -1.90751832e-02, 3.48515995e-03, 1.75274592e-02,
       -1.86583381e-02, -3.07107922e-02, 7.55724777e-03, 1.53779499e-02,
       -1.56019785e-04, -3.87695408e-03, -1.67989191e-02, 5.83153358e-03,
       2.37979367e-02, -2.65829638e-02, -2.83815172e-02, -1.73845775e-02,
       -1.15248747e-03, 9.41100437e-03, 1.34236980e-02, -2.99065304e-03,
       3.35118622e-02, 3.93403955e-02, 2.03765370e-02, 8.35003704e-03,
       3.07767261e-02, 1.24045592e-02, -6.47884468e-03, -2.60797348e-02,
       -4.71261097e-03, 3.06394976e-02, 2.49472670e-02, 2.27697077e-03,
       -1.52927786e-02, 4.86705545e-03, -9.47665423e-03, -1.23404069e-02,
       -4.79658414e-03, -1.67714767e-02, -9.77938995e-04,
       -1.62742287e-02, -1.77966636e-02, -1.72120742e-02,
       -4.46549663e-03, -1.61562040e-02, -1.33850807e-02,
       -1.24520645e-03, 4.32178937e-03, 1.48628175e-03, -8.61139968e-03,
       4.89311200e-03, -1.99354347e-02, 2.68169325e-02, -1.79822017e-02,
       7.26709841e-03, 1.41232302e-02, -1.17232744e-02, 1.73915736e-02,
       -3.79792787e-03, -8.55334196e-03, -2.53260843e-02,
       -2.60775839e-03, -1.52933365e-02, 4.67971992e-03, 1.16432272e-02,
       -8.09904467e-03, 1.98947941e-03, 3.29697970e-03, -2.84069381e-03,
       -4.45969701e-02, -7.57204462e-03, 1.12547921e-02, -4.25450876e-02,
       7.89845129e-04, -7.57405488e-03, -6.49166061e-03, 6.38255803e-03,
       1.65643804e-02, -4.22012508e-02, 1.89507995e-02, -2.60283109e-02,
       -4.14669812e-02, -9.79550742e-03, -2.95489337e-02, 2.37427652e-02,
       -2.00333968e-02, -1.03338258e-02, -3.94475795e-02,
       -2.04163720e-03, -3.10780648e-02, 1.72414202e-02, 6.49943249e-03,
       -5.66119282e-03, 1.75631829e-02, 2.45592818e-02, 2.81594153e-02,
       -1.09752556e-02, 1.50622902e-02, 1.88190490e-02, -1.66260041e-02,
       -3.32410750e-03, -2.84113400e-02, 2.32694857e-02, 2.78973058e-02,
       3.55575010e-02, -1.38657661e-02, -2.89097037e-02, -2.12362385e-03,
       1.78512931e-02, 1.81098320e-02, -1.25457179e-02, 2.27917396e-02,
       -2.39566565e-02, -2.14551594e-02, -9.30858497e-03, 1.27208028e-02,
       -3.13497125e-03, 1.18918885e-02, 1.46647701e-02, -6.95547368e-03,
       -8.27131886e-03, -1.05178589e-02, -3.56354713e-02,
       -8.02142266e-03, -1.13524857e-03, -4.19860519e-02, 1.65839661e-02,
       2.21610977e-03, -2.71368790e-02, 2.31993217e-02, 2.25466639e-02,
       2.88377795e-02, -1.59867965e-02, -3.27880979e-02, -9.67243686e-03,
       1.00892615e-02, 1.78364627e-02, -1.22661386e-02, 1.68820769e-02,
       2.79925317e-02, 4.75213584e-03, 2.25442252e-03, -1.00246714e-02,
       -2.28939559e-02, -6.48973929e-03, 5.35945990e-04, 4.13366361e-03,
       -7.10450392e-03, -3.04765981e-02, -2.38949154e-02,
       -6.07456407e-03, 5.22231357e-03, -2.28677597e-02, -4.37831332e-04,
       -4.04712521e-02, -2.38502901e-02, -2.33532824e-02,
       -2.84825414e-02, -2.59405151e-02, -1.18277166e-02,
       -1.89437289e-02, -2.04286370e-02, 1.55957192e-02, 1.80583354e-02,
       8.06232973e-04, 3.02413125e-02, 5.15815690e-02, 6.89161643e-02,
       2.06785295e-02, 1.24250082e-02, -9.40014329e-03, 2.44826190e-02,
       1.46311093e-02, -3.15499306e-03, 6.97642472e-03, 1.03307124e-02,
       3.20739634e-02, 2.28837617e-02, 1.15739899e-02, -7.56307226e-03,
       1.64799150e-02, -8.10441934e-03, -4.05342272e-03, -1.08457869e-02,
       -1.16042094e-02, 2.85805482e-03, 5.61056752e-03, -6.70676492e-03,
       -1.61495600e-02, -6.16408931e-03, 6.15126872e-03, 1.42853744e-02,
       -1.92302335e-02, -1.68467574e-02, -2.60283276e-02,
       -1.75986793e-02, 1.15666678e-02, 1.58814583e-02, 3.96570638e-02,
       1.06999259e-02, 1.23948390e-02, 2.09942665e-02, 1.77252665e-02,
       3.40950340e-02, 3.89849618e-02, 3.24768759e-02, -1.30575837e-03,
       -2.98610758e-02, -3.33337672e-02, 3.92165734e-03, -2.46842834e-03,
       1.41274566e-02, 2.46484336e-02, -1.37776947e-02, 6.42097788e-03,
       -2.57741008e-02, -2.71270629e-02, -1.27968322e-02,
       -2.35840795e-03, -1.27669005e-03, -4.62249992e-03, 2.37016566e-03,
       -1.52753349e-02, 5.51172579e-03, 1.30146062e-02, 1.80502124e-02,
       -1.11440364e-02, 9.29837674e-03, 2.80690882e-02, 7.39958882e-03,
       -3.95057397e-03, -5.91546623e-03, -3.50279361e-02, 3.85701749e-03,
       -1.44958766e-02, -1.70920324e-02, 4.34222398e-03, 1.10186879e-02,
       -1.14775551e-02, 1.32832676e-02, -1.39835710e-02, 2.62901932e-03,
       -1.09381357e-03, -1.59032736e-02, -4.82289568e-02,
       -1.12530589e-02, 5.47686182e-02, -3.49577807e-04, 3.04385368e-02,
       -8.70982371e-03, -4.23803218e-02, -1.20605472e-02,
       -1.36478236e-02, -2.19499804e-02, 3.29576852e-03, 2.39076838e-02,
       2.52972133e-02, 8.67303926e-03, -3.51580395e-03, 4.91886027e-03,
       1.21417111e-02, 1.65815633e-02, -1.31590525e-03, 2.44713407e-02,
       1.14020929e-02, -1.28283789e-02, 1.29724797e-02, 5.01901656e-03,
       1.68311950e-02, 1.24500934e-02, 4.96062974e-04, -2.76720356e-02,
       9.34822764e-03, 8.64052959e-03, 8.15613568e-03, 7.50811596e-04,
       -2.05070432e-02, -7.52133131e-03, 2.93206181e-02, -1.65043436e-02,
       -1.44502781e-02, 3.37773678e-03, 6.27322448e-03, -3.99532318e-02,
       2.40335502e-02, -1.29194614e-02, -4.09417227e-03, 1.54775660e-02,
       -3.51979807e-02, -2.89656743e-02, 1.58149321e-02, -2.59047896e-02,
       5.06791426e-03, -1.81321558e-02, -1.89141054e-02, -1.63560212e-02,
       -1.43509582e-02, 1.46324979e-02, 3.43243964e-02, 3.85021009e-02,
       1.86175220e-02, -1.39089506e-02, -3.42914313e-02, -7.19248550e-04,
       -4.18942142e-03, 6.69458741e-03, -2.00854316e-02, 3.18398103e-02,
       9.86512452e-02, 6.38840199e-02, 1.36689031e-02, 1.91628851e-03,
       -4.20498811e-02, -5.12467884e-02, -3.87475416e-02, 4.25855145e-02,
       7.02568889e-02, 8.63044262e-02, 6.36877865e-02, -1.91820157e-03,
       -2.31481926e-03, -1.10323178e-02, -1.51262162e-02, 1.12276934e-02,
       2.41217725e-02, 9.54793487e-03, -2.82461364e-02, -2.27484051e-02,
       9.70580557e-04, -1.69720519e-02, -1.71911390e-03, 1.01066278e-02,
       4.29938920e-02, -1.45849157e-02, -4.11870182e-02, -2.62140539e-02,
       2.62524635e-02, 3.92897800e-03, -2.92532630e-02, 9.14890133e-03,
       4.36162502e-02, 1.02423057e-02, 4.28119861e-02, 2.25873925e-02,
       -2.20778696e-02, 3.71473283e-03, 1.24509437e-02, -2.62745947e-04,
       -8.03014555e-05, 4.36320975e-02, 6.46257624e-02, 7.17086298e-03,
       -3.60503863e-03, 1.23979887e-02, 3.49854492e-02, -8.96859419e-05,
       -2.49480307e-02, 4.72819693e-02, 6.03466183e-02, 4.76215072e-02,
       -1.69172278e-03, 6.92291558e-02, 9.28088725e-02, 8.64875242e-02,
       -2.10401977e-05, -3.97554599e-02, -6.03699591e-03, 1.94832683e-02,
       -3.18877250e-02, 6.19242946e-03, 5.05282246e-02, 1.62699427e-02,
       1.58604030e-02, -2.52369270e-02, -3.70511673e-02, -4.01164219e-02,
       -2.80788876e-02, -5.02870977e-02, -2.05467697e-02, 6.24516457e-02,
       7.73065537e-02, 4.93738763e-02, 8.04582331e-03, -2.51643080e-02,
       4.28676559e-03, 3.53727378e-02, -1.21373292e-02, -2.44129058e-02,
       1.20360050e-02, 6.34648465e-03, -1.69656277e-02, -1.06333345e-02,
       -1.41487392e-02, -1.31660420e-02, -1.31579591e-02,
       -5.14324792e-02, 4.55639325e-02, 9.16687250e-02, 5.23245893e-03,
       3.56005505e-03, -3.11031379e-02, -8.64470564e-03, 6.94085239e-03,
       1.20259142e-02, -1.96367130e-02, 1.40379043e-02, 2.31239740e-02,
       -1.74025502e-02, 9.43897851e-03, -2.17152871e-02, -7.84606300e-03,
       1.59825552e-02, 2.21829657e-02, -8.12733732e-03, -1.98241454e-02,
       9.97159909e-03, -1.93989091e-02, -2.74495315e-02, -3.52057405e-02,
       -4.54700226e-03, 1.70431565e-02, 5.01192315e-03, -5.04527204e-02,
       -2.37038378e-02, -5.31937927e-03, -3.13851424e-02,
       -1.96254477e-02, -2.61123609e-02, -1.04507450e-02,
       -4.45980299e-03, -1.36174215e-03, 9.79648344e-03, 1.80243831e-02,
       4.62093130e-02, -4.97178128e-03, 1.46253593e-02, -1.31518217e-02,
       -4.85689426e-03, -5.66417526e-04, 3.65033522e-02, 1.28363371e-02,
       3.84985730e-02, 6.98262155e-02, 7.97963608e-03, -7.20035797e-03,
       -2.25970168e-02, 3.00855283e-03, 4.21049027e-03, 3.89061682e-02,
       -1.48232561e-02, -3.53755686e-03, 4.19281945e-02, -2.00019106e-02,
       3.55424220e-03, -1.43286982e-03, -1.13464398e-02, -2.33401414e-02,
       -1.12620424e-02, 1.01511125e-02, 2.08280329e-02, 7.85019156e-03,
       -3.21090966e-02, -4.56705466e-02, -2.66118813e-02,
       -2.50894018e-02, -1.68674849e-02, -3.55146849e-03,
       -7.98950717e-03, 3.13332900e-02, 7.68660754e-02, 3.36743239e-03,
       2.55504833e-03, -1.77952480e-02, 2.40448420e-03, 7.85797089e-03,
       1.91321708e-02, 2.32806616e-02, 1.87229291e-02, 4.41772230e-02,
       -1.48289008e-02, -2.15090476e-02, 5.23757515e-03, -7.88937230e-03,
       3.06812096e-02, 2.68853474e-02, 6.77989936e-03, -2.51248479e-03,
       1.74434651e-02, 1.20452764e-02, -5.96358581e-03, -4.69173212e-03,
       -4.05937061e-03, 2.56209378e-03, 3.00991372e-03, -9.09492280e-03,
       -5.22758579e-03, -1.64369512e-02, -1.89807173e-02,
       -4.68135774e-02, -2.49700006e-02, -1.11252991e-02,
       -1.99717339e-02, -1.05472812e-02, 1.73142217e-02, 3.41235623e-02,
       5.16090021e-02, 1.79176982e-02, -3.22602992e-03, 3.28061474e-03,
       1.27897048e-02, 1.13596423e-02, 2.65494101e-02, 1.26402946e-02,
       4.44801971e-02, 3.26108225e-02, 1.77839852e-03, -2.03305483e-02,
       -2.04411484e-02, -6.53974805e-03, 6.19450957e-03, 4.32510450e-02,
       2.23260131e-02, 1.76068470e-02, 1.16385589e-03, -1.29031437e-02,
       -5.78373205e-03, -6.41839486e-03, 8.60075746e-03, -1.27834221e-02,
       -9.68442112e-03, -1.05171744e-02, -1.94695741e-02,
       -1.02592846e-02, -1.67280324e-02, -5.01398295e-02, 4.30305116e-03,
       -1.32090822e-02, -1.42690986e-02, -1.69450194e-02,
       -2.15618499e-02, 1.09554676e-03, 1.29217757e-02, -1.56315025e-02,
       -1.19128469e-02, -2.93529369e-02, 1.74390171e-02, 6.02294039e-03,
       6.77363798e-02, 4.09450457e-02, 1.72515363e-02, -1.39248380e-02,
       -2.02217065e-02, -6.46718498e-03, -2.78360443e-03, 1.17375785e-02,
       2.51028128e-03, 4.61809337e-02, 2.12169886e-02, -4.12740298e-02,
       1.33448271e-02, -1.52068073e-02, -1.74225718e-02, -2.43112668e-02,
       2.15172753e-04, 9.34805535e-03, 2.62880232e-02, 1.27977319e-02,
       4.65652253e-03, 2.58723740e-03, -2.95759272e-02, -5.76804252e-03,
       6.13712706e-04, 7.91431498e-03, -3.93295549e-02, 1.47274472e-02,
       1.77975483e-02, 3.24522424e-03, 1.26653975e-02, -1.33944983e-02,
       -9.98531468e-03, -2.53841653e-02, -3.55229713e-03,
       -1.23339808e-02, 2.54553743e-02, 2.59128753e-02, 1.52037747e-03,
       -1.56262133e-03, -2.34638527e-02, -3.67057063e-02,
       -6.41946914e-03, -1.45351477e-02, -4.12939154e-02, 3.00395885e-03,
       3.54861026e-04, 4.63998765e-02, 1.75915454e-02, -1.27491159e-02,
       -5.47921425e-03, -7.87262153e-03, -1.34077370e-02,
       -3.06051318e-02, 2.29023211e-02, 1.41435592e-02, 1.53812347e-02,
       2.08528917e-02, -1.05885174e-02, -4.79684658e-02, -3.14135626e-02,
       -2.36659907e-02, -3.83861177e-02, 6.59527164e-03, 1.59886442e-02,
       -5.43560740e-03, 1.03702908e-02, -2.98811477e-02, -2.74303816e-02,
       -4.20292694e-04, 8.84881150e-03, -2.42609493e-02, 1.29499305e-02,
       -1.66351423e-02, 3.54367169e-03, 1.37921087e-02, -2.73678787e-02,
       2.35944893e-03, -1.09982416e-02, 1.17484126e-02, 1.41948438e-03,
       2.54750345e-03, -6.08347729e-03, -2.34415662e-02, 4.42118682e-02,
       -1.71086434e-02, -1.72916725e-02, -1.66363847e-02, 1.76783116e-03,
       -1.17559694e-02, 6.53401483e-03, -2.29521412e-02, 2.12189555e-03,
       1.58842318e-02, -3.75004746e-02, 2.57709972e-03, -8.98022112e-03,
       -3.40548786e-03, 3.97497136e-03, -1.59573667e-02, 3.25712040e-02,
       -2.62398701e-02, -4.88007022e-03, -1.07980045e-02,
       -3.46447481e-03, -1.66541152e-02, -9.85589623e-03,
       -3.24265510e-02, -9.59132425e-03, -1.17478045e-02,
       -9.84469801e-03, 1.55590959e-02, -2.84436755e-02, -9.01472103e-03,
       -3.48441601e-02, -4.06653620e-02, -1.56986956e-02, 2.66977982e-03,
       -1.86980255e-02, -1.88132040e-02, -1.18895452e-02,
       -4.03514504e-02, -2.83129774e-02, -2.21883189e-02,
       -8.98089260e-03, -2.63193827e-02, 3.15381624e-02, 3.28151993e-02,
       -3.15027847e-03, 3.14370915e-02, -1.49353622e-02, 9.73155070e-03,
       7.87878875e-04, -6.02308474e-03, -3.07975598e-02, 3.71231325e-02,
       3.54575142e-02, -9.51520540e-03, 2.76304819e-02, -2.08459627e-02,
       -1.89497471e-02, -3.70557383e-02, 8.84967018e-03, -1.82433287e-03,
       5.76802995e-03, -2.39363182e-02, -1.05834166e-02, -4.18580556e-03,
       -2.62814518e-02, -3.30084711e-02, -3.84656154e-02,
       -4.22249846e-02, -1.78171135e-02, 5.80022344e-03, -2.33463664e-02,
       5.47304982e-03, 6.00123927e-02, 2.33750809e-02, 3.05992421e-02,
       1.11212851e-02, 1.56956017e-02, -3.35015007e-03, 3.05769872e-03,
       1.04165450e-02, -1.01156381e-03, 4.16347347e-02, 2.77101025e-02,
       7.33915064e-03, 5.18795755e-03, 2.69964598e-02, -1.14767579e-02,
       2.06076000e-02, 1.57694388e-02, 4.28147754e-03, -7.17152143e-03,
       -1.17641944e-03, 3.73185007e-03, 1.98561978e-02, 3.89131457e-02,
       1.86350346e-02, 3.84297632e-02, 2.82916781e-02, -2.27530319e-02,
       -5.33149987e-02, -2.80609876e-02, -5.81099950e-02,
       -2.50500645e-02, 8.13187473e-03, -1.98068414e-02, -1.46757718e-02,
       1.83290860e-03, 1.86342448e-02, 5.35222553e-02, 1.43634984e-02,
       3.97817865e-02, 6.40897155e-02, 9.87712294e-02, 2.64185145e-02,
       4.33066674e-02, 4.14975062e-02, -2.31011324e-02, -3.88807394e-02,
       -3.77305113e-02, -3.50357406e-02, 1.09384954e-02, 2.74433736e-02,
       -2.07771156e-02, -3.05067431e-02, -1.03266062e-02, 8.12027510e-03,
       -1.48365479e-02, -1.49179017e-03, 8.74876231e-03, 7.49363657e-03,
       1.36504946e-02, -9.57551412e-03, 1.56041626e-02, 1.81374028e-02,
       -2.81669814e-02, -4.04316224e-02, -1.41190188e-02, 4.45028991e-02,
       -1.33857140e-02, 2.87404377e-02, 8.56401213e-03, -1.83383171e-02,
       -8.41773022e-03, -9.99366748e-04, -1.83032155e-02,
       -1.82812978e-02, 6.99521229e-03, -1.19827716e-02, 1.19182579e-02,
       5.71565144e-03, -1.15910619e-02, 1.90726332e-02, 8.07582680e-03,
       -5.37284315e-02, -2.54671518e-02, 1.77556444e-02, -2.58428045e-02,
       3.90253887e-02, 7.02303974e-03, -1.43692130e-02, -7.43650226e-03,
       3.49753909e-02, -4.15257290e-02, -1.84553452e-02, -1.69707779e-02,
       2.13485141e-03, -2.41760015e-02, -4.57775369e-02, -3.86674106e-02,
       3.22212130e-02, 3.62895690e-02, -2.49873623e-02, -1.30708851e-02,
       -5.67313330e-03, -1.20609789e-03, 2.67101619e-02, -1.21043995e-02,
       -8.54346529e-03, 4.07568216e-02, 4.21933085e-02, -1.36588095e-02,
       -3.66840363e-02, -2.16318723e-02, 1.74298659e-02, -2.12903172e-02,
       -3.77357341e-02, -4.05455902e-02, 3.78248878e-02, 2.90168300e-02,
       -1.28263619e-03, -1.41359046e-02, 5.20202424e-03, -6.52679661e-03,
       1.85451359e-02, -3.02771591e-02, -1.21442927e-02, 1.67444553e-02,
       -2.80042719e-02, -2.31809523e-02, 4.09281775e-02, 3.60224172e-02,
       1.67365819e-02, 4.38554324e-02, 2.27376795e-03, -3.01654339e-02,
       -3.04887816e-02, -3.80385742e-02, 4.38711233e-02, 6.48917332e-02,
       4.94831651e-02, -4.92645986e-03, 3.97917889e-02, 1.42970858e-02,
       1.68059662e-04, -6.46265373e-02, -2.57500559e-02, -5.00911474e-02,
       1.17475791e-02, 2.84975562e-02, 2.04097182e-02, 7.37107843e-02,
       6.03723750e-02, -1.16022741e-02, -1.82612464e-02, -3.75923738e-02,
       -7.96093792e-03, 2.86119375e-02, 3.64969820e-02, -1.59678515e-02,
       4.35799696e-02, 6.62648231e-02, 6.12679720e-02, -1.45739308e-02,
       2.85453573e-02, 4.32315990e-02, 2.22961837e-03, 2.51472555e-02,
       7.41270278e-03, 1.54772587e-02, 5.21096913e-03, 4.84115109e-02,
       9.51103307e-03, -6.93028467e-03, -5.94565412e-03, 4.21296852e-03,
       1.71531271e-02, 4.45569924e-04, 1.92933588e-03, 2.35498101e-02,
       3.48589420e-02, 1.04653062e-02, 4.51084040e-02, 5.15665896e-02,
       2.64711455e-02, 1.22095132e-02, 5.41104143e-03, 9.63885989e-03,
       6.69830525e-03, 7.25768134e-02, 4.55221497e-02, 5.06630493e-03,
       3.26601900e-02, 3.57770771e-02, -1.35734736e-03, -8.12274124e-03,
       1.25161372e-03, 1.76712777e-02, 2.61109024e-02, 2.43020318e-02,
       -1.39784142e-02, 3.03596426e-02, 5.07917665e-02, 4.10499200e-02,
       8.09268747e-03, 4.62478846e-02, 3.40310037e-02, 3.40913646e-02,
       5.76665485e-03, -1.94942560e-02, -4.16623661e-03, -5.18952962e-03,
       -1.79303158e-02, 2.88077556e-02, 1.61105786e-02, 1.14769640e-03,
       -1.48262205e-02, -3.48181948e-02, -9.39418096e-03, 3.85980085e-02,
       5.31439595e-02, 2.70189084e-02, 1.28186634e-02, 4.27928194e-02,
       3.63457650e-02, 2.27428693e-02, -1.49808237e-02, -3.78547907e-02,
       -1.90008357e-02, 2.06295867e-02, -2.00929139e-02, 1.19857416e-02,
       -2.29075528e-03, -3.77521291e-02, -1.43898716e-02,
       -5.16793281e-02, -2.12268475e-02, 4.30285279e-03, -6.14396995e-03,
       -3.41883308e-04, -2.85476241e-02, 9.88589693e-03, 1.64920036e-02,
       2.76882499e-02, -3.08762919e-02, -2.34750044e-02, -1.50154652e-02,
       -2.81618945e-02, -1.23624522e-02, -1.63888708e-02,
       -1.98321082e-02, -1.94859095e-02, -2.84578232e-03, 1.35026006e-02,
       -2.84166001e-02, 1.30181918e-02, 2.78886184e-02, 8.68421700e-03,
       -3.48411985e-02, 8.06255452e-03, -1.38321454e-02, 1.60094406e-02,
       -2.44144220e-02, -1.50292751e-03, 1.37000140e-02, -5.00638038e-03,
       -2.19482705e-02, -2.93060411e-02, -3.75797041e-02,
       -2.17434596e-02, 4.14192351e-03, -8.58935528e-03, -1.09640835e-02,
       -1.76971394e-03, -1.54764922e-02, -7.39853713e-05, 6.65946025e-03,
       6.19656499e-03, -9.92291607e-03, 6.32780790e-03, 2.36074030e-02,
       -3.17924954e-02, 6.71328465e-03, -8.23959988e-03, -3.85348424e-02,
       -1.87971946e-02, -2.72967592e-02, -1.52431400e-02, 1.80656277e-02,
       -4.04108874e-02, 2.09891070e-02, 3.24792676e-02, -1.91061627e-02,
       -1.50061175e-02, -4.53864038e-03, -6.85994281e-03,
       -1.87132842e-04, 1.83513965e-02, 2.42181937e-03, -3.31592821e-02,
       2.15874929e-02, -2.70712953e-02, -4.27471399e-02, -2.50700973e-02,
       -2.73355450e-02, 3.11394525e-03, 9.31092445e-03, -1.44997658e-02,
       -3.74690890e-02, 1.15082841e-02, 3.16922995e-03, 1.48415193e-02,
       1.78457648e-02, 2.14150501e-03, -4.65927366e-03, -1.35343364e-02,
       -5.69920503e-02, -2.64771692e-02, -1.93748474e-02,
       -7.69150350e-03, -1.00246267e-02, 6.95640047e-04, 2.80308574e-02,
       1.32132675e-02, -8.09144170e-04, -3.04460656e-02, -2.99497135e-02,
       -6.73206383e-03, -1.85139216e-02, -1.13720144e-03,
       -9.13168024e-03, -6.31423201e-03, -1.58091523e-02, 2.21396796e-03,
       -3.66928019e-02, -3.87689322e-02, -1.25898253e-02,
       -1.10591101e-02, 1.67834237e-02, 1.02407513e-02, 1.52094299e-02,
       5.73302014e-03, -6.43995637e-03, -4.66347858e-02, 2.30032182e-03,
       5.44392271e-03, 1.16505586e-02, 2.65677795e-02, 2.97368634e-02,
       4.69550043e-02, 1.30414004e-02, 2.10726149e-02, -3.95727903e-03,
       -2.16672681e-02, -1.90290902e-02, -2.60192039e-03, 2.05354001e-02,
       5.16079068e-02, 4.37884964e-03, 2.48922530e-04, -1.70103961e-03,
       -5.26545458e-02, -3.35877202e-02, 2.82572620e-02, 7.24981679e-03,
       3.33992131e-02, 1.92917585e-02, 2.07901169e-02, 7.65028363e-03,
       2.18075160e-02, -3.04229371e-02, -4.67269197e-02, 2.52455310e-03,
       -1.21586695e-02, 4.32785461e-03, 3.60612310e-02, -2.21264828e-02,
       -2.25214683e-03, -1.39908046e-02, -2.41099428e-02,
       -2.45268792e-02, 1.27929673e-02, 9.78184491e-03, 1.49114768e-03,
       -4.76546260e-03, -9.12577286e-03, -2.01869328e-02, 1.90867167e-02,
       -2.51957551e-02, 2.29679234e-02, 6.25058115e-02, 8.54520826e-04,
       1.77996326e-02, 1.30289579e-02, -2.41246000e-02, -3.29453461e-02,
       2.17396170e-02, 6.38007536e-04, -1.37928752e-02, 2.22458411e-02,
       -2.06778571e-02, -9.80152749e-04, -5.38411597e-03,
       -3.25293690e-02, 2.73620314e-03, 2.46274807e-02, -3.88303138e-02,
       3.03160250e-02, 4.23730575e-02, -3.13990191e-02, -3.02145537e-02,
       -8.59073456e-03, -1.66782886e-02, -1.47562027e-02, 4.02015001e-02,
       3.16463970e-02, 9.15867463e-03, 5.49239032e-02, -1.02511281e-02,
       -9.96202044e-03, 1.22924009e-02, -1.70261338e-02, -1.95877906e-02,
       1.00284861e-03, -9.74351726e-03, 4.27753525e-03, 6.22512698e-02,
       2.40366254e-02, -4.20574583e-02, -2.90531050e-02, -1.87845491e-02,
       2.09246688e-02, 2.74696425e-02, 2.24509519e-02, 1.18931569e-03,
       3.59219983e-02, -2.38114800e-02, -2.44571846e-02, 1.54662253e-02,
       -1.59317870e-02, -4.99827554e-03, 5.15118167e-02, 9.10148490e-03,
       3.21383378e-03, 4.45646942e-02, -1.35001531e-02, -3.23305130e-02,
       -2.11467315e-02, -4.62175086e-02, 3.48031633e-02, 6.27044663e-02,
       -7.20521156e-03, -1.72664935e-03, 4.68842313e-02, 3.58734885e-03,
       2.66768155e-03, -1.74326301e-02, -4.08732006e-03, -7.24305771e-03,
       2.68446170e-02, -1.15720825e-02, 1.24454126e-02, 1.61491148e-02,
       -4.75522988e-02, -7.66543299e-03, -3.33554298e-02,
       -1.67116113e-02, -2.80627701e-02, 1.73825934e-03, 7.57033983e-03,
       -5.34105208e-03, 3.37142013e-02, 4.38832259e-03, -9.80228465e-03,
       -3.52619216e-03, -1.87015012e-02, 6.87653711e-03, 7.25839660e-02,
       1.07755838e-02, -7.58293178e-03, 5.08937868e-04, -9.16913897e-03,
       2.04777834e-03, -1.41133936e-02, -1.77539736e-02, -3.26741450e-02,
       5.13579464e-03, 1.54311778e-02, 3.43736843e-03, 6.50488399e-03,
       -3.48757841e-02, -3.15720849e-02, -2.23456398e-02,
       -1.61567479e-02, -3.83404568e-02, -1.25872400e-02, 2.45666690e-02,
       1.96567532e-02, 2.26122104e-02, 1.68612378e-03, -6.82524545e-03,
       -2.27070991e-02, -1.78128164e-02, -2.56077237e-02,
       -5.18309360e-04, 3.60160992e-02, 1.09730484e-02, -1.14182541e-02,
       -2.89425887e-02, -2.29640082e-02, 5.61828259e-03, -3.01839132e-02,
       -3.87178063e-02, 6.84968708e-03, -1.18663665e-02, 3.24155018e-02,
       2.47780904e-02, 4.63880319e-03, -3.15419026e-02, 9.61347111e-03,
       -1.60274431e-02, -1.41641945e-02, 1.24098379e-02, 1.86172482e-02,
       -5.58153260e-03, -2.00457824e-03, 8.33062548e-03, 2.37783603e-02,
       -1.67792365e-02, 6.37405971e-03, -2.47628763e-02, -9.94335208e-03,
       1.12121059e-02, -1.95227321e-02, 1.25226490e-02, 2.81978464e-05,
       -8.05072300e-03, -5.36960037e-03, 9.85160377e-03, -3.72641743e-03,
       9.73771233e-03, 1.12917684e-02, 3.42343599e-02, 3.48446518e-03,
       -1.61869992e-02, -3.72737995e-03, 3.44742718e-03, 2.84277983e-02,
       1.88435297e-02, 2.05189642e-02, -9.84166167e-04, 9.54289176e-03,
       5.97262848e-03, -1.03168422e-02, -2.43297238e-02, 7.85518438e-03,
       -5.31598879e-03, -2.00989167e-03, 2.60328001e-04, -9.73316748e-03,
       2.12213546e-02, 3.88387963e-02, -8.11856985e-03, 6.28659353e-02,
       5.90001084e-02, 8.38029832e-02, 3.20056081e-03, 7.96692725e-03,
       1.68539062e-02, -1.31395729e-02, -3.05539779e-02, -5.51703908e-02,
       -3.54056321e-02, -2.68006511e-03, -1.11095319e-02,
       -5.78761101e-03, -2.26651598e-02, -2.20342893e-02, 9.07984469e-03,
       2.38622911e-02, -2.94608879e-03, 7.02867582e-02, 6.03236742e-02,
       3.66677344e-02, -1.68660767e-02, 2.27078628e-02, 7.48837693e-03,
       -2.56336853e-02, -4.28308286e-02, -3.51246893e-02,
       -1.41276615e-02, -1.33936219e-02, -3.11901439e-02,
       -3.18046659e-02, -3.21753435e-02, -2.47646719e-02, 5.42814191e-03,
       -1.43772885e-02, -4.79932781e-03, 3.30419429e-02, -2.17463505e-02,
       -5.54559613e-03, 3.00959256e-02, -1.31602269e-02, 3.16308462e-03,
       3.57215032e-02, -2.10901760e-02, -4.66287183e-03, 1.23423170e-02,
       -5.69196008e-02, 2.25688946e-02, -1.33355963e-03, -2.16139555e-02,
       6.09738892e-03, 1.40756676e-02, -1.67452283e-02, 3.28799360e-03,
       5.13461493e-02, -2.08235951e-03, 1.21635133e-02, 1.20129939e-02,
       -1.17624905e-02, 1.90474233e-03, 4.44707973e-03, 2.33120564e-03,
       -2.48195026e-02, 1.85290910e-02, -1.48020983e-02, 7.55863870e-03,
       -3.94924515e-04, -1.13171851e-02, 1.24316048e-02, 1.42337363e-02,
       -3.45986523e-02, -3.23402062e-02, -1.81544777e-02, 2.41595302e-02,
       1.61633492e-02, 4.26512444e-03, -1.17877079e-02, 5.48478682e-04,
       1.96520630e-02, -1.50589859e-02, -9.29137971e-03, 4.24930453e-03,
       -2.35891584e-02, 3.38829705e-03, -2.42270697e-02, -3.40022668e-02,
       4.09310451e-03, -1.32070761e-03, -3.42442282e-02, -1.35904150e-02,
       1.31445685e-02, 3.33821960e-02, 3.54569778e-02, 2.66209543e-02,
       -3.26833944e-03, 1.03428764e-02, 1.83421820e-02, 7.67969014e-03,
       5.62417414e-03, -7.89156591e-04, -7.58589804e-03, 2.69439761e-02,
       1.22206397e-02, -1.95580255e-02, 2.71761641e-02, -2.78894207e-03,
       -4.90121245e-02, -1.76769905e-02, 1.36345327e-02, 3.43508609e-02,
       5.84017634e-02, 5.12019061e-02, -1.06242578e-03, -1.94611086e-04,
       -7.70766102e-03, 1.72822108e-03, 1.28655173e-02, 5.20941336e-03,
       1.32942479e-03, 5.88542409e-02, 8.19341019e-02, 5.82624637e-02,
       4.37441617e-02, -1.94662083e-02, -3.12690288e-02, -2.53790822e-02,
       -2.16639657e-02, 1.05236867e-03, -1.91954132e-02, -1.39697175e-03,
       -4.99795452e-02, -1.99422501e-02, 5.18670492e-03, 3.26461508e-03,
       -2.32763998e-02, -9.28153843e-03, -7.55062606e-03, 7.77976774e-03,
       1.13223186e-02, 1.84421483e-02, 1.35236159e-02, 6.02252036e-02,
       6.60345778e-02, 2.19957437e-02, -1.33515047e-02, 7.68579263e-03,
       -7.33971363e-03, -1.78880338e-02, 4.92219925e-02, 5.14144935e-02,
       5.47128208e-02, 6.86517879e-02, 3.37828621e-02, -1.90532096e-02,
       -1.43538034e-02, 2.33059153e-02, 2.91859619e-02, 1.68193993e-03,
       2.34159641e-02, 4.58983071e-02, 3.67938615e-02, -1.00596407e-02,
       6.50692545e-03, 1.40567049e-02, -2.52843257e-02, -3.03354990e-02,
       -1.56436991e-02, 3.60486843e-02, 1.76689792e-02, 2.11430658e-02,
       1.24832653e-02, -3.96872982e-02, -4.27822629e-03, 1.73418713e-03,
       -1.92991365e-02, -3.71505357e-02, -9.94469970e-03,
       -1.66725852e-02, 3.26050110e-02, -1.44824106e-02, -1.15976268e-02,
       -4.29116329e-03, 7.31325671e-02, 7.42868185e-02, 4.67420779e-02,
       -2.38913484e-02, -3.35005820e-02, -5.73581737e-03,
       -1.78414136e-02, -2.75387019e-02, -1.83623061e-02, 1.78434681e-02,
       2.14158650e-02, 2.15508565e-02, 6.68125553e-03, -2.03427970e-02,
       5.09378547e-03, -9.66486242e-03, -4.73601036e-02, 1.54422382e-02,
       1.06153935e-01, 1.16912574e-01, 7.20535442e-02, 2.44029821e-03,
       -5.40022627e-02, -2.36728229e-02, -2.75650695e-02,
       -3.08488682e-02, -1.06307305e-02, 3.06413211e-02, 4.82868887e-02,
       5.13241142e-02, 4.36464651e-03, -2.28368305e-02, 1.97599996e-02,
       1.21557545e-02, 1.77996643e-02, -2.95855999e-02, -6.45148568e-03,
       -2.63952464e-02, 2.66561657e-02, 5.91609254e-03, 1.06749739e-02,
       1.32826203e-02, -9.53900535e-03, -1.32592740e-02, -2.45197415e-02,
       -3.33129317e-02, -2.66328696e-02, 7.13475747e-03, -1.33394012e-02,
       -3.15015875e-02, 1.66134443e-02, 1.02556851e-02, 1.12856403e-02,
       8.63842387e-03, 8.37346818e-03, 1.62541661e-02, 7.21157193e-02,
       1.55772874e-02, 7.89391063e-03, -3.24244914e-03, 1.41415661e-02,
       -1.49374327e-03, -4.26813727e-03, -2.68909130e-02,
       -3.16012017e-02, 4.41142125e-03, -1.36213526e-02, 1.70361216e-03,
       2.14416459e-02, -1.42155336e-02, -2.24960707e-02, -1.20536936e-03,
       -1.23829832e-02, -1.39853489e-02, 1.42856101e-02, 2.99721753e-04,
       -6.35950174e-03, 1.24915941e-02, -2.16174722e-02, -1.16459774e-02,
       -1.32315489e-03, -1.64342523e-02, 7.09155481e-03, 8.69314093e-03,
       1.51690682e-02, 3.23569775e-02, 1.53348641e-02, 2.75427871e-03,
       -3.66048515e-03, -1.37019148e-02, -2.47826073e-02, 9.44381463e-04,
       3.89482230e-02, 4.47348459e-03, 9.28966422e-03, 3.79104763e-02,
       -1.22229131e-02, 3.53707839e-03, -1.23220012e-02, -1.21087572e-02,
       2.76862979e-02, 5.43291792e-02, 1.55806243e-02, 4.45301225e-03,
       1.97226889e-02, 2.43395218e-03, 1.10891648e-02, -2.28017122e-02,
       -3.06362775e-03, -2.08504796e-02, 2.10912488e-02, 8.89262185e-03,
       -1.82431191e-02, 5.88630466e-03, -1.41288172e-02, 1.25362203e-02,
       -2.53279619e-02, -1.10122049e-02, -2.60027479e-02, 1.73555706e-02,
       -2.06367355e-02, 3.36697176e-02, 2.08180286e-02, 1.04251411e-02,
       1.34237912e-02, -1.52877318e-02, -1.30678923e-03, 1.45654911e-02,
       6.87538832e-02, 2.24985816e-02, -1.39775211e-02, 1.52706066e-02,
       3.41700576e-02, 1.00389225e-02, -1.47668421e-02, -1.06236851e-02,
       -2.42198724e-02, 5.25309928e-02, 2.68527195e-02, -3.97963710e-02,
       1.15524260e-02, -3.28023247e-02, -8.76905804e-04, -4.36697975e-02,
       -6.38656039e-03, -3.50201800e-02, 1.99965965e-02, -9.69830377e-04,
       -3.14341113e-02, 4.94037988e-03, -3.09218783e-02, 4.52038774e-04,
       7.96685647e-03, -4.09967266e-02, -3.17797661e-02, -2.90477253e-03,
       -2.06651073e-02, 1.75822377e-02, 1.44937132e-02, 2.55811145e-03,
       6.80577895e-03, -1.88854709e-02, -1.17279030e-02, -1.50660248e-02,
       4.20788862e-02, 4.98187207e-02, 4.65930738e-02, 3.12803015e-02,
       -5.11011400e-04, 1.80285498e-02, 6.23334758e-03, -2.40720268e-02,
       -3.10296044e-02, 4.54174448e-03, 5.05791269e-02, 1.26510859e-02,
       2.64078975e-02, -6.32159039e-03, 1.25757586e-02, -2.66561098e-02,
       -2.72560120e-02, -1.35098258e-02, 2.14243121e-02, -1.27962520e-02,
       1.27039701e-02, 4.74195369e-03, -4.20890413e-02, 5.66784700e-04,
       -3.69198248e-03, -7.46189896e-03, -1.90952141e-02, 1.08199415e-03,
       1.24916164e-02, 5.55589721e-02, 3.20637338e-02, -3.97600845e-04,
       3.59222740e-02, -6.35689998e-04, -2.77434625e-02, -2.03295387e-02,
       1.31942024e-02, 3.47931124e-02, 2.24803220e-02, 2.61423085e-03,
       1.61928777e-03, 1.93461720e-02, 2.93045724e-03, -2.04137657e-02,
       -2.78470526e-03, -1.16298627e-02, 3.53810750e-02, 1.67366453e-02,
       2.31644027e-02, -2.81146709e-02, -1.80942100e-02, -3.81713524e-03,
       -2.82413815e-03, -1.59416217e-02, 1.03782183e-02, 2.58805286e-02,
       2.88245827e-02, 1.45773683e-02, -2.92694606e-02, -2.51956992e-02,
       -2.19048280e-02, -2.40483079e-02, -1.01229679e-02, 3.42340656e-02,
       1.81994941e-02, 2.24890448e-02, -2.30623577e-02, -2.06262693e-02,
       -1.60580091e-02, -1.06449397e-02, -1.46246301e-02,
       -1.71997733e-02, -1.42844685e-04, 6.54870039e-03, -1.51343562e-03,
       -2.79328339e-02, -3.39115448e-02, -2.71044727e-02,
       -1.17128305e-02, -2.18315721e-02, -1.98526029e-02, 4.54280712e-03,
       3.91383283e-02, -1.67685524e-02, 1.45100746e-02, -1.43745895e-02,
       -1.38445459e-02, -3.39743355e-03, -1.26583856e-02,
       -1.45934075e-02, 6.61343485e-02, 1.41070466e-02, 1.95658486e-02,
       3.01128509e-03, -3.06138229e-02, 2.19367049e-03, -2.57054176e-02,
       -3.60012823e-03, -3.29544172e-02, 2.89960671e-02, 2.87794843e-02,
       -2.61049289e-02, -1.62721816e-02, -4.08278815e-02,
       -1.86741224e-03, -2.98114115e-04, -2.79286392e-02,
       -4.71379086e-02, 1.12528550e-02, -9.21862666e-03, 2.42929696e-03,
       -1.04832044e-02, -3.12925093e-02, -1.20429378e-02,
       -7.76179507e-03, -7.99927860e-03, -4.10660319e-02, 1.40274381e-02,
       9.39318910e-03, 2.36313157e-02, 5.03953844e-02, -2.75589265e-02,
       -1.69409644e-02, -3.34886921e-04, -1.51102373e-03,
       -3.29181626e-02, 9.69293248e-03, -1.20784665e-04, 2.50671022e-02,
       3.81135382e-02, -1.32972784e-02, -4.16855291e-02, 1.58901419e-02,
       1.22779114e-02, 1.24379003e-03, 4.90320921e-02, 5.65496320e-03,
       -2.35463772e-03, -1.40461363e-02, -6.34810179e-02,
       -2.68276241e-02, -2.33991165e-02, -4.68656095e-03,
       -1.97733976e-02, 6.37185201e-03, -2.31958181e-02, -6.35422592e-04,
       -6.52367389e-03, -2.74293069e-02, -5.55053819e-03,
       -1.09969638e-02, -2.40943469e-02, -2.41329893e-02, 1.69626018e-03,
       -4.30655386e-03, -1.60415703e-03, 1.89529303e-02, 2.02968623e-03,
       5.27602853e-03, 2.55423468e-02, 4.22357880e-02, 5.67993522e-02,
       6.75307661e-02, 2.86680479e-02, 3.03106848e-03, 2.72512212e-02,
       -8.69901385e-03, -1.85805280e-02, 1.39511246e-02, 5.35191828e-03,
       2.90246047e-02, 2.83315536e-02, 2.06265822e-02, -4.57683299e-03,
       1.65894832e-02, 6.84247073e-03, 1.33779543e-02, 3.21680307e-03,
       -1.03842793e-02, 1.53811825e-02, 4.46615405e-02, 2.30574911e-03,
       -2.58738641e-02, 1.17425621e-03, -2.25628372e-02, -4.01647799e-02,
       1.48443198e-02, -3.29935737e-02, -9.91629530e-03, 1.07391067e-02,
       -3.53193022e-02, 3.13298479e-02, 3.74659635e-02, 1.65826827e-02,
       6.90522343e-02, 7.44616613e-02, 2.59848833e-02, 6.45788852e-03,
       4.31882069e-02, 3.37731838e-02, -8.94869398e-03, -2.45447680e-02,
       -1.43530872e-02, 3.96612026e-02, 2.31729597e-02, -3.37000191e-02,
       -3.36530246e-02, -2.88393907e-02, -1.27661610e-02, 1.45152081e-02,
       2.69880537e-02, 2.51804348e-02, 5.47545478e-02, 5.71499132e-02,
       1.81026403e-02, -8.31663050e-03, 5.36928233e-03, -6.76227687e-03,
       -2.40760036e-02, -1.07119204e-02, -8.84892605e-03, 2.45811958e-02,
       6.32368028e-03, -5.17541803e-02, -3.45814899e-02, -5.19767962e-02,
       -1.83881242e-02, 2.31648982e-02, -2.07281136e-03, 6.55596750e-03,
       3.13151553e-02, -2.80115940e-02, 8.39467440e-03, 1.27982330e-02,
       3.54181416e-03, 1.12839025e-02, 1.98915210e-02, 1.23933342e-03,
       6.75031263e-03, 8.55183508e-03, -3.30569223e-02, 2.75508929e-02,
       4.68768924e-03, -2.71109864e-02, 1.33000817e-02, -1.62446522e-03,
       1.59792323e-03, -4.82606422e-03, 1.68786384e-02, 1.41702825e-02,
       2.23078411e-02, 2.15748344e-02, 1.10440534e-02, 3.21812890e-02,
       -1.03100687e-02, -1.04508325e-02, 1.88798849e-02, 2.74215098e-02,
       -3.30385868e-03, 2.10954435e-02, -2.10114606e-02, -4.94242720e-02,
       -9.59363487e-03, 1.31366821e-02, -1.09145250e-02, -8.94033536e-03,
       9.14989039e-04, 4.66668308e-02, 4.86850645e-03, 4.17105341e-03,
       -1.32554362e-03, 7.73651479e-03, 2.54693255e-03, 1.56670269e-02,
       1.50183635e-02, 4.72400431e-03, -1.01704141e-02, -1.16832573e-02,
       5.82483504e-03, -1.30817238e-02, 4.80591971e-03, 9.33399983e-03,
       -3.16203684e-02, -3.32350209e-02, 2.53829500e-03, 3.54425125e-02,
       2.77482457e-02, -3.45855631e-04, 3.39570176e-03, 1.02996370e-02,
       2.02961992e-02, 5.23417071e-03, -1.33510260e-02, 2.48125289e-02,
       -1.46017550e-02, 9.75706801e-03, 1.31805683e-03, 2.92268000e-03,
       2.33368250e-03, 1.92742888e-02, -6.17924659e-03, 5.51195117e-03,
       2.38504261e-02, 5.85711701e-03, -5.85494763e-06, 2.67201085e-02,
       1.22359525e-02, 2.69168820e-02, 2.79534142e-02, -1.63878743e-02,
       -8.92361533e-03, 7.91921746e-03, -4.16512489e-02, -2.39228201e-03,
       7.90475868e-03, 3.63082476e-02, 4.60846014e-02, 3.41648348e-02,
       1.83273964e-02, -1.76891070e-02, 2.02651042e-02, -1.40465563e-02,
       -7.71519635e-03, -2.78093293e-02, -2.14437433e-02, 4.07207711e-03,
       8.12099595e-03, -4.11443273e-03, 4.53681545e-03, 1.41821802e-02,
       2.43420876e-03, 2.46810634e-03, -3.02039105e-02, -1.05298255e-02,
       1.72540359e-02, 1.00609390e-02, -6.91945385e-03, -1.86006632e-02,
       3.26308571e-02, 3.51144895e-02, 3.76504287e-03, -2.41887458e-02,
       -1.86422206e-02, 8.10518954e-03, -1.73236206e-02, 3.83122265e-02,
       2.13670973e-02, 1.16090653e-02, -5.25570416e-04, 2.99711828e-03,
       -2.29848567e-02, -1.51354214e-02, -3.14968415e-02,
       -1.02409087e-02, -2.98465621e-02, 2.30596447e-03, -5.13535785e-03,
       4.36078198e-02, 2.63150241e-02, -1.35879433e-02, -5.29580889e-03,
       3.47254798e-03, 8.33560072e-04, 2.11549494e-02, 3.44592407e-02,
       9.30438004e-03, -1.42361615e-02, -5.99459326e-03, 2.47880467e-03,
       -1.42723899e-02, 1.61873351e-03, -5.05299261e-03, 2.87004337e-02,
       1.25027737e-02, -2.89260857e-02, 4.44383267e-03, 1.54737942e-02,
       1.68172661e-02, 3.66003290e-02, -1.25643359e-02, -2.67467797e-02,
       -5.34813153e-03, -1.68248788e-02, -1.23118712e-02, 3.48849990e-03,
       -7.81873148e-03, -5.56232873e-03, 2.23592483e-02, 5.75970346e-03,
       -3.49965645e-03, 3.47078815e-02, 7.32206460e-03, 5.15993778e-03,
       9.74669587e-03, -3.65426429e-02, -4.21672128e-03, -1.19059831e-02,
       -9.54727363e-03, -5.76939108e-03, 9.05267522e-03, -1.12854103e-02,
       5.61628665e-04, 1.40300812e-02, -2.77495869e-02, 5.28379250e-03,
       -7.92520179e-04, 2.93273050e-02, -1.38891963e-02, 1.28353480e-02,
       -1.03303343e-02, 2.40873490e-02, 7.71771558e-03, -1.28775686e-02,
       -1.78765636e-02, 4.11357619e-02, 3.63640673e-02, -2.56213155e-02,
       -1.41877672e-02, -1.56619132e-03, -1.43056794e-03, 1.61226708e-02,
       -2.58248560e-02, -4.44252118e-02, 1.33167049e-02, 1.01213641e-02,
       -1.33980690e-02, -9.13133938e-03, -2.53973268e-02, 7.95919448e-03,
       4.57314635e-03, -1.57292634e-02, -1.08184675e-02, 3.27407941e-02,
       4.99874391e-02, -3.48498039e-02, -1.41602512e-02, -6.60433341e-03,
       4.39576525e-03, 1.68089774e-02, -2.51501184e-02, -4.13997956e-02,
       1.00176251e-02, 2.53954269e-02, -2.58602630e-02, 1.00751212e-02,
       1.40523631e-02, 1.78796053e-02, 6.50224322e-03, -5.23604639e-03,
       5.71719930e-03, 3.40845026e-02, 1.90948765e-03, -4.11843732e-02,
       -5.75489225e-03, -2.20397417e-03, 6.90295221e-03, 2.87973322e-03,
       1.19929705e-02, 3.00911278e-03, 2.40077674e-02, -9.84171033e-03,
       -2.77529820e-03, 1.49443727e-02, -1.10424580e-02, 2.03288384e-02,
       1.82772260e-02, -4.91786096e-03, -3.49813662e-02, 2.65013520e-02,
       3.03876251e-02, 9.29503003e-04, 2.02971715e-02, -2.27518324e-02,
       2.55093467e-03, -1.06719425e-02, 3.13406158e-03, -2.18248218e-02,
       1.48204360e-02, 1.40234251e-02, -4.44149133e-03, -4.89940448e-03,
       9.15288646e-03, 1.17798401e-02, -4.06331290e-03, 5.71393641e-03,
       1.22987607e-03, 6.01573549e-02, 2.71169171e-02, -1.58873405e-02,
       1.46839768e-03, 1.32156545e-02, 1.02421874e-03, 1.63143538e-02,
       3.78711778e-03, -1.37092229e-02, 3.89821120e-02, 1.61196142e-02,
       1.28885461e-02, 8.23298190e-03, -1.14770336e-02, 1.52013395e-02,
       4.34924383e-03, -8.51952843e-03, -1.42240208e-02, 1.17872572e-02,
       2.08424646e-02, -4.22941893e-03, 1.91171595e-03, -1.00632748e-02,
       9.59506165e-03, 2.58593801e-02, -1.69376191e-02, 4.04755259e-03,
       3.93316802e-03, -1.29298819e-02, -1.35277808e-02, 1.49791129e-02,
       1.57773942e-02, 2.32268032e-02, -1.86410602e-02, 2.29929611e-02,
       -1.39998654e-02, 3.09018828e-02, 2.61397064e-02, 6.75232662e-03,
       -2.22857529e-03, -3.68272536e-04, 3.13675962e-02, 2.39474103e-02,
       9.98035632e-03, -2.40197182e-02, 2.25054398e-02, 1.44631509e-02,
       3.66753973e-02, 1.09470012e-02, -8.45720712e-03, 8.97432561e-04,
       -2.37349123e-02, -8.45357217e-03, -1.27219446e-02,
       -1.39975864e-02, -2.08874466e-03, -6.21915702e-03,
       -6.85568154e-03, -5.42488415e-03, 9.31493414e-04, 9.29163583e-03,
       8.63367599e-03, -2.21431777e-02, -7.64432969e-03, -6.20694831e-03,
       -4.08604043e-03, 9.89148207e-03, 8.09504930e-03, 5.52964285e-02,
       4.42048647e-02, 1.53190354e-02, -2.99283098e-02, 1.61302984e-02,
       -2.33158912e-03, 1.10307755e-03, -1.45917237e-02, 7.09231617e-03,
       2.66416408e-02, 2.52187420e-02, 2.07515527e-02, -2.16061412e-03,
       -1.08462889e-02, -6.25825766e-03, 1.21412287e-02, 3.87781113e-03,
       -1.45658795e-02, 1.43453814e-02, 2.74759568e-02, 1.63508486e-02,
       -3.40558551e-02, -9.33683012e-03, -8.86947941e-03, 6.70962827e-03,
       -2.05059946e-02, -8.45095422e-03, -5.51432651e-03, 1.58418100e-02,
       -9.97260958e-03, -1.78277697e-02, 3.52842826e-03, 2.29002591e-02,
       -1.97021533e-02, -2.36834344e-02, -5.12331212e-03, 1.69765335e-02,
       9.07080527e-03, 1.65736806e-02, -6.04678271e-03, 1.46559048e-02,
       -5.00903837e-03, -5.27173914e-02, -2.25670189e-02,
       -3.24354880e-02, 1.25618214e-02, 1.24885598e-02, 1.42648146e-02,
       2.78087356e-03, 1.45205548e-02, -4.51041246e-03, -1.47532057e-02,
       -1.94969575e-03, -1.71046462e-02, -1.23542873e-02,
       -2.30725724e-02, -4.00681802e-06, -1.18243070e-02, 9.75931343e-03,
       3.97286704e-03, -2.69013289e-02, -1.32213347e-02, -1.70756262e-02,
       6.80823671e-03, -1.28921773e-02, -8.48505460e-03, 1.58994668e-03,
       1.54146990e-02, -2.12720502e-02, -1.50767276e-02, 6.08059531e-03,
       -1.96130713e-03, 3.94307263e-02, 3.88736166e-02, 9.02330596e-03,
       1.08254058e-02, 4.69894242e-03, 3.88098037e-04, -7.51518970e-03,
       -7.91103637e-04, 4.73690592e-03, 3.98443192e-02, 2.31228489e-02,
       1.92776266e-02, -1.22338105e-02, 1.45765562e-02, -1.26172705e-02,
       -3.44679132e-02, 5.31793921e-04, -1.11000566e-02, 1.58278570e-02,
       2.12859921e-02, -6.76323799e-03, -1.81211217e-03, -2.56555853e-03,
       -4.58104648e-02, 5.27587079e-04, -2.14552437e-03, -2.12936494e-02,
       -3.71556100e-03, -4.19036113e-03, -2.74946704e-03,
       -2.23538429e-02, -1.72773208e-02, -3.07337325e-02,
       -1.39530597e-03, -1.20600928e-02, -1.55406576e-02, 2.24272236e-02,
       2.25691032e-02, 3.09596658e-02, 2.81267194e-03, 2.27154214e-02,
       1.79908313e-02, -9.28310398e-03, 1.58135518e-02, 1.43630952e-02,
       3.92162576e-02, 6.42497966e-04, -1.20127155e-02, 2.50827428e-03,
       1.92539133e-02, 8.04697163e-03, 3.34771425e-02, -2.21089483e-03,
       -2.02589389e-02, 5.63425990e-03, -5.04762959e-03, 1.11653656e-02,
       -1.53814594e-03, -2.47940402e-02, 9.23515111e-03, -3.72516997e-02,
       -1.41359726e-02, -1.23299845e-02, -3.82131897e-02, 1.78108225e-03,
       -2.78612822e-02, -9.34519153e-03, -1.20383529e-02,
       -2.87071383e-03, -5.88096352e-03, 4.31182422e-02, 1.01927044e-02,
       5.99029660e-02, 4.53318954e-02, 1.83083005e-02, 1.60750672e-02,
       3.72734442e-02, 1.36266788e-02, -4.12623584e-03, 3.30239162e-02,
       -1.05994372e-02, 1.10036442e-02, 2.64118914e-03, 5.35579259e-03,
       -6.31945953e-03, 2.33995970e-02, 8.76031630e-03, -8.33677035e-03,
       1.17000742e-02, -1.58200134e-02, -2.84174867e-02, 2.39181775e-03,
       8.06843746e-04, 3.05622839e-03, 3.18490830e-03, -3.79080186e-03,
       -2.33007278e-02, -1.12425713e-02, -3.99211496e-02,
       -3.30747329e-02, 7.11971987e-03, -1.81507766e-02, -2.52353325e-02,
       -2.31706649e-02, -4.66772169e-03, -1.98752619e-03, 1.84562691e-02,
       2.81674564e-02, 6.51340559e-02, -6.52752956e-03, 8.45926534e-03,
       7.76115386e-03, 1.11711742e-02, -4.50258469e-03, -7.37814698e-03,
       1.10881245e-02, 1.44590752e-03, 2.81472169e-02, -9.18242987e-03,
       -1.84850432e-02, -2.82195513e-03, -2.69535966e-02,
       -3.15307118e-02, -5.01351804e-03, 5.14431251e-03, 1.19880270e-02,
       1.95397269e-02, -1.34332925e-02, -1.34373726e-02, -1.16044264e-02,
       -1.00616403e-02, 9.42511577e-03, 8.91619455e-03, 5.62845683e-03,
       -3.81766222e-02, -2.70126499e-02, -8.38539004e-03,
       -1.79673941e-03, 2.60840962e-03, -1.31985759e-02, -1.68748815e-02,
       3.05612180e-02, 1.12570925e-02, -2.46429443e-02, -4.06988338e-03,
       -2.45703589e-02, 9.62515082e-03, 3.14809494e-02, 5.44006424e-03,
       1.95875913e-02, 1.64835285e-02, -2.35464461e-02, -3.77399358e-03,
       -1.26739116e-02, -1.79748815e-02, 3.88714559e-02, -2.10105232e-03,
       -4.89797145e-02, 1.53625188e-02, 8.59098695e-03, -9.86036099e-03,
       -1.32789733e-02, 8.71785334e-04, 2.64747441e-02, 2.50275563e-02,
       2.37010866e-02, -1.70216791e-03, -1.88007578e-02, 1.30688278e-02,
       -3.58266756e-02, -1.97517518e-02, -2.92160577e-04, 3.41244531e-03,
       1.85784772e-02, -1.15065174e-02, -2.79102717e-02, 3.30663621e-02,
       -6.46253908e-03, -2.21243743e-02, -4.74680327e-02,
       -1.37793701e-02, 5.69421612e-02, 1.84077825e-02, -1.03502385e-02,
       -1.05469283e-02, 3.27827297e-02, 5.82012162e-03, 1.70643181e-02,
       -1.11895315e-02, 3.45506407e-02, 5.78161888e-03, 2.94925869e-02,
       3.31605319e-03, -8.84102099e-03, 2.06455197e-02, 1.17247161e-02,
       -2.84565762e-02, -2.47710645e-02, -1.90279465e-02, 3.77929844e-02,
       1.02575999e-02, 5.60365571e-03, -1.68555249e-02, 1.60781853e-02,
       2.63041072e-02, -5.33265807e-03, -2.21482385e-03, 6.15243837e-02,
       -2.15496197e-02, -1.44679332e-02, 1.47380726e-02, -8.14733282e-03,
       2.81230975e-02, 3.00157839e-03, 1.58270653e-02, 5.06855827e-03,
       1.85440872e-02, -8.45216680e-03, 2.19445787e-02, 1.19041847e-02,
       -2.07338366e-03, -6.08241186e-03, 1.90371703e-02, 1.18270097e-02,
       2.79998668e-02, 7.85985775e-03, -1.11980923e-02, 2.42853332e-02,
       6.89697172e-03, 1.44926012e-02, 3.10156345e-02, 3.23257856e-02,
       -7.53131602e-03, -2.12375284e-03, 4.75221910e-02, 3.32766125e-04,
       1.30489413e-02, 2.32714303e-02, -6.17477903e-03, 1.52607178e-02,
       3.87075450e-03, 2.55661402e-02, -5.97445946e-03, 1.19014615e-02,
       -1.51851969e-02, 3.07744909e-02, 1.20312572e-02, -6.50998950e-03,
       7.65616260e-03, -4.12427820e-03, -1.06501170e-02, 1.55724837e-02,
       -1.67366434e-02, -3.74338310e-03, 1.47750806e-02, 7.69280596e-03,
       1.51119959e-02, 1.86354015e-02, -1.75248664e-02, -6.06767833e-03,
       3.20774913e-02, 7.54762674e-03, -1.16519034e-02, 2.27243043e-02,
       3.38186533e-03, 8.44936073e-03, 2.93315481e-03, -1.62211489e-02,
       -1.67379808e-03, 1.43292090e-02, 3.73093858e-02, 7.93720782e-03,
       -8.26164469e-05, 7.01360451e-03, 3.33791156e-03, 1.91161931e-02,
       3.00651956e-02, 1.29277566e-02, 4.50160876e-02, 3.21340710e-02,
       9.37918108e-03, 3.77793424e-02, 1.93810463e-02, 3.43264290e-03,
       1.24412002e-02, -9.75864474e-03, 1.41003439e-02, 9.57844406e-03,
       1.07829161e-02, 1.87807176e-02, -1.10067555e-03, 1.34873418e-02,
       2.01967359e-03, -1.10345427e-02, -9.59131401e-03, 9.80038568e-03,
       1.34673680e-03, 2.47086994e-02, -1.04175527e-02, -2.21680645e-02,
       -1.30018583e-02, -9.70612373e-03, 5.27231582e-03, 2.80103902e-03,
       -9.16923862e-03, 9.88815911e-03, 9.76681337e-03, 6.94513135e-03,
       3.64519958e-03, -1.28109036e-02, 2.37020338e-03, -5.17670251e-03,
       -1.37918685e-02, 6.57024002e-03, -3.03061903e-02, -1.66867569e-03,
       -2.83369771e-03, 2.56300176e-04, -2.43479330e-02, 9.09783412e-03,
       -2.20379867e-02, -2.24521179e-02, 9.05542076e-03, 1.33613339e-02,
       1.09382179e-02, 3.72075103e-03, 9.98570677e-03, -1.01065971e-02,
       2.38713827e-02, -6.29252149e-03, -2.98147127e-02, 1.13413092e-02,
       -3.51190945e-04, -1.02076298e-02, 5.49963489e-03, 1.26259057e-02,
       -2.38896366e-02, 8.22395144e-04, -6.30979938e-03, -5.30874683e-03,
       1.82523653e-02, -6.07906794e-03, 1.09769925e-02, 2.81403270e-02,
       8.22530128e-03, -3.59967798e-02, 2.01718882e-02, -2.72958372e-02,
       1.04452122e-03, -1.34067202e-04, 5.19650104e-03, -4.88473987e-03,
       2.04127915e-02, -1.38340052e-02, -3.49566191e-02, -5.31550313e-06,
       8.42880830e-03, -1.61336735e-02, 3.39245237e-02, -1.32050747e-02,
       3.01962420e-02, 3.33988927e-02, 2.15706397e-02, -2.79165842e-02,
       3.63956066e-03, 2.20556874e-02, -1.32382512e-02, 1.28864162e-02,
       -2.76804958e-02, -2.26875562e-02, 7.54417805e-03, 1.08265411e-02,
       -2.57367585e-02, 2.48089544e-02, 4.70066676e-03, 8.03081319e-03,
       3.71304639e-02, 8.85025540e-04, -5.27127786e-03, 1.49514079e-02,
       9.26021952e-03, -2.41944529e-02, -2.15059724e-02, -1.13469483e-02,
       -7.24552386e-03, 2.34643444e-02, -1.28120398e-02, -4.64746691e-02,
       1.98576059e-02, -3.85662337e-04, -1.62475854e-02, -1.85870714e-02,
       -2.71917842e-02, 1.55835161e-02, 1.89684872e-02, 6.78595388e-03,
       3.34036574e-02, 1.01620778e-02, 3.09789330e-02, -1.02169197e-02,
       -1.69824704e-03, 2.33242866e-02, -2.06474699e-02, -4.89323540e-03,
       -1.97203401e-02, 1.08837383e-02, 3.73248872e-03, 2.53267912e-03,
       -1.09954076e-02, 6.41309598e-05, -3.92219871e-02, 6.45644916e-03,
       2.49590054e-02, 2.36335211e-03, 2.97637959e-03, 2.56229714e-02,
       3.42217349e-02, 7.99042173e-03, 1.10884979e-02, -2.52741738e-03,
       -8.74791481e-03, 2.51085199e-02, -1.73851661e-02, -1.83619410e-02,
       2.08566766e-02, -5.01015550e-03, 1.05340441e-03, -2.86026439e-03,
       1.96436699e-03, 2.88849398e-02, 7.74897635e-03, -1.94544240e-03,
       3.35671119e-02, 1.00643029e-02, 1.99335236e-02, 1.84185784e-02,
       5.53165935e-03, 4.65741893e-03, 9.38914623e-03, 1.20090516e-02,
       1.25488192e-02, 2.52039693e-02, 3.10035516e-03, 1.58296730e-02,
       -7.71498214e-03, -1.07962480e-02, -1.47366486e-02,
       -1.12913782e-02, 9.52593889e-03, -1.21215153e-02, 4.77095740e-03,
       1.48709714e-02, -7.02835340e-03, -2.30446062e-03, 3.87827842e-03,
       -2.99953832e-03, -1.97627898e-02, 8.20260774e-03, -1.37793347e-02,
       1.25031294e-02, 3.71234637e-05, -4.35997769e-02, -2.50489376e-02,
       -7.83330854e-03, 4.08366462e-03, 2.52955570e-03, 1.51019590e-02,
       1.21827265e-02, 3.15509252e-02, 4.37829830e-03, 1.40714031e-02,
       8.46294779e-03, -2.13154368e-02, -2.02607680e-02, -8.65605567e-03,
       2.65635783e-03, -3.88241373e-03, -1.95217598e-02, -9.36915260e-03,
       1.86404365e-03, 2.36072913e-02, 1.05611626e-02, -9.61654261e-03,
       -6.37387531e-03, 2.54498702e-02, 5.89522300e-03, 4.64510079e-03,
       1.00354170e-02, 1.62079558e-02, 1.36057371e-02, -6.17002370e-03,
       -1.23659838e-02, -2.17409264e-02, -4.55805426e-03,
       -1.47772497e-02, -3.19489138e-03, 7.95220397e-03, 2.01067999e-02,
       1.82405151e-02, 6.42606383e-03, -9.56058502e-03, -1.82338227e-02,
       2.03036070e-02, -1.33870672e-02, 6.22899737e-03, -1.37127005e-02,
       1.53539330e-02, 1.27560515e-02, 1.63936485e-02, -3.89269181e-03,
       1.73651800e-03, 1.49921309e-02, 8.90279480e-04, 1.89294908e-02,
       -8.64840019e-03, 1.95057932e-02, -2.99507962e-03, 1.97912399e-02,
       -8.23898241e-03, 2.21615098e-03, -3.94623820e-03, -2.22905073e-02,
       -1.03445426e-02, -1.26697347e-02, 4.75002365e-04, -3.34961601e-02,
       -1.26733016e-02, -1.49554545e-02, 1.78058706e-02, -1.35769485e-03,
       -2.57322844e-02, 1.44210346e-02, 1.44488579e-02, -2.48271264e-02,
       -3.91049497e-02, -2.33000889e-02, -5.19047584e-03,
       -2.02120170e-02, 2.51999125e-02, 1.04750795e-02, 3.06483060e-02,
       -1.41455233e-02, 3.90326381e-02, 1.58991888e-02, 1.75598375e-02,
       -2.17118906e-03, -1.71191432e-02, 3.23021859e-02, 1.52764414e-02,
       8.04352481e-03, -1.04713524e-02, 3.20097655e-02, 7.65140494e-03,
       8.95706844e-03, -2.51516271e-02, 3.26286722e-03, 2.42443779e-03,
       -1.55522125e-02, 2.75259744e-03, -1.38227195e-02, 9.56661999e-03,
       -2.37333234e-02, -4.02032072e-03, -8.63694679e-03,
       -2.00829022e-02, 6.01393450e-03, 1.07844099e-02, -2.23307777e-02,
       -2.99216285e-02, -1.74447913e-02, -1.72941703e-02, 1.45135298e-02,
       -1.58914328e-02, -4.34358045e-03, 2.40079090e-02, 1.75047815e-02,
       2.01177597e-02, 9.17052384e-03, 3.71671170e-02, 5.78741077e-03,
       -6.39407523e-03, 6.18581986e-03, -2.67438740e-02, -9.66533367e-03,
       -1.21541563e-02, -1.40882963e-02, -2.32229172e-03,
       -9.47502535e-03, -1.11305332e-02, -2.39927042e-02,
       -1.56602450e-02, 7.47084850e-03, 2.87442543e-02, 9.42062773e-03,
       -1.61588248e-02, 2.33018249e-02, 1.08243171e-02, 8.73934198e-03,
       1.02303438e-02, -1.56800207e-02, -5.84315322e-03, 3.05254161e-02,
       -3.01792715e-02, -2.49344204e-02, -1.06623140e-03,
       -3.10495757e-02, -3.56905907e-02, 9.68136173e-03, -1.91442464e-02,
       -6.46610558e-03, 1.67693999e-02, 6.58238493e-03, 1.97816286e-02,
       2.15592925e-02, 3.75833064e-02, 1.97566412e-02, 1.18484544e-02,
       6.85614953e-03, -2.47664787e-02, 2.49652322e-02, 1.47649804e-02,
       2.38115224e-03, 1.57462712e-02, 1.78945195e-02, 2.45622750e-02,
       2.38772482e-02, 4.29753680e-03, -8.75675399e-03, 5.24272304e-03,
       -1.64060313e-02, -9.41979885e-03, -1.18713807e-02, 1.21429870e-02,
       -1.94023876e-03, 2.27323733e-02, -2.14428473e-02, -4.16532569e-02,
       -6.61076698e-03, -1.37714511e-02, -3.28807048e-02, 2.11150609e-02,
       -2.44038180e-02, -3.07998690e-03, 3.62668326e-03, -2.14105193e-02,
       -7.48123089e-03, 2.17221808e-02, 1.01547632e-02, 9.12309159e-03,
       1.31160729e-02, 1.10805780e-02, 8.05280916e-03, 2.63423696e-02,
       -7.35278940e-03, 7.37149548e-03, -7.80595816e-04, -2.13179737e-02,
       -1.28273079e-02, 1.62649620e-02, 4.16230364e-03, 2.52719428e-02,
       -4.03236737e-03, -7.05411192e-03, -7.04730488e-03, 2.87749525e-02,
       -2.08849777e-02, -2.66283043e-02, 1.58815384e-02, 1.32730240e-02,
       2.91942228e-02, 3.20128538e-02, -4.72870795e-03, 9.62711498e-03,
       9.49640386e-03, -4.06403095e-02, -5.40616456e-03, 4.40666117e-02,
       3.18653360e-02, 2.26047244e-02, 1.33067258e-02, -7.44268158e-03,
       1.47802513e-02, -1.15023972e-02, -5.05358074e-03, 7.36740977e-03,
       1.18486360e-02, -7.37800635e-03, 7.41826277e-03, -1.81928575e-02,
       -5.89803234e-03, 1.27212415e-02, -2.53709927e-02, -1.42795574e-02,
       5.15181928e-05, -1.25823952e-02, -9.83655639e-03, -3.57587337e-02,
       -3.49691175e-02, 4.29704562e-02, 1.20929873e-03, 1.48104271e-02,
       -5.55772567e-03, 1.33208754e-02, 2.85061989e-02, 7.78284739e-04,
       -9.16802417e-03, -1.97312183e-04, -8.42490606e-03, 6.37135888e-03,
       -1.56916096e-03, -5.21109812e-03, -1.56933423e-02, 2.26022396e-03,
       7.88858812e-03, -3.61388773e-02, -4.70511019e-02, 2.09646877e-02,
       -1.42153311e+00 ]
