%YAML:1.0
---
myHogDector_5: !!opencv-object-detector-hog
   winSize: [ 64, 128 ]
   blockSize: [ 16, 16 ]
   blockStride: [ 8, 8 ]
   cellSize: [ 8, 8 ]
   nbins: 9
   derivAperture: 1
   winSigma: 4.
   histogramNormType: 0
   L2HysThreshold: 2.0000000000000001e-01
   gammaCorrection: 1
   nlevels: 64
   signedGradient: 0
   SVMDetector: [ 3.47251780e-02, -3.38483639e-02, -1.15859890e-02,
       1.82690155e-02, 4.52925870e-03, -2.53798477e-02, 1.67462919e-02,
       -1.13732722e-02, 1.93368178e-02, 1.57065932e-02, -1.61752142e-02,
       -5.63229201e-03, -6.65760366e-03, 1.57419760e-02, 1.93655863e-03,
       2.60063279e-02, 1.53152309e-02, -7.68587971e-03, 7.15459185e-03,
       -2.50789821e-02, -8.90818238e-03, 1.13449553e-02, 1.74752790e-02,
       9.31624847e-04, 5.95514709e-03, -2.12478284e-02, 6.29980257e-03,
       1.28718524e-03, -7.27396738e-03, 8.61151051e-03, 2.65015140e-02,
       -9.11959540e-03, 2.14341637e-02, 1.60385519e-02, -4.26240312e-03,
       -3.24733630e-02, 1.57053787e-02, 1.81312324e-03, -2.92918528e-03,
       9.57121793e-03, 1.45506840e-02, 1.09523432e-02, 1.61940418e-02,
       2.09388193e-02, 2.48840880e-02, 2.00563502e-02, -4.87410603e-03,
       2.27094255e-03, 1.31726218e-02, -1.09625682e-02, -1.17098996e-02,
       4.95747244e-03, 2.76445262e-02, 3.30390409e-02, 1.05327985e-03,
       1.27983652e-02, 4.33634268e-03, 8.15370958e-03, -8.20415374e-03,
       2.33036582e-04, -1.30602429e-02, 4.32792772e-03, -1.80733874e-02,
       3.47001702e-02, -3.42350919e-03, -6.75354898e-03, 1.54016800e-02,
       -1.05451141e-02, 9.30023845e-03, -4.40028543e-03, -2.03725696e-02,
       1.26650641e-02, 1.56414919e-02, 7.60161132e-03, 1.90373771e-02,
       9.06019472e-03, 7.49011710e-03, -2.43126159e-03, 3.50817386e-03,
       4.13565058e-03, -1.02396738e-02, 2.96817999e-02, 8.78675375e-03,
       4.91987821e-03, -8.51012487e-03, 2.70668846e-02, 5.00088977e-03,
       2.48706248e-02, 1.50286891e-02, 3.52356769e-02, 7.58173689e-03,
       1.18683726e-02, 1.84151735e-02, 1.77797917e-02, -3.85634787e-03,
       7.27169728e-03, 5.44209266e-03, 8.38368083e-04, -1.79835800e-02,
       1.59540661e-02, -2.64412742e-02, 6.72438764e-04, 6.74674695e-04,
       -3.18588465e-02, -1.84528774e-03, 1.72234140e-02, 2.65289489e-02,
       6.65216125e-04, -1.18958130e-02, 2.80311634e-03, -1.03852525e-02,
       -9.80431493e-03, 8.84554815e-03, -5.92746958e-03, 9.39453300e-03,
       -1.45566128e-02, -2.04699319e-02, -1.12256249e-02, 2.66321353e-03,
       -4.47931606e-03, -9.92303900e-03, -3.60154025e-02,
       -4.25120536e-03, -5.95169188e-03, -5.38055506e-03,
       -1.01770749e-02, -8.01109057e-03, 4.20046563e-04, 4.11129138e-03,
       3.96060105e-03, 4.55140573e-04, -4.86629037e-03, -1.68158412e-02,
       -7.65931653e-03, -3.13235484e-02, -1.95531435e-02,
       -4.36676992e-03, 1.22714704e-02, -2.75082011e-02, -3.92442346e-02,
       -9.92942136e-03, -1.08216135e-02, -1.33924661e-02,
       -1.06075611e-02, -6.74817897e-03, 7.47702038e-03, -2.35915743e-02,
       5.51652163e-04, 2.43325308e-02, -8.56001116e-03, -9.25690588e-03,
       3.34767159e-03, -3.67979030e-03, -2.48420071e-02, -1.96823869e-02,
       -5.02925925e-02, -5.49909775e-04, 9.92138218e-03, -3.76645662e-02,
       -3.49865928e-02, 1.88296735e-02, 2.95600537e-02, 6.20002858e-04,
       3.96268517e-02, -6.58451440e-03, 3.75754316e-03, -5.03237639e-03,
       9.83465742e-03, 1.58596579e-02, 4.51337621e-02, 1.34163499e-02,
       -2.74851546e-02, 1.36735645e-04, -2.97492687e-02, -2.80835181e-02,
       -6.17863098e-03, -2.62405612e-02, -1.54365078e-02,
       -1.41232815e-02, -2.98965164e-03, -2.20529269e-02,
       -1.00187827e-02, -3.83645445e-02, 1.64851584e-02, 2.62236912e-02,
       1.41080481e-03, -9.41934623e-03, 1.42655578e-02, 1.26416888e-02,
       -8.65433645e-03, -1.56218931e-03, -1.43847801e-02,
       -8.39338545e-03, -1.90539453e-02, -1.97425466e-02,
       -2.12983713e-02, -8.90232995e-03, -1.62577257e-02, 3.78999463e-03,
       -6.02971110e-03, -1.92011949e-02, 3.26889195e-02, 2.94609442e-02,
       2.64964644e-02, 2.13340251e-03, 1.41620850e-02, -1.44502800e-02,
       -3.38889519e-03, 1.51228672e-02, -1.16134286e-02, 4.50379867e-03,
       -4.23554913e-04, -5.32604381e-03, -7.94164743e-03,
       -1.27744349e-02, -5.50082605e-03, -6.55246200e-03, 6.03318308e-03,
       -1.33633362e-02, -1.10900728e-03, 1.13091273e-02, -1.43912546e-02,
       -2.83886306e-02, 2.23401506e-02, 2.14216039e-02, -1.28071578e-02,
       -1.73460934e-02, -4.45083007e-02, -2.00044308e-02, 1.83891132e-02,
       -7.87806045e-03, -3.50339711e-02, 3.03753018e-02, 1.30065009e-02,
       1.03740266e-03, -1.46601663e-03, 7.56011112e-03, 2.83749234e-02,
       1.65168513e-02, 1.58042144e-02, -1.43477041e-02, 1.56622026e-02,
       1.63371023e-02, -3.98263894e-03, 3.58778262e-03, 1.35149816e-02,
       -2.39071324e-02, 1.09788980e-02, 1.69293173e-02, -3.64853628e-02,
       4.55860281e-03, 6.24826644e-03, 1.34330904e-02, 8.64877086e-03,
       -5.52463520e-04, 3.62118371e-02, 2.27432195e-02, 2.03600172e-02,
       -1.08688828e-02, 2.29266696e-02, -2.40234588e-03, 1.40034864e-02,
       -1.24362623e-02, -1.45851467e-02, 4.08521388e-03, 5.39440336e-03,
       1.67948976e-02, -3.12244147e-02, 1.71134416e-02, -8.87465198e-03,
       1.01692276e-02, 1.32017154e-02, 2.46978737e-02, 1.59616657e-02,
       -2.34502414e-03, 3.39102112e-02, 1.15919141e-02, 2.23415326e-02,
       -9.73634742e-05, -5.00687072e-03, 4.38386295e-03, -1.80937555e-02,
       3.36268859e-04, -1.70485787e-02, 5.33251138e-03, 2.11005169e-03,
       4.07341123e-03, -1.29765151e-02, -6.17617136e-03, -6.20197551e-03,
       -1.30543010e-02, 6.34082500e-03, 6.79547759e-03, 2.86582485e-03,
       -1.31142307e-02, 2.69290665e-03, 1.79591477e-02, -1.97072085e-02,
       3.24429153e-03, -7.79429590e-03, 9.09209624e-03, 2.27531884e-02,
       3.27343377e-03, -1.12141222e-02, 7.10582035e-03, -2.17581308e-03,
       -3.44153680e-03, 1.49466062e-03, 1.00526754e-02, 9.50514153e-03,
       -7.05480855e-03, -1.89711861e-02, 1.04126688e-02, 1.29538830e-02,
       -8.23233649e-03, -9.00296122e-03, 1.98993944e-02, 2.92575285e-02,
       -1.02456501e-02, 8.20984878e-03, -3.20064574e-02, 1.57253928e-02,
       8.05599149e-03, -9.96886939e-03, -2.59368457e-02, -1.03335241e-02,
       -3.42380106e-02, -5.08015603e-03, -1.52766854e-02, 1.51967593e-02,
       -2.42186990e-02, -2.93416972e-03, -4.34400077e-04, 4.50632488e-03,
       -1.30317861e-03, -2.74379849e-02, -2.02421341e-02, 1.37886032e-02,
       -1.23083021e-03, -2.10956838e-02, -1.56407878e-02, 3.98486406e-02,
       2.97830738e-02, 1.86777916e-02, -5.04500885e-03, 1.11039318e-02,
       -2.99263536e-03, 9.87188239e-03, 2.56865639e-02, 1.21278679e-02,
       -2.92290119e-03, 9.94924363e-03, -7.82309286e-03, -3.10984254e-02,
       1.08829010e-02, 1.06932863e-03, -4.84614260e-03, -1.96604780e-03,
       1.32429982e-02, 1.68281328e-02, 7.57281762e-03, 4.43417393e-03,
       -1.19401822e-02, 2.16722558e-03, 3.49000236e-03, 1.29022179e-02,
       8.61143600e-03, 8.91813543e-03, 1.74519438e-02, -1.82919856e-02,
       -6.50250679e-03, -3.39231617e-03, -2.23466521e-03, 8.51112232e-03,
       -9.12871119e-03, 7.71800149e-03, 2.79820822e-02, -2.05287384e-03,
       8.58900044e-03, -1.27884066e-02, -5.11646969e-03, 1.30787343e-02,
       -5.37042797e-04, 1.54774236e-02, -9.74989682e-03, 1.73240937e-02,
       -5.66749694e-03, -1.62146986e-02, -1.42156249e-02, 2.51962114e-02,
       2.61198469e-02, 1.43675832e-02, 3.30618280e-03, -8.09763442e-05,
       -1.47059967e-03, -1.69028267e-02, -2.25607678e-02,
       -1.12235323e-02, -5.16098086e-03, 5.53057110e-03, -6.26682187e-04,
       -2.44903509e-02, -1.83898546e-02, 2.45841015e-02, -4.45002923e-03,
       -6.09495398e-03, -1.02183055e-02, -2.50610560e-02,
       -2.24963240e-02, -2.08073389e-02, -6.83808047e-03,
       -1.67438630e-02, -4.80584474e-03, -1.14954012e-02, 1.01881698e-02,
       5.23876026e-03, 1.16855754e-02, 1.98345799e-02, 2.43941192e-02,
       1.25228027e-02, 1.11610526e-02, 9.21287294e-03, -1.63331963e-02,
       -7.93765672e-03, -7.89753161e-04, 7.59937242e-03, -1.41895581e-02,
       -1.18049560e-03, 1.33617800e-02, -1.29785500e-02, -1.97234768e-02,
       -1.72341184e-03, 3.89129296e-03, -7.31124403e-03, -1.45290839e-02,
       9.07797925e-03, -4.72339708e-03, -8.11438169e-03, -9.95749049e-03,
       -2.07693819e-02, -7.70947430e-03, 7.21496483e-03, -9.15913552e-04,
       -3.53198871e-02, -4.28256608e-04, 2.92026205e-04, -2.64368281e-02,
       -8.56045634e-03, 1.59569122e-02, -9.37591214e-03, 4.92942752e-03,
       4.92840260e-03, 8.62487406e-03, 2.16627810e-02, -5.79392724e-03,
       1.28050605e-02, -1.64173462e-03, 1.08357146e-02, -1.64322536e-02,
       2.35593729e-02, -1.05159990e-02, -3.10422340e-03, -1.05533833e-02,
       3.32190134e-02, 2.94316988e-02, 2.13210527e-02, 2.68791988e-02,
       -1.99538190e-02, -1.43206306e-02, 3.38255726e-02, 6.79877121e-03,
       2.02866644e-02, -6.60172896e-03, -2.42366027e-02, -2.04231776e-02,
       3.04157529e-02, 1.54091697e-03, -2.14391528e-03, 1.20556848e-02,
       2.31224541e-02, 2.02207104e-03, -2.31082886e-02, 7.92699307e-03,
       -1.59281269e-02, -6.18223334e-03, 2.61874427e-03, -3.32896318e-03,
       -3.03683546e-03, 4.28874604e-03, -1.75813939e-02, -9.72449221e-03,
       1.71323251e-02, -4.87710582e-03, 5.04895300e-03, 9.77239385e-03,
       1.99095532e-03, -2.98283226e-03, 3.24428305e-02, 2.67810817e-03,
       5.60356257e-03, 1.36536518e-02, -3.36567722e-02, -9.11802147e-03,
       1.85369011e-02, 9.64109413e-03, -3.08303274e-02, -1.64508484e-02,
       8.39858316e-03, -2.14121416e-02, 7.31885293e-03, -1.68507937e-02,
       -4.23562899e-03, 1.38261579e-02, 2.35975441e-02, -3.39425616e-02,
       -3.73873953e-03, 4.68344428e-02, -2.53449902e-02, -1.99710280e-02,
       -1.07084896e-04, -6.29866496e-03, -5.42837242e-03,
       -2.62168760e-04, -3.30609307e-02, 8.68896861e-03, 3.30499694e-04,
       9.35353432e-03, 2.30993647e-02, -2.31374577e-02, -7.80155230e-03,
       1.72651578e-02, 9.86916292e-03, -3.27052251e-02, 6.44667260e-03,
       -1.01003423e-02, -2.48310659e-02, 1.18471198e-02, 6.09365618e-03,
       -1.09443180e-02, -1.68770533e-02, 2.21843552e-02, -2.28367336e-02,
       -6.99312007e-03, 1.35743655e-02, 4.22378816e-02, 3.27186845e-02,
       -1.20258480e-02, -2.10757647e-02, 3.86106633e-02, 3.41293439e-02,
       -2.78142258e-03, 9.16380435e-03, 5.01186308e-03, 4.91609937e-03,
       2.29056180e-02, 2.15838216e-02, -3.57144675e-03, 2.15654764e-02,
       4.25590901e-03, -2.89266277e-02, -1.58416305e-03, 1.34833278e-02,
       -1.07419118e-02, 9.28447302e-03, 7.62749417e-03, -1.67550538e-02,
       3.03458944e-02, 2.20904686e-02, -1.56299286e-02, 1.37808798e-02,
       6.85239630e-03, -1.07939458e-02, 4.54584230e-03, 2.32154801e-02,
       2.07099179e-03, 2.34514754e-02, 2.42290553e-02, -7.50729768e-03,
       -2.30285358e-02, -3.12018916e-02, 2.32565124e-02, -1.36204241e-02,
       -1.77502688e-02, -8.44457839e-03, 2.59309672e-02, 2.64497343e-02,
       -2.57607643e-03, -1.32764522e-02, -2.44306419e-02, 1.06458608e-02,
       1.28717825e-03, -1.40186967e-02, -1.34772602e-02, 2.66890470e-02,
       -9.16355103e-03, -1.20120011e-02, -8.94942693e-03,
       -3.46479639e-02, 9.00691468e-03, 1.50238043e-02, -8.17015860e-03,
       -3.06676738e-02, 4.49030194e-03, 2.51476094e-02, -1.03326179e-02,
       -7.34285638e-03, -3.22660692e-02, -1.89058017e-02, 8.36350769e-03,
       3.83139867e-03, -3.11061647e-03, -1.20678563e-02, -1.17580583e-02,
       -1.56702157e-02, 5.33523923e-03, -4.99128643e-03, 3.89598645e-02,
       -6.99118059e-03, -7.97000434e-03, -8.02668184e-03,
       -4.36420698e-04, 2.52541490e-02, -6.98602013e-03, 8.92143883e-03,
       5.50528057e-03, -3.22172698e-03, 5.97683247e-03, 1.16737364e-02,
       2.12354977e-02, 2.10661925e-02, 1.24990474e-02, -1.43801160e-02,
       -4.50035138e-03, 3.54492990e-03, 5.41761145e-02, 1.97362620e-02,
       -5.52437780e-03, -7.83495489e-04, 1.20792380e-02, -8.28041788e-03,
       -2.49220748e-02, -1.45210279e-02, 2.54839491e-02, -1.54220648e-02,
       1.86976045e-02, 9.19136778e-03, 1.76785961e-02, -1.05798589e-02,
       -5.60641522e-03, 3.92484479e-03, -2.32530572e-03, -1.68174617e-02,
       1.35124288e-02, -7.48906145e-03, -1.79828852e-02, -1.14358217e-02,
       -3.97245027e-03, 1.69442669e-02, 2.86617484e-02, -6.76461775e-03,
       -7.23633962e-03, 4.45110491e-03, 1.04638496e-02, -1.29331453e-02,
       -1.28376530e-02, -7.28870567e-04, 3.66679882e-03, 5.61601063e-03,
       4.30231588e-03, 8.49104673e-03, 1.19783108e-04, -7.64580444e-03,
       2.47233231e-02, 6.71940763e-03, -8.35564360e-03, 1.60453953e-02,
       2.22661830e-02, -4.15962609e-03, 9.43969470e-03, -1.10258337e-03,
       7.80926552e-03, 1.12096472e-02, -2.70168707e-02, -1.02491537e-02,
       1.83663517e-02, 7.04225153e-02, 8.67353578e-04, -7.99019705e-04,
       2.86455285e-02, 1.68702118e-02, -3.29956203e-03, -1.02175428e-02,
       -3.24043483e-02, 1.71033619e-03, 6.17104582e-03, -3.85347046e-02,
       -3.76797803e-02, 7.63904303e-03, -1.15007693e-02, -1.37282638e-02,
       -2.86809988e-02, -2.89816894e-02, 3.40943784e-02, 5.48809953e-02,
       -3.12985368e-02, -6.56818913e-04, 1.30933402e-02, 1.25287855e-02,
       1.22773536e-02, -7.33769173e-03, -2.09130626e-02, 1.99526306e-02,
       1.07995300e-02, -2.90537905e-02, 1.17547042e-03, -5.67968702e-03,
       -2.40363292e-02, -1.13805709e-02, -1.97858550e-02,
       -1.63162798e-02, 1.06667355e-02, 3.81202027e-02, -4.81080310e-03,
       -2.02915678e-03, 2.71566007e-02, 2.05251505e-03, 8.30984022e-03,
       -5.08156882e-05, -5.98240225e-03, -2.14682004e-04, 2.26124804e-02,
       -8.99523031e-03, 1.18714310e-02, 1.00061679e-02, -1.50628090e-02,
       -1.52534898e-02, 3.27914953e-02, 4.27161437e-03, 2.46635173e-02,
       3.35276388e-02, 7.01627135e-03, 9.61109437e-03, 7.13786343e-04,
       -3.49403429e-03, 2.31844950e-02, 1.49807129e-02, -1.24567105e-02,
       2.10712850e-03, 3.23462337e-02, 4.47975984e-03, 6.12860499e-03,
       6.54799398e-03, -2.71797944e-02, -7.88544677e-03, -5.66207478e-03,
       -1.80229880e-02, 3.38666537e-03, 4.99245757e-03, -1.81305548e-03,
       6.03978848e-03, 1.30302701e-02, -5.40349772e-03, -1.96352173e-02,
       3.04583143e-02, 1.93208717e-02, 4.32136003e-03, 7.31711602e-03,
       2.22042436e-03, -1.33013008e-02, 2.65369043e-02, -1.39088864e-02,
       -8.18073284e-03, 2.44912468e-02, 6.00342406e-03, 3.33633423e-02,
       3.59218121e-02, -2.51472089e-02, -1.35606213e-03, 3.45652504e-03,
       3.60068982e-04, 1.11419975e-03, 1.45786088e-02, -5.57801453e-04,
       1.90839302e-02, 1.99159347e-02, -2.87837088e-02, -2.09904206e-03,
       2.43331473e-02, -1.38624068e-02, 1.01505388e-02, 3.04608518e-04,
       -9.95999854e-03, 1.23318601e-02, -1.00615853e-02, 1.12656793e-02,
       1.15093039e-02, -1.40757672e-03, -1.23020839e-02, -2.98271957e-03,
       1.05866101e-02, 1.85340010e-02, 7.36775901e-03, 5.22009842e-03,
       5.53651844e-05, 1.21615920e-03, 3.54392128e-03, -1.89175904e-02,
       -1.60481818e-02, 3.16968188e-03, 9.92783252e-03, 3.65949050e-02,
       2.03102026e-02, 4.13697166e-03, 3.60986963e-02, 2.69878469e-02,
       7.48202670e-03, 1.21631296e-02, 3.14026466e-03, -1.02223288e-02,
       2.16276124e-02, 1.35731176e-02, 2.33290009e-02, 3.56274322e-02,
       1.24836108e-02, 1.26902098e-02, -1.36587406e-02, 3.88805661e-03,
       3.17876972e-02, 3.44528444e-03, 1.86708178e-02, -1.49972551e-02,
       -4.14186018e-03, 1.52532160e-02, -1.38495686e-02, -2.76240446e-02,
       4.67253011e-03, 1.11901490e-02, 1.33834649e-02, 8.25899001e-03,
       -1.25328721e-02, -7.31304428e-03, -5.10735065e-03,
       -3.49749997e-02, -5.86327398e-03, -2.01773029e-02, 8.76548351e-04,
       -1.12416688e-02, 7.51420110e-03, 1.25146192e-02, 4.19143513e-02,
       4.99001704e-02, 3.85380723e-02, 1.93536766e-02, 1.64603349e-02,
       3.09297089e-02, -1.79528596e-03, -1.83272902e-02, 1.10963429e-03,
       3.39061618e-02, 2.56418679e-02, 9.72299930e-03, 1.60696497e-03,
       -1.30458763e-02, 1.16644166e-02, -3.21916095e-03, -2.12906078e-02,
       -2.15223227e-02, -1.03416201e-02, -2.67582890e-02,
       -3.04980669e-02, 3.71347601e-03, -4.77685640e-03, -5.91306901e-03,
       4.13076812e-03, -1.49178933e-02, -4.01302567e-03, -2.03641877e-02,
       -2.08113678e-02, -8.04555416e-03, -1.77788327e-03, 1.70345753e-02,
       2.32534227e-03, -1.04713943e-02, 1.09283263e-02, -6.52670814e-03,
       1.92516968e-02, 7.61182094e-03, 3.26109934e-03, -4.78305272e-04,
       3.81607306e-03, -1.94593389e-02, -1.49705457e-02, 2.18689144e-02,
       6.24558283e-03, 1.29597438e-02, 3.94498697e-03, -7.40522379e-03,
       -2.03830153e-02, -1.07947197e-02, -7.75568187e-03,
       -1.37493676e-02, 6.88331958e-04, -1.79608073e-02, -1.91412866e-02,
       9.18897428e-03, 1.10114738e-02, -3.23122554e-02, 1.22752581e-02,
       -1.20372958e-02, -3.94171402e-02, -2.89825238e-02,
       -2.16270499e-02, 2.15697801e-03, -4.07324359e-03, -7.18806637e-03,
       -1.45305926e-02, -7.09442794e-03, -1.41137363e-02, 2.47516260e-02,
       1.94700789e-02, -4.67869174e-03, 2.76270276e-03, 2.80170329e-02,
       2.35898234e-02, -1.17649855e-02, 3.54648987e-03, 2.14068722e-02,
       8.55769310e-03, 7.41193024e-03, -2.15715636e-02, 1.60235856e-02,
       2.60435790e-02, 2.07106620e-02, -4.19010818e-02, -2.25882996e-02,
       2.32659448e-02, 4.15667007e-03, 1.56497788e-02, 7.97058176e-03,
       2.09149029e-02, -9.96503886e-03, -1.29303502e-04, 7.30964681e-03,
       2.31348500e-02, 4.76855645e-03, 4.37262375e-03, 2.43502134e-03,
       -4.99870349e-03, -1.85347479e-02, -2.15732586e-02,
       -2.22480968e-02, -1.54093085e-02, -2.33640801e-02,
       -3.47297788e-02, 1.89283341e-02, 1.46722775e-02, -1.26076937e-02,
       1.94554236e-02, 1.60775278e-02, 1.92594044e-02, -1.91393550e-02,
       -9.82567295e-03, 6.66155061e-03, -6.25866698e-04, 2.39177812e-02,
       -7.74786808e-03, -6.55671721e-03, 3.51492204e-02, 2.22125743e-02,
       8.75340030e-03, -2.73777964e-03, -8.31592921e-03, -2.46578595e-03,
       -1.35265226e-02, -2.27902574e-03, -6.17113244e-03,
       -2.91625764e-02, -9.73446388e-03, -1.62466224e-02,
       -4.44221823e-03, -2.06075218e-02, -8.77959537e-04,
       -3.47943045e-02, -3.25158685e-02, -3.10581550e-02,
       -7.43535208e-03, -1.70941930e-02, -6.09196629e-03,
       -9.82137024e-03, -2.34086514e-02, -1.11000706e-02, 1.15703996e-02,
       -5.94770862e-03, 1.54588725e-02, 2.55330279e-02, 5.85819967e-02,
       -1.72500440e-03, 1.71498656e-02, 3.15670855e-03, 1.37949444e-03,
       1.06888171e-02, -2.63496605e-03, 1.65070258e-02, 3.71593051e-02,
       5.87690175e-02, 4.15010424e-03, 8.43887310e-03, -1.73473340e-02,
       -1.66866914e-04, -4.29458683e-03, 9.39411519e-04, -1.90106016e-02,
       -9.45931114e-03, 1.63292773e-02, 9.25601739e-03, -4.45146998e-03,
       -4.14623925e-03, 6.64091203e-03, 2.78328895e-03, 1.76411495e-02,
       -1.40568300e-03, -1.06862169e-02, -2.74250787e-02,
       -2.72618327e-02, 3.46005266e-03, 3.73906828e-02, -3.33480020e-05,
       3.85007518e-03, 6.83968887e-03, 1.46341799e-02, 1.56223336e-02,
       5.64704314e-02, 1.90281291e-02, 2.06177067e-02, -1.84562895e-02,
       -1.47439279e-02, -2.30963826e-02, 4.52629232e-04, -5.56673482e-03,
       9.82857123e-03, 8.36026389e-03, -1.67476442e-02, 1.51590463e-02,
       -4.24310239e-03, -1.15782982e-02, -8.43251310e-03, 1.32489586e-02,
       1.12904813e-02, 1.87748633e-02, 5.01044840e-03, -2.05387063e-02,
       4.28500399e-03, 2.40215864e-02, 8.76286533e-03, -2.05245409e-02,
       3.99293611e-03, 8.88886582e-03, -1.37327483e-03, -5.56630921e-03,
       -4.84021753e-03, -1.46568287e-02, -1.40998443e-03, 4.02271049e-03,
       5.99975837e-03, -6.09077886e-03, -1.09329575e-03, -7.31613906e-03,
       5.74704027e-03, -1.53241130e-02, 1.14216749e-02, -7.84908980e-03,
       -2.98142643e-03, -2.22841129e-02, -1.86239630e-02, 8.28229263e-03,
       -2.50627883e-02, -2.02903547e-03, -1.63302235e-02,
       -3.49321328e-02, -1.08195972e-02, -1.16311070e-02,
       -2.16351599e-02, 1.90358202e-03, 2.80242451e-02, -4.65750042e-03,
       -1.01495301e-02, -1.11822030e-02, -1.04882820e-02, 7.55510712e-03,
       2.21022032e-02, 9.88938264e-04, 1.52366748e-02, 2.06817631e-02,
       -1.24575775e-02, 3.75372940e-03, -1.66189875e-02, -2.95428489e-03,
       2.30992623e-02, 1.50106754e-02, -3.11536784e-03, 7.79183116e-04,
       6.43158332e-03, -2.34598853e-03, 1.41213872e-02, 9.65401903e-03,
       1.50348747e-03, 2.43794695e-02, -2.05540732e-02, -1.02732023e-02,
       2.29981868e-03, 1.67989228e-02, -1.61133166e-02, 2.46224422e-02,
       -5.30420383e-03, 4.58065094e-03, 2.99609639e-02, -2.44986061e-02,
       -1.94414202e-02, 4.89771599e-03, -1.30922161e-02, 5.25559904e-03,
       -2.02851985e-02, -2.65681371e-02, -2.94935554e-02, 7.60345254e-04,
       2.71503087e-02, 2.54967455e-02, 2.36077402e-02, 1.53483860e-02,
       -4.78636753e-03, -1.20920772e-02, -4.57818061e-03, 4.63502435e-03,
       7.13946344e-03, -1.65853370e-02, 9.92602389e-03, 7.27637634e-02,
       3.97580788e-02, 2.70180982e-02, -9.30922572e-03, -3.51047404e-02,
       -3.56342830e-02, -2.40201540e-02, 4.85296994e-02, 4.02849615e-02,
       6.49884939e-02, 6.04569763e-02, 3.32077686e-03, -7.18748709e-03,
       -1.18877375e-02, -4.90298541e-03, 8.17685854e-03, 2.50038598e-02,
       -6.87574502e-03, -2.21411269e-02, -1.07115274e-02, 2.86238408e-03,
       -1.11916745e-02, -4.29621525e-03, 1.59841459e-02, 2.48991325e-02,
       -3.52747254e-02, -4.37953137e-02, -1.44095998e-02, 2.90098879e-02,
       6.30290294e-03, -9.83608048e-03, 2.00507902e-02, 4.14162502e-02,
       4.96392185e-03, 4.59400974e-02, 2.26174649e-02, -9.85751045e-04,
       1.32237254e-02, -2.90303165e-03, 9.39095276e-04, -1.00859255e-02,
       2.60790009e-02, 5.72638996e-02, -4.36297711e-03, -1.09525202e-02,
       1.76154841e-02, 3.43801118e-02, 8.63585342e-03, -1.35362067e-03,
       4.05266061e-02, 5.36825880e-02, 3.38734351e-02, -4.38739022e-04,
       4.86984402e-02, 7.70503283e-02, 8.15889984e-02, 8.13785533e-04,
       -1.20803984e-02, 1.77939907e-02, 2.78927926e-02, -8.31915531e-03,
       3.86967231e-03, 5.09960987e-02, 2.05045324e-02, 1.84379052e-02,
       -2.53404640e-02, -1.26691666e-02, -2.22108141e-02,
       -2.29904540e-02, -3.50919105e-02, -1.82900690e-02, 3.78685147e-02,
       8.26665163e-02, 4.37607579e-02, 1.38685377e-02, 4.27054195e-03,
       2.26041358e-02, 6.44222423e-02, 6.08718069e-03, -2.14365069e-02,
       3.30202980e-04, 8.86121579e-03, -1.47862965e-03, -2.68051047e-02,
       -1.23918839e-02, -1.52787138e-02, -3.19777289e-03,
       -4.35347296e-02, 2.55995728e-02, 9.03468728e-02, 1.30605251e-02,
       1.49292052e-02, -3.38083901e-03, 1.49703594e-02, 8.96793790e-03,
       9.89042409e-03, -6.93252636e-03, -1.50718063e-03, -7.95043015e-04,
       -2.54301187e-02, -2.70374492e-03, -2.39564758e-02,
       -1.82543776e-03, 1.84563231e-02, 2.84350812e-02, 1.27127720e-02,
       -7.70524377e-03, 8.60513188e-03, -7.95308407e-03, -1.71171874e-02,
       -2.42102090e-02, 2.07524970e-02, 1.45605737e-02, 1.60232373e-02,
       -3.30391377e-02, -1.82890706e-02, 6.51136972e-03, -2.36178935e-02,
       -2.99436301e-02, -2.16957945e-02, 8.63257330e-03, 4.77457093e-03,
       6.46262243e-03, -1.63387612e-03, 2.96441913e-02, 1.76660623e-02,
       6.93021901e-03, 1.45653933e-02, -1.10892653e-02, 6.63526822e-03,
       6.34361664e-03, 3.79026495e-02, 2.50133127e-02, 4.06709649e-02,
       5.88277131e-02, 1.88355725e-02, -1.33727281e-03, -2.39070989e-02,
       -3.82076949e-04, -9.26589873e-03, 2.35263593e-02, 9.31273680e-03,
       3.45065258e-03, 2.86068358e-02, -2.82523073e-02, 3.80665180e-03,
       3.37464106e-03, 4.70921071e-03, -6.25930587e-03, 2.96433945e-03,
       1.00246603e-02, 1.22528467e-02, 1.99343786e-02, -1.41045693e-02,
       -2.86063999e-02, -1.13979764e-02, -1.23268170e-02,
       -1.25237275e-02, -9.94622614e-03, -8.86910944e-04, 3.32268961e-02,
       4.32517417e-02, -6.13790879e-04, -7.84026342e-05, -3.13460901e-02,
       -1.75592533e-04, -1.07055651e-02, 1.32335778e-02, 3.52928415e-02,
       2.26006601e-02, 2.39293966e-02, -7.75158498e-03, -1.40163889e-02,
       1.86294783e-04, -1.17154345e-02, 2.63567660e-02, 1.05786715e-02,
       8.11129529e-03, -2.03639409e-03, 2.56256363e-03, 3.02636693e-03,
       -1.04499022e-02, -1.78521406e-03, -2.27173977e-03,
       -5.25116734e-03, -3.86950863e-03, -3.95876635e-03, 3.66469356e-03,
       -1.98482629e-03, 3.94731062e-04, -1.87721662e-02, -2.10113022e-02,
       1.64280308e-03, 3.23446211e-03, 3.72477411e-03, 1.01023903e-02,
       2.83377897e-02, 2.76858006e-02, 7.37229362e-03, -3.62841669e-03,
       -8.15458223e-03, 2.71094069e-02, 1.87570311e-03, -1.68666907e-03,
       2.61099171e-03, 3.97936143e-02, 1.10845771e-02, 2.86926236e-03,
       -1.55515270e-02, -2.72468794e-02, 8.90593976e-03, -1.17800152e-03,
       4.16304097e-02, 3.87252979e-02, 1.00869136e-02, -2.50232546e-03,
       3.08435434e-03, -2.81778094e-03, -3.25554907e-02, 2.00738627e-02,
       -3.63320787e-03, -9.99994483e-03, -3.31006348e-02, 3.89886298e-03,
       -2.32961476e-02, -1.11968315e-03, -3.92862521e-02, 9.75385495e-03,
       -1.34170922e-02, -5.73307229e-03, -1.66727975e-02,
       -1.15844384e-02, 8.98897182e-03, 5.71954763e-03, -7.89444894e-03,
       -1.94820412e-03, -3.17689329e-02, 1.38205383e-02, -8.88462551e-03,
       4.22626659e-02, 5.11988513e-02, 2.39693206e-02, 7.93118775e-03,
       -1.33635560e-02, 4.09419555e-03, -4.52495553e-03, 7.08882883e-03,
       6.65422063e-04, 3.72949652e-02, 3.21113355e-02, -3.72383744e-02,
       -1.03380217e-03, -1.74924135e-02, -1.61893889e-02,
       -1.93005372e-02, -8.39809980e-03, 7.58770620e-03, 2.67129727e-02,
       5.55559600e-05, 2.97496305e-03, 1.12368958e-02, -2.63966769e-02,
       -5.80701465e-03, 1.00125484e-02, -3.34581337e-03, -4.27165218e-02,
       1.50494119e-02, 1.28339138e-02, -1.93517543e-02, 1.63017760e-03,
       -1.57443751e-02, -8.20771139e-03, -2.84475647e-02, 1.03708869e-02,
       -4.90813982e-03, 2.60590632e-02, 3.74901108e-02, 1.14328796e-02,
       -8.02800409e-04, -2.28062104e-02, -2.56869681e-02, 1.64338050e-03,
       -3.93610308e-03, -2.76145190e-02, 1.67922792e-03, 1.41202286e-02,
       1.99723821e-02, 2.07654294e-02, -1.20825693e-02, -4.83539235e-03,
       -6.12021750e-03, -3.96025507e-03, -3.30004543e-02, 1.92499887e-02,
       -2.17414825e-04, 2.31738240e-02, 7.26189744e-03, -7.54315313e-03,
       -3.16154771e-02, -1.08693410e-02, -1.03419451e-02,
       -2.76357159e-02, -3.47520900e-03, -2.49444135e-03,
       -1.64251905e-02, 1.85263455e-02, -3.31114866e-02, -4.38454635e-02,
       -5.55871846e-03, 3.24374158e-03, -3.00173257e-02, 1.27176289e-03,
       -2.04893779e-02, 2.92455987e-03, 1.92645490e-02, -1.66709460e-02,
       -2.98034307e-03, -5.66567760e-03, -3.14375050e-02,
       -4.27502282e-02, -6.49201684e-03, -9.73550789e-03,
       -2.84786336e-02, 4.95021455e-02, 3.58605594e-03, -1.89315341e-02,
       -4.86618886e-03, -1.61919146e-04, -5.61288605e-03, 7.64649780e-03,
       -4.52656038e-02, 2.44242791e-03, 3.83576415e-02, -9.49618127e-03,
       1.91148103e-03, -1.96737750e-03, -1.97757315e-02, -2.43134229e-04,
       8.38089269e-03, 3.18402126e-02, -1.81041285e-02, 7.01065734e-03,
       4.09731362e-03, 4.30709962e-03, -1.51569946e-02, -2.81692911e-02,
       -4.88728099e-02, -1.91925447e-02, 3.19202733e-03, -2.02860702e-02,
       2.27592867e-02, -1.57123394e-02, -9.05508641e-03, -1.71097983e-02,
       -1.78251006e-02, 2.79266713e-03, -2.79721729e-02, -1.55457668e-02,
       -7.68270809e-03, 4.80665872e-03, -2.61734817e-02, -1.79140444e-03,
       -1.07656233e-02, -1.49399433e-02, -2.73082275e-02, 2.26025637e-02,
       2.36825179e-02, 3.26214853e-04, 1.82512142e-02, -1.82007775e-02,
       1.31234955e-02, -4.79805935e-03, 1.18771044e-03, -1.33489547e-02,
       -2.77153449e-03, 2.87521482e-02, -8.52131378e-03, 3.11714541e-02,
       -2.43155635e-03, -2.53326111e-02, -4.58662100e-02,
       -1.20595435e-03, -1.07398275e-02, -2.28661131e-02,
       -1.74165089e-02, -1.51452702e-02, -8.96430202e-03,
       -1.95990112e-02, -1.86020639e-02, -2.20817663e-02,
       -2.71858778e-02, -3.53758186e-02, -2.31670272e-02,
       -2.82656718e-02, 3.15944105e-02, 4.75238673e-02, 4.85882275e-02,
       2.06016004e-02, -1.35357529e-02, -5.22783725e-03, 6.30573509e-03,
       -1.33174118e-02, 2.66496912e-02, 1.25305038e-02, 3.40326913e-02,
       3.45231965e-02, 8.77711270e-03, 1.58037040e-02, -3.43651715e-04,
       -1.55701144e-02, 3.05705946e-02, 2.77171321e-02, 4.95118496e-04,
       -1.35578373e-02, -2.15321817e-02, 4.56056837e-03, 6.32190844e-03,
       2.93584205e-02, 2.45950953e-03, 1.53487893e-02, 4.83840413e-04,
       2.57919263e-03, -4.05756943e-02, -1.73052028e-02, -4.19968255e-02,
       -5.14649078e-02, -2.12669224e-02, -1.84713602e-02,
       -2.77543697e-03, 4.11350001e-03, 1.67805050e-02, 4.42968160e-02,
       8.10036901e-03, 3.30392681e-02, 6.71715587e-02, 8.26592892e-02,
       2.74268333e-02, 4.59386371e-02, 2.31144708e-02, -6.36344636e-03,
       -1.43888304e-02, -1.63731966e-02, -1.16390670e-02, 9.94958915e-03,
       1.21178869e-02, -6.68403273e-03, -1.81346815e-02, -3.24302283e-03,
       2.87367124e-02, 7.09652249e-03, 1.11890258e-02, -1.55757391e-03,
       -1.93055831e-02, 1.36842998e-02, 4.27493127e-03, 1.91571750e-02,
       1.51207652e-02, -2.91598272e-02, -3.02450564e-02, -9.24066734e-03,
       4.16723685e-03, -3.52774523e-02, 1.62549261e-02, 1.08009912e-02,
       -2.96486858e-02, -1.60624702e-02, 1.77742611e-03, 3.54420859e-03,
       9.97231528e-03, 1.80937164e-02, -3.97873158e-03, 2.47582532e-02,
       6.80634892e-03, -5.13474736e-03, 1.91386770e-02, -4.15809499e-03,
       -3.31729911e-02, 2.25218432e-03, 1.59302466e-02, -1.18880607e-02,
       4.21003290e-02, 1.46382935e-02, -1.45623181e-02, -1.56181604e-02,
       4.40983251e-02, -1.68885235e-02, -1.04677007e-02, -1.35792783e-02,
       -1.81422420e-02, -3.77195841e-03, -1.03381947e-02,
       -1.91721655e-02, 4.99650016e-02, 2.64756139e-02, -2.39739101e-02,
       -1.92256086e-02, -4.07864666e-03, 8.42748862e-03, 4.36810497e-03,
       -8.66641384e-03, 1.02301501e-03, 4.93976735e-02, 3.39370519e-02,
       1.75777252e-03, -1.50377108e-02, -5.69586596e-03, -9.39038408e-04,
       -2.02208832e-02, -7.12569663e-03, -3.65310125e-02, 3.01891491e-02,
       3.11016999e-02, 2.02403660e-03, 7.06896791e-03, 1.32220061e-02,
       -6.73128339e-03, 8.06445163e-03, -1.64501965e-02, -1.98420603e-02,
       2.00574230e-02, -2.87119579e-02, -2.44521331e-02, 3.38681266e-02,
       2.50470359e-02, 1.82836633e-02, 2.78652888e-02, 8.48717056e-03,
       -1.78643968e-02, -1.83856320e-02, -2.66810916e-02, 4.77654599e-02,
       5.28574623e-02, 3.89998816e-02, 6.48599467e-04, 3.90925407e-02,
       2.98316069e-02, 2.21469556e-03, -3.72796841e-02, -2.74002589e-02,
       -1.62188616e-02, 2.28598434e-02, 2.18519364e-02, 2.73431670e-02,
       5.85429929e-02, 5.61238639e-02, -2.18621865e-02, -3.52720842e-02,
       -3.39521840e-02, 1.12789869e-02, 2.21986659e-02, 4.44672219e-02,
       -1.90318711e-02, 3.87580320e-02, 7.18802959e-02, 2.44408697e-02,
       -2.90531069e-02, 3.80214006e-02, 4.86305580e-02, 4.40968899e-03,
       2.98919491e-02, -8.46879091e-03, 2.50190329e-02, 9.52276960e-03,
       2.65205093e-02, 3.40776630e-02, -6.31050905e-03, 7.12949375e-04,
       6.60997583e-03, 3.00326347e-02, 8.30880774e-04, 1.15971174e-02,
       2.42911652e-02, 3.84122245e-02, 3.27128135e-02, 4.20500264e-02,
       4.27173972e-02, 1.42700030e-02, 4.80716769e-03, -6.88533625e-03,
       1.86401810e-02, 5.83155453e-03, 2.39698924e-02, 2.67221536e-02,
       -2.74152099e-03, 3.75673696e-02, 1.35828853e-02, -1.60187799e-02,
       -9.33829416e-03, 1.00059304e-02, 1.72629673e-02, 1.63965230e-03,
       1.72411033e-03, -2.46059634e-02, 1.76035129e-02, 5.20445034e-02,
       3.29075009e-02, 1.60113291e-03, 4.68816012e-02, 4.97631580e-02,
       6.32919222e-02, 4.55245515e-03, -2.35240646e-02, -2.03011073e-02,
       -2.36552441e-03, 2.59083533e-03, 1.02305003e-02, 9.81333759e-03,
       1.09046167e-02, 9.45733860e-03, -3.76367196e-02, -2.97482335e-03,
       3.98351364e-02, 4.66146283e-02, 2.96399277e-02, 2.23044117e-05,
       3.32179070e-02, 4.88742441e-02, 1.02517195e-02, -1.57062151e-02,
       -1.44458273e-02, -2.74893064e-02, 2.03512404e-02, 3.46924717e-05,
       1.07314193e-03, -8.53612740e-03, -1.32537587e-02, -7.26647628e-03,
       -4.40629013e-02, -4.53985902e-03, 1.43043394e-03, 9.47888382e-03,
       1.11943567e-02, -1.84807684e-02, 1.80186946e-02, 2.03943327e-02,
       4.21720073e-02, -8.93324614e-03, -9.42474138e-03, -4.26890049e-03,
       -2.07656175e-02, -2.04268172e-02, -2.13873684e-02,
       -8.36210325e-03, -8.09456874e-03, 3.25699174e-03, 5.03001129e-03,
       -7.54056033e-04, 2.11730273e-03, 2.50688624e-02, 8.44251551e-03,
       -2.54170988e-02, 1.00891432e-02, 3.69770243e-03, 3.86501327e-02,
       -1.87357906e-02, 1.31654125e-02, 2.09384095e-02, 1.08721582e-02,
       -3.49499732e-02, -1.99817419e-02, -2.24458259e-02,
       -2.43989732e-02, -4.54035122e-03, -7.68040773e-03,
       -5.02769742e-03, 1.23095058e-03, -1.69401485e-02, -1.27212296e-03,
       9.48856771e-03, 1.46835763e-02, -3.40768811e-03, 5.48041938e-03,
       1.69345252e-02, -4.21408638e-02, -1.01941533e-03, -8.70286208e-03,
       -2.61142626e-02, -1.80771668e-02, -1.85704958e-02, 7.64081301e-03,
       2.30268799e-02, -4.22714017e-02, 8.30058381e-03, 1.09001091e-02,
       -1.11596044e-02, -1.71773043e-02, 2.41560377e-02, 1.55409863e-02,
       -6.39953371e-03, -1.09034777e-03, 1.39817258e-03, -3.92579064e-02,
       -1.31051773e-02, -1.45481648e-02, -2.36119367e-02,
       -6.78186631e-03, -3.39447148e-02, 5.26328012e-03, 1.82798952e-02,
       -1.71076264e-02, -4.92176563e-02, 9.74143483e-03, 1.96972322e-02,
       8.96396488e-03, 3.94786894e-03, -1.46381026e-02, -1.24393133e-02,
       -1.01781497e-02, -5.23518920e-02, -1.13113942e-02,
       -7.30561512e-03, 9.84414387e-03, 4.58543468e-03, 3.54225771e-03,
       2.98330430e-02, 2.01902371e-02, 1.32662803e-02, -2.75202207e-02,
       -3.57214399e-02, -3.17286104e-02, -4.56285942e-03, 1.69200711e-02,
       -2.26078462e-03, -2.54491698e-02, -1.14643509e-02, 1.38427457e-02,
       -3.50140221e-02, -9.13530216e-03, -2.21882667e-02, 3.95229831e-03,
       1.59576759e-02, 1.68794673e-02, -1.65761877e-02, 1.12726702e-03,
       -7.43069174e-03, -1.15396911e-02, -3.24841845e-03, 3.54895531e-03,
       1.30479271e-02, 1.68481469e-02, 1.91667397e-03, 3.79355028e-02,
       -5.38633205e-04, 5.17199608e-03, -2.87424345e-02, -1.41748292e-02,
       -2.19635908e-02, -8.91879294e-03, 1.39219007e-02, 4.11174223e-02,
       -1.48014147e-02, 9.28824826e-04, -6.03874354e-03, -3.18064205e-02,
       -3.49109732e-02, 5.07789198e-03, 1.47535019e-02, 2.56159361e-02,
       2.56252140e-02, 7.80043239e-03, 1.67496863e-03, -1.27576068e-02,
       -2.45656837e-02, -3.18790115e-02, 1.67352129e-02, -5.94540033e-03,
       2.04559276e-03, 3.63625921e-02, -8.02234001e-03, -3.53698619e-03,
       -2.47642882e-02, 5.85090276e-03, -3.09220850e-02, 7.63117056e-03,
       -2.55999458e-03, -5.46484813e-03, -2.30805180e-03,
       -1.36967860e-02, -2.01666094e-02, 1.57490503e-02, -7.56034022e-03,
       6.62453799e-03, 5.16897403e-02, -1.96407288e-02, 1.75684616e-02,
       9.39492043e-03, -2.80135851e-02, -2.59177480e-02, 2.77137514e-02,
       -5.85164642e-04, -1.67183243e-02, 1.48199620e-02, -2.30367444e-02,
       3.97849688e-03, 3.87175404e-03, -2.14774497e-02, 6.16595522e-03,
       1.93130951e-02, -3.23648266e-02, 1.82127822e-02, 3.77315190e-03,
       -4.19743732e-02, -1.34042474e-02, -1.26771815e-02,
       -2.47923657e-02, -1.15682781e-02, 3.02784517e-02, 2.13536564e-02,
       8.31599440e-03, 5.59639074e-02, -1.79578364e-02, 2.41767801e-03,
       1.80626567e-02, -9.86101199e-03, -9.60792415e-03, 4.20020847e-03,
       -7.11951265e-03, -1.30903756e-03, 4.36717458e-02, 1.55944331e-02,
       -3.27160433e-02, -1.27851320e-02, -2.10636184e-02, 1.87301263e-02,
       7.66943581e-03, 7.62397144e-03, -4.87183686e-03, 1.63375947e-03,
       -3.31309363e-02, -6.31427532e-03, 2.32412666e-02, -1.69890691e-02,
       -1.61873326e-02, 1.36141153e-02, -2.56922736e-04, 7.24016549e-03,
       1.71994064e-02, 7.84332957e-03, -2.21203454e-02, -1.77249406e-02,
       -5.45493849e-02, 1.82745177e-02, 2.83591095e-02, 5.85653633e-03,
       -2.22570100e-03, 4.61922139e-02, 1.21377669e-02, -1.54354908e-02,
       1.48936210e-03, -1.15794605e-02, -5.64850343e-04, 5.07064210e-03,
       -2.20515411e-02, 2.52009258e-02, 2.44518649e-02, -3.75387706e-02,
       -2.86390390e-02, -2.59654317e-02, -2.21039541e-02,
       -1.01974970e-02, 1.31598301e-02, 7.30874715e-03, -2.10342593e-02,
       1.75571572e-02, 2.95243319e-03, -2.05009077e-02, -4.24610684e-03,
       -4.06708047e-02, 5.76215898e-05, 5.68045564e-02, -1.35493872e-03,
       6.25705952e-03, -6.94294833e-03, -1.21695576e-02, -1.99692696e-02,
       -1.08236587e-02, -4.23590690e-02, -2.95010563e-02, 2.45687626e-02,
       8.07676278e-03, 3.14527960e-03, 1.21234413e-02, -2.76378356e-02,
       -2.76566949e-02, -1.17208743e-02, -8.15233216e-03,
       -3.31544951e-02, -1.50158629e-02, 2.67189182e-02, 1.55345444e-02,
       4.95699141e-03, -1.17830159e-02, -1.71104316e-02, -2.29604989e-02,
       5.64954989e-03, -2.30715312e-02, -5.58042247e-03, 2.55075209e-02,
       9.53339506e-03, -7.69727398e-03, -3.58109735e-02, -2.40873545e-02,
       1.35600157e-02, -3.38523388e-02, -2.34506819e-02, 1.89448036e-02,
       -2.39039063e-02, 3.31178196e-02, 1.94914150e-03, -5.53541491e-03,
       -1.97872967e-02, 6.52432255e-03, -1.70846954e-02, -2.41127592e-02,
       2.06900872e-02, 3.67062050e-03, -6.04459597e-03, -9.13739577e-03,
       1.16961664e-02, 1.54360365e-02, -3.20982598e-02, 1.60600208e-02,
       -1.48185948e-02, -7.19466619e-03, 2.65592542e-02, 8.58539715e-03,
       2.32778918e-02, 4.77282377e-03, -7.30001694e-03, 6.13617292e-03,
       -7.50250323e-03, -7.21212011e-04, 2.66227759e-02, 2.83714980e-02,
       2.69095134e-02, -5.12408791e-04, -4.33005393e-03, 4.84292116e-03,
       -1.93497296e-02, 1.73094720e-02, -9.22000594e-03, 2.14977213e-03,
       -1.26655148e-02, 4.68050921e-03, 7.76763633e-03, -4.55994206e-03,
       -1.52692152e-02, -9.62988066e-04, -1.30528407e-02, 7.56501779e-03,
       3.13959038e-03, -6.01317966e-04, 2.41718069e-02, 4.39212583e-02,
       -1.27315074e-02, 2.88924947e-02, 5.41714355e-02, 7.29400590e-02,
       1.00405933e-03, 2.02791728e-02, 2.45484337e-02, -1.90164279e-02,
       -2.01532990e-02, -3.13257873e-02, -3.02202329e-02,
       -1.18633930e-03, -1.52245965e-02, 7.01917894e-03, -1.47002516e-02,
       -1.37470420e-02, 2.08276734e-02, 1.05555942e-02, 2.30715261e-03,
       5.15220091e-02, 4.47808765e-02, 2.94042900e-02, -2.29847822e-02,
       2.50174124e-02, 1.40083209e-02, -2.84681190e-02, -3.43988165e-02,
       -2.05606036e-02, -2.12969948e-02, 1.05997538e-02, -7.76572991e-03,
       -3.40663344e-02, -2.38876250e-02, -3.64381261e-02,
       -1.46884965e-02, -9.94353276e-03, 8.38825200e-03, 2.26468351e-02,
       -5.12892380e-04, -1.86422025e-03, 7.06715975e-03, -1.07647460e-02,
       1.50823779e-03, -1.05692176e-02, -3.40966247e-02, -1.03309005e-02,
       -6.05064165e-03, -2.71423515e-02, 1.66267101e-02, -1.67529173e-02,
       -2.43092570e-02, -8.82953592e-03, -8.89163837e-03,
       -2.77954875e-03, 8.95748660e-03, 4.24536951e-02, 5.84030105e-03,
       1.62876658e-02, 1.58989604e-03, -1.93395726e-02, -6.74128113e-03,
       -1.93343237e-02, -1.96067952e-02, -2.46595517e-02,
       -6.29325732e-05, -2.31457548e-03, -1.64022762e-03,
       -9.07858647e-03, -1.46840306e-04, -3.80710611e-04, 6.04082039e-03,
       -2.63938704e-03, -6.13754848e-03, 3.63751710e-03, 1.04193473e-02,
       1.76874865e-02, 1.81762427e-02, -1.14593627e-02, -8.90742242e-03,
       7.69381877e-03, -1.26714809e-02, -3.62792704e-03, 1.21535873e-02,
       -3.51172015e-02, -2.10683304e-03, -1.38527099e-02,
       -1.00915134e-02, 1.27522396e-02, 2.93196109e-03, -1.06609603e-02,
       -1.36818653e-02, 1.70852095e-02, 1.51697444e-02, 2.94388141e-02,
       9.34367999e-03, -2.52882065e-03, 3.99338547e-04, 1.83010772e-02,
       2.42919922e-02, 7.30670616e-03, 6.14823215e-03, 2.67949956e-03,
       4.20848839e-03, 1.07717197e-02, 1.47546958e-02, 2.86898352e-02,
       -1.44901406e-03, -2.76610181e-02, -1.94292217e-02, 1.46780221e-03,
       4.65005487e-02, 6.29787743e-02, 6.55629262e-02, 6.06254162e-03,
       3.98202287e-03, -7.17914151e-03, -1.35296863e-02, -5.16797462e-03,
       4.17236518e-03, -2.32595438e-03, 2.96121351e-02, 6.34761825e-02,
       3.80386002e-02, 3.52985449e-02, -3.03594884e-03, -2.60776952e-02,
       -3.30373980e-02, -2.59697437e-02, 2.24632826e-02, -1.47099243e-02,
       1.23533364e-02, -2.42057256e-02, -1.02880131e-02, 3.56150535e-03,
       -9.87531990e-03, -2.98094768e-02, -1.27608590e-02, 1.14361821e-02,
       8.00645165e-03, 3.23965661e-02, 1.53736286e-02, 2.52915267e-02,
       4.91171032e-02, 4.14726175e-02, 2.50372961e-02, -4.00583539e-03,
       9.23449919e-03, -1.74347870e-02, -1.78763717e-02, 2.75842529e-02,
       3.26344706e-02, 3.57710160e-02, 6.04161248e-02, 3.71404476e-02,
       -3.73750692e-03, -2.60251155e-03, 4.43186499e-02, 4.14471515e-02,
       1.91360863e-03, 9.71173029e-03, 4.39478345e-02, 1.04265623e-02,
       -6.19993871e-03, 1.61337235e-03, 1.31181777e-02, -2.30184719e-02,
       -2.01634504e-02, -7.40642473e-03, 3.77808250e-02, 7.95395859e-03,
       2.17324719e-02, 1.33263255e-02, -1.32486001e-02, -3.24680121e-03,
       1.01099825e-02, 2.18152199e-02, -3.13078500e-02, -1.03265671e-02,
       -8.61883629e-03, 5.34221269e-02, 1.40412617e-03, 1.35110039e-02,
       -5.75926481e-03, 6.45861775e-02, 8.14504847e-02, 3.75397243e-02,
       -2.82480158e-02, -2.00368166e-02, -6.58637099e-03,
       -2.56910454e-02, -1.64388455e-02, -2.81089693e-02, 3.02263326e-03,
       1.40083404e-02, 1.27385054e-02, 1.36117712e-02, -2.04479713e-02,
       1.57989021e-02, -6.81681000e-03, -2.14000829e-02, 1.29760904e-02,
       8.90712291e-02, 9.27902311e-02, 5.54624610e-02, -7.12221628e-03,
       -2.77796015e-02, -2.19146367e-02, -3.59307192e-02,
       -3.12773176e-02, -7.17396289e-03, -1.17499346e-03, 2.60857362e-02,
       4.24877554e-02, 7.48417666e-03, -1.74145624e-02, 1.63041055e-02,
       1.31058237e-02, 4.88097267e-03, -2.89772917e-02, -1.15256980e-02,
       -2.26944312e-02, 1.55186299e-02, 6.58238120e-03, 1.09995790e-02,
       1.14979520e-02, -2.49442831e-03, -2.22091712e-02, -3.44325192e-02,
       -1.03718648e-02, -2.13303305e-02, -1.20840473e-02,
       -2.07918137e-02, -7.22002145e-03, 5.65885380e-03, -1.13023911e-04,
       1.02873496e-03, 4.78435215e-03, 8.73126928e-03, 1.29729174e-02,
       5.61559424e-02, 1.03192925e-02, 8.93508643e-03, -3.11680115e-03,
       7.31938006e-03, -1.37490118e-02, -1.29411072e-02, -4.96201403e-03,
       -1.25523179e-03, 2.44838465e-02, 1.33802497e-03, 8.11090413e-03,
       2.34527905e-02, -1.56625751e-02, -2.00723875e-02, 9.82882176e-03,
       9.47811292e-04, -2.91032176e-02, 8.66792398e-04, -1.22873988e-02,
       5.95012959e-03, -6.49066176e-03, -1.46333799e-02, -3.99866048e-03,
       -4.88128094e-03, -2.49716435e-02, -8.43705982e-03, 5.51691232e-03,
       6.50730450e-03, 3.73973176e-02, 2.14131232e-02, -5.76345716e-03,
       -1.96217187e-02, -2.40275040e-02, -8.52551777e-03,
       -2.21093418e-03, 4.40579802e-02, 1.67210381e-02, 5.16350986e-03,
       2.83354335e-02, -1.10245710e-02, -1.36310523e-02, -1.90229900e-02,
       -9.35884099e-03, 2.66089365e-02, 5.36816791e-02, 2.90291067e-02,
       9.44395456e-03, 1.41343148e-02, 1.52289425e-03, 2.30949558e-02,
       -1.44497668e-02, -4.03921353e-03, -5.71226515e-03, 1.64043494e-02,
       -1.69547219e-02, 1.32700279e-02, 8.41332041e-03, -1.08757969e-02,
       1.42845260e-02, -2.00499669e-02, -1.71688665e-02, -3.90975922e-03,
       1.21081788e-02, -5.86294755e-03, 3.34491543e-02, 1.07348543e-02,
       9.11409035e-03, 2.82050204e-03, -7.56003847e-03, 1.20803267e-02,
       1.97133999e-02, 6.47326335e-02, 1.67260859e-02, -5.49591519e-03,
       9.95398313e-03, 1.98740810e-02, -5.91023266e-03, -1.40523119e-02,
       -1.20587181e-02, -5.41182049e-03, 4.41486165e-02, 1.99477654e-02,
       -3.87673229e-02, 1.22542987e-02, -2.88397372e-02, 1.22772786e-03,
       -3.43292020e-02, -1.12523267e-03, -5.17424708e-03, 1.42320869e-02,
       1.07072797e-02, -3.36630717e-02, 2.77283397e-02, -2.29279157e-02,
       -8.17847159e-03, -5.05733117e-03, -1.54205356e-02,
       -1.46372095e-02, 1.18924549e-03, -1.74011234e-02, 2.61872411e-02,
       2.55023838e-06, -2.78137513e-02, -8.38612765e-03, -1.67254061e-02,
       -3.75671731e-03, 2.09891256e-02, 3.80788669e-02, 3.91942970e-02,
       5.57801425e-02, 4.56860140e-02, 8.48597661e-03, 1.57875009e-02,
       1.02611324e-02, 1.20803248e-03, 5.12254843e-03, 7.19294325e-03,
       6.21493347e-02, 1.28179090e-02, 4.30484787e-02, 7.99691305e-03,
       7.64021929e-03, -2.85229255e-02, -1.32155819e-02, -1.51479663e-02,
       2.50648744e-02, -1.71644446e-02, 2.65840925e-02, 7.02044182e-03,
       -2.98193302e-02, -8.25830922e-03, -3.38632194e-03,
       -1.67461252e-03, -1.84109118e-02, 2.42140889e-02, 1.74932238e-02,
       5.39968349e-02, 5.54316938e-02, 8.42207298e-03, 3.22326645e-02,
       6.23886799e-03, 3.89547530e-03, -1.29802544e-02, 5.98212192e-03,
       1.27010830e-02, 2.61315089e-02, 2.06662156e-02, -3.15340399e-03,
       -5.56971692e-03, 5.32894512e-04, -1.41536212e-02, -1.05338152e-02,
       8.31929618e-04, 3.60381044e-02, 1.92785040e-02, 2.56431215e-02,
       -2.59702373e-02, -7.80894142e-03, 3.57011413e-05, 3.41758621e-03,
       -7.99494982e-03, 1.51740825e-02, 1.44409919e-02, 3.19982432e-02,
       3.69277857e-02, -1.13214999e-02, -1.20390393e-02, -2.49690898e-02,
       -2.64916942e-02, -1.72470249e-02, 3.08448970e-02, -2.82694492e-03,
       1.69300567e-02, -2.99951480e-05, -2.11815257e-02, -2.14464888e-02,
       -6.86768023e-03, -1.36260334e-02, -8.20229854e-03, 1.38018969e-02,
       1.74759682e-02, 1.13789970e-02, 1.28045185e-02, -2.57021040e-02,
       -1.97538473e-02, -3.54963802e-02, -3.71677577e-02,
       -9.98047367e-03, 1.88663956e-02, 3.15290838e-02, -2.21881140e-02,
       1.08828722e-02, -6.34211069e-03, -2.52679922e-03, -3.82122444e-03,
       -2.13259645e-02, -1.31483097e-02, 5.30652851e-02, 1.89075293e-03,
       2.04020441e-02, -1.63401514e-02, -3.57808582e-02, -2.54206359e-03,
       -4.33820486e-03, -3.89525644e-03, -1.85742304e-02, 2.95294840e-02,
       1.96545087e-02, -3.07504809e-03, -1.10892951e-02, -4.10539657e-02,
       1.02443337e-05, -3.22597544e-03, -3.81728038e-02, -2.45199278e-02,
       1.87780652e-02, -1.16174743e-02, -3.29737377e-04, -2.98818965e-02,
       -3.79724391e-02, 1.53408933e-03, 1.08934445e-02, -7.98629539e-04,
       -2.81433836e-02, -1.79118582e-03, -1.47134811e-02, 2.31798328e-02,
       4.72859554e-02, -2.29916833e-02, -1.30413873e-02, 4.39970347e-04,
       2.48208968e-03, -1.25812981e-02, 1.21817933e-02, -7.58329593e-03,
       3.17308828e-02, 3.54833305e-02, 4.58989525e-03, -1.77285317e-02,
       -3.80194193e-04, -7.06560910e-03, -1.69544276e-02, 3.52107473e-02,
       -1.27136204e-02, -1.05409315e-02, -2.29032170e-02,
       -5.37410304e-02, -2.56896038e-02, -2.49023717e-02,
       -1.49715357e-02, 1.39483938e-03, 4.34223143e-03, -2.77966149e-02,
       -1.23907961e-02, -1.30464854e-02, -1.55389113e-02,
       -2.24976521e-02, -1.99672878e-02, -2.91134268e-02,
       -6.58178842e-03, 9.40441526e-03, -8.83766636e-03, -2.08659199e-04,
       2.02331021e-02, 2.72001829e-02, 2.87457313e-02, 1.48469000e-04,
       2.40195580e-02, 3.87633070e-02, 4.18565944e-02, 6.61777053e-03,
       7.79174361e-03, 2.64027510e-02, 2.45437003e-03, 4.44817264e-03,
       1.28488727e-02, 1.14716450e-02, 4.12688144e-02, 2.60246210e-02,
       2.78952103e-02, -9.81150102e-03, 7.70550501e-03, -2.83751823e-03,
       6.07904093e-03, -2.05136072e-02, -2.25314014e-02, 1.09399790e-02,
       4.17517163e-02, -1.64110248e-03, -2.97688507e-02, 8.18856247e-03,
       -2.60615256e-02, -3.19545157e-02, 8.53271282e-04, -2.84921881e-02,
       -1.76590569e-02, 7.97307771e-03, -2.70876978e-02, 2.35202592e-02,
       4.31248397e-02, 1.75013896e-02, 4.87851463e-02, 4.38330323e-02,
       2.77012587e-02, 8.17683991e-03, 4.70080450e-02, 3.53578627e-02,
       -2.86664767e-03, -1.34460628e-02, 1.16512021e-02, 4.61485684e-02,
       2.06619091e-02, -2.56148558e-02, -3.75955924e-02, -1.23921148e-02,
       -6.81448868e-03, 2.00147498e-02, 3.54009755e-02, 8.41513742e-03,
       3.73091549e-02, 2.30419487e-02, 2.01359056e-02, -7.79135711e-03,
       4.45229281e-03, 3.95040261e-03, -1.55721596e-02, -1.30574619e-02,
       -7.85150472e-03, 4.11493331e-02, 9.28529911e-03, -3.23252045e-02,
       -3.34630199e-02, -4.33559269e-02, -1.02176480e-02, 9.85708553e-03,
       -3.52793490e-03, 6.74186414e-03, 2.54026651e-02, -2.18041521e-02,
       -8.44168104e-03, -8.87489319e-03, 8.10370408e-03, 8.30216741e-04,
       -1.47842513e-02, -1.81693230e-02, -9.63563845e-03, 2.08382607e-02,
       -1.43203111e-02, 9.19969566e-03, -2.48100492e-03, -6.27981778e-03,
       -5.36246784e-03, 3.68798920e-03, -2.59044231e-03, -3.77279171e-03,
       2.33503431e-02, 8.11943598e-03, 1.57021955e-02, -6.32707495e-04,
       6.02821773e-03, 2.63048094e-02, -2.40823664e-02, -2.28847452e-02,
       2.07986776e-02, 5.66731542e-02, 7.55099952e-03, -4.00987366e-04,
       -2.11146120e-02, -2.16568960e-03, -7.46805826e-03, 1.89335030e-02,
       -1.41460923e-02, -3.35345455e-02, -7.26131955e-04, 8.09287559e-03,
       4.85005276e-03, -8.58048256e-03, -7.57450331e-03, -1.33961358e-03,
       1.60390008e-02, 3.06936982e-03, -2.90645310e-03, 2.15229928e-03,
       6.61630649e-03, -1.48897469e-02, -8.66326736e-04, 2.36450601e-03,
       2.21130922e-02, 1.98734831e-02, -1.13617023e-02, -5.33805713e-02,
       1.44286323e-02, 1.33214267e-02, 3.41160037e-02, -6.59131957e-03,
       -1.40161230e-03, 2.20429245e-02, 4.98657487e-03, 1.86621640e-02,
       -2.09122850e-03, 2.89818887e-02, 5.17139304e-03, 1.22087905e-02,
       -4.57301084e-03, 2.30306387e-02, 2.23298371e-02, 1.68563053e-02,
       -1.45249246e-02, 1.21130887e-03, 1.72403809e-02, 2.93529406e-02,
       3.93136078e-03, 1.69243272e-02, 1.30477315e-02, 2.86785830e-02,
       5.15122386e-03, -2.12607961e-02, -1.76623743e-02, 3.85826733e-03,
       -2.50107516e-02, 2.09039375e-02, 2.98461728e-02, 6.97448803e-03,
       7.61964405e-03, 1.37779377e-02, 3.66580510e-03, -7.75951659e-03,
       1.03047341e-02, -3.69236246e-03, 3.86247784e-03, -2.22985335e-02,
       3.09751689e-04, 1.18171331e-02, -4.41646483e-03, -1.93528440e-02,
       -1.22945355e-02, 7.75331119e-03, -1.26559008e-02, 3.38317407e-03,
       -1.67540219e-02, -2.77583003e-02, 9.37055331e-03, 9.73824039e-03,
       -3.12327035e-02, -3.55899595e-02, 9.86056775e-03, 4.30158861e-02,
       1.11832442e-02, -5.29654277e-03, -1.31420344e-02, 2.35447590e-03,
       -2.67752558e-02, -4.65355488e-03, -1.28034465e-02,
       -1.00578051e-02, -1.43054477e-03, 8.74179136e-03, 8.59803148e-03,
       -2.19945032e-02, -2.87679676e-02, 1.90456826e-02, -3.16891745e-02,
       -4.97501390e-03, -1.47780851e-02, 4.37483676e-02, 1.56742502e-02,
       -5.17317886e-03, -1.26950294e-02, 7.43706059e-03, 2.72810888e-02,
       1.06360242e-02, 2.69404836e-02, -4.69312165e-03, -9.37317405e-03,
       -5.41893020e-03, 9.39179678e-03, -2.58915257e-02, 2.40496341e-02,
       1.06878756e-02, 1.85410883e-02, 7.80832861e-03, -2.25720964e-02,
       4.36229305e-03, 1.19537609e-02, 1.44057479e-02, 2.88077090e-02,
       -1.20310048e-02, -6.77610142e-03, -9.11567360e-03,
       -8.33044387e-03, -9.49909445e-03, -1.06375040e-02,
       -1.67361069e-02, -2.02403241e-03, 1.23287942e-02, 8.19764845e-03,
       1.99942477e-02, 1.05324844e-02, -9.80491191e-03, -1.24492636e-02,
       -8.42457544e-03, -2.42909957e-02, -3.29564651e-03,
       -1.75457094e-02, 5.41259022e-03, 1.12752570e-02, 5.75728761e-03,
       -1.35634383e-02, -1.17400642e-02, 1.42471539e-02, -1.67093868e-03,
       5.46546606e-03, 1.05779758e-02, 1.32530862e-02, 6.94600341e-04,
       4.13404731e-03, -4.49593645e-03, 1.76713448e-02, 5.31821605e-03,
       -1.48254698e-02, -2.42768917e-02, 4.41683829e-02, 4.27016951e-02,
       -2.48778015e-02, -5.27923042e-03, -1.39242187e-02,
       -3.70511273e-03, 4.90201218e-03, 2.91173556e-03, -3.21208648e-02,
       3.21142077e-02, 2.17383299e-02, -1.59380934e-03, -2.23769946e-03,
       -5.15892217e-03, -1.19599011e-02, -2.60528596e-03,
       -1.39532415e-02, 8.74863379e-03, 3.56821269e-02, 4.09611613e-02,
       -1.42157292e-02, -7.15406472e-03, -1.65695623e-02,
       -3.90868634e-03, 1.46905426e-03, -7.50004081e-03, -1.46070160e-02,
       1.84817128e-02, 9.85568948e-03, -3.04268487e-02, 1.36184776e-02,
       1.05290236e-02, 6.45027263e-03, 5.30673610e-03, 8.52411496e-04,
       3.18686152e-03, 2.73013208e-02, -2.88387924e-03, -4.31488007e-02,
       6.33305078e-03, -8.25189706e-03, -5.43346489e-03, 1.03646964e-02,
       1.88282374e-02, -5.11868810e-03, -3.62540432e-03, -2.31638886e-02,
       1.74097475e-02, -5.06881531e-03, -2.47313865e-02, 9.97260772e-03,
       1.64637119e-02, 4.90487088e-03, -3.74220684e-03, 3.50268930e-02,
       1.42182205e-02, 1.80816911e-02, 2.87555228e-03, -2.60730945e-02,
       -5.30947233e-03, -1.57463637e-05, 6.27519912e-04, -1.06530078e-02,
       -9.36476700e-03, 2.23155096e-02, 1.53827213e-03, 9.14308801e-03,
       -1.18914433e-03, 2.26073340e-02, 1.02300346e-02, 5.63686620e-03,
       -1.51683921e-02, 1.77097600e-02, 1.66550837e-02, -1.22193471e-02,
       7.63698900e-03, -4.96077305e-03, -2.20524650e-02, -2.96822819e-03,
       2.88522546e-03, -1.53215174e-02, 1.35963066e-02, -3.20655270e-03,
       1.41830398e-02, 2.03631967e-02, -2.24198550e-02, 1.95050575e-02,
       7.89750018e-04, -7.63718598e-03, -8.00026860e-03, -8.96078767e-04,
       2.87768412e-02, 4.47885861e-04, 2.31136717e-02, -1.03680743e-02,
       -4.30799992e-04, 1.56907737e-02, -6.57369429e-03, 1.32920220e-02,
       4.01800266e-03, 2.31726473e-04, -4.27632499e-03, 2.82068849e-02,
       1.13390330e-02, 1.25931660e-02, -1.53847400e-03, 2.29120199e-02,
       4.68739774e-03, 1.62195992e-02, 1.28070042e-02, -5.40459005e-04,
       -2.39849347e-03, 6.55608810e-03, 4.22920212e-02, 3.01811751e-03,
       7.99523946e-03, 2.37755175e-03, 1.61808282e-02, 1.01119727e-02,
       2.96086539e-02, 3.61490063e-02, 1.39905056e-02, 1.53488960e-04,
       2.35440000e-03, 1.88752487e-02, 1.11040371e-02, -1.29615813e-02,
       -8.79038498e-03, 3.96303972e-03, 1.06331501e-02, 1.24346009e-02,
       -7.87306111e-03, 1.04647712e-03, -9.57746897e-03, 1.09860618e-02,
       -1.12128924e-04, -1.61477122e-02, 1.84880830e-02, 1.91364121e-02,
       1.09584574e-02, 6.24993443e-02, 4.79075126e-02, 3.47571410e-02,
       -2.33262721e-02, 1.64541956e-02, -2.66999588e-03, 1.95513442e-02,
       1.56063642e-02, -5.91169111e-03, 7.17906933e-03, 2.01797578e-02,
       2.72409040e-02, -3.69007536e-03, -9.76428762e-03, 3.78015451e-03,
       1.43438177e-02, -1.30635698e-03, -1.42851621e-02, -5.09741344e-03,
       1.99102145e-02, 1.07270889e-02, -3.08460393e-03, -2.51015113e-03,
       -8.52028746e-03, 1.43072922e-02, 4.14330279e-03, -1.97524857e-02,
       -1.96631681e-02, 8.02395027e-03, 3.09631252e-03, -1.81118660e-02,
       -1.42255158e-05, 2.43715178e-02, -3.71384667e-03, 1.33620109e-03,
       -7.35191768e-03, 2.23078001e-02, 1.51716815e-02, 3.48251611e-02,
       -2.44284468e-03, 2.02766154e-02, 3.35433939e-03, -2.49665026e-02,
       -8.64295196e-03, -2.69013736e-02, 2.90176924e-02, -1.58177800e-02,
       1.11703074e-03, 6.43148320e-03, 2.06955560e-02, -8.62623844e-03,
       -1.68969519e-02, 2.09574532e-02, -1.65957324e-02, 1.06818601e-02,
       -4.83416580e-03, 2.45992076e-02, -1.96088124e-02, -7.68954027e-03,
       -7.02493452e-03, -2.63664667e-02, -1.60409901e-02,
       -2.32218429e-02, 1.20694675e-02, -8.61702859e-03, -2.77318293e-03,
       -8.80866311e-03, -7.61267217e-03, -2.26626825e-02,
       -9.05209512e-04, 1.23117457e-03, -9.63579584e-03, 3.28195952e-02,
       3.01595274e-02, -6.01447187e-03, 1.28441071e-02, 3.24057303e-02,
       -3.78493615e-03, 1.53298676e-03, -1.31026600e-02, 8.74354038e-03,
       3.16500477e-02, 1.56125911e-02, 1.63744576e-02, -5.45297656e-03,
       2.20663622e-02, 4.90829756e-04, -3.21174115e-02, -1.79787539e-02,
       -1.35212587e-02, 6.60700770e-03, 1.37417922e-02, -1.58365965e-02,
       -8.69988464e-03, 2.37321699e-04, -3.18524726e-02, 1.22724762e-02,
       1.55563164e-03, -1.46817360e-02, -1.54020069e-02, -3.17907222e-02,
       1.15947360e-02, -1.64325163e-02, -8.18081852e-03, -1.75556652e-02,
       -6.88152155e-03, -3.00123673e-02, -2.65765078e-02, 1.07873874e-02,
       1.02394447e-02, 1.14414562e-02, 9.45954490e-03, 2.78955009e-02,
       3.52334864e-02, -4.94616525e-03, -1.01882881e-02, 6.14613434e-03,
       2.86765639e-02, -1.18048824e-02, 3.12662218e-03, 7.82030355e-03,
       2.35602092e-02, 1.30000114e-02, 3.39601636e-02, -5.89845469e-03,
       -3.70610617e-02, -9.72080790e-03, -4.76596411e-03, 1.34476963e-02,
       3.64911184e-03, -1.38560561e-02, 5.68989711e-03, -2.52241027e-02,
       -2.47667041e-02, -3.29086334e-02, -2.74473131e-02, 1.48965651e-03,
       -2.08320450e-02, -6.00516330e-04, -4.39751334e-03,
       -3.50821321e-03, -1.34186922e-02, 1.67866480e-02, -1.15481485e-02,
       5.67927249e-02, 4.12907265e-02, 1.16130859e-02, 8.79396684e-03,
       3.68163548e-02, 9.21711326e-03, -6.84166560e-03, 1.80266313e-02,
       -1.60086621e-02, 3.13210934e-02, 5.11497958e-03, 5.51291928e-03,
       -8.74509977e-04, 3.36153097e-02, 1.24598145e-02, 1.03683851e-04,
       4.02771775e-03, -4.06119861e-02, -6.54301653e-03, 1.00086937e-02,
       -2.15457361e-02, -2.19788533e-04, -1.17864991e-02,
       -9.39788949e-03, -1.55582204e-02, -6.54404145e-03,
       -4.05184813e-02, -2.14339457e-02, 1.15682092e-03, -2.92995870e-02,
       -3.20170447e-02, -3.68348099e-02, 6.13950053e-03, -6.54105283e-03,
       2.32696291e-02, 2.42013913e-02, 6.71901628e-02, -1.80022996e-02,
       1.49469413e-02, 1.20588718e-02, 8.77551269e-03, 3.43069271e-03,
       -4.80810413e-03, 2.40284018e-02, 3.96463927e-03, 3.91062684e-02,
       4.96775145e-03, -9.74484626e-03, 4.31433693e-03, -3.71208899e-02,
       -1.11072706e-02, 3.90894571e-03, 1.20525504e-03, 1.57898180e-02,
       1.32426815e-02, -2.43017040e-02, -1.30245117e-02, 1.81478523e-02,
       -5.18642040e-03, 1.68688409e-02, 1.29914442e-02, 1.11944489e-02,
       -1.30743394e-02, -1.28818043e-02, -2.04914212e-02,
       -1.90030839e-02, 1.92322012e-03, 5.57229901e-03, 1.49251744e-02,
       2.81481687e-02, 2.05503330e-02, -8.49568658e-03, 8.11230682e-04,
       -1.64493490e-02, 9.75414272e-03, 2.68913060e-02, 2.84045073e-03,
       2.33178157e-02, 5.24650980e-03, -1.50916483e-02, 1.44135188e-02,
       -4.55451524e-03, -8.23378470e-03, 2.29529776e-02, 1.33316955e-02,
       -1.57975107e-02, 2.20601354e-02, 3.30065819e-03, 1.17692479e-03,
       -1.41776830e-03, 1.53596057e-02, 2.37704702e-02, 1.20497299e-02,
       9.87138879e-03, -4.10031015e-03, -1.17942793e-02, 1.25073064e-02,
       -2.11788621e-02, -2.33317190e-03, -1.32099231e-04,
       -1.68800366e-03, 1.78266447e-02, -4.98490501e-03, -3.54741551e-02,
       1.48806283e-02, 1.38789080e-02, 1.73467211e-03, -3.33802775e-02,
       1.93459017e-03, 2.99694184e-02, 3.78127433e-02, -1.05902608e-02,
       -1.88843291e-02, 2.50874776e-02, -3.96161573e-03, 2.01996062e-02,
       -4.95901890e-03, 2.71278899e-02, 2.41479743e-02, 3.55195440e-02,
       -1.04894815e-02, 6.12664549e-03, 3.68665066e-03, 2.97366418e-02,
       -3.34066199e-03, 8.52776784e-03, -1.07241876e-03, 1.21435700e-02,
       1.03384070e-03, -1.97415352e-02, -4.19224128e-02, -5.92618249e-03,
       2.01199204e-02, 1.78024191e-02, -1.47501088e-03, 5.79976588e-02,
       3.93067999e-03, -1.31466351e-02, 1.28883671e-03, -1.68313459e-02,
       4.01002215e-03, -5.70359873e-04, 1.14980130e-03, 1.02792634e-02,
       1.04921376e-02, 8.73415172e-03, 2.04917938e-02, 1.38786230e-02,
       2.71604559e-03, -1.12077100e-02, 7.10139284e-03, -1.39974821e-02,
       3.65717174e-03, 9.14770737e-03, 7.79005873e-04, 1.40907709e-02,
       1.50322756e-02, -1.45504856e-02, 1.04005393e-02, 3.53320055e-02,
       2.76543549e-03, -1.95779349e-03, 1.64892673e-02, 1.85550228e-02,
       -1.02374488e-02, 3.20547610e-03, -1.04583940e-02, 1.41349034e-02,
       2.06979234e-02, 2.51464397e-02, -5.25571592e-03, 1.21014705e-02,
       2.47632060e-02, 8.77591688e-03, 5.65547077e-03, -3.74774076e-02,
       1.60744358e-02, 2.14293841e-02, -9.26409382e-03, 2.52553076e-03,
       -2.10948288e-02, 9.72458103e-04, 2.14126310e-03, 1.63068436e-02,
       5.48911374e-03, 9.78656393e-03, 1.28760599e-02, 1.06745248e-03,
       1.92276370e-02, -1.31992949e-03, -1.56194158e-02, 9.87011474e-03,
       -1.99841848e-03, -3.87905049e-03, 8.79405905e-03, 7.87510164e-03,
       1.18243964e-02, -4.61599324e-04, 3.80083360e-02, 2.76751071e-02,
       -2.21786983e-02, 1.87688563e-02, 7.72335846e-03, 2.94659864e-02,
       3.42649072e-02, 2.54163658e-03, 2.11575050e-02, 2.64374316e-02,
       1.60287917e-02, 6.07995037e-03, 2.76964661e-02, 2.02194713e-02,
       2.62385178e-02, -1.61133949e-02, -2.52233678e-03, -1.00020040e-02,
       -1.84042356e-03, 1.43947070e-02, 1.06451847e-02, 1.25016002e-02,
       -9.55147948e-03, -1.69432722e-02, 7.11648073e-03, 1.85183138e-02,
       -7.00958632e-03, -3.79009172e-03, 8.80448264e-04, -9.75018088e-03,
       -5.16699022e-03, 1.35983815e-02, 1.66763980e-02, -2.48408527e-03,
       -1.22648673e-02, 9.50337108e-03, 2.32681911e-02, -1.71405089e-03,
       -1.56294070e-02, -6.65294798e-03, -4.56798211e-04,
       -2.56047933e-03, 2.67912284e-03, 1.72595885e-02, -1.12990066e-02,
       1.20260091e-02, -5.75245358e-03, -2.28602290e-02, -3.00585050e-02,
       -2.20246911e-02, -2.53818873e-02, -9.13746096e-03, 3.47465463e-02,
       3.44482176e-02, 2.45842971e-02, -4.42708464e-04, -1.09070283e-03,
       -4.86161653e-03, 2.84047052e-02, 2.63364706e-03, 6.10041711e-03,
       1.71804037e-02, -3.18614230e-03, 1.55638473e-03, -8.36888701e-03,
       1.58980545e-02, -2.36988743e-03, -1.24579286e-02, -2.18518376e-02,
       6.77128695e-03, 2.64686923e-02, 3.96197848e-03, 2.46642660e-02,
       2.16656476e-02, -2.31222920e-02, -2.81503983e-02, 7.97508564e-03,
       -2.53452137e-02, 9.41414945e-03, 9.16006230e-03, 6.10541319e-04,
       3.89296887e-03, 2.61116959e-02, -4.51171724e-03, -1.16748540e-02,
       9.80748888e-03, 1.07262312e-02, 1.04194591e-02, 1.43980170e-02,
       -2.81364098e-02, 1.79962423e-02, -2.64973426e-03, 3.30756344e-02,
       6.85988867e-04, -3.02518229e-03, 1.48669230e-02, -3.13512073e-03,
       -5.35625871e-03, -1.57379434e-02, -4.90273768e-03, 8.06037802e-03,
       2.10844558e-02, -7.63710029e-03, 2.06162166e-02, -3.29185231e-03,
       9.73021518e-03, 2.46875156e-02, -5.73239522e-03, -2.27201940e-03,
       1.01941908e-02, 1.54273892e-02, -2.50474289e-02, -2.65471432e-02,
       -3.63374711e-03, 8.01956572e-04, 2.25873515e-02, -1.10825701e-02,
       -1.86419114e-02, 1.73148531e-02, 7.01877847e-03, -3.44773419e-02,
       -4.05561291e-02, -2.56853681e-02, 1.71946045e-02, 9.05141979e-03,
       1.31036360e-02, 3.98591794e-02, 1.42448759e-02, 3.59590985e-02,
       -1.13279046e-03, 6.09413814e-03, 2.27458477e-02, -2.78685056e-02,
       -4.92980657e-03, -2.10321452e-02, 1.40664494e-02, 3.33458930e-03,
       9.92084108e-03, -1.07951285e-02, 2.11558267e-02, -1.84773635e-02,
       4.00157971e-03, 1.42822117e-02, -1.87828453e-04, 5.54222148e-03,
       1.90642700e-02, 2.82101464e-02, -1.21537484e-02, -1.01056285e-02,
       -1.20371217e-02, 1.20656693e-03, 1.18008498e-02, -1.96715202e-02,
       -9.96615924e-03, 1.19960215e-02, -1.60026681e-02, -1.22433370e-02,
       1.43456487e-02, 2.07389006e-03, 5.56740968e-04, 2.92687640e-02,
       -8.35439190e-03, 2.50705630e-02, 6.84441673e-03, 3.39804478e-02,
       1.53913600e-02, 2.33256165e-02, 1.80552080e-02, -2.89038266e-03,
       2.85487808e-02, -4.69970610e-03, 1.41279232e-02, -2.64062453e-02,
       7.64973788e-03, -3.30451736e-03, -2.35768408e-03, -1.56581197e-02,
       3.59957805e-04, 1.31698409e-02, -1.74484979e-02, -1.04815210e-03,
       -1.29523017e-02, 9.78436321e-03, 1.17308367e-02, 1.23835308e-02,
       1.88573431e-02, -1.26283336e-02, 2.30749175e-02, -3.57262045e-02,
       -3.33230733e-03, -1.23014487e-02, -3.52247097e-02,
       -2.22317018e-02, -1.35554383e-02, 4.05022129e-03, 8.45130067e-03,
       9.44426190e-03, 3.64525267e-03, 2.81268805e-02, -3.37227527e-03,
       1.63584091e-02, 1.36405872e-02, -8.29596166e-03, -2.60560331e-03,
       -1.55613888e-02, -9.10958089e-03, -8.08751583e-03,
       -2.41844375e-02, -2.68394556e-02, -6.40118960e-03, 9.06407740e-03,
       2.06038775e-03, -1.20314006e-02, -6.56806491e-03, 3.45427506e-02,
       6.37426786e-03, 1.92512199e-02, 5.68119995e-03, 2.43353583e-02,
       1.70559734e-02, -2.49909852e-02, -1.73296090e-02, -1.73312742e-02,
       -7.96004850e-03, 2.62060459e-03, 7.12517463e-03, -6.17650757e-03,
       1.44790076e-02, -4.52266773e-03, -1.12859737e-02, -3.93412448e-03,
       4.39686608e-03, 2.43728813e-02, 1.71165715e-03, 2.44480297e-02,
       7.06956838e-04, 3.51796299e-02, 1.59770239e-03, 1.48261851e-02,
       1.98092125e-02, 1.41345700e-02, 5.87684102e-03, -1.83108412e-02,
       1.23287598e-02, 1.26592489e-03, 2.23689135e-02, 2.95654079e-03,
       8.73743836e-03, -1.63512416e-02, 8.09975620e-03, -1.46785369e-02,
       -2.85551045e-03, -8.12266767e-03, -2.18359865e-02, 1.96513982e-04,
       -2.89077591e-02, 1.52543662e-02, 7.74829043e-03, 1.57455541e-02,
       -9.81220044e-03, -4.41160146e-03, 7.53313256e-03, 2.21319217e-03,
       -3.36340219e-02, -2.50181369e-02, -1.00678988e-02, 1.18056517e-02,
       -1.73642603e-03, 2.25513522e-02, -2.98447022e-03, 1.88958123e-02,
       -9.42920055e-03, 2.83385683e-02, 2.17186529e-02, 1.20791011e-02,
       1.43741444e-03, -5.08953165e-03, 3.37655209e-02, 9.49663762e-03,
       3.05333780e-03, -2.66375430e-02, 3.07040513e-02, 1.40660992e-02,
       -1.07677502e-03, -2.81924178e-04, 1.93911754e-02, 1.73964333e-02,
       -6.87372312e-03, 5.80983283e-03, 2.43260302e-02, 1.06193461e-02,
       -6.76396582e-03, -1.18684703e-02, -9.34843323e-04,
       -2.89128255e-03, 5.80922188e-03, -4.01140656e-04, -1.03620375e-02,
       -7.20939552e-03, -2.12588510e-03, -1.09802270e-02,
       -1.56564619e-02, 9.07384045e-03, 1.71252768e-02, 1.61858089e-02,
       5.93814766e-03, 1.36406478e-02, -4.86902567e-03, 3.11254393e-02,
       1.50471658e-03, -1.60140824e-02, 2.60846969e-02, -1.32986922e-02,
       -1.53925447e-02, -2.41411645e-02, -8.94571096e-03,
       -1.38678215e-02, -7.12764403e-03, 1.31342802e-02, -1.19118392e-02,
       -1.84631266e-03, -8.96872208e-03, 1.36330668e-02, -2.99542269e-04,
       -1.31757809e-02, 3.37396283e-04, -5.37446607e-03, -1.43565435e-03,
       -1.75646972e-02, -2.69238222e-02, 1.33208930e-03, 3.96571457e-02,
       -2.13847943e-02, -1.44493151e-02, -1.02218529e-02,
       -3.99991423e-02, -2.53927335e-02, -1.43456971e-03,
       -1.90142412e-02, -6.69115782e-03, 2.26891059e-02, -1.24037750e-02,
       2.68043224e-02, 3.39161865e-02, 2.07646377e-02, 1.43498769e-02,
       2.19228421e-03, -4.06468811e-04, -1.40013481e-02, 1.68601461e-02,
       6.84296805e-03, 7.15362001e-03, -2.95550493e-03, -1.79071608e-03,
       -5.40385349e-03, -4.69837524e-03, 4.63567488e-03, 1.61088668e-02,
       1.90619212e-02, -2.12768037e-02, 4.80965758e-03, 1.64625642e-03,
       1.00701097e-02, -9.53248516e-03, 1.35126971e-02, -3.88052803e-03,
       -4.84127691e-03, 2.28778385e-02, -1.04064904e-02, -2.10165568e-02,
       2.74137724e-02, -2.12820321e-02, -2.15227846e-02, -9.74332821e-03,
       1.78633828e-03, -2.60871742e-03, 4.29113396e-03, 8.53446685e-03,
       2.11936259e-03, -1.57667585e-02, 1.42494347e-02, 1.59095228e-02,
       1.78936180e-02, 4.02662484e-03, -1.19663717e-03, -1.18760439e-03,
       3.77969653e-03, -1.44413716e-04, 3.36224609e-03, -1.02794943e-02,
       2.21821051e-02, -7.06870994e-03, -1.36260586e-02, -1.80019508e-03,
       3.64978835e-02, -9.41275153e-03, -1.65256783e-02, -4.78593959e-03,
       5.45327552e-03, 2.19652243e-02, 1.99428070e-02, -4.64818161e-03,
       1.17612081e-02, 1.75329596e-02, -1.96040571e-02, -5.22892782e-03,
       9.13825631e-03, 2.19893758e-03, 8.43891222e-03, -1.50566613e-02,
       -4.87691164e-03, 4.26491583e-03, -1.41124250e-02, 9.86381527e-03,
       1.96815412e-02, 2.29354994e-03, 7.38851377e-04, -5.76364901e-03,
       -1.88630112e-02, -1.64915062e-02, 2.70327069e-02, -2.47612391e-02,
       1.71545357e-03, 3.35451262e-03, -2.14683600e-02, -3.86925554e-03,
       -2.37424970e-02, -2.04930175e-02, 3.35567296e-02, 1.21415546e-02,
       3.72484908e-03, -6.79190736e-03, 2.27090181e-03, -2.65076570e-03,
       1.47537692e-02, -3.13757770e-02, -9.22867004e-03, 1.06884288e-02,
       2.61066370e-02, 1.39340153e-03, 4.30054206e-04, -2.66464222e-02,
       -1.08298678e-02, 2.49355622e-02, -2.86864396e-02, -3.36226635e-02,
       3.05056237e-02, -1.60213208e+00 ]
